<neuralNetwork>
    <neuron name = "0" type = "sensor" linkName = "Torso" />
    <neuron name = "1" type = "sensor" linkName = "Leg1" />
    <neuron name = "2" type = "sensor" linkName = "Leg2" />
    <neuron name = "3" type = "sensor" linkName = "Leg3" />
    <neuron name = "4" type = "sensor" linkName = "Leg9" />
    <neuron name = "5" type = "sensor" linkName = "Leg10" />
    <neuron name = "6" type = "sensor" linkName = "Leg12" />
    <neuron name = "7" type = "sensor" linkName = "Leg13" />
    <neuron name = "8" type = "sensor" linkName = "Leg15" />
    <neuron name = "9" type = "sensor" linkName = "Leg17" />
    <neuron name = "10" type = "sensor" linkName = "Leg18" />
    <neuron name = "11" type = "sensor" linkName = "Leg23" />
    <neuron name = "12" type = "sensor" linkName = "Leg25" />
    <neuron name = "13" type = "sensor" linkName = "Leg26" />
    <neuron name = "14" type = "motor"  jointName = "Torso_Leg1" />
    <neuron name = "15" type = "motor"  jointName = "Torso_Leg2" />
    <neuron name = "16" type = "motor"  jointName = "Leg1_Leg3" />
    <neuron name = "17" type = "motor"  jointName = "Leg3_Leg4" />
    <neuron name = "18" type = "motor"  jointName = "Leg3_Leg5" />
    <neuron name = "19" type = "motor"  jointName = "Leg2_Leg6" />
    <neuron name = "20" type = "motor"  jointName = "Leg6_Leg7" />
    <neuron name = "21" type = "motor"  jointName = "Leg6_Leg8" />
    <neuron name = "22" type = "motor"  jointName = "Leg1_Leg9" />
    <neuron name = "23" type = "motor"  jointName = "Leg5_Leg10" />
    <neuron name = "24" type = "motor"  jointName = "Leg9_Leg11" />
    <neuron name = "25" type = "motor"  jointName = "Leg11_Leg12" />
    <neuron name = "26" type = "motor"  jointName = "Leg5_Leg13" />
    <neuron name = "27" type = "motor"  jointName = "Leg8_Leg14" />
    <neuron name = "28" type = "motor"  jointName = "Leg14_Leg15" />
    <neuron name = "29" type = "motor"  jointName = "Leg7_Leg16" />
    <neuron name = "30" type = "motor"  jointName = "Leg9_Leg17" />
    <neuron name = "31" type = "motor"  jointName = "Leg13_Leg18" />
    <neuron name = "32" type = "motor"  jointName = "Leg17_Leg19" />
    <neuron name = "33" type = "motor"  jointName = "Leg9_Leg20" />
    <neuron name = "34" type = "motor"  jointName = "Leg7_Leg21" />
    <neuron name = "35" type = "motor"  jointName = "Leg19_Leg22" />
    <neuron name = "36" type = "motor"  jointName = "Leg18_Leg23" />
    <neuron name = "37" type = "motor"  jointName = "Leg4_Leg24" />
    <neuron name = "38" type = "motor"  jointName = "Leg13_Leg25" />
    <neuron name = "39" type = "motor"  jointName = "Leg21_Leg26" />
    <synapse sourceNeuronName = "0" targetNeuronName = "14" weight = "2.854717356625338" />
    <synapse sourceNeuronName = "0" targetNeuronName = "15" weight = "21.019272046014002" />
    <synapse sourceNeuronName = "0" targetNeuronName = "16" weight = "19.229749448341607" />
    <synapse sourceNeuronName = "0" targetNeuronName = "17" weight = "19.067443572098686" />
    <synapse sourceNeuronName = "0" targetNeuronName = "18" weight = "21.045744196723636" />
    <synapse sourceNeuronName = "0" targetNeuronName = "19" weight = "22.608148792124467" />
    <synapse sourceNeuronName = "0" targetNeuronName = "20" weight = "3.8783747346749475" />
    <synapse sourceNeuronName = "0" targetNeuronName = "21" weight = "4.52048636859178" />
    <synapse sourceNeuronName = "0" targetNeuronName = "22" weight = "10.297632245713439" />
    <synapse sourceNeuronName = "0" targetNeuronName = "23" weight = "10.18290590089574" />
    <synapse sourceNeuronName = "0" targetNeuronName = "24" weight = "19.896817075283487" />
    <synapse sourceNeuronName = "0" targetNeuronName = "25" weight = "16.923700614442076" />
    <synapse sourceNeuronName = "0" targetNeuronName = "26" weight = "19.133619976213804" />
    <synapse sourceNeuronName = "0" targetNeuronName = "27" weight = "4.09835025231603" />
    <synapse sourceNeuronName = "0" targetNeuronName = "28" weight = "14.368632157699485" />
    <synapse sourceNeuronName = "0" targetNeuronName = "29" weight = "0.6370304127334607" />
    <synapse sourceNeuronName = "0" targetNeuronName = "30" weight = "20.79972021271406" />
    <synapse sourceNeuronName = "0" targetNeuronName = "31" weight = "4.121394149846097" />
    <synapse sourceNeuronName = "0" targetNeuronName = "32" weight = "2.615454089778617" />
    <synapse sourceNeuronName = "0" targetNeuronName = "33" weight = "19.744416955729694" />
    <synapse sourceNeuronName = "0" targetNeuronName = "34" weight = "8.548667277636161" />
    <synapse sourceNeuronName = "0" targetNeuronName = "35" weight = "24.551579697083067" />
    <synapse sourceNeuronName = "0" targetNeuronName = "36" weight = "1.2887468316186208" />
    <synapse sourceNeuronName = "0" targetNeuronName = "37" weight = "12.449087437936306" />
    <synapse sourceNeuronName = "0" targetNeuronName = "38" weight = "4.96955116459834" />
    <synapse sourceNeuronName = "0" targetNeuronName = "39" weight = "12.507802832005703" />
    <synapse sourceNeuronName = "1" targetNeuronName = "14" weight = "18.965986466184916" />
    <synapse sourceNeuronName = "1" targetNeuronName = "15" weight = "18.808897912534395" />
    <synapse sourceNeuronName = "1" targetNeuronName = "16" weight = "14.408682800486831" />
    <synapse sourceNeuronName = "1" targetNeuronName = "17" weight = "15.96308190586823" />
    <synapse sourceNeuronName = "1" targetNeuronName = "18" weight = "8.814229333395698" />
    <synapse sourceNeuronName = "1" targetNeuronName = "19" weight = "4.705374372318726" />
    <synapse sourceNeuronName = "1" targetNeuronName = "20" weight = "1.0699236437762902" />
    <synapse sourceNeuronName = "1" targetNeuronName = "21" weight = "2.9444157773099326" />
    <synapse sourceNeuronName = "1" targetNeuronName = "22" weight = "24.392740765361186" />
    <synapse sourceNeuronName = "1" targetNeuronName = "23" weight = "23.423154265035123" />
    <synapse sourceNeuronName = "1" targetNeuronName = "24" weight = "21.9988978502848" />
    <synapse sourceNeuronName = "1" targetNeuronName = "25" weight = "10.127653269725663" />
    <synapse sourceNeuronName = "1" targetNeuronName = "26" weight = "19.663914043364418" />
    <synapse sourceNeuronName = "1" targetNeuronName = "27" weight = "19.94421029006198" />
    <synapse sourceNeuronName = "1" targetNeuronName = "28" weight = "7.479961500151065" />
    <synapse sourceNeuronName = "1" targetNeuronName = "29" weight = "17.095050685234476" />
    <synapse sourceNeuronName = "1" targetNeuronName = "30" weight = "6.672391451869192" />
    <synapse sourceNeuronName = "1" targetNeuronName = "31" weight = "3.1450745582287514" />
    <synapse sourceNeuronName = "1" targetNeuronName = "32" weight = "3.1254778587082512" />
    <synapse sourceNeuronName = "1" targetNeuronName = "33" weight = "18.506594729862417" />
    <synapse sourceNeuronName = "1" targetNeuronName = "34" weight = "10.452020317807795" />
    <synapse sourceNeuronName = "1" targetNeuronName = "35" weight = "-0.9544986727640696" />
    <synapse sourceNeuronName = "1" targetNeuronName = "36" weight = "3.587849052719359" />
    <synapse sourceNeuronName = "1" targetNeuronName = "37" weight = "21.911209069862455" />
    <synapse sourceNeuronName = "1" targetNeuronName = "38" weight = "16.265547522434982" />
    <synapse sourceNeuronName = "1" targetNeuronName = "39" weight = "3.892136878396193" />
    <synapse sourceNeuronName = "2" targetNeuronName = "14" weight = "7.351340340363478" />
    <synapse sourceNeuronName = "2" targetNeuronName = "15" weight = "11.013148953760053" />
    <synapse sourceNeuronName = "2" targetNeuronName = "16" weight = "0.18897073101410022" />
    <synapse sourceNeuronName = "2" targetNeuronName = "17" weight = "12.268626784884162" />
    <synapse sourceNeuronName = "2" targetNeuronName = "18" weight = "5.1338872471240045" />
    <synapse sourceNeuronName = "2" targetNeuronName = "19" weight = "18.70107066924377" />
    <synapse sourceNeuronName = "2" targetNeuronName = "20" weight = "22.807932946703897" />
    <synapse sourceNeuronName = "2" targetNeuronName = "21" weight = "17.476296985296262" />
    <synapse sourceNeuronName = "2" targetNeuronName = "22" weight = "14.494560003371477" />
    <synapse sourceNeuronName = "2" targetNeuronName = "23" weight = "5.161310049212899" />
    <synapse sourceNeuronName = "2" targetNeuronName = "24" weight = "8.15202184890266" />
    <synapse sourceNeuronName = "2" targetNeuronName = "25" weight = "20.276631917294115" />
    <synapse sourceNeuronName = "2" targetNeuronName = "26" weight = "9.153974460097572" />
    <synapse sourceNeuronName = "2" targetNeuronName = "27" weight = "23.109289294385903" />
    <synapse sourceNeuronName = "2" targetNeuronName = "28" weight = "1.1331601900106176" />
    <synapse sourceNeuronName = "2" targetNeuronName = "29" weight = "-0.5852426149079102" />
    <synapse sourceNeuronName = "2" targetNeuronName = "30" weight = "21.120529353365658" />
    <synapse sourceNeuronName = "2" targetNeuronName = "31" weight = "24.607803466347466" />
    <synapse sourceNeuronName = "2" targetNeuronName = "32" weight = "12.880780307554664" />
    <synapse sourceNeuronName = "2" targetNeuronName = "33" weight = "3.255120447726015" />
    <synapse sourceNeuronName = "2" targetNeuronName = "34" weight = "16.376611777585524" />
    <synapse sourceNeuronName = "2" targetNeuronName = "35" weight = "7.063188730891056" />
    <synapse sourceNeuronName = "2" targetNeuronName = "36" weight = "3.5787588916516366" />
    <synapse sourceNeuronName = "2" targetNeuronName = "37" weight = "10.203853985862029" />
    <synapse sourceNeuronName = "2" targetNeuronName = "38" weight = "8.268337497779507" />
    <synapse sourceNeuronName = "2" targetNeuronName = "39" weight = "5.130552819802816" />
    <synapse sourceNeuronName = "3" targetNeuronName = "14" weight = "20.01881227952179" />
    <synapse sourceNeuronName = "3" targetNeuronName = "15" weight = "22.84541176542782" />
    <synapse sourceNeuronName = "3" targetNeuronName = "16" weight = "-0.5006643287321817" />
    <synapse sourceNeuronName = "3" targetNeuronName = "17" weight = "1.516295891562994" />
    <synapse sourceNeuronName = "3" targetNeuronName = "18" weight = "9.39080691738239" />
    <synapse sourceNeuronName = "3" targetNeuronName = "19" weight = "-0.6675235693981263" />
    <synapse sourceNeuronName = "3" targetNeuronName = "20" weight = "15.688372010382302" />
    <synapse sourceNeuronName = "3" targetNeuronName = "21" weight = "24.79626186044825" />
    <synapse sourceNeuronName = "3" targetNeuronName = "22" weight = "24.414820393089983" />
    <synapse sourceNeuronName = "3" targetNeuronName = "23" weight = "3.7534578722965195" />
    <synapse sourceNeuronName = "3" targetNeuronName = "24" weight = "21.65576999011106" />
    <synapse sourceNeuronName = "3" targetNeuronName = "25" weight = "24.111214388846093" />
    <synapse sourceNeuronName = "3" targetNeuronName = "26" weight = "23.654278898704046" />
    <synapse sourceNeuronName = "3" targetNeuronName = "27" weight = "13.444696219371904" />
    <synapse sourceNeuronName = "3" targetNeuronName = "28" weight = "23.652717308511818" />
    <synapse sourceNeuronName = "3" targetNeuronName = "29" weight = "3.1152082470675015" />
    <synapse sourceNeuronName = "3" targetNeuronName = "30" weight = "4.850598308489724" />
    <synapse sourceNeuronName = "3" targetNeuronName = "31" weight = "13.363848660372867" />
    <synapse sourceNeuronName = "3" targetNeuronName = "32" weight = "5.505862055972372" />
    <synapse sourceNeuronName = "3" targetNeuronName = "33" weight = "12.310255763925465" />
    <synapse sourceNeuronName = "3" targetNeuronName = "34" weight = "21.590360025348737" />
    <synapse sourceNeuronName = "3" targetNeuronName = "35" weight = "24.6935449022545" />
    <synapse sourceNeuronName = "3" targetNeuronName = "36" weight = "14.538622027860079" />
    <synapse sourceNeuronName = "3" targetNeuronName = "37" weight = "10.277964860918896" />
    <synapse sourceNeuronName = "3" targetNeuronName = "38" weight = "15.107055528544102" />
    <synapse sourceNeuronName = "3" targetNeuronName = "39" weight = "4.310295248512879" />
    <synapse sourceNeuronName = "4" targetNeuronName = "14" weight = "-0.07667452874872405" />
    <synapse sourceNeuronName = "4" targetNeuronName = "15" weight = "24.902979123982227" />
    <synapse sourceNeuronName = "4" targetNeuronName = "16" weight = "9.151860215031801" />
    <synapse sourceNeuronName = "4" targetNeuronName = "17" weight = "7.559420397717741" />
    <synapse sourceNeuronName = "4" targetNeuronName = "18" weight = "14.764220806188117" />
    <synapse sourceNeuronName = "4" targetNeuronName = "19" weight = "11.85755358681215" />
    <synapse sourceNeuronName = "4" targetNeuronName = "20" weight = "14.29105290906087" />
    <synapse sourceNeuronName = "4" targetNeuronName = "21" weight = "20.38791661635469" />
    <synapse sourceNeuronName = "4" targetNeuronName = "22" weight = "24.450934608997485" />
    <synapse sourceNeuronName = "4" targetNeuronName = "23" weight = "4.3516585147706035" />
    <synapse sourceNeuronName = "4" targetNeuronName = "24" weight = "2.3412749109478206" />
    <synapse sourceNeuronName = "4" targetNeuronName = "25" weight = "12.627055507131544" />
    <synapse sourceNeuronName = "4" targetNeuronName = "26" weight = "6.198796647159528" />
    <synapse sourceNeuronName = "4" targetNeuronName = "27" weight = "21.673213757237836" />
    <synapse sourceNeuronName = "4" targetNeuronName = "28" weight = "3.558266915328944" />
    <synapse sourceNeuronName = "4" targetNeuronName = "29" weight = "4.7990647389550825" />
    <synapse sourceNeuronName = "4" targetNeuronName = "30" weight = "16.118446382458405" />
    <synapse sourceNeuronName = "4" targetNeuronName = "31" weight = "24.5991316202166" />
    <synapse sourceNeuronName = "4" targetNeuronName = "32" weight = "13.146177835411137" />
    <synapse sourceNeuronName = "4" targetNeuronName = "33" weight = "2.229444160470778" />
    <synapse sourceNeuronName = "4" targetNeuronName = "34" weight = "13.66052950841345" />
    <synapse sourceNeuronName = "4" targetNeuronName = "35" weight = "19.173112397295245" />
    <synapse sourceNeuronName = "4" targetNeuronName = "36" weight = "20.40476973463912" />
    <synapse sourceNeuronName = "4" targetNeuronName = "37" weight = "5.005136491184883" />
    <synapse sourceNeuronName = "4" targetNeuronName = "38" weight = "12.112371853960987" />
    <synapse sourceNeuronName = "4" targetNeuronName = "39" weight = "0.366948225048471" />
    <synapse sourceNeuronName = "5" targetNeuronName = "14" weight = "5.197803249079408" />
    <synapse sourceNeuronName = "5" targetNeuronName = "15" weight = "5.917689401532243" />
    <synapse sourceNeuronName = "5" targetNeuronName = "16" weight = "2.3199980665134534" />
    <synapse sourceNeuronName = "5" targetNeuronName = "17" weight = "14.72593450129086" />
    <synapse sourceNeuronName = "5" targetNeuronName = "18" weight = "14.105045887214686" />
    <synapse sourceNeuronName = "5" targetNeuronName = "19" weight = "10.256486683793616" />
    <synapse sourceNeuronName = "5" targetNeuronName = "20" weight = "13.105462544190328" />
    <synapse sourceNeuronName = "5" targetNeuronName = "21" weight = "21.746284419526393" />
    <synapse sourceNeuronName = "5" targetNeuronName = "22" weight = "21.80290720279229" />
    <synapse sourceNeuronName = "5" targetNeuronName = "23" weight = "11.330285079045916" />
    <synapse sourceNeuronName = "5" targetNeuronName = "24" weight = "8.05787306858622" />
    <synapse sourceNeuronName = "5" targetNeuronName = "25" weight = "14.735492455737345" />
    <synapse sourceNeuronName = "5" targetNeuronName = "26" weight = "-0.7967394848325753" />
    <synapse sourceNeuronName = "5" targetNeuronName = "27" weight = "18.621721362465" />
    <synapse sourceNeuronName = "5" targetNeuronName = "28" weight = "7.396615153496514" />
    <synapse sourceNeuronName = "5" targetNeuronName = "29" weight = "17.666036499080427" />
    <synapse sourceNeuronName = "5" targetNeuronName = "30" weight = "22.973242119669887" />
    <synapse sourceNeuronName = "5" targetNeuronName = "31" weight = "22.690817433187878" />
    <synapse sourceNeuronName = "5" targetNeuronName = "32" weight = "18.92641018986522" />
    <synapse sourceNeuronName = "5" targetNeuronName = "33" weight = "21.261728911203445" />
    <synapse sourceNeuronName = "5" targetNeuronName = "34" weight = "20.41470820443148" />
    <synapse sourceNeuronName = "5" targetNeuronName = "35" weight = "13.025274457506" />
    <synapse sourceNeuronName = "5" targetNeuronName = "36" weight = "23.663039494356227" />
    <synapse sourceNeuronName = "5" targetNeuronName = "37" weight = "16.323164407827004" />
    <synapse sourceNeuronName = "5" targetNeuronName = "38" weight = "23.52097217380712" />
    <synapse sourceNeuronName = "5" targetNeuronName = "39" weight = "2.061714881264025" />
    <synapse sourceNeuronName = "6" targetNeuronName = "14" weight = "3.2843737144977814" />
    <synapse sourceNeuronName = "6" targetNeuronName = "15" weight = "19.584646794781804" />
    <synapse sourceNeuronName = "6" targetNeuronName = "16" weight = "10.788231408223245" />
    <synapse sourceNeuronName = "6" targetNeuronName = "17" weight = "8.563858607885809" />
    <synapse sourceNeuronName = "6" targetNeuronName = "18" weight = "0.012859919626770688" />
    <synapse sourceNeuronName = "6" targetNeuronName = "19" weight = "9.406288251381062" />
    <synapse sourceNeuronName = "6" targetNeuronName = "20" weight = "9.138169680976716" />
    <synapse sourceNeuronName = "6" targetNeuronName = "21" weight = "14.90347545050662" />
    <synapse sourceNeuronName = "6" targetNeuronName = "22" weight = "15.940945108119688" />
    <synapse sourceNeuronName = "6" targetNeuronName = "23" weight = "5.7995725217805525" />
    <synapse sourceNeuronName = "6" targetNeuronName = "24" weight = "24.48068566952021" />
    <synapse sourceNeuronName = "6" targetNeuronName = "25" weight = "0.8453573772327967" />
    <synapse sourceNeuronName = "6" targetNeuronName = "26" weight = "24.4597975770643" />
    <synapse sourceNeuronName = "6" targetNeuronName = "27" weight = "14.433250379386553" />
    <synapse sourceNeuronName = "6" targetNeuronName = "28" weight = "9.99644516908437" />
    <synapse sourceNeuronName = "6" targetNeuronName = "29" weight = "7.908218115449447" />
    <synapse sourceNeuronName = "6" targetNeuronName = "30" weight = "21.858571047706537" />
    <synapse sourceNeuronName = "6" targetNeuronName = "31" weight = "13.764140554980553" />
    <synapse sourceNeuronName = "6" targetNeuronName = "32" weight = "10.342432284479838" />
    <synapse sourceNeuronName = "6" targetNeuronName = "33" weight = "2.323686107201433" />
    <synapse sourceNeuronName = "6" targetNeuronName = "34" weight = "2.8840502475911896" />
    <synapse sourceNeuronName = "6" targetNeuronName = "35" weight = "1.1987009697429905" />
    <synapse sourceNeuronName = "6" targetNeuronName = "36" weight = "2.2131498711312934" />
    <synapse sourceNeuronName = "6" targetNeuronName = "37" weight = "5.037492079122687" />
    <synapse sourceNeuronName = "6" targetNeuronName = "38" weight = "18.195693079768155" />
    <synapse sourceNeuronName = "6" targetNeuronName = "39" weight = "-0.8382757192547301" />
    <synapse sourceNeuronName = "7" targetNeuronName = "14" weight = "2.3910722791870995" />
    <synapse sourceNeuronName = "7" targetNeuronName = "15" weight = "2.3677283508012383" />
    <synapse sourceNeuronName = "7" targetNeuronName = "16" weight = "18.640270778610606" />
    <synapse sourceNeuronName = "7" targetNeuronName = "17" weight = "3.0042382955980385" />
    <synapse sourceNeuronName = "7" targetNeuronName = "18" weight = "10.378726063689685" />
    <synapse sourceNeuronName = "7" targetNeuronName = "19" weight = "10.128527558848061" />
    <synapse sourceNeuronName = "7" targetNeuronName = "20" weight = "3.756581199304068" />
    <synapse sourceNeuronName = "7" targetNeuronName = "21" weight = "7.1000108829531" />
    <synapse sourceNeuronName = "7" targetNeuronName = "22" weight = "7.342999268679321" />
    <synapse sourceNeuronName = "7" targetNeuronName = "23" weight = "11.125689175102297" />
    <synapse sourceNeuronName = "7" targetNeuronName = "24" weight = "3.389404182361906" />
    <synapse sourceNeuronName = "7" targetNeuronName = "25" weight = "15.319156240992495" />
    <synapse sourceNeuronName = "7" targetNeuronName = "26" weight = "12.384891683472802" />
    <synapse sourceNeuronName = "7" targetNeuronName = "27" weight = "2.2312938670871345" />
    <synapse sourceNeuronName = "7" targetNeuronName = "28" weight = "0.5115619925757569" />
    <synapse sourceNeuronName = "7" targetNeuronName = "29" weight = "9.093881673789712" />
    <synapse sourceNeuronName = "7" targetNeuronName = "30" weight = "17.924574372571726" />
    <synapse sourceNeuronName = "7" targetNeuronName = "31" weight = "12.003012628288598" />
    <synapse sourceNeuronName = "7" targetNeuronName = "32" weight = "6.489810228531576" />
    <synapse sourceNeuronName = "7" targetNeuronName = "33" weight = "16.026273461460708" />
    <synapse sourceNeuronName = "7" targetNeuronName = "34" weight = "2.9845781452925673" />
    <synapse sourceNeuronName = "7" targetNeuronName = "35" weight = "21.604930569666458" />
    <synapse sourceNeuronName = "7" targetNeuronName = "36" weight = "0.3303647480138794" />
    <synapse sourceNeuronName = "7" targetNeuronName = "37" weight = "5.784134366659739" />
    <synapse sourceNeuronName = "7" targetNeuronName = "38" weight = "12.617989681194148" />
    <synapse sourceNeuronName = "7" targetNeuronName = "39" weight = "16.426236583543226" />
    <synapse sourceNeuronName = "8" targetNeuronName = "14" weight = "17.992171446576997" />
    <synapse sourceNeuronName = "8" targetNeuronName = "15" weight = "15.637495159771024" />
    <synapse sourceNeuronName = "8" targetNeuronName = "16" weight = "6.71703791458912" />
    <synapse sourceNeuronName = "8" targetNeuronName = "17" weight = "19.732858672240198" />
    <synapse sourceNeuronName = "8" targetNeuronName = "18" weight = "21.692718527033374" />
    <synapse sourceNeuronName = "8" targetNeuronName = "19" weight = "20.204585543890747" />
    <synapse sourceNeuronName = "8" targetNeuronName = "20" weight = "24.65706895939949" />
    <synapse sourceNeuronName = "8" targetNeuronName = "21" weight = "0.33508413570998363" />
    <synapse sourceNeuronName = "8" targetNeuronName = "22" weight = "9.94034431395508" />
    <synapse sourceNeuronName = "8" targetNeuronName = "23" weight = "1.3348503588345233" />
    <synapse sourceNeuronName = "8" targetNeuronName = "24" weight = "18.028065598887263" />
    <synapse sourceNeuronName = "8" targetNeuronName = "25" weight = "0.9734853623110706" />
    <synapse sourceNeuronName = "8" targetNeuronName = "26" weight = "24.276653671603526" />
    <synapse sourceNeuronName = "8" targetNeuronName = "27" weight = "22.410467554020837" />
    <synapse sourceNeuronName = "8" targetNeuronName = "28" weight = "19.355864602012495" />
    <synapse sourceNeuronName = "8" targetNeuronName = "29" weight = "21.13447472673133" />
    <synapse sourceNeuronName = "8" targetNeuronName = "30" weight = "4.783966369718404" />
    <synapse sourceNeuronName = "8" targetNeuronName = "31" weight = "19.33866183591862" />
    <synapse sourceNeuronName = "8" targetNeuronName = "32" weight = "13.61445832823934" />
    <synapse sourceNeuronName = "8" targetNeuronName = "33" weight = "9.302671559498112" />
    <synapse sourceNeuronName = "8" targetNeuronName = "34" weight = "21.91137796343366" />
    <synapse sourceNeuronName = "8" targetNeuronName = "35" weight = "8.949422049348595" />
    <synapse sourceNeuronName = "8" targetNeuronName = "36" weight = "12.334600755330468" />
    <synapse sourceNeuronName = "8" targetNeuronName = "37" weight = "11.655624867899643" />
    <synapse sourceNeuronName = "8" targetNeuronName = "38" weight = "10.456143713844995" />
    <synapse sourceNeuronName = "8" targetNeuronName = "39" weight = "-0.992027324615602" />
    <synapse sourceNeuronName = "9" targetNeuronName = "14" weight = "6.787901987864046" />
    <synapse sourceNeuronName = "9" targetNeuronName = "15" weight = "4.863001841226874" />
    <synapse sourceNeuronName = "9" targetNeuronName = "16" weight = "3.24569266047056" />
    <synapse sourceNeuronName = "9" targetNeuronName = "17" weight = "14.206778808287948" />
    <synapse sourceNeuronName = "9" targetNeuronName = "18" weight = "22.89454989839392" />
    <synapse sourceNeuronName = "9" targetNeuronName = "19" weight = "16.68439848630871" />
    <synapse sourceNeuronName = "9" targetNeuronName = "20" weight = "20.16377255824764" />
    <synapse sourceNeuronName = "9" targetNeuronName = "21" weight = "12.593488650809704" />
    <synapse sourceNeuronName = "9" targetNeuronName = "22" weight = "13.557127967687062" />
    <synapse sourceNeuronName = "9" targetNeuronName = "23" weight = "21.096436282612252" />
    <synapse sourceNeuronName = "9" targetNeuronName = "24" weight = "9.077428143701887" />
    <synapse sourceNeuronName = "9" targetNeuronName = "25" weight = "17.682651043087304" />
    <synapse sourceNeuronName = "9" targetNeuronName = "26" weight = "20.06777113658491" />
    <synapse sourceNeuronName = "9" targetNeuronName = "27" weight = "14.21596942583404" />
    <synapse sourceNeuronName = "9" targetNeuronName = "28" weight = "24.89837823534714" />
    <synapse sourceNeuronName = "9" targetNeuronName = "29" weight = "22.080097071257676" />
    <synapse sourceNeuronName = "9" targetNeuronName = "30" weight = "9.804972196205894" />
    <synapse sourceNeuronName = "9" targetNeuronName = "31" weight = "18.616712362046076" />
    <synapse sourceNeuronName = "9" targetNeuronName = "32" weight = "2.966545010399411" />
    <synapse sourceNeuronName = "9" targetNeuronName = "33" weight = "15.526653460242116" />
    <synapse sourceNeuronName = "9" targetNeuronName = "34" weight = "6.369822270102034" />
    <synapse sourceNeuronName = "9" targetNeuronName = "35" weight = "23.580054210149598" />
    <synapse sourceNeuronName = "9" targetNeuronName = "36" weight = "12.489910787153056" />
    <synapse sourceNeuronName = "9" targetNeuronName = "37" weight = "19.495877807323197" />
    <synapse sourceNeuronName = "9" targetNeuronName = "38" weight = "1.2677364368688595" />
    <synapse sourceNeuronName = "9" targetNeuronName = "39" weight = "16.704897176648256" />
    <synapse sourceNeuronName = "10" targetNeuronName = "14" weight = "17.02577509742218" />
    <synapse sourceNeuronName = "10" targetNeuronName = "15" weight = "6.238709382072911" />
    <synapse sourceNeuronName = "10" targetNeuronName = "16" weight = "19.932077116436385" />
    <synapse sourceNeuronName = "10" targetNeuronName = "17" weight = "0.740493959373465" />
    <synapse sourceNeuronName = "10" targetNeuronName = "18" weight = "3.6746125649069823" />
    <synapse sourceNeuronName = "10" targetNeuronName = "19" weight = "15.432239171729492" />
    <synapse sourceNeuronName = "10" targetNeuronName = "20" weight = "1.8882331934023426" />
    <synapse sourceNeuronName = "10" targetNeuronName = "21" weight = "24.682381412867418" />
    <synapse sourceNeuronName = "10" targetNeuronName = "22" weight = "18.24964043033659" />
    <synapse sourceNeuronName = "10" targetNeuronName = "23" weight = "0.31695850186319374" />
    <synapse sourceNeuronName = "10" targetNeuronName = "24" weight = "15.03026356434954" />
    <synapse sourceNeuronName = "10" targetNeuronName = "25" weight = "21.445044926706156" />
    <synapse sourceNeuronName = "10" targetNeuronName = "26" weight = "9.162405111018094" />
    <synapse sourceNeuronName = "10" targetNeuronName = "27" weight = "10.36082868792657" />
    <synapse sourceNeuronName = "10" targetNeuronName = "28" weight = "14.108293721002978" />
    <synapse sourceNeuronName = "10" targetNeuronName = "29" weight = "24.239982886769997" />
    <synapse sourceNeuronName = "10" targetNeuronName = "30" weight = "12.130183992620212" />
    <synapse sourceNeuronName = "10" targetNeuronName = "31" weight = "2.8450259557970097" />
    <synapse sourceNeuronName = "10" targetNeuronName = "32" weight = "5.925595613592041" />
    <synapse sourceNeuronName = "10" targetNeuronName = "33" weight = "19.416876614502478" />
    <synapse sourceNeuronName = "10" targetNeuronName = "34" weight = "0.9340792240347524" />
    <synapse sourceNeuronName = "10" targetNeuronName = "35" weight = "22.965562380879106" />
    <synapse sourceNeuronName = "10" targetNeuronName = "36" weight = "2.7332917565208685" />
    <synapse sourceNeuronName = "10" targetNeuronName = "37" weight = "5.701172424276344" />
    <synapse sourceNeuronName = "10" targetNeuronName = "38" weight = "22.380538110067036" />
    <synapse sourceNeuronName = "10" targetNeuronName = "39" weight = "23.613460828467648" />
    <synapse sourceNeuronName = "11" targetNeuronName = "14" weight = "6.3156651823057635" />
    <synapse sourceNeuronName = "11" targetNeuronName = "15" weight = "20.952161827613732" />
    <synapse sourceNeuronName = "11" targetNeuronName = "16" weight = "18.09685252452729" />
    <synapse sourceNeuronName = "11" targetNeuronName = "17" weight = "3.8175315442415076" />
    <synapse sourceNeuronName = "11" targetNeuronName = "18" weight = "24.36378240668888" />
    <synapse sourceNeuronName = "11" targetNeuronName = "19" weight = "7.709000359176246" />
    <synapse sourceNeuronName = "11" targetNeuronName = "20" weight = "14.804817420689993" />
    <synapse sourceNeuronName = "11" targetNeuronName = "21" weight = "20.451076687845443" />
    <synapse sourceNeuronName = "11" targetNeuronName = "22" weight = "5.4846016472903685" />
    <synapse sourceNeuronName = "11" targetNeuronName = "23" weight = "10.678138310658614" />
    <synapse sourceNeuronName = "11" targetNeuronName = "24" weight = "15.618901321298548" />
    <synapse sourceNeuronName = "11" targetNeuronName = "25" weight = "21.87670398833444" />
    <synapse sourceNeuronName = "11" targetNeuronName = "26" weight = "18.864167362670383" />
    <synapse sourceNeuronName = "11" targetNeuronName = "27" weight = "15.752130639622326" />
    <synapse sourceNeuronName = "11" targetNeuronName = "28" weight = "12.523413449962378" />
    <synapse sourceNeuronName = "11" targetNeuronName = "29" weight = "2.961248151523164" />
    <synapse sourceNeuronName = "11" targetNeuronName = "30" weight = "21.364156116340528" />
    <synapse sourceNeuronName = "11" targetNeuronName = "31" weight = "8.266268655686273" />
    <synapse sourceNeuronName = "11" targetNeuronName = "32" weight = "9.281467160175128" />
    <synapse sourceNeuronName = "11" targetNeuronName = "33" weight = "2.3332564288306425" />
    <synapse sourceNeuronName = "11" targetNeuronName = "34" weight = "5.578734336157963" />
    <synapse sourceNeuronName = "11" targetNeuronName = "35" weight = "11.572142760918222" />
    <synapse sourceNeuronName = "11" targetNeuronName = "36" weight = "24.831023785906076" />
    <synapse sourceNeuronName = "11" targetNeuronName = "37" weight = "9.611959115764376" />
    <synapse sourceNeuronName = "11" targetNeuronName = "38" weight = "1.9599055017995726" />
    <synapse sourceNeuronName = "11" targetNeuronName = "39" weight = "16.25743621068714" />
    <synapse sourceNeuronName = "12" targetNeuronName = "14" weight = "10.688558204221602" />
    <synapse sourceNeuronName = "12" targetNeuronName = "15" weight = "24.206400219557104" />
    <synapse sourceNeuronName = "12" targetNeuronName = "16" weight = "8.958805858667658" />
    <synapse sourceNeuronName = "12" targetNeuronName = "17" weight = "16.505785116082542" />
    <synapse sourceNeuronName = "12" targetNeuronName = "18" weight = "19.35831876540581" />
    <synapse sourceNeuronName = "12" targetNeuronName = "19" weight = "8.506665435630522" />
    <synapse sourceNeuronName = "12" targetNeuronName = "20" weight = "18.544259583810707" />
    <synapse sourceNeuronName = "12" targetNeuronName = "21" weight = "19.396901448891747" />
    <synapse sourceNeuronName = "12" targetNeuronName = "22" weight = "17.339533643013397" />
    <synapse sourceNeuronName = "12" targetNeuronName = "23" weight = "10.999864344870032" />
    <synapse sourceNeuronName = "12" targetNeuronName = "24" weight = "4.649537919704969" />
    <synapse sourceNeuronName = "12" targetNeuronName = "25" weight = "3.024162571453373" />
    <synapse sourceNeuronName = "12" targetNeuronName = "26" weight = "1.8801703715529516" />
    <synapse sourceNeuronName = "12" targetNeuronName = "27" weight = "-0.4835810179133022" />
    <synapse sourceNeuronName = "12" targetNeuronName = "28" weight = "0.5434787433462411" />
    <synapse sourceNeuronName = "12" targetNeuronName = "29" weight = "18.39272288382033" />
    <synapse sourceNeuronName = "12" targetNeuronName = "30" weight = "1.7754889134482417" />
    <synapse sourceNeuronName = "12" targetNeuronName = "31" weight = "8.152606909998704" />
    <synapse sourceNeuronName = "12" targetNeuronName = "32" weight = "1.8980398290702198" />
    <synapse sourceNeuronName = "12" targetNeuronName = "33" weight = "23.554111457564943" />
    <synapse sourceNeuronName = "12" targetNeuronName = "34" weight = "1.843052385369325" />
    <synapse sourceNeuronName = "12" targetNeuronName = "35" weight = "0.6847245173221277" />
    <synapse sourceNeuronName = "12" targetNeuronName = "36" weight = "20.93554929372739" />
    <synapse sourceNeuronName = "12" targetNeuronName = "37" weight = "0.7709481243481051" />
    <synapse sourceNeuronName = "12" targetNeuronName = "38" weight = "16.17406614281354" />
    <synapse sourceNeuronName = "12" targetNeuronName = "39" weight = "23.92004723460666" />
    <synapse sourceNeuronName = "13" targetNeuronName = "14" weight = "14.847852139235139" />
    <synapse sourceNeuronName = "13" targetNeuronName = "15" weight = "18.219906909959303" />
    <synapse sourceNeuronName = "13" targetNeuronName = "16" weight = "5.919945093864985" />
    <synapse sourceNeuronName = "13" targetNeuronName = "17" weight = "19.66721151523632" />
    <synapse sourceNeuronName = "13" targetNeuronName = "18" weight = "23.329804332200514" />
    <synapse sourceNeuronName = "13" targetNeuronName = "19" weight = "24.069908930084516" />
    <synapse sourceNeuronName = "13" targetNeuronName = "20" weight = "17.541883340170134" />
    <synapse sourceNeuronName = "13" targetNeuronName = "21" weight = "14.237252121248325" />
    <synapse sourceNeuronName = "13" targetNeuronName = "22" weight = "14.276763088209256" />
    <synapse sourceNeuronName = "13" targetNeuronName = "23" weight = "19.142634561773207" />
    <synapse sourceNeuronName = "13" targetNeuronName = "24" weight = "21.20073509662349" />
    <synapse sourceNeuronName = "13" targetNeuronName = "25" weight = "21.84655256061788" />
    <synapse sourceNeuronName = "13" targetNeuronName = "26" weight = "11.765914858676583" />
    <synapse sourceNeuronName = "13" targetNeuronName = "27" weight = "24.50627154211028" />
    <synapse sourceNeuronName = "13" targetNeuronName = "28" weight = "2.947628132528487" />
    <synapse sourceNeuronName = "13" targetNeuronName = "29" weight = "1.110716369420187" />
    <synapse sourceNeuronName = "13" targetNeuronName = "30" weight = "9.297911575726925" />
    <synapse sourceNeuronName = "13" targetNeuronName = "31" weight = "7.843724492859451" />
    <synapse sourceNeuronName = "13" targetNeuronName = "32" weight = "3.1213848099845425" />
    <synapse sourceNeuronName = "13" targetNeuronName = "33" weight = "5.032829326651217" />
    <synapse sourceNeuronName = "13" targetNeuronName = "34" weight = "14.485396310721018" />
    <synapse sourceNeuronName = "13" targetNeuronName = "35" weight = "10.522048406948388" />
    <synapse sourceNeuronName = "13" targetNeuronName = "36" weight = "2.260382335849471" />
    <synapse sourceNeuronName = "13" targetNeuronName = "37" weight = "3.4201541806533333" />
    <synapse sourceNeuronName = "13" targetNeuronName = "38" weight = "5.314762109031296" />
    <synapse sourceNeuronName = "13" targetNeuronName = "39" weight = "6.698623611843608" />
</neuralNetwork>