<neuralNetwork>
    <neuron name = "0" type = "sensor" linkName = "Torso" />
    <neuron name = "1" type = "sensor" linkName = "Leg2" />
    <neuron name = "2" type = "sensor" linkName = "Leg3" />
    <neuron name = "3" type = "sensor" linkName = "Leg4" />
    <neuron name = "4" type = "sensor" linkName = "Leg5" />
    <neuron name = "5" type = "sensor" linkName = "Leg6" />
    <neuron name = "6" type = "sensor" linkName = "Leg12" />
    <neuron name = "7" type = "sensor" linkName = "Leg14" />
    <neuron name = "8" type = "sensor" linkName = "Leg15" />
    <neuron name = "9" type = "sensor" linkName = "Leg16" />
    <neuron name = "10" type = "sensor" linkName = "Leg18" />
    <neuron name = "11" type = "sensor" linkName = "Leg19" />
    <neuron name = "12" type = "sensor" linkName = "Leg21" />
    <neuron name = "13" type = "sensor" linkName = "Leg22" />
    <neuron name = "14" type = "sensor" linkName = "Leg24" />
    <neuron name = "15" type = "sensor" linkName = "Leg25" />
    <neuron name = "16" type = "sensor" linkName = "Leg26" />
    <neuron name = "17" type = "motor"  jointName = "Torso_Leg1" />
    <neuron name = "18" type = "motor"  jointName = "Leg1_Leg2" />
    <neuron name = "19" type = "motor"  jointName = "Leg2_Leg3" />
    <neuron name = "20" type = "motor"  jointName = "Leg1_Leg4" />
    <neuron name = "21" type = "motor"  jointName = "Leg2_Leg5" />
    <neuron name = "22" type = "motor"  jointName = "Leg3_Leg6" />
    <neuron name = "23" type = "motor"  jointName = "Leg1_Leg7" />
    <neuron name = "24" type = "motor"  jointName = "Leg7_Leg8" />
    <neuron name = "25" type = "motor"  jointName = "Leg7_Leg9" />
    <neuron name = "26" type = "motor"  jointName = "Leg7_Leg10" />
    <neuron name = "27" type = "motor"  jointName = "Leg3_Leg11" />
    <neuron name = "28" type = "motor"  jointName = "Leg11_Leg12" />
    <neuron name = "29" type = "motor"  jointName = "Leg11_Leg13" />
    <neuron name = "30" type = "motor"  jointName = "Leg9_Leg14" />
    <neuron name = "31" type = "motor"  jointName = "Leg14_Leg15" />
    <neuron name = "32" type = "motor"  jointName = "Leg8_Leg16" />
    <neuron name = "33" type = "motor"  jointName = "Leg2_Leg17" />
    <neuron name = "34" type = "motor"  jointName = "Leg14_Leg18" />
    <neuron name = "35" type = "motor"  jointName = "Torso_Leg19" />
    <neuron name = "36" type = "motor"  jointName = "Leg5_Leg20" />
    <neuron name = "37" type = "motor"  jointName = "Leg17_Leg21" />
    <neuron name = "38" type = "motor"  jointName = "Leg10_Leg22" />
    <neuron name = "39" type = "motor"  jointName = "Leg15_Leg23" />
    <neuron name = "40" type = "motor"  jointName = "Leg13_Leg24" />
    <neuron name = "41" type = "motor"  jointName = "Leg22_Leg25" />
    <neuron name = "42" type = "motor"  jointName = "Leg24_Leg26" />
    <neuron name = "43" type = "motor"  jointName = "Leg20_Leg27" />
    <neuron name = "44" type = "motor"  jointName = "Leg6_Leg28" />
    <synapse sourceNeuronName = "0" targetNeuronName = "17" weight = "18.059255328878365" />
    <synapse sourceNeuronName = "0" targetNeuronName = "18" weight = "-0.11141611367912052" />
    <synapse sourceNeuronName = "0" targetNeuronName = "19" weight = "16.111249733077884" />
    <synapse sourceNeuronName = "0" targetNeuronName = "20" weight = "11.351691208429632" />
    <synapse sourceNeuronName = "0" targetNeuronName = "21" weight = "14.799880516894007" />
    <synapse sourceNeuronName = "0" targetNeuronName = "22" weight = "12.508991465464451" />
    <synapse sourceNeuronName = "0" targetNeuronName = "23" weight = "15.90248833836651" />
    <synapse sourceNeuronName = "0" targetNeuronName = "24" weight = "16.04743166617405" />
    <synapse sourceNeuronName = "0" targetNeuronName = "25" weight = "15.699430817600483" />
    <synapse sourceNeuronName = "0" targetNeuronName = "26" weight = "20.127391882701357" />
    <synapse sourceNeuronName = "0" targetNeuronName = "27" weight = "20.90121679177257" />
    <synapse sourceNeuronName = "0" targetNeuronName = "28" weight = "-0.21988849928387122" />
    <synapse sourceNeuronName = "0" targetNeuronName = "29" weight = "14.8777257699464" />
    <synapse sourceNeuronName = "0" targetNeuronName = "30" weight = "25.295297725714466" />
    <synapse sourceNeuronName = "0" targetNeuronName = "31" weight = "2.058380233680998" />
    <synapse sourceNeuronName = "0" targetNeuronName = "32" weight = "21.698633201509303" />
    <synapse sourceNeuronName = "0" targetNeuronName = "33" weight = "21.518494198326753" />
    <synapse sourceNeuronName = "0" targetNeuronName = "34" weight = "0.43698053865562425" />
    <synapse sourceNeuronName = "0" targetNeuronName = "35" weight = "13.656098363267258" />
    <synapse sourceNeuronName = "0" targetNeuronName = "36" weight = "2.1175143616393965" />
    <synapse sourceNeuronName = "0" targetNeuronName = "37" weight = "6.175446536527284" />
    <synapse sourceNeuronName = "0" targetNeuronName = "38" weight = "2.114047455597069" />
    <synapse sourceNeuronName = "0" targetNeuronName = "39" weight = "8.68533572551378" />
    <synapse sourceNeuronName = "0" targetNeuronName = "40" weight = "8.622904555805038" />
    <synapse sourceNeuronName = "0" targetNeuronName = "41" weight = "24.03969502866491" />
    <synapse sourceNeuronName = "0" targetNeuronName = "42" weight = "8.182851399828415" />
    <synapse sourceNeuronName = "0" targetNeuronName = "43" weight = "22.93737333277306" />
    <synapse sourceNeuronName = "0" targetNeuronName = "44" weight = "11.862396747189365" />
    <synapse sourceNeuronName = "1" targetNeuronName = "17" weight = "7.570751815711452" />
    <synapse sourceNeuronName = "1" targetNeuronName = "18" weight = "13.72864395802316" />
    <synapse sourceNeuronName = "1" targetNeuronName = "19" weight = "4.702506159074" />
    <synapse sourceNeuronName = "1" targetNeuronName = "20" weight = "12.963141779554059" />
    <synapse sourceNeuronName = "1" targetNeuronName = "21" weight = "22.58111277985246" />
    <synapse sourceNeuronName = "1" targetNeuronName = "22" weight = "25.59202563769272" />
    <synapse sourceNeuronName = "1" targetNeuronName = "23" weight = "4.905317359498463" />
    <synapse sourceNeuronName = "1" targetNeuronName = "24" weight = "12.150212718972236" />
    <synapse sourceNeuronName = "1" targetNeuronName = "25" weight = "0.20731591099510727" />
    <synapse sourceNeuronName = "1" targetNeuronName = "26" weight = "0.18082956654944615" />
    <synapse sourceNeuronName = "1" targetNeuronName = "27" weight = "9.359880919425684" />
    <synapse sourceNeuronName = "1" targetNeuronName = "28" weight = "7.319238733123845" />
    <synapse sourceNeuronName = "1" targetNeuronName = "29" weight = "10.277790767435054" />
    <synapse sourceNeuronName = "1" targetNeuronName = "30" weight = "22.74472131004723" />
    <synapse sourceNeuronName = "1" targetNeuronName = "31" weight = "3.996956146007614" />
    <synapse sourceNeuronName = "1" targetNeuronName = "32" weight = "20.65281222028519" />
    <synapse sourceNeuronName = "1" targetNeuronName = "33" weight = "26.21447675738166" />
    <synapse sourceNeuronName = "1" targetNeuronName = "34" weight = "26.68413620909163" />
    <synapse sourceNeuronName = "1" targetNeuronName = "35" weight = "0.2729969918745101" />
    <synapse sourceNeuronName = "1" targetNeuronName = "36" weight = "6.431039347551081" />
    <synapse sourceNeuronName = "1" targetNeuronName = "37" weight = "2.36977034159252" />
    <synapse sourceNeuronName = "1" targetNeuronName = "38" weight = "8.510108972598896" />
    <synapse sourceNeuronName = "1" targetNeuronName = "39" weight = "19.511936352858058" />
    <synapse sourceNeuronName = "1" targetNeuronName = "40" weight = "20.179154323062377" />
    <synapse sourceNeuronName = "1" targetNeuronName = "41" weight = "1.24920171442476" />
    <synapse sourceNeuronName = "1" targetNeuronName = "42" weight = "3.809678312191762" />
    <synapse sourceNeuronName = "1" targetNeuronName = "43" weight = "23.318074247005455" />
    <synapse sourceNeuronName = "1" targetNeuronName = "44" weight = "8.464976584870598" />
    <synapse sourceNeuronName = "2" targetNeuronName = "17" weight = "18.02634810378455" />
    <synapse sourceNeuronName = "2" targetNeuronName = "18" weight = "0.7800624586938945" />
    <synapse sourceNeuronName = "2" targetNeuronName = "19" weight = "13.777255680956369" />
    <synapse sourceNeuronName = "2" targetNeuronName = "20" weight = "15.663390119812103" />
    <synapse sourceNeuronName = "2" targetNeuronName = "21" weight = "1.96170727366035" />
    <synapse sourceNeuronName = "2" targetNeuronName = "22" weight = "12.26854914343755" />
    <synapse sourceNeuronName = "2" targetNeuronName = "23" weight = "14.664825140217614" />
    <synapse sourceNeuronName = "2" targetNeuronName = "24" weight = "25.497079311356828" />
    <synapse sourceNeuronName = "2" targetNeuronName = "25" weight = "26.137397098223634" />
    <synapse sourceNeuronName = "2" targetNeuronName = "26" weight = "19.468788208266012" />
    <synapse sourceNeuronName = "2" targetNeuronName = "27" weight = "10.894983447956381" />
    <synapse sourceNeuronName = "2" targetNeuronName = "28" weight = "13.824547611608805" />
    <synapse sourceNeuronName = "2" targetNeuronName = "29" weight = "12.870209079953224" />
    <synapse sourceNeuronName = "2" targetNeuronName = "30" weight = "0.36939007094601095" />
    <synapse sourceNeuronName = "2" targetNeuronName = "31" weight = "0.5979926475616546" />
    <synapse sourceNeuronName = "2" targetNeuronName = "32" weight = "6.446644935964195" />
    <synapse sourceNeuronName = "2" targetNeuronName = "33" weight = "10.523862450665709" />
    <synapse sourceNeuronName = "2" targetNeuronName = "34" weight = "20.551454647828724" />
    <synapse sourceNeuronName = "2" targetNeuronName = "35" weight = "12.256986405216399" />
    <synapse sourceNeuronName = "2" targetNeuronName = "36" weight = "1.6551290752231043" />
    <synapse sourceNeuronName = "2" targetNeuronName = "37" weight = "15.424205435221406" />
    <synapse sourceNeuronName = "2" targetNeuronName = "38" weight = "1.455296458744511" />
    <synapse sourceNeuronName = "2" targetNeuronName = "39" weight = "20.544129821012994" />
    <synapse sourceNeuronName = "2" targetNeuronName = "40" weight = "26.304166066934826" />
    <synapse sourceNeuronName = "2" targetNeuronName = "41" weight = "16.59997701538847" />
    <synapse sourceNeuronName = "2" targetNeuronName = "42" weight = "19.428828763048603" />
    <synapse sourceNeuronName = "2" targetNeuronName = "43" weight = "9.921025400573242" />
    <synapse sourceNeuronName = "2" targetNeuronName = "44" weight = "26.593484133840462" />
    <synapse sourceNeuronName = "3" targetNeuronName = "17" weight = "6.408014958903937" />
    <synapse sourceNeuronName = "3" targetNeuronName = "18" weight = "15.231000964511171" />
    <synapse sourceNeuronName = "3" targetNeuronName = "19" weight = "22.7960147118035" />
    <synapse sourceNeuronName = "3" targetNeuronName = "20" weight = "1.61794842053156" />
    <synapse sourceNeuronName = "3" targetNeuronName = "21" weight = "0.33370078446397855" />
    <synapse sourceNeuronName = "3" targetNeuronName = "22" weight = "23.52824015720467" />
    <synapse sourceNeuronName = "3" targetNeuronName = "23" weight = "18.583270192414684" />
    <synapse sourceNeuronName = "3" targetNeuronName = "24" weight = "0.04947360491826025" />
    <synapse sourceNeuronName = "3" targetNeuronName = "25" weight = "8.833469619506648" />
    <synapse sourceNeuronName = "3" targetNeuronName = "26" weight = "12.111320801832743" />
    <synapse sourceNeuronName = "3" targetNeuronName = "27" weight = "2.939996553596101" />
    <synapse sourceNeuronName = "3" targetNeuronName = "28" weight = "19.89830517593078" />
    <synapse sourceNeuronName = "3" targetNeuronName = "29" weight = "13.009452195297115" />
    <synapse sourceNeuronName = "3" targetNeuronName = "30" weight = "16.758886299315233" />
    <synapse sourceNeuronName = "3" targetNeuronName = "31" weight = "15.35039150182746" />
    <synapse sourceNeuronName = "3" targetNeuronName = "32" weight = "14.63814250534311" />
    <synapse sourceNeuronName = "3" targetNeuronName = "33" weight = "16.920335010550186" />
    <synapse sourceNeuronName = "3" targetNeuronName = "34" weight = "18.053526525885392" />
    <synapse sourceNeuronName = "3" targetNeuronName = "35" weight = "21.67584776046975" />
    <synapse sourceNeuronName = "3" targetNeuronName = "36" weight = "18.09481630365313" />
    <synapse sourceNeuronName = "3" targetNeuronName = "37" weight = "0.9684258668230892" />
    <synapse sourceNeuronName = "3" targetNeuronName = "38" weight = "18.623645226671655" />
    <synapse sourceNeuronName = "3" targetNeuronName = "39" weight = "14.558265512453449" />
    <synapse sourceNeuronName = "3" targetNeuronName = "40" weight = "13.217612469329291" />
    <synapse sourceNeuronName = "3" targetNeuronName = "41" weight = "5.4819713632494675" />
    <synapse sourceNeuronName = "3" targetNeuronName = "42" weight = "10.008637857119798" />
    <synapse sourceNeuronName = "3" targetNeuronName = "43" weight = "10.612136439931437" />
    <synapse sourceNeuronName = "3" targetNeuronName = "44" weight = "9.943701659091422" />
    <synapse sourceNeuronName = "4" targetNeuronName = "17" weight = "12.670273994215078" />
    <synapse sourceNeuronName = "4" targetNeuronName = "18" weight = "10.622077745030806" />
    <synapse sourceNeuronName = "4" targetNeuronName = "19" weight = "22.674738631557528" />
    <synapse sourceNeuronName = "4" targetNeuronName = "20" weight = "13.514653805846022" />
    <synapse sourceNeuronName = "4" targetNeuronName = "21" weight = "2.7272057229381343" />
    <synapse sourceNeuronName = "4" targetNeuronName = "22" weight = "15.387860629802649" />
    <synapse sourceNeuronName = "4" targetNeuronName = "23" weight = "25.88085261895858" />
    <synapse sourceNeuronName = "4" targetNeuronName = "24" weight = "13.450635530796069" />
    <synapse sourceNeuronName = "4" targetNeuronName = "25" weight = "8.438189048687182" />
    <synapse sourceNeuronName = "4" targetNeuronName = "26" weight = "1.7912102240651198" />
    <synapse sourceNeuronName = "4" targetNeuronName = "27" weight = "16.240402970914225" />
    <synapse sourceNeuronName = "4" targetNeuronName = "28" weight = "23.03375295125891" />
    <synapse sourceNeuronName = "4" targetNeuronName = "29" weight = "11.597251097158903" />
    <synapse sourceNeuronName = "4" targetNeuronName = "30" weight = "23.771277431127526" />
    <synapse sourceNeuronName = "4" targetNeuronName = "31" weight = "25.25150400117816" />
    <synapse sourceNeuronName = "4" targetNeuronName = "32" weight = "10.893278908753258" />
    <synapse sourceNeuronName = "4" targetNeuronName = "33" weight = "14.573291408579216" />
    <synapse sourceNeuronName = "4" targetNeuronName = "34" weight = "14.667661722643382" />
    <synapse sourceNeuronName = "4" targetNeuronName = "35" weight = "24.745500626862412" />
    <synapse sourceNeuronName = "4" targetNeuronName = "36" weight = "1.8563927637139321" />
    <synapse sourceNeuronName = "4" targetNeuronName = "37" weight = "19.357557538833703" />
    <synapse sourceNeuronName = "4" targetNeuronName = "38" weight = "20.72810416007224" />
    <synapse sourceNeuronName = "4" targetNeuronName = "39" weight = "8.069391249196467" />
    <synapse sourceNeuronName = "4" targetNeuronName = "40" weight = "1.5637933405632714" />
    <synapse sourceNeuronName = "4" targetNeuronName = "41" weight = "11.40169295186358" />
    <synapse sourceNeuronName = "4" targetNeuronName = "42" weight = "-0.6217592800808713" />
    <synapse sourceNeuronName = "4" targetNeuronName = "43" weight = "11.513969432524148" />
    <synapse sourceNeuronName = "4" targetNeuronName = "44" weight = "-0.04158827829366318" />
    <synapse sourceNeuronName = "5" targetNeuronName = "17" weight = "14.609803134311857" />
    <synapse sourceNeuronName = "5" targetNeuronName = "18" weight = "11.07428327247728" />
    <synapse sourceNeuronName = "5" targetNeuronName = "19" weight = "24.81331174029388" />
    <synapse sourceNeuronName = "5" targetNeuronName = "20" weight = "11.305914725767849" />
    <synapse sourceNeuronName = "5" targetNeuronName = "21" weight = "25.74697841982053" />
    <synapse sourceNeuronName = "5" targetNeuronName = "22" weight = "14.630685776880808" />
    <synapse sourceNeuronName = "5" targetNeuronName = "23" weight = "19.22539797112297" />
    <synapse sourceNeuronName = "5" targetNeuronName = "24" weight = "17.400758349554778" />
    <synapse sourceNeuronName = "5" targetNeuronName = "25" weight = "14.012150283791543" />
    <synapse sourceNeuronName = "5" targetNeuronName = "26" weight = "17.535103625303876" />
    <synapse sourceNeuronName = "5" targetNeuronName = "27" weight = "4.456654876706148" />
    <synapse sourceNeuronName = "5" targetNeuronName = "28" weight = "15.88852854311357" />
    <synapse sourceNeuronName = "5" targetNeuronName = "29" weight = "12.181523181635015" />
    <synapse sourceNeuronName = "5" targetNeuronName = "30" weight = "14.10589865484339" />
    <synapse sourceNeuronName = "5" targetNeuronName = "31" weight = "25.197221940100434" />
    <synapse sourceNeuronName = "5" targetNeuronName = "32" weight = "16.06610356287639" />
    <synapse sourceNeuronName = "5" targetNeuronName = "33" weight = "20.63083237801153" />
    <synapse sourceNeuronName = "5" targetNeuronName = "34" weight = "11.84835760251583" />
    <synapse sourceNeuronName = "5" targetNeuronName = "35" weight = "-0.808347919676351" />
    <synapse sourceNeuronName = "5" targetNeuronName = "36" weight = "11.05566531923293" />
    <synapse sourceNeuronName = "5" targetNeuronName = "37" weight = "17.166808119639473" />
    <synapse sourceNeuronName = "5" targetNeuronName = "38" weight = "-0.12980012492543125" />
    <synapse sourceNeuronName = "5" targetNeuronName = "39" weight = "2.9784294404369973" />
    <synapse sourceNeuronName = "5" targetNeuronName = "40" weight = "26.601718242618922" />
    <synapse sourceNeuronName = "5" targetNeuronName = "41" weight = "2.753967561848122" />
    <synapse sourceNeuronName = "5" targetNeuronName = "42" weight = "20.449635489867177" />
    <synapse sourceNeuronName = "5" targetNeuronName = "43" weight = "20.647494837048132" />
    <synapse sourceNeuronName = "5" targetNeuronName = "44" weight = "10.955406323555081" />
    <synapse sourceNeuronName = "6" targetNeuronName = "17" weight = "22.11614069346678" />
    <synapse sourceNeuronName = "6" targetNeuronName = "18" weight = "14.285587210686804" />
    <synapse sourceNeuronName = "6" targetNeuronName = "19" weight = "3.9221506457619775" />
    <synapse sourceNeuronName = "6" targetNeuronName = "20" weight = "6.409315432416008" />
    <synapse sourceNeuronName = "6" targetNeuronName = "21" weight = "8.358560766668296" />
    <synapse sourceNeuronName = "6" targetNeuronName = "22" weight = "11.552692071930442" />
    <synapse sourceNeuronName = "6" targetNeuronName = "23" weight = "19.830189987942855" />
    <synapse sourceNeuronName = "6" targetNeuronName = "24" weight = "23.177174471001386" />
    <synapse sourceNeuronName = "6" targetNeuronName = "25" weight = "20.73574411652004" />
    <synapse sourceNeuronName = "6" targetNeuronName = "26" weight = "5.524947460548798" />
    <synapse sourceNeuronName = "6" targetNeuronName = "27" weight = "-0.5837965270671766" />
    <synapse sourceNeuronName = "6" targetNeuronName = "28" weight = "3.9157913140935205" />
    <synapse sourceNeuronName = "6" targetNeuronName = "29" weight = "5.814487462700718" />
    <synapse sourceNeuronName = "6" targetNeuronName = "30" weight = "7.042803187790117" />
    <synapse sourceNeuronName = "6" targetNeuronName = "31" weight = "6.55048950222448" />
    <synapse sourceNeuronName = "6" targetNeuronName = "32" weight = "18.882982879662862" />
    <synapse sourceNeuronName = "6" targetNeuronName = "33" weight = "4.649271816190364" />
    <synapse sourceNeuronName = "6" targetNeuronName = "34" weight = "0.39774999597611993" />
    <synapse sourceNeuronName = "6" targetNeuronName = "35" weight = "4.765978491910353" />
    <synapse sourceNeuronName = "6" targetNeuronName = "36" weight = "6.237972777122106" />
    <synapse sourceNeuronName = "6" targetNeuronName = "37" weight = "20.563397238678284" />
    <synapse sourceNeuronName = "6" targetNeuronName = "38" weight = "9.376516101372466" />
    <synapse sourceNeuronName = "6" targetNeuronName = "39" weight = "8.836064699347425" />
    <synapse sourceNeuronName = "6" targetNeuronName = "40" weight = "20.614690272418322" />
    <synapse sourceNeuronName = "6" targetNeuronName = "41" weight = "2.8742388366120033" />
    <synapse sourceNeuronName = "6" targetNeuronName = "42" weight = "6.036522317507716" />
    <synapse sourceNeuronName = "6" targetNeuronName = "43" weight = "6.832697531622754" />
    <synapse sourceNeuronName = "6" targetNeuronName = "44" weight = "23.272400466461406" />
    <synapse sourceNeuronName = "7" targetNeuronName = "17" weight = "14.236579577513643" />
    <synapse sourceNeuronName = "7" targetNeuronName = "18" weight = "5.941098287817901" />
    <synapse sourceNeuronName = "7" targetNeuronName = "19" weight = "18.033466934925755" />
    <synapse sourceNeuronName = "7" targetNeuronName = "20" weight = "25.156238587197105" />
    <synapse sourceNeuronName = "7" targetNeuronName = "21" weight = "0.023936934349439554" />
    <synapse sourceNeuronName = "7" targetNeuronName = "22" weight = "25.417186683255423" />
    <synapse sourceNeuronName = "7" targetNeuronName = "23" weight = "15.881575541735586" />
    <synapse sourceNeuronName = "7" targetNeuronName = "24" weight = "6.207251592592375" />
    <synapse sourceNeuronName = "7" targetNeuronName = "25" weight = "23.02317939040289" />
    <synapse sourceNeuronName = "7" targetNeuronName = "26" weight = "26.44868164583284" />
    <synapse sourceNeuronName = "7" targetNeuronName = "27" weight = "4.181082207369528" />
    <synapse sourceNeuronName = "7" targetNeuronName = "28" weight = "13.52975814318216" />
    <synapse sourceNeuronName = "7" targetNeuronName = "29" weight = "19.893952298214987" />
    <synapse sourceNeuronName = "7" targetNeuronName = "30" weight = "10.946137536251243" />
    <synapse sourceNeuronName = "7" targetNeuronName = "31" weight = "9.827908907437351" />
    <synapse sourceNeuronName = "7" targetNeuronName = "32" weight = "19.024045506591058" />
    <synapse sourceNeuronName = "7" targetNeuronName = "33" weight = "5.936412388170253" />
    <synapse sourceNeuronName = "7" targetNeuronName = "34" weight = "20.554894533253098" />
    <synapse sourceNeuronName = "7" targetNeuronName = "35" weight = "13.442229879235644" />
    <synapse sourceNeuronName = "7" targetNeuronName = "36" weight = "11.047807504343663" />
    <synapse sourceNeuronName = "7" targetNeuronName = "37" weight = "18.48457106359743" />
    <synapse sourceNeuronName = "7" targetNeuronName = "38" weight = "14.57660616659367" />
    <synapse sourceNeuronName = "7" targetNeuronName = "39" weight = "26.94417600803373" />
    <synapse sourceNeuronName = "7" targetNeuronName = "40" weight = "15.017168437430016" />
    <synapse sourceNeuronName = "7" targetNeuronName = "41" weight = "24.44178222137813" />
    <synapse sourceNeuronName = "7" targetNeuronName = "42" weight = "13.87938307076954" />
    <synapse sourceNeuronName = "7" targetNeuronName = "43" weight = "23.09279162522542" />
    <synapse sourceNeuronName = "7" targetNeuronName = "44" weight = "0.4934099688935496" />
    <synapse sourceNeuronName = "8" targetNeuronName = "17" weight = "23.699744044469718" />
    <synapse sourceNeuronName = "8" targetNeuronName = "18" weight = "22.35465599724372" />
    <synapse sourceNeuronName = "8" targetNeuronName = "19" weight = "12.549670012712593" />
    <synapse sourceNeuronName = "8" targetNeuronName = "20" weight = "11.363143887910823" />
    <synapse sourceNeuronName = "8" targetNeuronName = "21" weight = "21.48403210842359" />
    <synapse sourceNeuronName = "8" targetNeuronName = "22" weight = "9.60975238574426" />
    <synapse sourceNeuronName = "8" targetNeuronName = "23" weight = "12.743689914479878" />
    <synapse sourceNeuronName = "8" targetNeuronName = "24" weight = "5.08761315624273" />
    <synapse sourceNeuronName = "8" targetNeuronName = "25" weight = "10.379216365045094" />
    <synapse sourceNeuronName = "8" targetNeuronName = "26" weight = "18.821551533480935" />
    <synapse sourceNeuronName = "8" targetNeuronName = "27" weight = "26.98137229429258" />
    <synapse sourceNeuronName = "8" targetNeuronName = "28" weight = "1.8340709493999507" />
    <synapse sourceNeuronName = "8" targetNeuronName = "29" weight = "12.210976293945752" />
    <synapse sourceNeuronName = "8" targetNeuronName = "30" weight = "22.94844430904785" />
    <synapse sourceNeuronName = "8" targetNeuronName = "31" weight = "24.757547776746527" />
    <synapse sourceNeuronName = "8" targetNeuronName = "32" weight = "10.899331700944247" />
    <synapse sourceNeuronName = "8" targetNeuronName = "33" weight = "9.645882400253896" />
    <synapse sourceNeuronName = "8" targetNeuronName = "34" weight = "2.6481900359804578" />
    <synapse sourceNeuronName = "8" targetNeuronName = "35" weight = "2.1782309882498154" />
    <synapse sourceNeuronName = "8" targetNeuronName = "36" weight = "7.912949758829802" />
    <synapse sourceNeuronName = "8" targetNeuronName = "37" weight = "18.49989884130737" />
    <synapse sourceNeuronName = "8" targetNeuronName = "38" weight = "17.239264963891003" />
    <synapse sourceNeuronName = "8" targetNeuronName = "39" weight = "12.281455826522762" />
    <synapse sourceNeuronName = "8" targetNeuronName = "40" weight = "21.287546759889995" />
    <synapse sourceNeuronName = "8" targetNeuronName = "41" weight = "8.771787588174307" />
    <synapse sourceNeuronName = "8" targetNeuronName = "42" weight = "1.9878701639434126" />
    <synapse sourceNeuronName = "8" targetNeuronName = "43" weight = "12.039877065349375" />
    <synapse sourceNeuronName = "8" targetNeuronName = "44" weight = "0.6794025668343657" />
    <synapse sourceNeuronName = "9" targetNeuronName = "17" weight = "19.367701705275365" />
    <synapse sourceNeuronName = "9" targetNeuronName = "18" weight = "12.083846875182456" />
    <synapse sourceNeuronName = "9" targetNeuronName = "19" weight = "5.524687566654016" />
    <synapse sourceNeuronName = "9" targetNeuronName = "20" weight = "24.02659843607737" />
    <synapse sourceNeuronName = "9" targetNeuronName = "21" weight = "11.187284877597708" />
    <synapse sourceNeuronName = "9" targetNeuronName = "22" weight = "0.5123266585386088" />
    <synapse sourceNeuronName = "9" targetNeuronName = "23" weight = "1.2386839112543218" />
    <synapse sourceNeuronName = "9" targetNeuronName = "24" weight = "15.821202712426008" />
    <synapse sourceNeuronName = "9" targetNeuronName = "25" weight = "22.02461193715491" />
    <synapse sourceNeuronName = "9" targetNeuronName = "26" weight = "24.178964021117828" />
    <synapse sourceNeuronName = "9" targetNeuronName = "27" weight = "16.23035109470632" />
    <synapse sourceNeuronName = "9" targetNeuronName = "28" weight = "7.924000634583944" />
    <synapse sourceNeuronName = "9" targetNeuronName = "29" weight = "26.485957932080172" />
    <synapse sourceNeuronName = "9" targetNeuronName = "30" weight = "8.753620902666304" />
    <synapse sourceNeuronName = "9" targetNeuronName = "31" weight = "14.51772826682613" />
    <synapse sourceNeuronName = "9" targetNeuronName = "32" weight = "26.343443990423953" />
    <synapse sourceNeuronName = "9" targetNeuronName = "33" weight = "24.184347758993983" />
    <synapse sourceNeuronName = "9" targetNeuronName = "34" weight = "4.97827223065905" />
    <synapse sourceNeuronName = "9" targetNeuronName = "35" weight = "0.6038281629111459" />
    <synapse sourceNeuronName = "9" targetNeuronName = "36" weight = "9.082338674916102" />
    <synapse sourceNeuronName = "9" targetNeuronName = "37" weight = "6.331994491783746" />
    <synapse sourceNeuronName = "9" targetNeuronName = "38" weight = "18.165619578070082" />
    <synapse sourceNeuronName = "9" targetNeuronName = "39" weight = "2.758242484620268" />
    <synapse sourceNeuronName = "9" targetNeuronName = "40" weight = "2.6387030808851066" />
    <synapse sourceNeuronName = "9" targetNeuronName = "41" weight = "6.8248195085171" />
    <synapse sourceNeuronName = "9" targetNeuronName = "42" weight = "1.1146464684353004" />
    <synapse sourceNeuronName = "9" targetNeuronName = "43" weight = "15.260120880284735" />
    <synapse sourceNeuronName = "9" targetNeuronName = "44" weight = "16.607172503476885" />
    <synapse sourceNeuronName = "10" targetNeuronName = "17" weight = "4.652373200353226" />
    <synapse sourceNeuronName = "10" targetNeuronName = "18" weight = "18.17759892037649" />
    <synapse sourceNeuronName = "10" targetNeuronName = "19" weight = "0.5755766848574932" />
    <synapse sourceNeuronName = "10" targetNeuronName = "20" weight = "11.182430300441364" />
    <synapse sourceNeuronName = "10" targetNeuronName = "21" weight = "3.586552236602139" />
    <synapse sourceNeuronName = "10" targetNeuronName = "22" weight = "19.116737254958707" />
    <synapse sourceNeuronName = "10" targetNeuronName = "23" weight = "8.012579148064248" />
    <synapse sourceNeuronName = "10" targetNeuronName = "24" weight = "26.273536635968004" />
    <synapse sourceNeuronName = "10" targetNeuronName = "25" weight = "16.734711757900502" />
    <synapse sourceNeuronName = "10" targetNeuronName = "26" weight = "23.68765951868537" />
    <synapse sourceNeuronName = "10" targetNeuronName = "27" weight = "11.412711750244506" />
    <synapse sourceNeuronName = "10" targetNeuronName = "28" weight = "16.4329601168007" />
    <synapse sourceNeuronName = "10" targetNeuronName = "29" weight = "17.561111822204072" />
    <synapse sourceNeuronName = "10" targetNeuronName = "30" weight = "20.518298134446372" />
    <synapse sourceNeuronName = "10" targetNeuronName = "31" weight = "12.823600737759326" />
    <synapse sourceNeuronName = "10" targetNeuronName = "32" weight = "2.759977004752247" />
    <synapse sourceNeuronName = "10" targetNeuronName = "33" weight = "7.487707946460471" />
    <synapse sourceNeuronName = "10" targetNeuronName = "34" weight = "26.418589797898207" />
    <synapse sourceNeuronName = "10" targetNeuronName = "35" weight = "20.78942089009858" />
    <synapse sourceNeuronName = "10" targetNeuronName = "36" weight = "15.36929141532103" />
    <synapse sourceNeuronName = "10" targetNeuronName = "37" weight = "7.389633358182184" />
    <synapse sourceNeuronName = "10" targetNeuronName = "38" weight = "13.977335704868455" />
    <synapse sourceNeuronName = "10" targetNeuronName = "39" weight = "19.189122487098157" />
    <synapse sourceNeuronName = "10" targetNeuronName = "40" weight = "2.463673506919343" />
    <synapse sourceNeuronName = "10" targetNeuronName = "41" weight = "23.003157394081036" />
    <synapse sourceNeuronName = "10" targetNeuronName = "42" weight = "18.602628375589447" />
    <synapse sourceNeuronName = "10" targetNeuronName = "43" weight = "1.6548699702624363" />
    <synapse sourceNeuronName = "10" targetNeuronName = "44" weight = "18.113494074747358" />
    <synapse sourceNeuronName = "11" targetNeuronName = "17" weight = "18.23859043976" />
    <synapse sourceNeuronName = "11" targetNeuronName = "18" weight = "15.310814605888954" />
    <synapse sourceNeuronName = "11" targetNeuronName = "19" weight = "3.5456753848264544" />
    <synapse sourceNeuronName = "11" targetNeuronName = "20" weight = "12.84801370017526" />
    <synapse sourceNeuronName = "11" targetNeuronName = "21" weight = "9.982792450615541" />
    <synapse sourceNeuronName = "11" targetNeuronName = "22" weight = "26.66791041034791" />
    <synapse sourceNeuronName = "11" targetNeuronName = "23" weight = "6.896641461019454" />
    <synapse sourceNeuronName = "11" targetNeuronName = "24" weight = "2.355499386396179" />
    <synapse sourceNeuronName = "11" targetNeuronName = "25" weight = "10.10277586954162" />
    <synapse sourceNeuronName = "11" targetNeuronName = "26" weight = "13.992375630274415" />
    <synapse sourceNeuronName = "11" targetNeuronName = "27" weight = "17.981912949641337" />
    <synapse sourceNeuronName = "11" targetNeuronName = "28" weight = "9.895270249308911" />
    <synapse sourceNeuronName = "11" targetNeuronName = "29" weight = "19.943415710131077" />
    <synapse sourceNeuronName = "11" targetNeuronName = "30" weight = "-0.8015522071271275" />
    <synapse sourceNeuronName = "11" targetNeuronName = "31" weight = "17.232389028986198" />
    <synapse sourceNeuronName = "11" targetNeuronName = "32" weight = "22.088433302307113" />
    <synapse sourceNeuronName = "11" targetNeuronName = "33" weight = "0.9299806854005386" />
    <synapse sourceNeuronName = "11" targetNeuronName = "34" weight = "22.29813687363888" />
    <synapse sourceNeuronName = "11" targetNeuronName = "35" weight = "26.00652405073624" />
    <synapse sourceNeuronName = "11" targetNeuronName = "36" weight = "9.49793876895519" />
    <synapse sourceNeuronName = "11" targetNeuronName = "37" weight = "15.30142451469274" />
    <synapse sourceNeuronName = "11" targetNeuronName = "38" weight = "1.0428857840956298" />
    <synapse sourceNeuronName = "11" targetNeuronName = "39" weight = "-0.9912848051117775" />
    <synapse sourceNeuronName = "11" targetNeuronName = "40" weight = "21.746919780435995" />
    <synapse sourceNeuronName = "11" targetNeuronName = "41" weight = "0.49477940252340336" />
    <synapse sourceNeuronName = "11" targetNeuronName = "42" weight = "16.9855119896265" />
    <synapse sourceNeuronName = "11" targetNeuronName = "43" weight = "0.4092784410493935" />
    <synapse sourceNeuronName = "11" targetNeuronName = "44" weight = "7.186368285523619" />
    <synapse sourceNeuronName = "12" targetNeuronName = "17" weight = "16.848615963538048" />
    <synapse sourceNeuronName = "12" targetNeuronName = "18" weight = "1.243718754455232" />
    <synapse sourceNeuronName = "12" targetNeuronName = "19" weight = "1.1328544607704334" />
    <synapse sourceNeuronName = "12" targetNeuronName = "20" weight = "18.29112322292303" />
    <synapse sourceNeuronName = "12" targetNeuronName = "21" weight = "18.24186850575597" />
    <synapse sourceNeuronName = "12" targetNeuronName = "22" weight = "22.2322584938153" />
    <synapse sourceNeuronName = "12" targetNeuronName = "23" weight = "3.19874826875888" />
    <synapse sourceNeuronName = "12" targetNeuronName = "24" weight = "10.550455999120896" />
    <synapse sourceNeuronName = "12" targetNeuronName = "25" weight = "25.335543404292693" />
    <synapse sourceNeuronName = "12" targetNeuronName = "26" weight = "4.001824526254477" />
    <synapse sourceNeuronName = "12" targetNeuronName = "27" weight = "7.898354232259299" />
    <synapse sourceNeuronName = "12" targetNeuronName = "28" weight = "9.40879138906353" />
    <synapse sourceNeuronName = "12" targetNeuronName = "29" weight = "9.764821264516934" />
    <synapse sourceNeuronName = "12" targetNeuronName = "30" weight = "25.05600503845192" />
    <synapse sourceNeuronName = "12" targetNeuronName = "31" weight = "22.08097392709169" />
    <synapse sourceNeuronName = "12" targetNeuronName = "32" weight = "13.574263818997872" />
    <synapse sourceNeuronName = "12" targetNeuronName = "33" weight = "19.931491017440017" />
    <synapse sourceNeuronName = "12" targetNeuronName = "34" weight = "15.23645829949854" />
    <synapse sourceNeuronName = "12" targetNeuronName = "35" weight = "7.225797744430583" />
    <synapse sourceNeuronName = "12" targetNeuronName = "36" weight = "3.7987161000252243" />
    <synapse sourceNeuronName = "12" targetNeuronName = "37" weight = "10.567420210721309" />
    <synapse sourceNeuronName = "12" targetNeuronName = "38" weight = "1.582702349906599" />
    <synapse sourceNeuronName = "12" targetNeuronName = "39" weight = "11.929770242140604" />
    <synapse sourceNeuronName = "12" targetNeuronName = "40" weight = "18.470167058096834" />
    <synapse sourceNeuronName = "12" targetNeuronName = "41" weight = "18.1900478867691" />
    <synapse sourceNeuronName = "12" targetNeuronName = "42" weight = "0.4774010360273917" />
    <synapse sourceNeuronName = "12" targetNeuronName = "43" weight = "1.3549999311768595" />
    <synapse sourceNeuronName = "12" targetNeuronName = "44" weight = "24.270802574222202" />
    <synapse sourceNeuronName = "13" targetNeuronName = "17" weight = "16.17499717054106" />
    <synapse sourceNeuronName = "13" targetNeuronName = "18" weight = "9.142094277816563" />
    <synapse sourceNeuronName = "13" targetNeuronName = "19" weight = "21.101581339917427" />
    <synapse sourceNeuronName = "13" targetNeuronName = "20" weight = "3.006460602664175" />
    <synapse sourceNeuronName = "13" targetNeuronName = "21" weight = "23.42157479296784" />
    <synapse sourceNeuronName = "13" targetNeuronName = "22" weight = "12.193467692218071" />
    <synapse sourceNeuronName = "13" targetNeuronName = "23" weight = "0.9287596547731805" />
    <synapse sourceNeuronName = "13" targetNeuronName = "24" weight = "13.157150847508856" />
    <synapse sourceNeuronName = "13" targetNeuronName = "25" weight = "2.8398594624900357" />
    <synapse sourceNeuronName = "13" targetNeuronName = "26" weight = "3.601357004033286" />
    <synapse sourceNeuronName = "13" targetNeuronName = "27" weight = "2.26156592822058" />
    <synapse sourceNeuronName = "13" targetNeuronName = "28" weight = "11.7287356820151" />
    <synapse sourceNeuronName = "13" targetNeuronName = "29" weight = "18.608079541308054" />
    <synapse sourceNeuronName = "13" targetNeuronName = "30" weight = "22.13815080853987" />
    <synapse sourceNeuronName = "13" targetNeuronName = "31" weight = "13.060431230156224" />
    <synapse sourceNeuronName = "13" targetNeuronName = "32" weight = "0.13169896430527528" />
    <synapse sourceNeuronName = "13" targetNeuronName = "33" weight = "13.527060088334697" />
    <synapse sourceNeuronName = "13" targetNeuronName = "34" weight = "5.195175235212773" />
    <synapse sourceNeuronName = "13" targetNeuronName = "35" weight = "1.4011366355357784" />
    <synapse sourceNeuronName = "13" targetNeuronName = "36" weight = "3.6212033185800276" />
    <synapse sourceNeuronName = "13" targetNeuronName = "37" weight = "15.688714238313825" />
    <synapse sourceNeuronName = "13" targetNeuronName = "38" weight = "4.2957117532790665" />
    <synapse sourceNeuronName = "13" targetNeuronName = "39" weight = "3.978811578458796" />
    <synapse sourceNeuronName = "13" targetNeuronName = "40" weight = "18.37072732932765" />
    <synapse sourceNeuronName = "13" targetNeuronName = "41" weight = "25.70652676200332" />
    <synapse sourceNeuronName = "13" targetNeuronName = "42" weight = "14.185715133625944" />
    <synapse sourceNeuronName = "13" targetNeuronName = "43" weight = "5.614886406419648" />
    <synapse sourceNeuronName = "13" targetNeuronName = "44" weight = "17.622233267607633" />
    <synapse sourceNeuronName = "14" targetNeuronName = "17" weight = "26.3239212792524" />
    <synapse sourceNeuronName = "14" targetNeuronName = "18" weight = "26.303022888716345" />
    <synapse sourceNeuronName = "14" targetNeuronName = "19" weight = "18.01762094521192" />
    <synapse sourceNeuronName = "14" targetNeuronName = "20" weight = "8.707635831203186" />
    <synapse sourceNeuronName = "14" targetNeuronName = "21" weight = "7.725833599244787" />
    <synapse sourceNeuronName = "14" targetNeuronName = "22" weight = "3.8034013825179853" />
    <synapse sourceNeuronName = "14" targetNeuronName = "23" weight = "18.206508688005115" />
    <synapse sourceNeuronName = "14" targetNeuronName = "24" weight = "5.9647087676250425" />
    <synapse sourceNeuronName = "14" targetNeuronName = "25" weight = "2.2597180474530805" />
    <synapse sourceNeuronName = "14" targetNeuronName = "26" weight = "18.263946822820515" />
    <synapse sourceNeuronName = "14" targetNeuronName = "27" weight = "18.021816056041278" />
    <synapse sourceNeuronName = "14" targetNeuronName = "28" weight = "24.862130249263497" />
    <synapse sourceNeuronName = "14" targetNeuronName = "29" weight = "18.4027391495223" />
    <synapse sourceNeuronName = "14" targetNeuronName = "30" weight = "17.758224160335253" />
    <synapse sourceNeuronName = "14" targetNeuronName = "31" weight = "18.57862253900994" />
    <synapse sourceNeuronName = "14" targetNeuronName = "32" weight = "19.46801513536034" />
    <synapse sourceNeuronName = "14" targetNeuronName = "33" weight = "22.145955432609743" />
    <synapse sourceNeuronName = "14" targetNeuronName = "34" weight = "0.9251574281536108" />
    <synapse sourceNeuronName = "14" targetNeuronName = "35" weight = "26.454308073638533" />
    <synapse sourceNeuronName = "14" targetNeuronName = "36" weight = "16.101192599193567" />
    <synapse sourceNeuronName = "14" targetNeuronName = "37" weight = "2.134374029348947" />
    <synapse sourceNeuronName = "14" targetNeuronName = "38" weight = "5.373523440265802" />
    <synapse sourceNeuronName = "14" targetNeuronName = "39" weight = "2.6317173738555044" />
    <synapse sourceNeuronName = "14" targetNeuronName = "40" weight = "4.255013809798367" />
    <synapse sourceNeuronName = "14" targetNeuronName = "41" weight = "5.510278053439574" />
    <synapse sourceNeuronName = "14" targetNeuronName = "42" weight = "26.10669340423962" />
    <synapse sourceNeuronName = "14" targetNeuronName = "43" weight = "16.88716527616811" />
    <synapse sourceNeuronName = "14" targetNeuronName = "44" weight = "18.991894902766607" />
    <synapse sourceNeuronName = "15" targetNeuronName = "17" weight = "13.404680621083573" />
    <synapse sourceNeuronName = "15" targetNeuronName = "18" weight = "3.234203203912145" />
    <synapse sourceNeuronName = "15" targetNeuronName = "19" weight = "5.511020757031463" />
    <synapse sourceNeuronName = "15" targetNeuronName = "20" weight = "25.179141797904748" />
    <synapse sourceNeuronName = "15" targetNeuronName = "21" weight = "8.355468565143633" />
    <synapse sourceNeuronName = "15" targetNeuronName = "22" weight = "4.831965266016741" />
    <synapse sourceNeuronName = "15" targetNeuronName = "23" weight = "11.454323059796058" />
    <synapse sourceNeuronName = "15" targetNeuronName = "24" weight = "14.368631029605766" />
    <synapse sourceNeuronName = "15" targetNeuronName = "25" weight = "25.48992972728552" />
    <synapse sourceNeuronName = "15" targetNeuronName = "26" weight = "23.452838035507014" />
    <synapse sourceNeuronName = "15" targetNeuronName = "27" weight = "7.620168087878747" />
    <synapse sourceNeuronName = "15" targetNeuronName = "28" weight = "12.993064479758178" />
    <synapse sourceNeuronName = "15" targetNeuronName = "29" weight = "12.089578113481657" />
    <synapse sourceNeuronName = "15" targetNeuronName = "30" weight = "24.449412079435646" />
    <synapse sourceNeuronName = "15" targetNeuronName = "31" weight = "13.569969273322878" />
    <synapse sourceNeuronName = "15" targetNeuronName = "32" weight = "2.633764311017732" />
    <synapse sourceNeuronName = "15" targetNeuronName = "33" weight = "21.76365126869738" />
    <synapse sourceNeuronName = "15" targetNeuronName = "34" weight = "5.310423970070399" />
    <synapse sourceNeuronName = "15" targetNeuronName = "35" weight = "4.439665668133378" />
    <synapse sourceNeuronName = "15" targetNeuronName = "36" weight = "-0.16851504143675022" />
    <synapse sourceNeuronName = "15" targetNeuronName = "37" weight = "10.602137515850814" />
    <synapse sourceNeuronName = "15" targetNeuronName = "38" weight = "9.728173919288816" />
    <synapse sourceNeuronName = "15" targetNeuronName = "39" weight = "5.95805267009292" />
    <synapse sourceNeuronName = "15" targetNeuronName = "40" weight = "16.12207220069893" />
    <synapse sourceNeuronName = "15" targetNeuronName = "41" weight = "9.165950693820506" />
    <synapse sourceNeuronName = "15" targetNeuronName = "42" weight = "21.83275603744782" />
    <synapse sourceNeuronName = "15" targetNeuronName = "43" weight = "15.378745711545992" />
    <synapse sourceNeuronName = "15" targetNeuronName = "44" weight = "10.601357793046885" />
    <synapse sourceNeuronName = "16" targetNeuronName = "17" weight = "22.42228533579422" />
    <synapse sourceNeuronName = "16" targetNeuronName = "18" weight = "-0.6257539281849764" />
    <synapse sourceNeuronName = "16" targetNeuronName = "19" weight = "26.056677825234942" />
    <synapse sourceNeuronName = "16" targetNeuronName = "20" weight = "14.677349340077068" />
    <synapse sourceNeuronName = "16" targetNeuronName = "21" weight = "23.37710545980922" />
    <synapse sourceNeuronName = "16" targetNeuronName = "22" weight = "25.627128195989236" />
    <synapse sourceNeuronName = "16" targetNeuronName = "23" weight = "15.204153607669483" />
    <synapse sourceNeuronName = "16" targetNeuronName = "24" weight = "2.4084835077482727" />
    <synapse sourceNeuronName = "16" targetNeuronName = "25" weight = "15.721406399134171" />
    <synapse sourceNeuronName = "16" targetNeuronName = "26" weight = "25.13251748435138" />
    <synapse sourceNeuronName = "16" targetNeuronName = "27" weight = "18.996125606865427" />
    <synapse sourceNeuronName = "16" targetNeuronName = "28" weight = "26.14996590323203" />
    <synapse sourceNeuronName = "16" targetNeuronName = "29" weight = "20.00178052266835" />
    <synapse sourceNeuronName = "16" targetNeuronName = "30" weight = "25.602457262743048" />
    <synapse sourceNeuronName = "16" targetNeuronName = "31" weight = "-0.775051263767256" />
    <synapse sourceNeuronName = "16" targetNeuronName = "32" weight = "13.933680316911836" />
    <synapse sourceNeuronName = "16" targetNeuronName = "33" weight = "1.9109916990592986" />
    <synapse sourceNeuronName = "16" targetNeuronName = "34" weight = "2.539455666123838" />
    <synapse sourceNeuronName = "16" targetNeuronName = "35" weight = "19.086196810901917" />
    <synapse sourceNeuronName = "16" targetNeuronName = "36" weight = "13.867151157337023" />
    <synapse sourceNeuronName = "16" targetNeuronName = "37" weight = "19.168759917870673" />
    <synapse sourceNeuronName = "16" targetNeuronName = "38" weight = "24.68030761737859" />
    <synapse sourceNeuronName = "16" targetNeuronName = "39" weight = "17.341732182474733" />
    <synapse sourceNeuronName = "16" targetNeuronName = "40" weight = "22.48107504870626" />
    <synapse sourceNeuronName = "16" targetNeuronName = "41" weight = "7.6048232582037105" />
    <synapse sourceNeuronName = "16" targetNeuronName = "42" weight = "21.648439467497752" />
    <synapse sourceNeuronName = "16" targetNeuronName = "43" weight = "0.5918951101316638" />
    <synapse sourceNeuronName = "16" targetNeuronName = "44" weight = "4.28644841448607" />
</neuralNetwork>