<neuralNetwork>
    <neuron name = "0" type = "sensor" linkName = "Torso" />
    <neuron name = "1" type = "sensor" linkName = "Leg2" />
    <neuron name = "2" type = "sensor" linkName = "Leg3" />
    <neuron name = "3" type = "sensor" linkName = "Leg6" />
    <neuron name = "4" type = "sensor" linkName = "Leg9" />
    <neuron name = "5" type = "sensor" linkName = "Leg15" />
    <neuron name = "6" type = "sensor" linkName = "Leg17" />
    <neuron name = "7" type = "sensor" linkName = "Leg21" />
    <neuron name = "8" type = "sensor" linkName = "Leg22" />
    <neuron name = "9" type = "sensor" linkName = "Leg23" />
    <neuron name = "10" type = "sensor" linkName = "Leg25" />
    <neuron name = "11" type = "motor"  jointName = "Torso_Leg1" />
    <neuron name = "12" type = "motor"  jointName = "Leg1_Leg2" />
    <neuron name = "13" type = "motor"  jointName = "Torso_Leg3" />
    <neuron name = "14" type = "motor"  jointName = "Leg1_Leg4" />
    <neuron name = "15" type = "motor"  jointName = "Leg4_Leg5" />
    <neuron name = "16" type = "motor"  jointName = "Leg4_Leg6" />
    <neuron name = "17" type = "motor"  jointName = "Leg2_Leg7" />
    <neuron name = "18" type = "motor"  jointName = "Leg3_Leg8" />
    <neuron name = "19" type = "motor"  jointName = "Leg3_Leg9" />
    <neuron name = "20" type = "motor"  jointName = "Torso_Leg10" />
    <neuron name = "21" type = "motor"  jointName = "Leg10_Leg11" />
    <neuron name = "22" type = "motor"  jointName = "Leg4_Leg12" />
    <neuron name = "23" type = "motor"  jointName = "Leg12_Leg13" />
    <neuron name = "24" type = "motor"  jointName = "Leg2_Leg14" />
    <neuron name = "25" type = "motor"  jointName = "Leg11_Leg15" />
    <neuron name = "26" type = "motor"  jointName = "Leg8_Leg16" />
    <neuron name = "27" type = "motor"  jointName = "Leg6_Leg17" />
    <neuron name = "28" type = "motor"  jointName = "Leg14_Leg18" />
    <neuron name = "29" type = "motor"  jointName = "Leg5_Leg19" />
    <neuron name = "30" type = "motor"  jointName = "Leg15_Leg20" />
    <neuron name = "31" type = "motor"  jointName = "Leg18_Leg21" />
    <neuron name = "32" type = "motor"  jointName = "Leg8_Leg22" />
    <neuron name = "33" type = "motor"  jointName = "Leg17_Leg23" />
    <neuron name = "34" type = "motor"  jointName = "Leg3_Leg24" />
    <neuron name = "35" type = "motor"  jointName = "Leg9_Leg25" />
    <synapse sourceNeuronName = "0" targetNeuronName = "11" weight = "21.896955552370173" />
    <synapse sourceNeuronName = "0" targetNeuronName = "12" weight = "4.140334927482554" />
    <synapse sourceNeuronName = "0" targetNeuronName = "13" weight = "10.229495429016954" />
    <synapse sourceNeuronName = "0" targetNeuronName = "14" weight = "4.059154485858178" />
    <synapse sourceNeuronName = "0" targetNeuronName = "15" weight = "18.859576986892467" />
    <synapse sourceNeuronName = "0" targetNeuronName = "16" weight = "17.874708773644983" />
    <synapse sourceNeuronName = "0" targetNeuronName = "17" weight = "1.031957904802689" />
    <synapse sourceNeuronName = "0" targetNeuronName = "18" weight = "4.456256306201984" />
    <synapse sourceNeuronName = "0" targetNeuronName = "19" weight = "6.405642167066387" />
    <synapse sourceNeuronName = "0" targetNeuronName = "20" weight = "10.06138561548664" />
    <synapse sourceNeuronName = "0" targetNeuronName = "21" weight = "16.600732031847354" />
    <synapse sourceNeuronName = "0" targetNeuronName = "22" weight = "1.47974444886023" />
    <synapse sourceNeuronName = "0" targetNeuronName = "23" weight = "3.74287373169725" />
    <synapse sourceNeuronName = "0" targetNeuronName = "24" weight = "16.28890211098686" />
    <synapse sourceNeuronName = "0" targetNeuronName = "25" weight = "-0.7629444013114652" />
    <synapse sourceNeuronName = "0" targetNeuronName = "26" weight = "22.786141438736898" />
    <synapse sourceNeuronName = "0" targetNeuronName = "27" weight = "9.113580650720191" />
    <synapse sourceNeuronName = "0" targetNeuronName = "28" weight = "19.204070192016474" />
    <synapse sourceNeuronName = "0" targetNeuronName = "29" weight = "10.118216892630015" />
    <synapse sourceNeuronName = "0" targetNeuronName = "30" weight = "18.44004725256314" />
    <synapse sourceNeuronName = "0" targetNeuronName = "31" weight = "11.195705491107175" />
    <synapse sourceNeuronName = "0" targetNeuronName = "32" weight = "20.94805880407017" />
    <synapse sourceNeuronName = "0" targetNeuronName = "33" weight = "19.690632083460258" />
    <synapse sourceNeuronName = "0" targetNeuronName = "34" weight = "22.524218670518337" />
    <synapse sourceNeuronName = "0" targetNeuronName = "35" weight = "4.046075295238481" />
    <synapse sourceNeuronName = "1" targetNeuronName = "11" weight = "10.546607417358757" />
    <synapse sourceNeuronName = "1" targetNeuronName = "12" weight = "8.115175895630252" />
    <synapse sourceNeuronName = "1" targetNeuronName = "13" weight = "17.72201893302236" />
    <synapse sourceNeuronName = "1" targetNeuronName = "14" weight = "1.8495851935358503" />
    <synapse sourceNeuronName = "1" targetNeuronName = "15" weight = "22.070106782938694" />
    <synapse sourceNeuronName = "1" targetNeuronName = "16" weight = "20.833876262505036" />
    <synapse sourceNeuronName = "1" targetNeuronName = "17" weight = "8.208226336343953" />
    <synapse sourceNeuronName = "1" targetNeuronName = "18" weight = "-0.4158993497442023" />
    <synapse sourceNeuronName = "1" targetNeuronName = "19" weight = "14.635969963001143" />
    <synapse sourceNeuronName = "1" targetNeuronName = "20" weight = "17.87778841842834" />
    <synapse sourceNeuronName = "1" targetNeuronName = "21" weight = "21.614933734622802" />
    <synapse sourceNeuronName = "1" targetNeuronName = "22" weight = "21.98489692676597" />
    <synapse sourceNeuronName = "1" targetNeuronName = "23" weight = "9.118839771448235" />
    <synapse sourceNeuronName = "1" targetNeuronName = "24" weight = "6.25552248358704" />
    <synapse sourceNeuronName = "1" targetNeuronName = "25" weight = "22.358099704487774" />
    <synapse sourceNeuronName = "1" targetNeuronName = "26" weight = "19.004509000133417" />
    <synapse sourceNeuronName = "1" targetNeuronName = "27" weight = "15.527070533126668" />
    <synapse sourceNeuronName = "1" targetNeuronName = "28" weight = "22.09914826090788" />
    <synapse sourceNeuronName = "1" targetNeuronName = "29" weight = "6.657032068380564" />
    <synapse sourceNeuronName = "1" targetNeuronName = "30" weight = "10.12277802578425" />
    <synapse sourceNeuronName = "1" targetNeuronName = "31" weight = "12.330513270007133" />
    <synapse sourceNeuronName = "1" targetNeuronName = "32" weight = "23.23306192170945" />
    <synapse sourceNeuronName = "1" targetNeuronName = "33" weight = "-0.4734290270982646" />
    <synapse sourceNeuronName = "1" targetNeuronName = "34" weight = "16.0494997986765" />
    <synapse sourceNeuronName = "1" targetNeuronName = "35" weight = "4.616866148499272" />
    <synapse sourceNeuronName = "2" targetNeuronName = "11" weight = "22.314553570862817" />
    <synapse sourceNeuronName = "2" targetNeuronName = "12" weight = "18.99970495525162" />
    <synapse sourceNeuronName = "2" targetNeuronName = "13" weight = "14.467309260719814" />
    <synapse sourceNeuronName = "2" targetNeuronName = "14" weight = "21.00770811195076" />
    <synapse sourceNeuronName = "2" targetNeuronName = "15" weight = "19.043012572475945" />
    <synapse sourceNeuronName = "2" targetNeuronName = "16" weight = "16.303684654198157" />
    <synapse sourceNeuronName = "2" targetNeuronName = "17" weight = "20.448890285790124" />
    <synapse sourceNeuronName = "2" targetNeuronName = "18" weight = "-0.627685148680381" />
    <synapse sourceNeuronName = "2" targetNeuronName = "19" weight = "0.032977155546535464" />
    <synapse sourceNeuronName = "2" targetNeuronName = "20" weight = "19.232181856478178" />
    <synapse sourceNeuronName = "2" targetNeuronName = "21" weight = "2.0591551595862576" />
    <synapse sourceNeuronName = "2" targetNeuronName = "22" weight = "8.187733384357557" />
    <synapse sourceNeuronName = "2" targetNeuronName = "23" weight = "1.0891660779035925" />
    <synapse sourceNeuronName = "2" targetNeuronName = "24" weight = "3.2855897428194183" />
    <synapse sourceNeuronName = "2" targetNeuronName = "25" weight = "23.059017681775135" />
    <synapse sourceNeuronName = "2" targetNeuronName = "26" weight = "6.075689714891617" />
    <synapse sourceNeuronName = "2" targetNeuronName = "27" weight = "16.5345805881849" />
    <synapse sourceNeuronName = "2" targetNeuronName = "28" weight = "12.617246967929168" />
    <synapse sourceNeuronName = "2" targetNeuronName = "29" weight = "19.23941342007025" />
    <synapse sourceNeuronName = "2" targetNeuronName = "30" weight = "11.740781691886946" />
    <synapse sourceNeuronName = "2" targetNeuronName = "31" weight = "12.041939602912574" />
    <synapse sourceNeuronName = "2" targetNeuronName = "32" weight = "17.49382717525268" />
    <synapse sourceNeuronName = "2" targetNeuronName = "33" weight = "20.83093152258358" />
    <synapse sourceNeuronName = "2" targetNeuronName = "34" weight = "9.072527228119679" />
    <synapse sourceNeuronName = "2" targetNeuronName = "35" weight = "8.770812562405705" />
    <synapse sourceNeuronName = "3" targetNeuronName = "11" weight = "5.547013074498093" />
    <synapse sourceNeuronName = "3" targetNeuronName = "12" weight = "-0.2700539531261916" />
    <synapse sourceNeuronName = "3" targetNeuronName = "13" weight = "12.253526601756748" />
    <synapse sourceNeuronName = "3" targetNeuronName = "14" weight = "8.482736363810934" />
    <synapse sourceNeuronName = "3" targetNeuronName = "15" weight = "2.9777774570446955" />
    <synapse sourceNeuronName = "3" targetNeuronName = "16" weight = "16.818213107901872" />
    <synapse sourceNeuronName = "3" targetNeuronName = "17" weight = "0.7076918716544098" />
    <synapse sourceNeuronName = "3" targetNeuronName = "18" weight = "5.55055732094392" />
    <synapse sourceNeuronName = "3" targetNeuronName = "19" weight = "3.906187902874101" />
    <synapse sourceNeuronName = "3" targetNeuronName = "20" weight = "18.776176829107886" />
    <synapse sourceNeuronName = "3" targetNeuronName = "21" weight = "7.340014386591523" />
    <synapse sourceNeuronName = "3" targetNeuronName = "22" weight = "21.083275512523343" />
    <synapse sourceNeuronName = "3" targetNeuronName = "23" weight = "14.934949993775335" />
    <synapse sourceNeuronName = "3" targetNeuronName = "24" weight = "10.75267589209486" />
    <synapse sourceNeuronName = "3" targetNeuronName = "25" weight = "22.353638321620924" />
    <synapse sourceNeuronName = "3" targetNeuronName = "26" weight = "18.101562078130122" />
    <synapse sourceNeuronName = "3" targetNeuronName = "27" weight = "12.997449037071718" />
    <synapse sourceNeuronName = "3" targetNeuronName = "28" weight = "3.4086584140852256" />
    <synapse sourceNeuronName = "3" targetNeuronName = "29" weight = "6.040394351303714" />
    <synapse sourceNeuronName = "3" targetNeuronName = "30" weight = "19.235355055292423" />
    <synapse sourceNeuronName = "3" targetNeuronName = "31" weight = "6.020216652564903" />
    <synapse sourceNeuronName = "3" targetNeuronName = "32" weight = "21.1762594343633" />
    <synapse sourceNeuronName = "3" targetNeuronName = "33" weight = "5.990612355135767" />
    <synapse sourceNeuronName = "3" targetNeuronName = "34" weight = "4.167645573950735" />
    <synapse sourceNeuronName = "3" targetNeuronName = "35" weight = "14.766078998183641" />
    <synapse sourceNeuronName = "4" targetNeuronName = "11" weight = "5.268021719150058" />
    <synapse sourceNeuronName = "4" targetNeuronName = "12" weight = "19.294697747174858" />
    <synapse sourceNeuronName = "4" targetNeuronName = "13" weight = "6.809676518033718" />
    <synapse sourceNeuronName = "4" targetNeuronName = "14" weight = "19.854944550936835" />
    <synapse sourceNeuronName = "4" targetNeuronName = "15" weight = "21.41448124880606" />
    <synapse sourceNeuronName = "4" targetNeuronName = "16" weight = "16.825781657668465" />
    <synapse sourceNeuronName = "4" targetNeuronName = "17" weight = "6.061679771166318" />
    <synapse sourceNeuronName = "4" targetNeuronName = "18" weight = "0.9460054597400189" />
    <synapse sourceNeuronName = "4" targetNeuronName = "19" weight = "-0.04259936793309016" />
    <synapse sourceNeuronName = "4" targetNeuronName = "20" weight = "12.256125660504962" />
    <synapse sourceNeuronName = "4" targetNeuronName = "21" weight = "4.525140866019288" />
    <synapse sourceNeuronName = "4" targetNeuronName = "22" weight = "11.474224683680518" />
    <synapse sourceNeuronName = "4" targetNeuronName = "23" weight = "12.271955154407145" />
    <synapse sourceNeuronName = "4" targetNeuronName = "24" weight = "17.127526567675623" />
    <synapse sourceNeuronName = "4" targetNeuronName = "25" weight = "6.469279474620333" />
    <synapse sourceNeuronName = "4" targetNeuronName = "26" weight = "3.9989278975504563" />
    <synapse sourceNeuronName = "4" targetNeuronName = "27" weight = "-0.9775427524660976" />
    <synapse sourceNeuronName = "4" targetNeuronName = "28" weight = "18.117245559303495" />
    <synapse sourceNeuronName = "4" targetNeuronName = "29" weight = "15.067651129258891" />
    <synapse sourceNeuronName = "4" targetNeuronName = "30" weight = "18.75932357759966" />
    <synapse sourceNeuronName = "4" targetNeuronName = "31" weight = "9.667246318728807" />
    <synapse sourceNeuronName = "4" targetNeuronName = "32" weight = "1.1538998507135227" />
    <synapse sourceNeuronName = "4" targetNeuronName = "33" weight = "11.361627236308303" />
    <synapse sourceNeuronName = "4" targetNeuronName = "34" weight = "15.282387378580115" />
    <synapse sourceNeuronName = "4" targetNeuronName = "35" weight = "7.551395777901533" />
    <synapse sourceNeuronName = "5" targetNeuronName = "11" weight = "20.049921405329734" />
    <synapse sourceNeuronName = "5" targetNeuronName = "12" weight = "6.110867971057402" />
    <synapse sourceNeuronName = "5" targetNeuronName = "13" weight = "18.97648660698523" />
    <synapse sourceNeuronName = "5" targetNeuronName = "14" weight = "21.346810551501513" />
    <synapse sourceNeuronName = "5" targetNeuronName = "15" weight = "6.556868459366339" />
    <synapse sourceNeuronName = "5" targetNeuronName = "16" weight = "22.46431177424491" />
    <synapse sourceNeuronName = "5" targetNeuronName = "17" weight = "12.459188059702361" />
    <synapse sourceNeuronName = "5" targetNeuronName = "18" weight = "9.411947503835686" />
    <synapse sourceNeuronName = "5" targetNeuronName = "19" weight = "16.125624831843822" />
    <synapse sourceNeuronName = "5" targetNeuronName = "20" weight = "11.705646127607913" />
    <synapse sourceNeuronName = "5" targetNeuronName = "21" weight = "20.902167924914313" />
    <synapse sourceNeuronName = "5" targetNeuronName = "22" weight = "15.535878735112217" />
    <synapse sourceNeuronName = "5" targetNeuronName = "23" weight = "16.256077052920286" />
    <synapse sourceNeuronName = "5" targetNeuronName = "24" weight = "15.709095334612257" />
    <synapse sourceNeuronName = "5" targetNeuronName = "25" weight = "20.768672257127367" />
    <synapse sourceNeuronName = "5" targetNeuronName = "26" weight = "3.2179183172328303" />
    <synapse sourceNeuronName = "5" targetNeuronName = "27" weight = "13.116162929466618" />
    <synapse sourceNeuronName = "5" targetNeuronName = "28" weight = "11.541594356401555" />
    <synapse sourceNeuronName = "5" targetNeuronName = "29" weight = "12.074908936129507" />
    <synapse sourceNeuronName = "5" targetNeuronName = "30" weight = "20.154512104618775" />
    <synapse sourceNeuronName = "5" targetNeuronName = "31" weight = "23.379619386321608" />
    <synapse sourceNeuronName = "5" targetNeuronName = "32" weight = "19.22490115440646" />
    <synapse sourceNeuronName = "5" targetNeuronName = "33" weight = "1.728523140322625" />
    <synapse sourceNeuronName = "5" targetNeuronName = "34" weight = "19.48719511054387" />
    <synapse sourceNeuronName = "5" targetNeuronName = "35" weight = "18.325643697854588" />
    <synapse sourceNeuronName = "6" targetNeuronName = "11" weight = "7.866760081726879" />
    <synapse sourceNeuronName = "6" targetNeuronName = "12" weight = "8.793717801482213" />
    <synapse sourceNeuronName = "6" targetNeuronName = "13" weight = "3.2027760481575918" />
    <synapse sourceNeuronName = "6" targetNeuronName = "14" weight = "3.861593775405498" />
    <synapse sourceNeuronName = "6" targetNeuronName = "15" weight = "22.269464475100833" />
    <synapse sourceNeuronName = "6" targetNeuronName = "16" weight = "12.024054828263512" />
    <synapse sourceNeuronName = "6" targetNeuronName = "17" weight = "23.813143358781737" />
    <synapse sourceNeuronName = "6" targetNeuronName = "18" weight = "20.7143771673399" />
    <synapse sourceNeuronName = "6" targetNeuronName = "19" weight = "21.930798154167427" />
    <synapse sourceNeuronName = "6" targetNeuronName = "20" weight = "10.806643722298308" />
    <synapse sourceNeuronName = "6" targetNeuronName = "21" weight = "0.7639487965800504" />
    <synapse sourceNeuronName = "6" targetNeuronName = "22" weight = "15.330947188072585" />
    <synapse sourceNeuronName = "6" targetNeuronName = "23" weight = "19.626102235026952" />
    <synapse sourceNeuronName = "6" targetNeuronName = "24" weight = "-0.6779906017254469" />
    <synapse sourceNeuronName = "6" targetNeuronName = "25" weight = "16.019088027555583" />
    <synapse sourceNeuronName = "6" targetNeuronName = "26" weight = "17.074988877874773" />
    <synapse sourceNeuronName = "6" targetNeuronName = "27" weight = "9.492736179628864" />
    <synapse sourceNeuronName = "6" targetNeuronName = "28" weight = "4.7898160024444225" />
    <synapse sourceNeuronName = "6" targetNeuronName = "29" weight = "12.822358702096018" />
    <synapse sourceNeuronName = "6" targetNeuronName = "30" weight = "14.116407504657689" />
    <synapse sourceNeuronName = "6" targetNeuronName = "31" weight = "18.668537325348716" />
    <synapse sourceNeuronName = "6" targetNeuronName = "32" weight = "19.80472703298619" />
    <synapse sourceNeuronName = "6" targetNeuronName = "33" weight = "20.285071678295566" />
    <synapse sourceNeuronName = "6" targetNeuronName = "34" weight = "15.417752049846197" />
    <synapse sourceNeuronName = "6" targetNeuronName = "35" weight = "17.3073779305562" />
    <synapse sourceNeuronName = "7" targetNeuronName = "11" weight = "21.953892311517038" />
    <synapse sourceNeuronName = "7" targetNeuronName = "12" weight = "20.912484704138542" />
    <synapse sourceNeuronName = "7" targetNeuronName = "13" weight = "1.2517663204626532" />
    <synapse sourceNeuronName = "7" targetNeuronName = "14" weight = "5.867472581785414" />
    <synapse sourceNeuronName = "7" targetNeuronName = "15" weight = "4.7192278095283875" />
    <synapse sourceNeuronName = "7" targetNeuronName = "16" weight = "10.184607839279142" />
    <synapse sourceNeuronName = "7" targetNeuronName = "17" weight = "14.467013864523837" />
    <synapse sourceNeuronName = "7" targetNeuronName = "18" weight = "4.245897943151731" />
    <synapse sourceNeuronName = "7" targetNeuronName = "19" weight = "15.76062513583593" />
    <synapse sourceNeuronName = "7" targetNeuronName = "20" weight = "12.632689858940225" />
    <synapse sourceNeuronName = "7" targetNeuronName = "21" weight = "0.4510294538551767" />
    <synapse sourceNeuronName = "7" targetNeuronName = "22" weight = "1.0474673237728087" />
    <synapse sourceNeuronName = "7" targetNeuronName = "23" weight = "0.5490206382116678" />
    <synapse sourceNeuronName = "7" targetNeuronName = "24" weight = "19.668498615790178" />
    <synapse sourceNeuronName = "7" targetNeuronName = "25" weight = "23.525009383057924" />
    <synapse sourceNeuronName = "7" targetNeuronName = "26" weight = "11.92242061102235" />
    <synapse sourceNeuronName = "7" targetNeuronName = "27" weight = "4.303208491636055" />
    <synapse sourceNeuronName = "7" targetNeuronName = "28" weight = "22.885331217287245" />
    <synapse sourceNeuronName = "7" targetNeuronName = "29" weight = "7.694023954600821" />
    <synapse sourceNeuronName = "7" targetNeuronName = "30" weight = "22.08495182839585" />
    <synapse sourceNeuronName = "7" targetNeuronName = "31" weight = "1.5881398513208724" />
    <synapse sourceNeuronName = "7" targetNeuronName = "32" weight = "1.2008819301316929" />
    <synapse sourceNeuronName = "7" targetNeuronName = "33" weight = "6.520796023014972" />
    <synapse sourceNeuronName = "7" targetNeuronName = "34" weight = "10.037108603472126" />
    <synapse sourceNeuronName = "7" targetNeuronName = "35" weight = "-0.6244269698914942" />
    <synapse sourceNeuronName = "8" targetNeuronName = "11" weight = "13.367114744305859" />
    <synapse sourceNeuronName = "8" targetNeuronName = "12" weight = "13.308798321934693" />
    <synapse sourceNeuronName = "8" targetNeuronName = "13" weight = "9.09686589909553" />
    <synapse sourceNeuronName = "8" targetNeuronName = "14" weight = "4.47433092590576" />
    <synapse sourceNeuronName = "8" targetNeuronName = "15" weight = "4.849966727799663" />
    <synapse sourceNeuronName = "8" targetNeuronName = "16" weight = "12.500851986853801" />
    <synapse sourceNeuronName = "8" targetNeuronName = "17" weight = "0.17344631359834484" />
    <synapse sourceNeuronName = "8" targetNeuronName = "18" weight = "6.617678604471354" />
    <synapse sourceNeuronName = "8" targetNeuronName = "19" weight = "0.14626398846739708" />
    <synapse sourceNeuronName = "8" targetNeuronName = "20" weight = "22.90832130266266" />
    <synapse sourceNeuronName = "8" targetNeuronName = "21" weight = "4.138480413485475" />
    <synapse sourceNeuronName = "8" targetNeuronName = "22" weight = "22.82898318490654" />
    <synapse sourceNeuronName = "8" targetNeuronName = "23" weight = "10.573994134365412" />
    <synapse sourceNeuronName = "8" targetNeuronName = "24" weight = "6.755811768490825" />
    <synapse sourceNeuronName = "8" targetNeuronName = "25" weight = "12.348510788949369" />
    <synapse sourceNeuronName = "8" targetNeuronName = "26" weight = "2.727025627049771" />
    <synapse sourceNeuronName = "8" targetNeuronName = "27" weight = "16.34403505766431" />
    <synapse sourceNeuronName = "8" targetNeuronName = "28" weight = "8.413060632103331" />
    <synapse sourceNeuronName = "8" targetNeuronName = "29" weight = "7.79549700272114" />
    <synapse sourceNeuronName = "8" targetNeuronName = "30" weight = "10.118322603623074" />
    <synapse sourceNeuronName = "8" targetNeuronName = "31" weight = "23.93784178448063" />
    <synapse sourceNeuronName = "8" targetNeuronName = "32" weight = "4.085359619970528" />
    <synapse sourceNeuronName = "8" targetNeuronName = "33" weight = "15.933818836293195" />
    <synapse sourceNeuronName = "8" targetNeuronName = "34" weight = "6.003042014225053" />
    <synapse sourceNeuronName = "8" targetNeuronName = "35" weight = "0.01172129194172511" />
    <synapse sourceNeuronName = "9" targetNeuronName = "11" weight = "4.818689901111163" />
    <synapse sourceNeuronName = "9" targetNeuronName = "12" weight = "5.318939114277017" />
    <synapse sourceNeuronName = "9" targetNeuronName = "13" weight = "3.604911866361208" />
    <synapse sourceNeuronName = "9" targetNeuronName = "14" weight = "20.004661929560584" />
    <synapse sourceNeuronName = "9" targetNeuronName = "15" weight = "9.187286890361355" />
    <synapse sourceNeuronName = "9" targetNeuronName = "16" weight = "22.615258446010838" />
    <synapse sourceNeuronName = "9" targetNeuronName = "17" weight = "6.0373127447586805" />
    <synapse sourceNeuronName = "9" targetNeuronName = "18" weight = "16.065095274588018" />
    <synapse sourceNeuronName = "9" targetNeuronName = "19" weight = "3.0335122172894753" />
    <synapse sourceNeuronName = "9" targetNeuronName = "20" weight = "22.555284795176128" />
    <synapse sourceNeuronName = "9" targetNeuronName = "21" weight = "18.624722115353414" />
    <synapse sourceNeuronName = "9" targetNeuronName = "22" weight = "5.327105968405597" />
    <synapse sourceNeuronName = "9" targetNeuronName = "23" weight = "4.713399210010434" />
    <synapse sourceNeuronName = "9" targetNeuronName = "24" weight = "7.971664101188335" />
    <synapse sourceNeuronName = "9" targetNeuronName = "25" weight = "10.124393730661279" />
    <synapse sourceNeuronName = "9" targetNeuronName = "26" weight = "23.86115093304466" />
    <synapse sourceNeuronName = "9" targetNeuronName = "27" weight = "0.03409454178085558" />
    <synapse sourceNeuronName = "9" targetNeuronName = "28" weight = "7.05434387918304" />
    <synapse sourceNeuronName = "9" targetNeuronName = "29" weight = "2.733036227554215" />
    <synapse sourceNeuronName = "9" targetNeuronName = "30" weight = "3.350879982332814" />
    <synapse sourceNeuronName = "9" targetNeuronName = "31" weight = "18.571055237713505" />
    <synapse sourceNeuronName = "9" targetNeuronName = "32" weight = "21.20033068670918" />
    <synapse sourceNeuronName = "9" targetNeuronName = "33" weight = "-0.9692168496979616" />
    <synapse sourceNeuronName = "9" targetNeuronName = "34" weight = "6.970985929829205" />
    <synapse sourceNeuronName = "9" targetNeuronName = "35" weight = "16.343153054721455" />
    <synapse sourceNeuronName = "10" targetNeuronName = "11" weight = "20.21405444049852" />
    <synapse sourceNeuronName = "10" targetNeuronName = "12" weight = "0.5609319058402376" />
    <synapse sourceNeuronName = "10" targetNeuronName = "13" weight = "23.168896218539277" />
    <synapse sourceNeuronName = "10" targetNeuronName = "14" weight = "11.708124760006848" />
    <synapse sourceNeuronName = "10" targetNeuronName = "15" weight = "10.323999714699468" />
    <synapse sourceNeuronName = "10" targetNeuronName = "16" weight = "1.85482150967086" />
    <synapse sourceNeuronName = "10" targetNeuronName = "17" weight = "7.334310976922609" />
    <synapse sourceNeuronName = "10" targetNeuronName = "18" weight = "-0.4984235937121819" />
    <synapse sourceNeuronName = "10" targetNeuronName = "19" weight = "23.592015508073757" />
    <synapse sourceNeuronName = "10" targetNeuronName = "20" weight = "1.073831027984796" />
    <synapse sourceNeuronName = "10" targetNeuronName = "21" weight = "10.299785712991877" />
    <synapse sourceNeuronName = "10" targetNeuronName = "22" weight = "2.4607463908008977" />
    <synapse sourceNeuronName = "10" targetNeuronName = "23" weight = "9.653687096649117" />
    <synapse sourceNeuronName = "10" targetNeuronName = "24" weight = "23.3560363138957" />
    <synapse sourceNeuronName = "10" targetNeuronName = "25" weight = "5.522065584766729" />
    <synapse sourceNeuronName = "10" targetNeuronName = "26" weight = "20.15189291403246" />
    <synapse sourceNeuronName = "10" targetNeuronName = "27" weight = "3.9718523132060684" />
    <synapse sourceNeuronName = "10" targetNeuronName = "28" weight = "0.29065839977962904" />
    <synapse sourceNeuronName = "10" targetNeuronName = "29" weight = "-0.821691877573418" />
    <synapse sourceNeuronName = "10" targetNeuronName = "30" weight = "2.4357529870425063" />
    <synapse sourceNeuronName = "10" targetNeuronName = "31" weight = "17.451711794052642" />
    <synapse sourceNeuronName = "10" targetNeuronName = "32" weight = "14.348735712708065" />
    <synapse sourceNeuronName = "10" targetNeuronName = "33" weight = "20.78441385386521" />
    <synapse sourceNeuronName = "10" targetNeuronName = "34" weight = "4.748152579021368" />
    <synapse sourceNeuronName = "10" targetNeuronName = "35" weight = "-0.4268130173866588" />
</neuralNetwork>