<neuralNetwork>
    <neuron name = "0" type = "sensor" linkName = "Torso" />
    <neuron name = "1" type = "sensor" linkName = "Leg3" />
    <neuron name = "2" type = "sensor" linkName = "Leg4" />
    <neuron name = "3" type = "sensor" linkName = "Leg7" />
    <neuron name = "4" type = "sensor" linkName = "Leg12" />
    <neuron name = "5" type = "sensor" linkName = "Leg13" />
    <neuron name = "6" type = "sensor" linkName = "Leg16" />
    <neuron name = "7" type = "sensor" linkName = "Leg18" />
    <neuron name = "8" type = "sensor" linkName = "Leg21" />
    <neuron name = "9" type = "sensor" linkName = "Leg22" />
    <neuron name = "10" type = "sensor" linkName = "Leg24" />
    <neuron name = "11" type = "sensor" linkName = "Leg25" />
    <neuron name = "12" type = "motor"  jointName = "Torso_Leg1" />
    <neuron name = "13" type = "motor"  jointName = "Leg1_Leg2" />
    <neuron name = "14" type = "motor"  jointName = "Leg2_Leg3" />
    <neuron name = "15" type = "motor"  jointName = "Leg3_Leg4" />
    <neuron name = "16" type = "motor"  jointName = "Leg3_Leg5" />
    <neuron name = "17" type = "motor"  jointName = "Leg2_Leg6" />
    <neuron name = "18" type = "motor"  jointName = "Leg6_Leg7" />
    <neuron name = "19" type = "motor"  jointName = "Leg5_Leg8" />
    <neuron name = "20" type = "motor"  jointName = "Leg7_Leg9" />
    <neuron name = "21" type = "motor"  jointName = "Leg6_Leg10" />
    <neuron name = "22" type = "motor"  jointName = "Leg5_Leg11" />
    <neuron name = "23" type = "motor"  jointName = "Leg7_Leg12" />
    <neuron name = "24" type = "motor"  jointName = "Leg10_Leg13" />
    <neuron name = "25" type = "motor"  jointName = "Leg11_Leg14" />
    <neuron name = "26" type = "motor"  jointName = "Leg12_Leg15" />
    <neuron name = "27" type = "motor"  jointName = "Leg10_Leg16" />
    <neuron name = "28" type = "motor"  jointName = "Leg8_Leg17" />
    <neuron name = "29" type = "motor"  jointName = "Leg1_Leg18" />
    <neuron name = "30" type = "motor"  jointName = "Leg16_Leg19" />
    <neuron name = "31" type = "motor"  jointName = "Leg14_Leg20" />
    <neuron name = "32" type = "motor"  jointName = "Leg20_Leg21" />
    <neuron name = "33" type = "motor"  jointName = "Leg16_Leg22" />
    <neuron name = "34" type = "motor"  jointName = "Leg17_Leg23" />
    <neuron name = "35" type = "motor"  jointName = "Leg7_Leg24" />
    <neuron name = "36" type = "motor"  jointName = "Torso_Leg25" />
    <synapse sourceNeuronName = "0" targetNeuronName = "12" weight = "19.174115426670323" />
    <synapse sourceNeuronName = "0" targetNeuronName = "13" weight = "20.434739565532787" />
    <synapse sourceNeuronName = "0" targetNeuronName = "14" weight = "11.613033612208316" />
    <synapse sourceNeuronName = "0" targetNeuronName = "15" weight = "21.979010738356532" />
    <synapse sourceNeuronName = "0" targetNeuronName = "16" weight = "22.88219541788018" />
    <synapse sourceNeuronName = "0" targetNeuronName = "17" weight = "3.5745788264197813" />
    <synapse sourceNeuronName = "0" targetNeuronName = "18" weight = "15.146034115965946" />
    <synapse sourceNeuronName = "0" targetNeuronName = "19" weight = "17.667264410952548" />
    <synapse sourceNeuronName = "0" targetNeuronName = "20" weight = "11.266362672556616" />
    <synapse sourceNeuronName = "0" targetNeuronName = "21" weight = "5.552080790969386" />
    <synapse sourceNeuronName = "0" targetNeuronName = "22" weight = "12.477920716548624" />
    <synapse sourceNeuronName = "0" targetNeuronName = "23" weight = "4.853205346814974" />
    <synapse sourceNeuronName = "0" targetNeuronName = "24" weight = "16.34493855924363" />
    <synapse sourceNeuronName = "0" targetNeuronName = "25" weight = "14.273245839341984" />
    <synapse sourceNeuronName = "0" targetNeuronName = "26" weight = "23.550045959373094" />
    <synapse sourceNeuronName = "0" targetNeuronName = "27" weight = "1.6616589087960136" />
    <synapse sourceNeuronName = "0" targetNeuronName = "28" weight = "17.00471709128571" />
    <synapse sourceNeuronName = "0" targetNeuronName = "29" weight = "17.467337601826824" />
    <synapse sourceNeuronName = "0" targetNeuronName = "30" weight = "10.840370747287931" />
    <synapse sourceNeuronName = "0" targetNeuronName = "31" weight = "22.306968496090423" />
    <synapse sourceNeuronName = "0" targetNeuronName = "32" weight = "13.198109541009888" />
    <synapse sourceNeuronName = "0" targetNeuronName = "33" weight = "12.669063732766357" />
    <synapse sourceNeuronName = "0" targetNeuronName = "34" weight = "0.72124333807403" />
    <synapse sourceNeuronName = "0" targetNeuronName = "35" weight = "18.419148456413325" />
    <synapse sourceNeuronName = "0" targetNeuronName = "36" weight = "7.119205040538194" />
    <synapse sourceNeuronName = "1" targetNeuronName = "12" weight = "12.009391432260053" />
    <synapse sourceNeuronName = "1" targetNeuronName = "13" weight = "9.634852879041535" />
    <synapse sourceNeuronName = "1" targetNeuronName = "14" weight = "21.16210092722461" />
    <synapse sourceNeuronName = "1" targetNeuronName = "15" weight = "8.046955543887739" />
    <synapse sourceNeuronName = "1" targetNeuronName = "16" weight = "15.37847394191748" />
    <synapse sourceNeuronName = "1" targetNeuronName = "17" weight = "23.660171591695875" />
    <synapse sourceNeuronName = "1" targetNeuronName = "18" weight = "3.125976537360371" />
    <synapse sourceNeuronName = "1" targetNeuronName = "19" weight = "5.22384198786658" />
    <synapse sourceNeuronName = "1" targetNeuronName = "20" weight = "23.80551247763378" />
    <synapse sourceNeuronName = "1" targetNeuronName = "21" weight = "10.497947362718907" />
    <synapse sourceNeuronName = "1" targetNeuronName = "22" weight = "12.96771225993462" />
    <synapse sourceNeuronName = "1" targetNeuronName = "23" weight = "11.37280482037399" />
    <synapse sourceNeuronName = "1" targetNeuronName = "24" weight = "11.926419181558515" />
    <synapse sourceNeuronName = "1" targetNeuronName = "25" weight = "22.367276850581057" />
    <synapse sourceNeuronName = "1" targetNeuronName = "26" weight = "12.604732293172706" />
    <synapse sourceNeuronName = "1" targetNeuronName = "27" weight = "23.440364808382917" />
    <synapse sourceNeuronName = "1" targetNeuronName = "28" weight = "7.294129434607669" />
    <synapse sourceNeuronName = "1" targetNeuronName = "29" weight = "7.657366346610171" />
    <synapse sourceNeuronName = "1" targetNeuronName = "30" weight = "11.299937443663127" />
    <synapse sourceNeuronName = "1" targetNeuronName = "31" weight = "10.361275138326723" />
    <synapse sourceNeuronName = "1" targetNeuronName = "32" weight = "2.0882265775819984" />
    <synapse sourceNeuronName = "1" targetNeuronName = "33" weight = "16.50089968583207" />
    <synapse sourceNeuronName = "1" targetNeuronName = "34" weight = "6.014714460560451" />
    <synapse sourceNeuronName = "1" targetNeuronName = "35" weight = "9.688700243722558" />
    <synapse sourceNeuronName = "1" targetNeuronName = "36" weight = "6.410525716664685" />
    <synapse sourceNeuronName = "2" targetNeuronName = "12" weight = "1.9889748079438947" />
    <synapse sourceNeuronName = "2" targetNeuronName = "13" weight = "3.3822173667770583" />
    <synapse sourceNeuronName = "2" targetNeuronName = "14" weight = "3.671029250983871" />
    <synapse sourceNeuronName = "2" targetNeuronName = "15" weight = "23.94788239449728" />
    <synapse sourceNeuronName = "2" targetNeuronName = "16" weight = "13.35331721575716" />
    <synapse sourceNeuronName = "2" targetNeuronName = "17" weight = "1.6680243180739165" />
    <synapse sourceNeuronName = "2" targetNeuronName = "18" weight = "21.0052780871515" />
    <synapse sourceNeuronName = "2" targetNeuronName = "19" weight = "12.532063794202639" />
    <synapse sourceNeuronName = "2" targetNeuronName = "20" weight = "17.248803508165278" />
    <synapse sourceNeuronName = "2" targetNeuronName = "21" weight = "12.193163202803786" />
    <synapse sourceNeuronName = "2" targetNeuronName = "22" weight = "7.647527059690166" />
    <synapse sourceNeuronName = "2" targetNeuronName = "23" weight = "2.369857074362384" />
    <synapse sourceNeuronName = "2" targetNeuronName = "24" weight = "2.9541766767279496" />
    <synapse sourceNeuronName = "2" targetNeuronName = "25" weight = "9.290299239531356" />
    <synapse sourceNeuronName = "2" targetNeuronName = "26" weight = "16.878374577965964" />
    <synapse sourceNeuronName = "2" targetNeuronName = "27" weight = "5.54590312483527" />
    <synapse sourceNeuronName = "2" targetNeuronName = "28" weight = "12.857780626045676" />
    <synapse sourceNeuronName = "2" targetNeuronName = "29" weight = "23.34959188159962" />
    <synapse sourceNeuronName = "2" targetNeuronName = "30" weight = "7.892961796867619" />
    <synapse sourceNeuronName = "2" targetNeuronName = "31" weight = "23.441714691976905" />
    <synapse sourceNeuronName = "2" targetNeuronName = "32" weight = "4.390714359827934" />
    <synapse sourceNeuronName = "2" targetNeuronName = "33" weight = "13.491976236518608" />
    <synapse sourceNeuronName = "2" targetNeuronName = "34" weight = "0.6077111600738965" />
    <synapse sourceNeuronName = "2" targetNeuronName = "35" weight = "0.9892403954793441" />
    <synapse sourceNeuronName = "2" targetNeuronName = "36" weight = "3.390264489229109" />
    <synapse sourceNeuronName = "3" targetNeuronName = "12" weight = "21.649367987585016" />
    <synapse sourceNeuronName = "3" targetNeuronName = "13" weight = "1.6644043640114026" />
    <synapse sourceNeuronName = "3" targetNeuronName = "14" weight = "12.266263111644989" />
    <synapse sourceNeuronName = "3" targetNeuronName = "15" weight = "18.56209946654561" />
    <synapse sourceNeuronName = "3" targetNeuronName = "16" weight = "11.129506649478456" />
    <synapse sourceNeuronName = "3" targetNeuronName = "17" weight = "0.022673932932921526" />
    <synapse sourceNeuronName = "3" targetNeuronName = "18" weight = "-0.13183999468479501" />
    <synapse sourceNeuronName = "3" targetNeuronName = "19" weight = "10.814958239702102" />
    <synapse sourceNeuronName = "3" targetNeuronName = "20" weight = "17.835521222469254" />
    <synapse sourceNeuronName = "3" targetNeuronName = "21" weight = "15.554522747167688" />
    <synapse sourceNeuronName = "3" targetNeuronName = "22" weight = "17.348697100515682" />
    <synapse sourceNeuronName = "3" targetNeuronName = "23" weight = "15.287815971375132" />
    <synapse sourceNeuronName = "3" targetNeuronName = "24" weight = "6.17211692739114" />
    <synapse sourceNeuronName = "3" targetNeuronName = "25" weight = "-0.14796558590340259" />
    <synapse sourceNeuronName = "3" targetNeuronName = "26" weight = "14.020019228966493" />
    <synapse sourceNeuronName = "3" targetNeuronName = "27" weight = "19.180865872258504" />
    <synapse sourceNeuronName = "3" targetNeuronName = "28" weight = "0.7781978864926469" />
    <synapse sourceNeuronName = "3" targetNeuronName = "29" weight = "19.34515653763995" />
    <synapse sourceNeuronName = "3" targetNeuronName = "30" weight = "12.092773997917545" />
    <synapse sourceNeuronName = "3" targetNeuronName = "31" weight = "12.56488496340837" />
    <synapse sourceNeuronName = "3" targetNeuronName = "32" weight = "3.875386227538539" />
    <synapse sourceNeuronName = "3" targetNeuronName = "33" weight = "1.7669514029931257" />
    <synapse sourceNeuronName = "3" targetNeuronName = "34" weight = "16.071301830151725" />
    <synapse sourceNeuronName = "3" targetNeuronName = "35" weight = "23.74507866105566" />
    <synapse sourceNeuronName = "3" targetNeuronName = "36" weight = "2.8329661368602164" />
    <synapse sourceNeuronName = "4" targetNeuronName = "12" weight = "7.794357587052474" />
    <synapse sourceNeuronName = "4" targetNeuronName = "13" weight = "16.76441169147491" />
    <synapse sourceNeuronName = "4" targetNeuronName = "14" weight = "-0.9567423622226559" />
    <synapse sourceNeuronName = "4" targetNeuronName = "15" weight = "13.063732410630097" />
    <synapse sourceNeuronName = "4" targetNeuronName = "16" weight = "4.99500910153877" />
    <synapse sourceNeuronName = "4" targetNeuronName = "17" weight = "13.644800237565846" />
    <synapse sourceNeuronName = "4" targetNeuronName = "18" weight = "0.3275714362867759" />
    <synapse sourceNeuronName = "4" targetNeuronName = "19" weight = "8.49508547068586" />
    <synapse sourceNeuronName = "4" targetNeuronName = "20" weight = "21.114106143334446" />
    <synapse sourceNeuronName = "4" targetNeuronName = "21" weight = "16.607327003532188" />
    <synapse sourceNeuronName = "4" targetNeuronName = "22" weight = "6.505090580406659" />
    <synapse sourceNeuronName = "4" targetNeuronName = "23" weight = "16.42893751277183" />
    <synapse sourceNeuronName = "4" targetNeuronName = "24" weight = "20.07053661083675" />
    <synapse sourceNeuronName = "4" targetNeuronName = "25" weight = "2.1179303879224407" />
    <synapse sourceNeuronName = "4" targetNeuronName = "26" weight = "15.46312457007426" />
    <synapse sourceNeuronName = "4" targetNeuronName = "27" weight = "6.009248231042411" />
    <synapse sourceNeuronName = "4" targetNeuronName = "28" weight = "7.485554430950156" />
    <synapse sourceNeuronName = "4" targetNeuronName = "29" weight = "21.990723242301886" />
    <synapse sourceNeuronName = "4" targetNeuronName = "30" weight = "2.036151533240514" />
    <synapse sourceNeuronName = "4" targetNeuronName = "31" weight = "10.416374600071464" />
    <synapse sourceNeuronName = "4" targetNeuronName = "32" weight = "2.4750567240808854" />
    <synapse sourceNeuronName = "4" targetNeuronName = "33" weight = "19.182595581660713" />
    <synapse sourceNeuronName = "4" targetNeuronName = "34" weight = "7.565601719250585" />
    <synapse sourceNeuronName = "4" targetNeuronName = "35" weight = "4.988015600826829" />
    <synapse sourceNeuronName = "4" targetNeuronName = "36" weight = "10.999561451939423" />
    <synapse sourceNeuronName = "5" targetNeuronName = "12" weight = "2.791287245412539" />
    <synapse sourceNeuronName = "5" targetNeuronName = "13" weight = "12.568378066662257" />
    <synapse sourceNeuronName = "5" targetNeuronName = "14" weight = "9.598491097006047" />
    <synapse sourceNeuronName = "5" targetNeuronName = "15" weight = "2.56317640492409" />
    <synapse sourceNeuronName = "5" targetNeuronName = "16" weight = "17.00673782794156" />
    <synapse sourceNeuronName = "5" targetNeuronName = "17" weight = "21.010799693612224" />
    <synapse sourceNeuronName = "5" targetNeuronName = "18" weight = "23.849288700656246" />
    <synapse sourceNeuronName = "5" targetNeuronName = "19" weight = "4.466244732349204" />
    <synapse sourceNeuronName = "5" targetNeuronName = "20" weight = "18.160722879268782" />
    <synapse sourceNeuronName = "5" targetNeuronName = "21" weight = "16.367328749893804" />
    <synapse sourceNeuronName = "5" targetNeuronName = "22" weight = "4.821562894328972" />
    <synapse sourceNeuronName = "5" targetNeuronName = "23" weight = "21.90806878583988" />
    <synapse sourceNeuronName = "5" targetNeuronName = "24" weight = "22.687643333884832" />
    <synapse sourceNeuronName = "5" targetNeuronName = "25" weight = "16.257479476414865" />
    <synapse sourceNeuronName = "5" targetNeuronName = "26" weight = "11.56553690441967" />
    <synapse sourceNeuronName = "5" targetNeuronName = "27" weight = "-0.10688134740035515" />
    <synapse sourceNeuronName = "5" targetNeuronName = "28" weight = "14.218352404650815" />
    <synapse sourceNeuronName = "5" targetNeuronName = "29" weight = "4.156712813339562" />
    <synapse sourceNeuronName = "5" targetNeuronName = "30" weight = "8.70444561108494" />
    <synapse sourceNeuronName = "5" targetNeuronName = "31" weight = "23.116095501575852" />
    <synapse sourceNeuronName = "5" targetNeuronName = "32" weight = "3.347569256529157" />
    <synapse sourceNeuronName = "5" targetNeuronName = "33" weight = "0.9682582292475048" />
    <synapse sourceNeuronName = "5" targetNeuronName = "34" weight = "11.917188330818764" />
    <synapse sourceNeuronName = "5" targetNeuronName = "35" weight = "9.294381643039005" />
    <synapse sourceNeuronName = "5" targetNeuronName = "36" weight = "13.946749864336855" />
    <synapse sourceNeuronName = "6" targetNeuronName = "12" weight = "7.45504720187073" />
    <synapse sourceNeuronName = "6" targetNeuronName = "13" weight = "12.91617354927647" />
    <synapse sourceNeuronName = "6" targetNeuronName = "14" weight = "21.890245809638518" />
    <synapse sourceNeuronName = "6" targetNeuronName = "15" weight = "0.2568088953489709" />
    <synapse sourceNeuronName = "6" targetNeuronName = "16" weight = "2.2679519143016726" />
    <synapse sourceNeuronName = "6" targetNeuronName = "17" weight = "19.062589194929878" />
    <synapse sourceNeuronName = "6" targetNeuronName = "18" weight = "4.851212619536447" />
    <synapse sourceNeuronName = "6" targetNeuronName = "19" weight = "22.893067608867973" />
    <synapse sourceNeuronName = "6" targetNeuronName = "20" weight = "9.451590096533867" />
    <synapse sourceNeuronName = "6" targetNeuronName = "21" weight = "9.7170072018267" />
    <synapse sourceNeuronName = "6" targetNeuronName = "22" weight = "21.128294083268813" />
    <synapse sourceNeuronName = "6" targetNeuronName = "23" weight = "19.198045631426176" />
    <synapse sourceNeuronName = "6" targetNeuronName = "24" weight = "5.417889032910518" />
    <synapse sourceNeuronName = "6" targetNeuronName = "25" weight = "12.170818858833183" />
    <synapse sourceNeuronName = "6" targetNeuronName = "26" weight = "3.760768263593956" />
    <synapse sourceNeuronName = "6" targetNeuronName = "27" weight = "18.829376178503498" />
    <synapse sourceNeuronName = "6" targetNeuronName = "28" weight = "0.34150174934618827" />
    <synapse sourceNeuronName = "6" targetNeuronName = "29" weight = "19.97002483594153" />
    <synapse sourceNeuronName = "6" targetNeuronName = "30" weight = "21.151810213667584" />
    <synapse sourceNeuronName = "6" targetNeuronName = "31" weight = "7.666061572098252" />
    <synapse sourceNeuronName = "6" targetNeuronName = "32" weight = "7.7504953233323945" />
    <synapse sourceNeuronName = "6" targetNeuronName = "33" weight = "17.439691137152085" />
    <synapse sourceNeuronName = "6" targetNeuronName = "34" weight = "18.894064510330416" />
    <synapse sourceNeuronName = "6" targetNeuronName = "35" weight = "7.239904576145603" />
    <synapse sourceNeuronName = "6" targetNeuronName = "36" weight = "2.57022174371584" />
    <synapse sourceNeuronName = "7" targetNeuronName = "12" weight = "3.233671592399787" />
    <synapse sourceNeuronName = "7" targetNeuronName = "13" weight = "15.068908366539901" />
    <synapse sourceNeuronName = "7" targetNeuronName = "14" weight = "21.239938113716622" />
    <synapse sourceNeuronName = "7" targetNeuronName = "15" weight = "0.6377314848817965" />
    <synapse sourceNeuronName = "7" targetNeuronName = "16" weight = "16.04996309856747" />
    <synapse sourceNeuronName = "7" targetNeuronName = "17" weight = "20.509976654410032" />
    <synapse sourceNeuronName = "7" targetNeuronName = "18" weight = "14.647012627154563" />
    <synapse sourceNeuronName = "7" targetNeuronName = "19" weight = "3.209998039988169" />
    <synapse sourceNeuronName = "7" targetNeuronName = "20" weight = "0.7491436534399858" />
    <synapse sourceNeuronName = "7" targetNeuronName = "21" weight = "3.9521320941681184" />
    <synapse sourceNeuronName = "7" targetNeuronName = "22" weight = "11.57537296221555" />
    <synapse sourceNeuronName = "7" targetNeuronName = "23" weight = "18.790173709787933" />
    <synapse sourceNeuronName = "7" targetNeuronName = "24" weight = "1.1086885902237977" />
    <synapse sourceNeuronName = "7" targetNeuronName = "25" weight = "9.144111846003161" />
    <synapse sourceNeuronName = "7" targetNeuronName = "26" weight = "13.522860375134078" />
    <synapse sourceNeuronName = "7" targetNeuronName = "27" weight = "7.7246782408477745" />
    <synapse sourceNeuronName = "7" targetNeuronName = "28" weight = "9.303501857133664" />
    <synapse sourceNeuronName = "7" targetNeuronName = "29" weight = "11.378573827695918" />
    <synapse sourceNeuronName = "7" targetNeuronName = "30" weight = "8.799993845598474" />
    <synapse sourceNeuronName = "7" targetNeuronName = "31" weight = "0.3787838074294263" />
    <synapse sourceNeuronName = "7" targetNeuronName = "32" weight = "2.3557911362234267" />
    <synapse sourceNeuronName = "7" targetNeuronName = "33" weight = "0.14041565969169034" />
    <synapse sourceNeuronName = "7" targetNeuronName = "34" weight = "2.8154594584714125" />
    <synapse sourceNeuronName = "7" targetNeuronName = "35" weight = "12.640891182185483" />
    <synapse sourceNeuronName = "7" targetNeuronName = "36" weight = "17.312132336816536" />
    <synapse sourceNeuronName = "8" targetNeuronName = "12" weight = "-0.06919304787595026" />
    <synapse sourceNeuronName = "8" targetNeuronName = "13" weight = "9.409729374853056" />
    <synapse sourceNeuronName = "8" targetNeuronName = "14" weight = "17.38494991306592" />
    <synapse sourceNeuronName = "8" targetNeuronName = "15" weight = "15.953012103384452" />
    <synapse sourceNeuronName = "8" targetNeuronName = "16" weight = "7.237147468419742" />
    <synapse sourceNeuronName = "8" targetNeuronName = "17" weight = "4.7907688495711955" />
    <synapse sourceNeuronName = "8" targetNeuronName = "18" weight = "19.002890623568828" />
    <synapse sourceNeuronName = "8" targetNeuronName = "19" weight = "17.747824121237247" />
    <synapse sourceNeuronName = "8" targetNeuronName = "20" weight = "23.631339150227415" />
    <synapse sourceNeuronName = "8" targetNeuronName = "21" weight = "2.170553854631672" />
    <synapse sourceNeuronName = "8" targetNeuronName = "22" weight = "19.46829186213448" />
    <synapse sourceNeuronName = "8" targetNeuronName = "23" weight = "1.2943323897537837" />
    <synapse sourceNeuronName = "8" targetNeuronName = "24" weight = "7.407061297136101" />
    <synapse sourceNeuronName = "8" targetNeuronName = "25" weight = "1.6008853638812028" />
    <synapse sourceNeuronName = "8" targetNeuronName = "26" weight = "18.894662815527926" />
    <synapse sourceNeuronName = "8" targetNeuronName = "27" weight = "6.352759246005242" />
    <synapse sourceNeuronName = "8" targetNeuronName = "28" weight = "0.8289548052088211" />
    <synapse sourceNeuronName = "8" targetNeuronName = "29" weight = "6.162599420288457" />
    <synapse sourceNeuronName = "8" targetNeuronName = "30" weight = "12.07944842995549" />
    <synapse sourceNeuronName = "8" targetNeuronName = "31" weight = "0.6363630908134141" />
    <synapse sourceNeuronName = "8" targetNeuronName = "32" weight = "14.240173755193354" />
    <synapse sourceNeuronName = "8" targetNeuronName = "33" weight = "16.74690418620796" />
    <synapse sourceNeuronName = "8" targetNeuronName = "34" weight = "5.729402740382687" />
    <synapse sourceNeuronName = "8" targetNeuronName = "35" weight = "4.208320646461406" />
    <synapse sourceNeuronName = "8" targetNeuronName = "36" weight = "16.055624865346605" />
    <synapse sourceNeuronName = "9" targetNeuronName = "12" weight = "7.652220579037712" />
    <synapse sourceNeuronName = "9" targetNeuronName = "13" weight = "10.272090229332537" />
    <synapse sourceNeuronName = "9" targetNeuronName = "14" weight = "18.250742418181133" />
    <synapse sourceNeuronName = "9" targetNeuronName = "15" weight = "7.959529516444711" />
    <synapse sourceNeuronName = "9" targetNeuronName = "16" weight = "1.9094061589109543" />
    <synapse sourceNeuronName = "9" targetNeuronName = "17" weight = "9.82181509393845" />
    <synapse sourceNeuronName = "9" targetNeuronName = "18" weight = "7.583268109565692" />
    <synapse sourceNeuronName = "9" targetNeuronName = "19" weight = "11.98767023873867" />
    <synapse sourceNeuronName = "9" targetNeuronName = "20" weight = "9.28048104459015" />
    <synapse sourceNeuronName = "9" targetNeuronName = "21" weight = "17.713955554455435" />
    <synapse sourceNeuronName = "9" targetNeuronName = "22" weight = "-0.2715523992165366" />
    <synapse sourceNeuronName = "9" targetNeuronName = "23" weight = "11.592863618721495" />
    <synapse sourceNeuronName = "9" targetNeuronName = "24" weight = "3.171349622982082" />
    <synapse sourceNeuronName = "9" targetNeuronName = "25" weight = "6.054142438489125" />
    <synapse sourceNeuronName = "9" targetNeuronName = "26" weight = "3.074000627438873" />
    <synapse sourceNeuronName = "9" targetNeuronName = "27" weight = "4.111307899533441" />
    <synapse sourceNeuronName = "9" targetNeuronName = "28" weight = "2.174303007900586" />
    <synapse sourceNeuronName = "9" targetNeuronName = "29" weight = "9.707346235939596" />
    <synapse sourceNeuronName = "9" targetNeuronName = "30" weight = "20.19476559303629" />
    <synapse sourceNeuronName = "9" targetNeuronName = "31" weight = "2.5979429886505403" />
    <synapse sourceNeuronName = "9" targetNeuronName = "32" weight = "13.928158590009394" />
    <synapse sourceNeuronName = "9" targetNeuronName = "33" weight = "13.659042866942116" />
    <synapse sourceNeuronName = "9" targetNeuronName = "34" weight = "14.1018159003361" />
    <synapse sourceNeuronName = "9" targetNeuronName = "35" weight = "4.60507156765861" />
    <synapse sourceNeuronName = "9" targetNeuronName = "36" weight = "0.1593732871894331" />
    <synapse sourceNeuronName = "10" targetNeuronName = "12" weight = "2.036628978582084" />
    <synapse sourceNeuronName = "10" targetNeuronName = "13" weight = "16.487927682692252" />
    <synapse sourceNeuronName = "10" targetNeuronName = "14" weight = "12.027536787313156" />
    <synapse sourceNeuronName = "10" targetNeuronName = "15" weight = "1.960841749734616" />
    <synapse sourceNeuronName = "10" targetNeuronName = "16" weight = "9.041907478646495" />
    <synapse sourceNeuronName = "10" targetNeuronName = "17" weight = "3.6280873646866896" />
    <synapse sourceNeuronName = "10" targetNeuronName = "18" weight = "1.033224167134931" />
    <synapse sourceNeuronName = "10" targetNeuronName = "19" weight = "23.30160475990806" />
    <synapse sourceNeuronName = "10" targetNeuronName = "20" weight = "10.639722158999275" />
    <synapse sourceNeuronName = "10" targetNeuronName = "21" weight = "2.298501706940224" />
    <synapse sourceNeuronName = "10" targetNeuronName = "22" weight = "1.054578870878665" />
    <synapse sourceNeuronName = "10" targetNeuronName = "23" weight = "3.50661459833219" />
    <synapse sourceNeuronName = "10" targetNeuronName = "24" weight = "0.026001128316913924" />
    <synapse sourceNeuronName = "10" targetNeuronName = "25" weight = "10.197390654065115" />
    <synapse sourceNeuronName = "10" targetNeuronName = "26" weight = "5.11876000401238" />
    <synapse sourceNeuronName = "10" targetNeuronName = "27" weight = "23.01755535319169" />
    <synapse sourceNeuronName = "10" targetNeuronName = "28" weight = "20.013991694064956" />
    <synapse sourceNeuronName = "10" targetNeuronName = "29" weight = "1.5634135034768386" />
    <synapse sourceNeuronName = "10" targetNeuronName = "30" weight = "14.572614322996795" />
    <synapse sourceNeuronName = "10" targetNeuronName = "31" weight = "18.691500091066487" />
    <synapse sourceNeuronName = "10" targetNeuronName = "32" weight = "9.318217062393714" />
    <synapse sourceNeuronName = "10" targetNeuronName = "33" weight = "23.465793897261193" />
    <synapse sourceNeuronName = "10" targetNeuronName = "34" weight = "16.024464907048085" />
    <synapse sourceNeuronName = "10" targetNeuronName = "35" weight = "20.77374343082895" />
    <synapse sourceNeuronName = "10" targetNeuronName = "36" weight = "3.1402729193439516" />
    <synapse sourceNeuronName = "11" targetNeuronName = "12" weight = "7.520491827320791" />
    <synapse sourceNeuronName = "11" targetNeuronName = "13" weight = "17.51304389546784" />
    <synapse sourceNeuronName = "11" targetNeuronName = "14" weight = "21.065355187861584" />
    <synapse sourceNeuronName = "11" targetNeuronName = "15" weight = "10.603059788664055" />
    <synapse sourceNeuronName = "11" targetNeuronName = "16" weight = "8.112480581727239" />
    <synapse sourceNeuronName = "11" targetNeuronName = "17" weight = "19.99959365512426" />
    <synapse sourceNeuronName = "11" targetNeuronName = "18" weight = "10.928038333530846" />
    <synapse sourceNeuronName = "11" targetNeuronName = "19" weight = "11.696893519794342" />
    <synapse sourceNeuronName = "11" targetNeuronName = "20" weight = "15.269032919125795" />
    <synapse sourceNeuronName = "11" targetNeuronName = "21" weight = "19.936515105292337" />
    <synapse sourceNeuronName = "11" targetNeuronName = "22" weight = "3.5543583246096944" />
    <synapse sourceNeuronName = "11" targetNeuronName = "23" weight = "14.876528744852495" />
    <synapse sourceNeuronName = "11" targetNeuronName = "24" weight = "14.359400383292904" />
    <synapse sourceNeuronName = "11" targetNeuronName = "25" weight = "6.606151251233248" />
    <synapse sourceNeuronName = "11" targetNeuronName = "26" weight = "18.744621907611638" />
    <synapse sourceNeuronName = "11" targetNeuronName = "27" weight = "7.692519175040609" />
    <synapse sourceNeuronName = "11" targetNeuronName = "28" weight = "12.725493920480167" />
    <synapse sourceNeuronName = "11" targetNeuronName = "29" weight = "10.100928370243624" />
    <synapse sourceNeuronName = "11" targetNeuronName = "30" weight = "11.538682610898274" />
    <synapse sourceNeuronName = "11" targetNeuronName = "31" weight = "12.69327399898591" />
    <synapse sourceNeuronName = "11" targetNeuronName = "32" weight = "18.194250456753508" />
    <synapse sourceNeuronName = "11" targetNeuronName = "33" weight = "18.599030553903656" />
    <synapse sourceNeuronName = "11" targetNeuronName = "34" weight = "16.29310129337332" />
    <synapse sourceNeuronName = "11" targetNeuronName = "35" weight = "17.718126836318344" />
    <synapse sourceNeuronName = "11" targetNeuronName = "36" weight = "6.443394604405618" />
</neuralNetwork>