<neuralNetwork>
    <neuron name = "0" type = "sensor" linkName = "Torso" />
    <neuron name = "1" type = "sensor" linkName = "Leg2" />
    <neuron name = "2" type = "sensor" linkName = "Leg4" />
    <neuron name = "3" type = "sensor" linkName = "Leg5" />
    <neuron name = "4" type = "sensor" linkName = "Leg11" />
    <neuron name = "5" type = "sensor" linkName = "Leg12" />
    <neuron name = "6" type = "sensor" linkName = "Leg14" />
    <neuron name = "7" type = "sensor" linkName = "Leg15" />
    <neuron name = "8" type = "sensor" linkName = "Leg18" />
    <neuron name = "9" type = "sensor" linkName = "Leg22" />
    <neuron name = "10" type = "sensor" linkName = "Leg24" />
    <neuron name = "11" type = "sensor" linkName = "Leg26" />
    <neuron name = "12" type = "motor"  jointName = "Torso_Leg1" />
    <neuron name = "13" type = "motor"  jointName = "Leg1_Leg2" />
    <neuron name = "14" type = "motor"  jointName = "Leg2_Leg3" />
    <neuron name = "15" type = "motor"  jointName = "Leg3_Leg4" />
    <neuron name = "16" type = "motor"  jointName = "Leg2_Leg5" />
    <neuron name = "17" type = "motor"  jointName = "Leg1_Leg6" />
    <neuron name = "18" type = "motor"  jointName = "Leg1_Leg7" />
    <neuron name = "19" type = "motor"  jointName = "Leg4_Leg8" />
    <neuron name = "20" type = "motor"  jointName = "Leg7_Leg9" />
    <neuron name = "21" type = "motor"  jointName = "Leg6_Leg10" />
    <neuron name = "22" type = "motor"  jointName = "Leg6_Leg11" />
    <neuron name = "23" type = "motor"  jointName = "Leg8_Leg12" />
    <neuron name = "24" type = "motor"  jointName = "Leg11_Leg13" />
    <neuron name = "25" type = "motor"  jointName = "Leg5_Leg14" />
    <neuron name = "26" type = "motor"  jointName = "Leg4_Leg15" />
    <neuron name = "27" type = "motor"  jointName = "Leg6_Leg16" />
    <neuron name = "28" type = "motor"  jointName = "Leg12_Leg17" />
    <neuron name = "29" type = "motor"  jointName = "Leg8_Leg18" />
    <neuron name = "30" type = "motor"  jointName = "Leg15_Leg19" />
    <neuron name = "31" type = "motor"  jointName = "Leg17_Leg20" />
    <neuron name = "32" type = "motor"  jointName = "Torso_Leg21" />
    <neuron name = "33" type = "motor"  jointName = "Leg15_Leg22" />
    <neuron name = "34" type = "motor"  jointName = "Leg21_Leg23" />
    <neuron name = "35" type = "motor"  jointName = "Leg18_Leg24" />
    <neuron name = "36" type = "motor"  jointName = "Leg5_Leg25" />
    <neuron name = "37" type = "motor"  jointName = "Leg10_Leg26" />
    <synapse sourceNeuronName = "0" targetNeuronName = "12" weight = "9.687264311390907" />
    <synapse sourceNeuronName = "0" targetNeuronName = "13" weight = "19.350208675598704" />
    <synapse sourceNeuronName = "0" targetNeuronName = "14" weight = "16.211626770953906" />
    <synapse sourceNeuronName = "0" targetNeuronName = "15" weight = "4.326577826158619" />
    <synapse sourceNeuronName = "0" targetNeuronName = "16" weight = "12.875097216036691" />
    <synapse sourceNeuronName = "0" targetNeuronName = "17" weight = "4.217288410099071" />
    <synapse sourceNeuronName = "0" targetNeuronName = "18" weight = "8.363944547079239" />
    <synapse sourceNeuronName = "0" targetNeuronName = "19" weight = "20.708531514397933" />
    <synapse sourceNeuronName = "0" targetNeuronName = "20" weight = "20.31316632273653" />
    <synapse sourceNeuronName = "0" targetNeuronName = "21" weight = "23.93330436456644" />
    <synapse sourceNeuronName = "0" targetNeuronName = "22" weight = "15.451355874548273" />
    <synapse sourceNeuronName = "0" targetNeuronName = "23" weight = "20.63620712488892" />
    <synapse sourceNeuronName = "0" targetNeuronName = "24" weight = "12.604891316349066" />
    <synapse sourceNeuronName = "0" targetNeuronName = "25" weight = "4.648634201089319" />
    <synapse sourceNeuronName = "0" targetNeuronName = "26" weight = "21.607402308281422" />
    <synapse sourceNeuronName = "0" targetNeuronName = "27" weight = "1.7489683008249575" />
    <synapse sourceNeuronName = "0" targetNeuronName = "28" weight = "1.8147215857364305" />
    <synapse sourceNeuronName = "0" targetNeuronName = "29" weight = "1.6846878647802939" />
    <synapse sourceNeuronName = "0" targetNeuronName = "30" weight = "22.7125565012931" />
    <synapse sourceNeuronName = "0" targetNeuronName = "31" weight = "4.295314012209948" />
    <synapse sourceNeuronName = "0" targetNeuronName = "32" weight = "6.8104598815948325" />
    <synapse sourceNeuronName = "0" targetNeuronName = "33" weight = "11.80531740174683" />
    <synapse sourceNeuronName = "0" targetNeuronName = "34" weight = "16.043278019846685" />
    <synapse sourceNeuronName = "0" targetNeuronName = "35" weight = "20.319837336868922" />
    <synapse sourceNeuronName = "0" targetNeuronName = "36" weight = "22.00590040900116" />
    <synapse sourceNeuronName = "0" targetNeuronName = "37" weight = "20.93561478187056" />
    <synapse sourceNeuronName = "1" targetNeuronName = "12" weight = "10.43932037757083" />
    <synapse sourceNeuronName = "1" targetNeuronName = "13" weight = "19.930565445144403" />
    <synapse sourceNeuronName = "1" targetNeuronName = "14" weight = "5.7863101695027215" />
    <synapse sourceNeuronName = "1" targetNeuronName = "15" weight = "19.18946520961132" />
    <synapse sourceNeuronName = "1" targetNeuronName = "16" weight = "23.32230750716051" />
    <synapse sourceNeuronName = "1" targetNeuronName = "17" weight = "20.478578163784835" />
    <synapse sourceNeuronName = "1" targetNeuronName = "18" weight = "16.705168876004088" />
    <synapse sourceNeuronName = "1" targetNeuronName = "19" weight = "4.248140792887383" />
    <synapse sourceNeuronName = "1" targetNeuronName = "20" weight = "15.457696813918012" />
    <synapse sourceNeuronName = "1" targetNeuronName = "21" weight = "23.38239982646953" />
    <synapse sourceNeuronName = "1" targetNeuronName = "22" weight = "19.80764312245338" />
    <synapse sourceNeuronName = "1" targetNeuronName = "23" weight = "4.695112046697566" />
    <synapse sourceNeuronName = "1" targetNeuronName = "24" weight = "9.647617929841974" />
    <synapse sourceNeuronName = "1" targetNeuronName = "25" weight = "3.4997846183955232" />
    <synapse sourceNeuronName = "1" targetNeuronName = "26" weight = "15.880528478618658" />
    <synapse sourceNeuronName = "1" targetNeuronName = "27" weight = "11.74452196930808" />
    <synapse sourceNeuronName = "1" targetNeuronName = "28" weight = "2.017668982598189" />
    <synapse sourceNeuronName = "1" targetNeuronName = "29" weight = "22.379633157356068" />
    <synapse sourceNeuronName = "1" targetNeuronName = "30" weight = "13.926031995784038" />
    <synapse sourceNeuronName = "1" targetNeuronName = "31" weight = "13.224690337412358" />
    <synapse sourceNeuronName = "1" targetNeuronName = "32" weight = "20.057639026887657" />
    <synapse sourceNeuronName = "1" targetNeuronName = "33" weight = "23.282380250599523" />
    <synapse sourceNeuronName = "1" targetNeuronName = "34" weight = "23.15189091423713" />
    <synapse sourceNeuronName = "1" targetNeuronName = "35" weight = "13.05816200354826" />
    <synapse sourceNeuronName = "1" targetNeuronName = "36" weight = "23.39470553817574" />
    <synapse sourceNeuronName = "1" targetNeuronName = "37" weight = "13.427209699496654" />
    <synapse sourceNeuronName = "2" targetNeuronName = "12" weight = "0.4468769879582968" />
    <synapse sourceNeuronName = "2" targetNeuronName = "13" weight = "7.356834316615844" />
    <synapse sourceNeuronName = "2" targetNeuronName = "14" weight = "7.256121520055874" />
    <synapse sourceNeuronName = "2" targetNeuronName = "15" weight = "10.325909961352137" />
    <synapse sourceNeuronName = "2" targetNeuronName = "16" weight = "9.747291591263869" />
    <synapse sourceNeuronName = "2" targetNeuronName = "17" weight = "16.1089181620535" />
    <synapse sourceNeuronName = "2" targetNeuronName = "18" weight = "22.04497135213099" />
    <synapse sourceNeuronName = "2" targetNeuronName = "19" weight = "8.406185567457918" />
    <synapse sourceNeuronName = "2" targetNeuronName = "20" weight = "2.7552642296635215" />
    <synapse sourceNeuronName = "2" targetNeuronName = "21" weight = "17.053220016908206" />
    <synapse sourceNeuronName = "2" targetNeuronName = "22" weight = "0.8882732985513504" />
    <synapse sourceNeuronName = "2" targetNeuronName = "23" weight = "18.731916379171125" />
    <synapse sourceNeuronName = "2" targetNeuronName = "24" weight = "17.845989627560712" />
    <synapse sourceNeuronName = "2" targetNeuronName = "25" weight = "18.403349708739462" />
    <synapse sourceNeuronName = "2" targetNeuronName = "26" weight = "4.048702362328564" />
    <synapse sourceNeuronName = "2" targetNeuronName = "27" weight = "2.2361479401188546" />
    <synapse sourceNeuronName = "2" targetNeuronName = "28" weight = "12.531665756995332" />
    <synapse sourceNeuronName = "2" targetNeuronName = "29" weight = "15.238056018068825" />
    <synapse sourceNeuronName = "2" targetNeuronName = "30" weight = "12.544359960779188" />
    <synapse sourceNeuronName = "2" targetNeuronName = "31" weight = "9.224767802325674" />
    <synapse sourceNeuronName = "2" targetNeuronName = "32" weight = "8.503831247645891" />
    <synapse sourceNeuronName = "2" targetNeuronName = "33" weight = "15.71823419356761" />
    <synapse sourceNeuronName = "2" targetNeuronName = "34" weight = "9.218032861111604" />
    <synapse sourceNeuronName = "2" targetNeuronName = "35" weight = "19.284714566477984" />
    <synapse sourceNeuronName = "2" targetNeuronName = "36" weight = "7.126112714267602" />
    <synapse sourceNeuronName = "2" targetNeuronName = "37" weight = "23.215764779937725" />
    <synapse sourceNeuronName = "3" targetNeuronName = "12" weight = "20.58869265537368" />
    <synapse sourceNeuronName = "3" targetNeuronName = "13" weight = "12.182414709913681" />
    <synapse sourceNeuronName = "3" targetNeuronName = "14" weight = "16.294155215872483" />
    <synapse sourceNeuronName = "3" targetNeuronName = "15" weight = "18.425497219037986" />
    <synapse sourceNeuronName = "3" targetNeuronName = "16" weight = "14.384923646666776" />
    <synapse sourceNeuronName = "3" targetNeuronName = "17" weight = "1.4618132026084876" />
    <synapse sourceNeuronName = "3" targetNeuronName = "18" weight = "15.41635653871808" />
    <synapse sourceNeuronName = "3" targetNeuronName = "19" weight = "24.607165306409428" />
    <synapse sourceNeuronName = "3" targetNeuronName = "20" weight = "2.3207213216522034" />
    <synapse sourceNeuronName = "3" targetNeuronName = "21" weight = "6.583816408608397" />
    <synapse sourceNeuronName = "3" targetNeuronName = "22" weight = "10.413011463462647" />
    <synapse sourceNeuronName = "3" targetNeuronName = "23" weight = "13.770510410651529" />
    <synapse sourceNeuronName = "3" targetNeuronName = "24" weight = "6.587014373046332" />
    <synapse sourceNeuronName = "3" targetNeuronName = "25" weight = "11.756958140314296" />
    <synapse sourceNeuronName = "3" targetNeuronName = "26" weight = "11.40060633444154" />
    <synapse sourceNeuronName = "3" targetNeuronName = "27" weight = "23.283175351969465" />
    <synapse sourceNeuronName = "3" targetNeuronName = "28" weight = "19.53921293719941" />
    <synapse sourceNeuronName = "3" targetNeuronName = "29" weight = "1.4175325447662113" />
    <synapse sourceNeuronName = "3" targetNeuronName = "30" weight = "13.497199251466405" />
    <synapse sourceNeuronName = "3" targetNeuronName = "31" weight = "10.261788639114068" />
    <synapse sourceNeuronName = "3" targetNeuronName = "32" weight = "0.11320996428123009" />
    <synapse sourceNeuronName = "3" targetNeuronName = "33" weight = "2.0347847676189437" />
    <synapse sourceNeuronName = "3" targetNeuronName = "34" weight = "8.90099582642" />
    <synapse sourceNeuronName = "3" targetNeuronName = "35" weight = "17.460939944105206" />
    <synapse sourceNeuronName = "3" targetNeuronName = "36" weight = "19.00331021639721" />
    <synapse sourceNeuronName = "3" targetNeuronName = "37" weight = "10.122083051222866" />
    <synapse sourceNeuronName = "4" targetNeuronName = "12" weight = "-0.9045159998325372" />
    <synapse sourceNeuronName = "4" targetNeuronName = "13" weight = "14.100695414756595" />
    <synapse sourceNeuronName = "4" targetNeuronName = "14" weight = "22.4639584166115" />
    <synapse sourceNeuronName = "4" targetNeuronName = "15" weight = "16.757695552360513" />
    <synapse sourceNeuronName = "4" targetNeuronName = "16" weight = "12.96175898922141" />
    <synapse sourceNeuronName = "4" targetNeuronName = "17" weight = "7.085428206773916" />
    <synapse sourceNeuronName = "4" targetNeuronName = "18" weight = "14.916925310204032" />
    <synapse sourceNeuronName = "4" targetNeuronName = "19" weight = "-0.7959448754065916" />
    <synapse sourceNeuronName = "4" targetNeuronName = "20" weight = "21.036853627806526" />
    <synapse sourceNeuronName = "4" targetNeuronName = "21" weight = "2.9528043432686033" />
    <synapse sourceNeuronName = "4" targetNeuronName = "22" weight = "19.81788589226299" />
    <synapse sourceNeuronName = "4" targetNeuronName = "23" weight = "7.647949263327357" />
    <synapse sourceNeuronName = "4" targetNeuronName = "24" weight = "1.0963135105593356" />
    <synapse sourceNeuronName = "4" targetNeuronName = "25" weight = "21.123145476688517" />
    <synapse sourceNeuronName = "4" targetNeuronName = "26" weight = "21.646069920669206" />
    <synapse sourceNeuronName = "4" targetNeuronName = "27" weight = "16.62648011070124" />
    <synapse sourceNeuronName = "4" targetNeuronName = "28" weight = "-0.6948786917295964" />
    <synapse sourceNeuronName = "4" targetNeuronName = "29" weight = "16.771868607390953" />
    <synapse sourceNeuronName = "4" targetNeuronName = "30" weight = "9.831381390682301" />
    <synapse sourceNeuronName = "4" targetNeuronName = "31" weight = "2.82064512205781" />
    <synapse sourceNeuronName = "4" targetNeuronName = "32" weight = "21.056131752731943" />
    <synapse sourceNeuronName = "4" targetNeuronName = "33" weight = "1.0242511623212538" />
    <synapse sourceNeuronName = "4" targetNeuronName = "34" weight = "2.0147713851347557" />
    <synapse sourceNeuronName = "4" targetNeuronName = "35" weight = "6.548900864254298" />
    <synapse sourceNeuronName = "4" targetNeuronName = "36" weight = "0.28789453471998105" />
    <synapse sourceNeuronName = "4" targetNeuronName = "37" weight = "14.724819636402387" />
    <synapse sourceNeuronName = "5" targetNeuronName = "12" weight = "-0.48652783844684744" />
    <synapse sourceNeuronName = "5" targetNeuronName = "13" weight = "13.140550071048393" />
    <synapse sourceNeuronName = "5" targetNeuronName = "14" weight = "22.094766939331436" />
    <synapse sourceNeuronName = "5" targetNeuronName = "15" weight = "2.6217385451825512" />
    <synapse sourceNeuronName = "5" targetNeuronName = "16" weight = "7.452812775556881" />
    <synapse sourceNeuronName = "5" targetNeuronName = "17" weight = "14.645762995979597" />
    <synapse sourceNeuronName = "5" targetNeuronName = "18" weight = "8.791414821211607" />
    <synapse sourceNeuronName = "5" targetNeuronName = "19" weight = "5.99310009301903" />
    <synapse sourceNeuronName = "5" targetNeuronName = "20" weight = "16.50914156562536" />
    <synapse sourceNeuronName = "5" targetNeuronName = "21" weight = "3.5310426869806397" />
    <synapse sourceNeuronName = "5" targetNeuronName = "22" weight = "15.528639322928502" />
    <synapse sourceNeuronName = "5" targetNeuronName = "23" weight = "16.62388392220246" />
    <synapse sourceNeuronName = "5" targetNeuronName = "24" weight = "4.252439180349985" />
    <synapse sourceNeuronName = "5" targetNeuronName = "25" weight = "20.613233657882404" />
    <synapse sourceNeuronName = "5" targetNeuronName = "26" weight = "16.695529006671183" />
    <synapse sourceNeuronName = "5" targetNeuronName = "27" weight = "17.606288651866745" />
    <synapse sourceNeuronName = "5" targetNeuronName = "28" weight = "10.028448561650505" />
    <synapse sourceNeuronName = "5" targetNeuronName = "29" weight = "22.277932529783754" />
    <synapse sourceNeuronName = "5" targetNeuronName = "30" weight = "6.0201267904432445" />
    <synapse sourceNeuronName = "5" targetNeuronName = "31" weight = "4.238179433126776" />
    <synapse sourceNeuronName = "5" targetNeuronName = "32" weight = "-0.8462303271807821" />
    <synapse sourceNeuronName = "5" targetNeuronName = "33" weight = "16.612174847024814" />
    <synapse sourceNeuronName = "5" targetNeuronName = "34" weight = "8.829338360552772" />
    <synapse sourceNeuronName = "5" targetNeuronName = "35" weight = "9.84407589528624" />
    <synapse sourceNeuronName = "5" targetNeuronName = "36" weight = "12.874523612767799" />
    <synapse sourceNeuronName = "5" targetNeuronName = "37" weight = "-0.11154573213808083" />
    <synapse sourceNeuronName = "6" targetNeuronName = "12" weight = "-0.2378826984461193" />
    <synapse sourceNeuronName = "6" targetNeuronName = "13" weight = "4.979303443744313" />
    <synapse sourceNeuronName = "6" targetNeuronName = "14" weight = "12.006484071406772" />
    <synapse sourceNeuronName = "6" targetNeuronName = "15" weight = "1.7836642659284374" />
    <synapse sourceNeuronName = "6" targetNeuronName = "16" weight = "20.713542005888545" />
    <synapse sourceNeuronName = "6" targetNeuronName = "17" weight = "4.812131111530088" />
    <synapse sourceNeuronName = "6" targetNeuronName = "18" weight = "-0.41531301572139023" />
    <synapse sourceNeuronName = "6" targetNeuronName = "19" weight = "4.3819688053789205" />
    <synapse sourceNeuronName = "6" targetNeuronName = "20" weight = "1.3449492704168504" />
    <synapse sourceNeuronName = "6" targetNeuronName = "21" weight = "13.713022016795264" />
    <synapse sourceNeuronName = "6" targetNeuronName = "22" weight = "2.774159614578501" />
    <synapse sourceNeuronName = "6" targetNeuronName = "23" weight = "3.722516691971002" />
    <synapse sourceNeuronName = "6" targetNeuronName = "24" weight = "16.10088555442033" />
    <synapse sourceNeuronName = "6" targetNeuronName = "25" weight = "14.831640753620222" />
    <synapse sourceNeuronName = "6" targetNeuronName = "26" weight = "21.275405753100458" />
    <synapse sourceNeuronName = "6" targetNeuronName = "27" weight = "7.25853329680978" />
    <synapse sourceNeuronName = "6" targetNeuronName = "28" weight = "15.921049664456621" />
    <synapse sourceNeuronName = "6" targetNeuronName = "29" weight = "9.463586417596" />
    <synapse sourceNeuronName = "6" targetNeuronName = "30" weight = "0.12947622641527357" />
    <synapse sourceNeuronName = "6" targetNeuronName = "31" weight = "10.044591730948705" />
    <synapse sourceNeuronName = "6" targetNeuronName = "32" weight = "1.7661179594188994" />
    <synapse sourceNeuronName = "6" targetNeuronName = "33" weight = "4.071499330581171" />
    <synapse sourceNeuronName = "6" targetNeuronName = "34" weight = "23.451250747205425" />
    <synapse sourceNeuronName = "6" targetNeuronName = "35" weight = "14.169921427322272" />
    <synapse sourceNeuronName = "6" targetNeuronName = "36" weight = "11.902415957715315" />
    <synapse sourceNeuronName = "6" targetNeuronName = "37" weight = "19.715278364156692" />
    <synapse sourceNeuronName = "7" targetNeuronName = "12" weight = "1.5235737514039673" />
    <synapse sourceNeuronName = "7" targetNeuronName = "13" weight = "-0.5408663216540397" />
    <synapse sourceNeuronName = "7" targetNeuronName = "14" weight = "1.6409151824134702" />
    <synapse sourceNeuronName = "7" targetNeuronName = "15" weight = "16.072897077383196" />
    <synapse sourceNeuronName = "7" targetNeuronName = "16" weight = "1.2579185767031609" />
    <synapse sourceNeuronName = "7" targetNeuronName = "17" weight = "2.2679032771802166" />
    <synapse sourceNeuronName = "7" targetNeuronName = "18" weight = "24.248902892454637" />
    <synapse sourceNeuronName = "7" targetNeuronName = "19" weight = "15.71752299920622" />
    <synapse sourceNeuronName = "7" targetNeuronName = "20" weight = "8.609221147146025" />
    <synapse sourceNeuronName = "7" targetNeuronName = "21" weight = "4.302515240904763" />
    <synapse sourceNeuronName = "7" targetNeuronName = "22" weight = "15.403370969456159" />
    <synapse sourceNeuronName = "7" targetNeuronName = "23" weight = "13.722306543109026" />
    <synapse sourceNeuronName = "7" targetNeuronName = "24" weight = "11.39531521876393" />
    <synapse sourceNeuronName = "7" targetNeuronName = "25" weight = "16.911530856400162" />
    <synapse sourceNeuronName = "7" targetNeuronName = "26" weight = "22.785043966964682" />
    <synapse sourceNeuronName = "7" targetNeuronName = "27" weight = "1.70146562937183" />
    <synapse sourceNeuronName = "7" targetNeuronName = "28" weight = "0.39129114073130133" />
    <synapse sourceNeuronName = "7" targetNeuronName = "29" weight = "18.149935489231556" />
    <synapse sourceNeuronName = "7" targetNeuronName = "30" weight = "24.220295860204093" />
    <synapse sourceNeuronName = "7" targetNeuronName = "31" weight = "10.31529874294673" />
    <synapse sourceNeuronName = "7" targetNeuronName = "32" weight = "19.308892467150955" />
    <synapse sourceNeuronName = "7" targetNeuronName = "33" weight = "-0.02341904719914445" />
    <synapse sourceNeuronName = "7" targetNeuronName = "34" weight = "14.742299355223501" />
    <synapse sourceNeuronName = "7" targetNeuronName = "35" weight = "15.112522107984429" />
    <synapse sourceNeuronName = "7" targetNeuronName = "36" weight = "16.575716791764716" />
    <synapse sourceNeuronName = "7" targetNeuronName = "37" weight = "-0.5571057584041499" />
    <synapse sourceNeuronName = "8" targetNeuronName = "12" weight = "18.894926250030657" />
    <synapse sourceNeuronName = "8" targetNeuronName = "13" weight = "4.276315755156519" />
    <synapse sourceNeuronName = "8" targetNeuronName = "14" weight = "19.925861436323874" />
    <synapse sourceNeuronName = "8" targetNeuronName = "15" weight = "19.629699513580327" />
    <synapse sourceNeuronName = "8" targetNeuronName = "16" weight = "13.704605887782742" />
    <synapse sourceNeuronName = "8" targetNeuronName = "17" weight = "6.5477739741095515" />
    <synapse sourceNeuronName = "8" targetNeuronName = "18" weight = "14.981038614357008" />
    <synapse sourceNeuronName = "8" targetNeuronName = "19" weight = "23.043678248414466" />
    <synapse sourceNeuronName = "8" targetNeuronName = "20" weight = "23.63031627339801" />
    <synapse sourceNeuronName = "8" targetNeuronName = "21" weight = "7.8955889009901234" />
    <synapse sourceNeuronName = "8" targetNeuronName = "22" weight = "2.085715545406314" />
    <synapse sourceNeuronName = "8" targetNeuronName = "23" weight = "10.478293734357706" />
    <synapse sourceNeuronName = "8" targetNeuronName = "24" weight = "14.991806717606167" />
    <synapse sourceNeuronName = "8" targetNeuronName = "25" weight = "6.059381806585254" />
    <synapse sourceNeuronName = "8" targetNeuronName = "26" weight = "8.005656077493267" />
    <synapse sourceNeuronName = "8" targetNeuronName = "27" weight = "14.630402786682803" />
    <synapse sourceNeuronName = "8" targetNeuronName = "28" weight = "11.141670929377954" />
    <synapse sourceNeuronName = "8" targetNeuronName = "29" weight = "9.254732771479107" />
    <synapse sourceNeuronName = "8" targetNeuronName = "30" weight = "16.649832262551815" />
    <synapse sourceNeuronName = "8" targetNeuronName = "31" weight = "22.184772618171447" />
    <synapse sourceNeuronName = "8" targetNeuronName = "32" weight = "12.903208467873572" />
    <synapse sourceNeuronName = "8" targetNeuronName = "33" weight = "15.881674341431491" />
    <synapse sourceNeuronName = "8" targetNeuronName = "34" weight = "22.824560200736084" />
    <synapse sourceNeuronName = "8" targetNeuronName = "35" weight = "17.176970804964878" />
    <synapse sourceNeuronName = "8" targetNeuronName = "36" weight = "0.822364289115054" />
    <synapse sourceNeuronName = "8" targetNeuronName = "37" weight = "13.863579453980858" />
    <synapse sourceNeuronName = "9" targetNeuronName = "12" weight = "16.65135790773467" />
    <synapse sourceNeuronName = "9" targetNeuronName = "13" weight = "17.555430851360086" />
    <synapse sourceNeuronName = "9" targetNeuronName = "14" weight = "4.162035321648971" />
    <synapse sourceNeuronName = "9" targetNeuronName = "15" weight = "1.416540146506434" />
    <synapse sourceNeuronName = "9" targetNeuronName = "16" weight = "22.046899703074118" />
    <synapse sourceNeuronName = "9" targetNeuronName = "17" weight = "3.2481341065098714" />
    <synapse sourceNeuronName = "9" targetNeuronName = "18" weight = "15.914931427587884" />
    <synapse sourceNeuronName = "9" targetNeuronName = "19" weight = "8.548182219457543" />
    <synapse sourceNeuronName = "9" targetNeuronName = "20" weight = "13.440902769497338" />
    <synapse sourceNeuronName = "9" targetNeuronName = "21" weight = "2.8173577889491046" />
    <synapse sourceNeuronName = "9" targetNeuronName = "22" weight = "13.701088404293001" />
    <synapse sourceNeuronName = "9" targetNeuronName = "23" weight = "9.928095193559185" />
    <synapse sourceNeuronName = "9" targetNeuronName = "24" weight = "21.351489919168554" />
    <synapse sourceNeuronName = "9" targetNeuronName = "25" weight = "15.409537205852082" />
    <synapse sourceNeuronName = "9" targetNeuronName = "26" weight = "11.936295235687032" />
    <synapse sourceNeuronName = "9" targetNeuronName = "27" weight = "4.957859754469957" />
    <synapse sourceNeuronName = "9" targetNeuronName = "28" weight = "14.59531338651619" />
    <synapse sourceNeuronName = "9" targetNeuronName = "29" weight = "10.91409670289462" />
    <synapse sourceNeuronName = "9" targetNeuronName = "30" weight = "11.773454382377077" />
    <synapse sourceNeuronName = "9" targetNeuronName = "31" weight = "21.916412108445883" />
    <synapse sourceNeuronName = "9" targetNeuronName = "32" weight = "16.567625050649706" />
    <synapse sourceNeuronName = "9" targetNeuronName = "33" weight = "5.564642808939746" />
    <synapse sourceNeuronName = "9" targetNeuronName = "34" weight = "0.2054424898658238" />
    <synapse sourceNeuronName = "9" targetNeuronName = "35" weight = "8.684053985221537" />
    <synapse sourceNeuronName = "9" targetNeuronName = "36" weight = "18.71320917729551" />
    <synapse sourceNeuronName = "9" targetNeuronName = "37" weight = "11.210546263157868" />
    <synapse sourceNeuronName = "10" targetNeuronName = "12" weight = "3.109622930037202" />
    <synapse sourceNeuronName = "10" targetNeuronName = "13" weight = "1.0237984617449065" />
    <synapse sourceNeuronName = "10" targetNeuronName = "14" weight = "13.536037634110787" />
    <synapse sourceNeuronName = "10" targetNeuronName = "15" weight = "23.65274357147621" />
    <synapse sourceNeuronName = "10" targetNeuronName = "16" weight = "19.593155040601214" />
    <synapse sourceNeuronName = "10" targetNeuronName = "17" weight = "7.995426217858995" />
    <synapse sourceNeuronName = "10" targetNeuronName = "18" weight = "3.2835205251523405" />
    <synapse sourceNeuronName = "10" targetNeuronName = "19" weight = "3.6066751350372224" />
    <synapse sourceNeuronName = "10" targetNeuronName = "20" weight = "19.42593415712773" />
    <synapse sourceNeuronName = "10" targetNeuronName = "21" weight = "14.012720973523955" />
    <synapse sourceNeuronName = "10" targetNeuronName = "22" weight = "14.678640643018115" />
    <synapse sourceNeuronName = "10" targetNeuronName = "23" weight = "22.655038118833897" />
    <synapse sourceNeuronName = "10" targetNeuronName = "24" weight = "19.616116778275167" />
    <synapse sourceNeuronName = "10" targetNeuronName = "25" weight = "6.242633391097992" />
    <synapse sourceNeuronName = "10" targetNeuronName = "26" weight = "6.931136772357634" />
    <synapse sourceNeuronName = "10" targetNeuronName = "27" weight = "10.238463690735403" />
    <synapse sourceNeuronName = "10" targetNeuronName = "28" weight = "13.760879190660352" />
    <synapse sourceNeuronName = "10" targetNeuronName = "29" weight = "19.79926560603219" />
    <synapse sourceNeuronName = "10" targetNeuronName = "30" weight = "14.020733265376396" />
    <synapse sourceNeuronName = "10" targetNeuronName = "31" weight = "14.119718693683946" />
    <synapse sourceNeuronName = "10" targetNeuronName = "32" weight = "1.7455872126914818" />
    <synapse sourceNeuronName = "10" targetNeuronName = "33" weight = "19.81430935680941" />
    <synapse sourceNeuronName = "10" targetNeuronName = "34" weight = "2.9314082645460644" />
    <synapse sourceNeuronName = "10" targetNeuronName = "35" weight = "-0.9241148612183114" />
    <synapse sourceNeuronName = "10" targetNeuronName = "36" weight = "22.65664053181836" />
    <synapse sourceNeuronName = "10" targetNeuronName = "37" weight = "8.138992051783037" />
    <synapse sourceNeuronName = "11" targetNeuronName = "12" weight = "11.728585911121407" />
    <synapse sourceNeuronName = "11" targetNeuronName = "13" weight = "11.558473178116433" />
    <synapse sourceNeuronName = "11" targetNeuronName = "14" weight = "21.131521334221986" />
    <synapse sourceNeuronName = "11" targetNeuronName = "15" weight = "15.10969922157986" />
    <synapse sourceNeuronName = "11" targetNeuronName = "16" weight = "10.378035732720233" />
    <synapse sourceNeuronName = "11" targetNeuronName = "17" weight = "16.075350755428293" />
    <synapse sourceNeuronName = "11" targetNeuronName = "18" weight = "18.94427353493311" />
    <synapse sourceNeuronName = "11" targetNeuronName = "19" weight = "8.69567954823674" />
    <synapse sourceNeuronName = "11" targetNeuronName = "20" weight = "9.689739744897588" />
    <synapse sourceNeuronName = "11" targetNeuronName = "21" weight = "11.336896122620086" />
    <synapse sourceNeuronName = "11" targetNeuronName = "22" weight = "0.012470378820922612" />
    <synapse sourceNeuronName = "11" targetNeuronName = "23" weight = "16.9494198682661" />
    <synapse sourceNeuronName = "11" targetNeuronName = "24" weight = "6.097396688593224" />
    <synapse sourceNeuronName = "11" targetNeuronName = "25" weight = "-0.8943533587109982" />
    <synapse sourceNeuronName = "11" targetNeuronName = "26" weight = "1.5693451284590791" />
    <synapse sourceNeuronName = "11" targetNeuronName = "27" weight = "2.8543788555595517" />
    <synapse sourceNeuronName = "11" targetNeuronName = "28" weight = "12.041644639072596" />
    <synapse sourceNeuronName = "11" targetNeuronName = "29" weight = "8.636360068126875" />
    <synapse sourceNeuronName = "11" targetNeuronName = "30" weight = "11.811828196635043" />
    <synapse sourceNeuronName = "11" targetNeuronName = "31" weight = "10.216987833876805" />
    <synapse sourceNeuronName = "11" targetNeuronName = "32" weight = "22.65480227506972" />
    <synapse sourceNeuronName = "11" targetNeuronName = "33" weight = "19.503217676355312" />
    <synapse sourceNeuronName = "11" targetNeuronName = "34" weight = "11.016139578146294" />
    <synapse sourceNeuronName = "11" targetNeuronName = "35" weight = "24.42046270013824" />
    <synapse sourceNeuronName = "11" targetNeuronName = "36" weight = "3.4307508184023447" />
    <synapse sourceNeuronName = "11" targetNeuronName = "37" weight = "-0.07703384244055256" />
</neuralNetwork>