<neuralNetwork>
    <neuron name = "0" type = "sensor" linkName = "Torso" />
    <neuron name = "1" type = "sensor" linkName = "Leg3" />
    <neuron name = "2" type = "sensor" linkName = "Leg7" />
    <neuron name = "3" type = "sensor" linkName = "Leg8" />
    <neuron name = "4" type = "sensor" linkName = "Leg10" />
    <neuron name = "5" type = "sensor" linkName = "Leg12" />
    <neuron name = "6" type = "sensor" linkName = "Leg13" />
    <neuron name = "7" type = "sensor" linkName = "Leg15" />
    <neuron name = "8" type = "sensor" linkName = "Leg21" />
    <neuron name = "9" type = "motor"  jointName = "Torso_Leg1" />
    <neuron name = "10" type = "motor"  jointName = "Leg1_Leg2" />
    <neuron name = "11" type = "motor"  jointName = "Leg2_Leg3" />
    <neuron name = "12" type = "motor"  jointName = "Leg3_Leg4" />
    <neuron name = "13" type = "motor"  jointName = "Leg3_Leg5" />
    <neuron name = "14" type = "motor"  jointName = "Leg2_Leg6" />
    <neuron name = "15" type = "motor"  jointName = "Leg5_Leg7" />
    <neuron name = "16" type = "motor"  jointName = "Leg5_Leg8" />
    <neuron name = "17" type = "motor"  jointName = "Leg6_Leg9" />
    <neuron name = "18" type = "motor"  jointName = "Leg4_Leg10" />
    <neuron name = "19" type = "motor"  jointName = "Leg9_Leg11" />
    <neuron name = "20" type = "motor"  jointName = "Leg8_Leg12" />
    <neuron name = "21" type = "motor"  jointName = "Leg5_Leg13" />
    <neuron name = "22" type = "motor"  jointName = "Leg3_Leg14" />
    <neuron name = "23" type = "motor"  jointName = "Torso_Leg15" />
    <neuron name = "24" type = "motor"  jointName = "Leg13_Leg16" />
    <neuron name = "25" type = "motor"  jointName = "Leg10_Leg17" />
    <neuron name = "26" type = "motor"  jointName = "Leg7_Leg18" />
    <neuron name = "27" type = "motor"  jointName = "Leg14_Leg19" />
    <neuron name = "28" type = "motor"  jointName = "Leg16_Leg20" />
    <neuron name = "29" type = "motor"  jointName = "Leg18_Leg21" />
    <neuron name = "30" type = "motor"  jointName = "Leg9_Leg22" />
    <neuron name = "31" type = "motor"  jointName = "Leg20_Leg23" />
    <neuron name = "32" type = "motor"  jointName = "Leg19_Leg24" />
    <neuron name = "33" type = "motor"  jointName = "Leg6_Leg25" />
    <neuron name = "34" type = "motor"  jointName = "Leg13_Leg26" />
    <synapse sourceNeuronName = "0" targetNeuronName = "9" weight = "24.94446196295328" />
    <synapse sourceNeuronName = "0" targetNeuronName = "10" weight = "0.2984516961843635" />
    <synapse sourceNeuronName = "0" targetNeuronName = "11" weight = "13.517088706242927" />
    <synapse sourceNeuronName = "0" targetNeuronName = "12" weight = "8.955069922932992" />
    <synapse sourceNeuronName = "0" targetNeuronName = "13" weight = "-0.8132529579396486" />
    <synapse sourceNeuronName = "0" targetNeuronName = "14" weight = "9.364228064120221" />
    <synapse sourceNeuronName = "0" targetNeuronName = "15" weight = "7.903739701452549" />
    <synapse sourceNeuronName = "0" targetNeuronName = "16" weight = "17.324615821967836" />
    <synapse sourceNeuronName = "0" targetNeuronName = "17" weight = "23.55684560592285" />
    <synapse sourceNeuronName = "0" targetNeuronName = "18" weight = "18.674176079422246" />
    <synapse sourceNeuronName = "0" targetNeuronName = "19" weight = "7.995560798740605" />
    <synapse sourceNeuronName = "0" targetNeuronName = "20" weight = "13.130232213288659" />
    <synapse sourceNeuronName = "0" targetNeuronName = "21" weight = "10.072147826440727" />
    <synapse sourceNeuronName = "0" targetNeuronName = "22" weight = "1.040912847149703" />
    <synapse sourceNeuronName = "0" targetNeuronName = "23" weight = "3.1023127412117084" />
    <synapse sourceNeuronName = "0" targetNeuronName = "24" weight = "23.587209891875524" />
    <synapse sourceNeuronName = "0" targetNeuronName = "25" weight = "10.510367777336278" />
    <synapse sourceNeuronName = "0" targetNeuronName = "26" weight = "11.530385967702022" />
    <synapse sourceNeuronName = "0" targetNeuronName = "27" weight = "13.061817336041454" />
    <synapse sourceNeuronName = "0" targetNeuronName = "28" weight = "14.702400983887046" />
    <synapse sourceNeuronName = "0" targetNeuronName = "29" weight = "11.516396469936485" />
    <synapse sourceNeuronName = "0" targetNeuronName = "30" weight = "15.918884781731194" />
    <synapse sourceNeuronName = "0" targetNeuronName = "31" weight = "5.018849101552432" />
    <synapse sourceNeuronName = "0" targetNeuronName = "32" weight = "12.797394327677894" />
    <synapse sourceNeuronName = "0" targetNeuronName = "33" weight = "23.25430317074181" />
    <synapse sourceNeuronName = "0" targetNeuronName = "34" weight = "21.08465438122606" />
    <synapse sourceNeuronName = "1" targetNeuronName = "9" weight = "19.408363086428825" />
    <synapse sourceNeuronName = "1" targetNeuronName = "10" weight = "19.775406319097936" />
    <synapse sourceNeuronName = "1" targetNeuronName = "11" weight = "4.699938137816705" />
    <synapse sourceNeuronName = "1" targetNeuronName = "12" weight = "5.827272572637856" />
    <synapse sourceNeuronName = "1" targetNeuronName = "13" weight = "21.789355168747903" />
    <synapse sourceNeuronName = "1" targetNeuronName = "14" weight = "15.07001189574838" />
    <synapse sourceNeuronName = "1" targetNeuronName = "15" weight = "13.745374949526708" />
    <synapse sourceNeuronName = "1" targetNeuronName = "16" weight = "23.282224510760887" />
    <synapse sourceNeuronName = "1" targetNeuronName = "17" weight = "17.528807507746997" />
    <synapse sourceNeuronName = "1" targetNeuronName = "18" weight = "5.953769670657515" />
    <synapse sourceNeuronName = "1" targetNeuronName = "19" weight = "21.358682425279373" />
    <synapse sourceNeuronName = "1" targetNeuronName = "20" weight = "5.4828246727818835" />
    <synapse sourceNeuronName = "1" targetNeuronName = "21" weight = "21.253446927365637" />
    <synapse sourceNeuronName = "1" targetNeuronName = "22" weight = "3.008204102478947" />
    <synapse sourceNeuronName = "1" targetNeuronName = "23" weight = "-0.39462662968393114" />
    <synapse sourceNeuronName = "1" targetNeuronName = "24" weight = "8.486480873028658" />
    <synapse sourceNeuronName = "1" targetNeuronName = "25" weight = "9.379296418591197" />
    <synapse sourceNeuronName = "1" targetNeuronName = "26" weight = "19.684440654302897" />
    <synapse sourceNeuronName = "1" targetNeuronName = "27" weight = "16.442355530736776" />
    <synapse sourceNeuronName = "1" targetNeuronName = "28" weight = "8.487856589829837" />
    <synapse sourceNeuronName = "1" targetNeuronName = "29" weight = "10.700780510804677" />
    <synapse sourceNeuronName = "1" targetNeuronName = "30" weight = "10.448404916098676" />
    <synapse sourceNeuronName = "1" targetNeuronName = "31" weight = "2.205792515473404" />
    <synapse sourceNeuronName = "1" targetNeuronName = "32" weight = "19.191610156396877" />
    <synapse sourceNeuronName = "1" targetNeuronName = "33" weight = "12.257195550480715" />
    <synapse sourceNeuronName = "1" targetNeuronName = "34" weight = "9.009894765923233" />
    <synapse sourceNeuronName = "2" targetNeuronName = "9" weight = "18.286602097076972" />
    <synapse sourceNeuronName = "2" targetNeuronName = "10" weight = "23.438911162024823" />
    <synapse sourceNeuronName = "2" targetNeuronName = "11" weight = "15.563665385908909" />
    <synapse sourceNeuronName = "2" targetNeuronName = "12" weight = "3.0144008232793524" />
    <synapse sourceNeuronName = "2" targetNeuronName = "13" weight = "7.555835731735035" />
    <synapse sourceNeuronName = "2" targetNeuronName = "14" weight = "12.941635049131317" />
    <synapse sourceNeuronName = "2" targetNeuronName = "15" weight = "11.238788579250318" />
    <synapse sourceNeuronName = "2" targetNeuronName = "16" weight = "23.47748914406159" />
    <synapse sourceNeuronName = "2" targetNeuronName = "17" weight = "20.460772067943427" />
    <synapse sourceNeuronName = "2" targetNeuronName = "18" weight = "0.21202228841541992" />
    <synapse sourceNeuronName = "2" targetNeuronName = "19" weight = "14.757725569059087" />
    <synapse sourceNeuronName = "2" targetNeuronName = "20" weight = "8.205364555704787" />
    <synapse sourceNeuronName = "2" targetNeuronName = "21" weight = "19.094573296918178" />
    <synapse sourceNeuronName = "2" targetNeuronName = "22" weight = "16.253752298659865" />
    <synapse sourceNeuronName = "2" targetNeuronName = "23" weight = "1.2512743691646668" />
    <synapse sourceNeuronName = "2" targetNeuronName = "24" weight = "15.792168147747553" />
    <synapse sourceNeuronName = "2" targetNeuronName = "25" weight = "16.13104958564467" />
    <synapse sourceNeuronName = "2" targetNeuronName = "26" weight = "23.948068815654736" />
    <synapse sourceNeuronName = "2" targetNeuronName = "27" weight = "13.507130766460465" />
    <synapse sourceNeuronName = "2" targetNeuronName = "28" weight = "22.36565973778442" />
    <synapse sourceNeuronName = "2" targetNeuronName = "29" weight = "3.9084873793422776" />
    <synapse sourceNeuronName = "2" targetNeuronName = "30" weight = "9.412084720477175" />
    <synapse sourceNeuronName = "2" targetNeuronName = "31" weight = "7.25685562549698" />
    <synapse sourceNeuronName = "2" targetNeuronName = "32" weight = "10.319107978542007" />
    <synapse sourceNeuronName = "2" targetNeuronName = "33" weight = "19.8379542581096" />
    <synapse sourceNeuronName = "2" targetNeuronName = "34" weight = "16.526578777262127" />
    <synapse sourceNeuronName = "3" targetNeuronName = "9" weight = "-0.5033990883384842" />
    <synapse sourceNeuronName = "3" targetNeuronName = "10" weight = "17.711892897277483" />
    <synapse sourceNeuronName = "3" targetNeuronName = "11" weight = "0.7132967611524432" />
    <synapse sourceNeuronName = "3" targetNeuronName = "12" weight = "2.4708165493085446" />
    <synapse sourceNeuronName = "3" targetNeuronName = "13" weight = "15.861338100897846" />
    <synapse sourceNeuronName = "3" targetNeuronName = "14" weight = "14.669374345339964" />
    <synapse sourceNeuronName = "3" targetNeuronName = "15" weight = "20.864183766001982" />
    <synapse sourceNeuronName = "3" targetNeuronName = "16" weight = "1.6764324123105174" />
    <synapse sourceNeuronName = "3" targetNeuronName = "17" weight = "15.69317196228749" />
    <synapse sourceNeuronName = "3" targetNeuronName = "18" weight = "4.8131647743452906" />
    <synapse sourceNeuronName = "3" targetNeuronName = "19" weight = "10.655620536649568" />
    <synapse sourceNeuronName = "3" targetNeuronName = "20" weight = "1.5315866939750364" />
    <synapse sourceNeuronName = "3" targetNeuronName = "21" weight = "5.785944021449952" />
    <synapse sourceNeuronName = "3" targetNeuronName = "22" weight = "23.912372222551035" />
    <synapse sourceNeuronName = "3" targetNeuronName = "23" weight = "17.269801442363228" />
    <synapse sourceNeuronName = "3" targetNeuronName = "24" weight = "7.8219197700436816" />
    <synapse sourceNeuronName = "3" targetNeuronName = "25" weight = "7.909665266142996" />
    <synapse sourceNeuronName = "3" targetNeuronName = "26" weight = "8.035293054976865" />
    <synapse sourceNeuronName = "3" targetNeuronName = "27" weight = "18.881487988230532" />
    <synapse sourceNeuronName = "3" targetNeuronName = "28" weight = "22.006012146878067" />
    <synapse sourceNeuronName = "3" targetNeuronName = "29" weight = "11.280077045994448" />
    <synapse sourceNeuronName = "3" targetNeuronName = "30" weight = "-0.19226135240985687" />
    <synapse sourceNeuronName = "3" targetNeuronName = "31" weight = "21.531698849242062" />
    <synapse sourceNeuronName = "3" targetNeuronName = "32" weight = "20.736643542205822" />
    <synapse sourceNeuronName = "3" targetNeuronName = "33" weight = "6.086871320685658" />
    <synapse sourceNeuronName = "3" targetNeuronName = "34" weight = "13.065075703095275" />
    <synapse sourceNeuronName = "4" targetNeuronName = "9" weight = "19.129719319811045" />
    <synapse sourceNeuronName = "4" targetNeuronName = "10" weight = "1.634488454054014" />
    <synapse sourceNeuronName = "4" targetNeuronName = "11" weight = "23.39968418053013" />
    <synapse sourceNeuronName = "4" targetNeuronName = "12" weight = "19.57544382121239" />
    <synapse sourceNeuronName = "4" targetNeuronName = "13" weight = "3.9374273864916" />
    <synapse sourceNeuronName = "4" targetNeuronName = "14" weight = "16.97436535329457" />
    <synapse sourceNeuronName = "4" targetNeuronName = "15" weight = "4.223517182084801" />
    <synapse sourceNeuronName = "4" targetNeuronName = "16" weight = "22.408288853177524" />
    <synapse sourceNeuronName = "4" targetNeuronName = "17" weight = "22.05126479882604" />
    <synapse sourceNeuronName = "4" targetNeuronName = "18" weight = "18.585218532635167" />
    <synapse sourceNeuronName = "4" targetNeuronName = "19" weight = "-0.2953375879107416" />
    <synapse sourceNeuronName = "4" targetNeuronName = "20" weight = "13.611589765240213" />
    <synapse sourceNeuronName = "4" targetNeuronName = "21" weight = "5.116178446153927" />
    <synapse sourceNeuronName = "4" targetNeuronName = "22" weight = "17.75730626959821" />
    <synapse sourceNeuronName = "4" targetNeuronName = "23" weight = "16.71955868540538" />
    <synapse sourceNeuronName = "4" targetNeuronName = "24" weight = "13.515624574612191" />
    <synapse sourceNeuronName = "4" targetNeuronName = "25" weight = "3.2491030445297557" />
    <synapse sourceNeuronName = "4" targetNeuronName = "26" weight = "19.18668761104992" />
    <synapse sourceNeuronName = "4" targetNeuronName = "27" weight = "9.221412841463957" />
    <synapse sourceNeuronName = "4" targetNeuronName = "28" weight = "2.1637515290790867" />
    <synapse sourceNeuronName = "4" targetNeuronName = "29" weight = "17.78836877591704" />
    <synapse sourceNeuronName = "4" targetNeuronName = "30" weight = "13.457013124010606" />
    <synapse sourceNeuronName = "4" targetNeuronName = "31" weight = "11.68763526605459" />
    <synapse sourceNeuronName = "4" targetNeuronName = "32" weight = "-0.1261838750264277" />
    <synapse sourceNeuronName = "4" targetNeuronName = "33" weight = "14.65259497354148" />
    <synapse sourceNeuronName = "4" targetNeuronName = "34" weight = "7.088328277833412" />
    <synapse sourceNeuronName = "5" targetNeuronName = "9" weight = "3.335342169571927" />
    <synapse sourceNeuronName = "5" targetNeuronName = "10" weight = "0.28135567553367236" />
    <synapse sourceNeuronName = "5" targetNeuronName = "11" weight = "17.222541287439732" />
    <synapse sourceNeuronName = "5" targetNeuronName = "12" weight = "17.476643316692734" />
    <synapse sourceNeuronName = "5" targetNeuronName = "13" weight = "19.192602001588078" />
    <synapse sourceNeuronName = "5" targetNeuronName = "14" weight = "21.475066949658142" />
    <synapse sourceNeuronName = "5" targetNeuronName = "15" weight = "-0.7579628376653345" />
    <synapse sourceNeuronName = "5" targetNeuronName = "16" weight = "15.918807398429639" />
    <synapse sourceNeuronName = "5" targetNeuronName = "17" weight = "24.26709055302677" />
    <synapse sourceNeuronName = "5" targetNeuronName = "18" weight = "16.079022618353278" />
    <synapse sourceNeuronName = "5" targetNeuronName = "19" weight = "23.606084066050027" />
    <synapse sourceNeuronName = "5" targetNeuronName = "20" weight = "0.6081302669090407" />
    <synapse sourceNeuronName = "5" targetNeuronName = "21" weight = "16.224970398106535" />
    <synapse sourceNeuronName = "5" targetNeuronName = "22" weight = "2.488423650109895" />
    <synapse sourceNeuronName = "5" targetNeuronName = "23" weight = "12.051777788913451" />
    <synapse sourceNeuronName = "5" targetNeuronName = "24" weight = "20.195139441690372" />
    <synapse sourceNeuronName = "5" targetNeuronName = "25" weight = "19.419700461463872" />
    <synapse sourceNeuronName = "5" targetNeuronName = "26" weight = "19.641161246048807" />
    <synapse sourceNeuronName = "5" targetNeuronName = "27" weight = "-0.37667788313800754" />
    <synapse sourceNeuronName = "5" targetNeuronName = "28" weight = "8.102658332251787" />
    <synapse sourceNeuronName = "5" targetNeuronName = "29" weight = "8.249722095014668" />
    <synapse sourceNeuronName = "5" targetNeuronName = "30" weight = "12.299799601171147" />
    <synapse sourceNeuronName = "5" targetNeuronName = "31" weight = "8.883806591258477" />
    <synapse sourceNeuronName = "5" targetNeuronName = "32" weight = "14.611633595937707" />
    <synapse sourceNeuronName = "5" targetNeuronName = "33" weight = "17.108437807403366" />
    <synapse sourceNeuronName = "5" targetNeuronName = "34" weight = "10.12592263177867" />
    <synapse sourceNeuronName = "6" targetNeuronName = "9" weight = "19.116038475546382" />
    <synapse sourceNeuronName = "6" targetNeuronName = "10" weight = "4.4461499939857045" />
    <synapse sourceNeuronName = "6" targetNeuronName = "11" weight = "7.928994686039982" />
    <synapse sourceNeuronName = "6" targetNeuronName = "12" weight = "3.7536390356716494" />
    <synapse sourceNeuronName = "6" targetNeuronName = "13" weight = "4.338573656794061" />
    <synapse sourceNeuronName = "6" targetNeuronName = "14" weight = "6.930805676660335" />
    <synapse sourceNeuronName = "6" targetNeuronName = "15" weight = "22.274169471825136" />
    <synapse sourceNeuronName = "6" targetNeuronName = "16" weight = "23.286001252109205" />
    <synapse sourceNeuronName = "6" targetNeuronName = "17" weight = "23.124085051821137" />
    <synapse sourceNeuronName = "6" targetNeuronName = "18" weight = "8.910214798659263" />
    <synapse sourceNeuronName = "6" targetNeuronName = "19" weight = "9.568719907629976" />
    <synapse sourceNeuronName = "6" targetNeuronName = "20" weight = "6.177027400772422" />
    <synapse sourceNeuronName = "6" targetNeuronName = "21" weight = "23.962008584015322" />
    <synapse sourceNeuronName = "6" targetNeuronName = "22" weight = "22.6713968912271" />
    <synapse sourceNeuronName = "6" targetNeuronName = "23" weight = "23.89253962890918" />
    <synapse sourceNeuronName = "6" targetNeuronName = "24" weight = "11.257420459085624" />
    <synapse sourceNeuronName = "6" targetNeuronName = "25" weight = "20.059339634589495" />
    <synapse sourceNeuronName = "6" targetNeuronName = "26" weight = "13.577170201342213" />
    <synapse sourceNeuronName = "6" targetNeuronName = "27" weight = "16.910365504207505" />
    <synapse sourceNeuronName = "6" targetNeuronName = "28" weight = "15.81560929028258" />
    <synapse sourceNeuronName = "6" targetNeuronName = "29" weight = "6.869384595223634" />
    <synapse sourceNeuronName = "6" targetNeuronName = "30" weight = "0.8913530682817095" />
    <synapse sourceNeuronName = "6" targetNeuronName = "31" weight = "15.148572877622556" />
    <synapse sourceNeuronName = "6" targetNeuronName = "32" weight = "6.3960827816584604" />
    <synapse sourceNeuronName = "6" targetNeuronName = "33" weight = "12.612054568526306" />
    <synapse sourceNeuronName = "6" targetNeuronName = "34" weight = "2.791045964182217" />
    <synapse sourceNeuronName = "7" targetNeuronName = "9" weight = "21.362233635307952" />
    <synapse sourceNeuronName = "7" targetNeuronName = "10" weight = "-0.8716772075027928" />
    <synapse sourceNeuronName = "7" targetNeuronName = "11" weight = "0.77725270791533" />
    <synapse sourceNeuronName = "7" targetNeuronName = "12" weight = "18.542806882745804" />
    <synapse sourceNeuronName = "7" targetNeuronName = "13" weight = "1.5619763814266734" />
    <synapse sourceNeuronName = "7" targetNeuronName = "14" weight = "19.16237976254759" />
    <synapse sourceNeuronName = "7" targetNeuronName = "15" weight = "0.5877479669264265" />
    <synapse sourceNeuronName = "7" targetNeuronName = "16" weight = "14.527803867082016" />
    <synapse sourceNeuronName = "7" targetNeuronName = "17" weight = "10.23487028739536" />
    <synapse sourceNeuronName = "7" targetNeuronName = "18" weight = "9.154184862976877" />
    <synapse sourceNeuronName = "7" targetNeuronName = "19" weight = "22.68190214034708" />
    <synapse sourceNeuronName = "7" targetNeuronName = "20" weight = "7.423809717180019" />
    <synapse sourceNeuronName = "7" targetNeuronName = "21" weight = "22.797077622254335" />
    <synapse sourceNeuronName = "7" targetNeuronName = "22" weight = "9.722259918348755" />
    <synapse sourceNeuronName = "7" targetNeuronName = "23" weight = "0.7393211935138271" />
    <synapse sourceNeuronName = "7" targetNeuronName = "24" weight = "21.86427168073703" />
    <synapse sourceNeuronName = "7" targetNeuronName = "25" weight = "9.36827587011612" />
    <synapse sourceNeuronName = "7" targetNeuronName = "26" weight = "17.732179464751354" />
    <synapse sourceNeuronName = "7" targetNeuronName = "27" weight = "1.5970427595029917" />
    <synapse sourceNeuronName = "7" targetNeuronName = "28" weight = "9.889110693525149" />
    <synapse sourceNeuronName = "7" targetNeuronName = "29" weight = "8.215550797584129" />
    <synapse sourceNeuronName = "7" targetNeuronName = "30" weight = "20.381118926770515" />
    <synapse sourceNeuronName = "7" targetNeuronName = "31" weight = "22.667140576015644" />
    <synapse sourceNeuronName = "7" targetNeuronName = "32" weight = "15.789822876389387" />
    <synapse sourceNeuronName = "7" targetNeuronName = "33" weight = "17.86103721310975" />
    <synapse sourceNeuronName = "7" targetNeuronName = "34" weight = "21.81044992875205" />
    <synapse sourceNeuronName = "8" targetNeuronName = "9" weight = "5.50415835621477" />
    <synapse sourceNeuronName = "8" targetNeuronName = "10" weight = "15.156736513465091" />
    <synapse sourceNeuronName = "8" targetNeuronName = "11" weight = "23.707871460205777" />
    <synapse sourceNeuronName = "8" targetNeuronName = "12" weight = "4.594759740828932" />
    <synapse sourceNeuronName = "8" targetNeuronName = "13" weight = "9.032592926379122" />
    <synapse sourceNeuronName = "8" targetNeuronName = "14" weight = "0.4610341361266881" />
    <synapse sourceNeuronName = "8" targetNeuronName = "15" weight = "22.457330936138554" />
    <synapse sourceNeuronName = "8" targetNeuronName = "16" weight = "13.183618906369313" />
    <synapse sourceNeuronName = "8" targetNeuronName = "17" weight = "5.352297999412867" />
    <synapse sourceNeuronName = "8" targetNeuronName = "18" weight = "20.392726473268908" />
    <synapse sourceNeuronName = "8" targetNeuronName = "19" weight = "2.4465126817840557" />
    <synapse sourceNeuronName = "8" targetNeuronName = "20" weight = "15.656993702756782" />
    <synapse sourceNeuronName = "8" targetNeuronName = "21" weight = "9.418656141004394" />
    <synapse sourceNeuronName = "8" targetNeuronName = "22" weight = "2.47650628884092" />
    <synapse sourceNeuronName = "8" targetNeuronName = "23" weight = "13.08859154357572" />
    <synapse sourceNeuronName = "8" targetNeuronName = "24" weight = "1.5593769448233044" />
    <synapse sourceNeuronName = "8" targetNeuronName = "25" weight = "1.823181906730997" />
    <synapse sourceNeuronName = "8" targetNeuronName = "26" weight = "11.268653729930382" />
    <synapse sourceNeuronName = "8" targetNeuronName = "27" weight = "5.592529404942008" />
    <synapse sourceNeuronName = "8" targetNeuronName = "28" weight = "4.403373791104087" />
    <synapse sourceNeuronName = "8" targetNeuronName = "29" weight = "23.61244117770783" />
    <synapse sourceNeuronName = "8" targetNeuronName = "30" weight = "14.140454968295126" />
    <synapse sourceNeuronName = "8" targetNeuronName = "31" weight = "17.566863696383514" />
    <synapse sourceNeuronName = "8" targetNeuronName = "32" weight = "4.560866689193817" />
    <synapse sourceNeuronName = "8" targetNeuronName = "33" weight = "12.043429064221971" />
    <synapse sourceNeuronName = "8" targetNeuronName = "34" weight = "10.211435086328436" />
</neuralNetwork>