<neuralNetwork>
    <neuron name = "0" type = "sensor" linkName = "Torso" />
    <neuron name = "1" type = "sensor" linkName = "Leg1" />
    <neuron name = "2" type = "sensor" linkName = "Leg2" />
    <neuron name = "3" type = "sensor" linkName = "Leg3" />
    <neuron name = "4" type = "sensor" linkName = "Leg6" />
    <neuron name = "5" type = "sensor" linkName = "Leg8" />
    <neuron name = "6" type = "sensor" linkName = "Leg10" />
    <neuron name = "7" type = "sensor" linkName = "Leg13" />
    <neuron name = "8" type = "sensor" linkName = "Leg14" />
    <neuron name = "9" type = "sensor" linkName = "Leg16" />
    <neuron name = "10" type = "sensor" linkName = "Leg21" />
    <neuron name = "11" type = "sensor" linkName = "Leg22" />
    <neuron name = "12" type = "motor"  jointName = "Torso_Leg1" />
    <neuron name = "13" type = "motor"  jointName = "Torso_Leg2" />
    <neuron name = "14" type = "motor"  jointName = "Torso_Leg3" />
    <neuron name = "15" type = "motor"  jointName = "Leg3_Leg4" />
    <neuron name = "16" type = "motor"  jointName = "Leg4_Leg5" />
    <neuron name = "17" type = "motor"  jointName = "Leg1_Leg6" />
    <neuron name = "18" type = "motor"  jointName = "Leg5_Leg7" />
    <neuron name = "19" type = "motor"  jointName = "Leg3_Leg8" />
    <neuron name = "20" type = "motor"  jointName = "Leg5_Leg9" />
    <neuron name = "21" type = "motor"  jointName = "Leg7_Leg10" />
    <neuron name = "22" type = "motor"  jointName = "Leg7_Leg11" />
    <neuron name = "23" type = "motor"  jointName = "Leg11_Leg12" />
    <neuron name = "24" type = "motor"  jointName = "Leg9_Leg13" />
    <neuron name = "25" type = "motor"  jointName = "Leg11_Leg14" />
    <neuron name = "26" type = "motor"  jointName = "Leg11_Leg15" />
    <neuron name = "27" type = "motor"  jointName = "Leg14_Leg16" />
    <neuron name = "28" type = "motor"  jointName = "Leg6_Leg17" />
    <neuron name = "29" type = "motor"  jointName = "Leg14_Leg18" />
    <neuron name = "30" type = "motor"  jointName = "Leg16_Leg19" />
    <neuron name = "31" type = "motor"  jointName = "Leg1_Leg20" />
    <neuron name = "32" type = "motor"  jointName = "Leg20_Leg21" />
    <neuron name = "33" type = "motor"  jointName = "Leg17_Leg22" />
    <neuron name = "34" type = "motor"  jointName = "Leg3_Leg23" />
    <neuron name = "35" type = "motor"  jointName = "Leg22_Leg24" />
    <neuron name = "36" type = "motor"  jointName = "Leg8_Leg25" />
    <neuron name = "37" type = "motor"  jointName = "Leg10_Leg26" />
    <neuron name = "38" type = "motor"  jointName = "Leg15_Leg27" />
    <synapse sourceNeuronName = "0" targetNeuronName = "12" weight = "14.314366906678304" />
    <synapse sourceNeuronName = "0" targetNeuronName = "13" weight = "22.010101021837475" />
    <synapse sourceNeuronName = "0" targetNeuronName = "14" weight = "18.478324372030755" />
    <synapse sourceNeuronName = "0" targetNeuronName = "15" weight = "15.56566347365736" />
    <synapse sourceNeuronName = "0" targetNeuronName = "16" weight = "18.685962369423176" />
    <synapse sourceNeuronName = "0" targetNeuronName = "17" weight = "23.967508831219906" />
    <synapse sourceNeuronName = "0" targetNeuronName = "18" weight = "25.049720598898254" />
    <synapse sourceNeuronName = "0" targetNeuronName = "19" weight = "2.7890347822867922" />
    <synapse sourceNeuronName = "0" targetNeuronName = "20" weight = "25.267099595090816" />
    <synapse sourceNeuronName = "0" targetNeuronName = "21" weight = "10.46295092017248" />
    <synapse sourceNeuronName = "0" targetNeuronName = "22" weight = "18.670846699571275" />
    <synapse sourceNeuronName = "0" targetNeuronName = "23" weight = "1.2771420684534167" />
    <synapse sourceNeuronName = "0" targetNeuronName = "24" weight = "19.666166242987174" />
    <synapse sourceNeuronName = "0" targetNeuronName = "25" weight = "11.336911881440821" />
    <synapse sourceNeuronName = "0" targetNeuronName = "26" weight = "1.809387173078549" />
    <synapse sourceNeuronName = "0" targetNeuronName = "27" weight = "12.310775222016279" />
    <synapse sourceNeuronName = "0" targetNeuronName = "28" weight = "-0.27086483891924173" />
    <synapse sourceNeuronName = "0" targetNeuronName = "29" weight = "9.263354114411621" />
    <synapse sourceNeuronName = "0" targetNeuronName = "30" weight = "10.009975875040862" />
    <synapse sourceNeuronName = "0" targetNeuronName = "31" weight = "24.842469342717685" />
    <synapse sourceNeuronName = "0" targetNeuronName = "32" weight = "20.033912866239653" />
    <synapse sourceNeuronName = "0" targetNeuronName = "33" weight = "19.79704323939229" />
    <synapse sourceNeuronName = "0" targetNeuronName = "34" weight = "2.241779026703372" />
    <synapse sourceNeuronName = "0" targetNeuronName = "35" weight = "3.0256252119587765" />
    <synapse sourceNeuronName = "0" targetNeuronName = "36" weight = "3.0446313782134125" />
    <synapse sourceNeuronName = "0" targetNeuronName = "37" weight = "3.6080972343278583" />
    <synapse sourceNeuronName = "0" targetNeuronName = "38" weight = "19.926362308209143" />
    <synapse sourceNeuronName = "1" targetNeuronName = "12" weight = "16.483213767439466" />
    <synapse sourceNeuronName = "1" targetNeuronName = "13" weight = "18.779244108316846" />
    <synapse sourceNeuronName = "1" targetNeuronName = "14" weight = "20.33524433511302" />
    <synapse sourceNeuronName = "1" targetNeuronName = "15" weight = "1.9593577482925406" />
    <synapse sourceNeuronName = "1" targetNeuronName = "16" weight = "13.462563102103907" />
    <synapse sourceNeuronName = "1" targetNeuronName = "17" weight = "15.376310387859036" />
    <synapse sourceNeuronName = "1" targetNeuronName = "18" weight = "24.66690913349998" />
    <synapse sourceNeuronName = "1" targetNeuronName = "19" weight = "-0.7286530697948882" />
    <synapse sourceNeuronName = "1" targetNeuronName = "20" weight = "13.017616480493855" />
    <synapse sourceNeuronName = "1" targetNeuronName = "21" weight = "17.724933677210092" />
    <synapse sourceNeuronName = "1" targetNeuronName = "22" weight = "6.079373336169154" />
    <synapse sourceNeuronName = "1" targetNeuronName = "23" weight = "0.9686893251842084" />
    <synapse sourceNeuronName = "1" targetNeuronName = "24" weight = "5.653604570969908" />
    <synapse sourceNeuronName = "1" targetNeuronName = "25" weight = "7.433469455786804" />
    <synapse sourceNeuronName = "1" targetNeuronName = "26" weight = "16.873704754897467" />
    <synapse sourceNeuronName = "1" targetNeuronName = "27" weight = "15.379524425433193" />
    <synapse sourceNeuronName = "1" targetNeuronName = "28" weight = "17.660048166648696" />
    <synapse sourceNeuronName = "1" targetNeuronName = "29" weight = "7.156509554486876" />
    <synapse sourceNeuronName = "1" targetNeuronName = "30" weight = "14.675231492384238" />
    <synapse sourceNeuronName = "1" targetNeuronName = "31" weight = "2.6990439958394288" />
    <synapse sourceNeuronName = "1" targetNeuronName = "32" weight = "10.436743356499516" />
    <synapse sourceNeuronName = "1" targetNeuronName = "33" weight = "5.719179468682242" />
    <synapse sourceNeuronName = "1" targetNeuronName = "34" weight = "15.517398549939074" />
    <synapse sourceNeuronName = "1" targetNeuronName = "35" weight = "14.787250855911235" />
    <synapse sourceNeuronName = "1" targetNeuronName = "36" weight = "5.329570476692813" />
    <synapse sourceNeuronName = "1" targetNeuronName = "37" weight = "14.145023748620076" />
    <synapse sourceNeuronName = "1" targetNeuronName = "38" weight = "4.162537988500426" />
    <synapse sourceNeuronName = "2" targetNeuronName = "12" weight = "24.04884372057421" />
    <synapse sourceNeuronName = "2" targetNeuronName = "13" weight = "9.246724535529436" />
    <synapse sourceNeuronName = "2" targetNeuronName = "14" weight = "10.887394836556568" />
    <synapse sourceNeuronName = "2" targetNeuronName = "15" weight = "4.593225433185075" />
    <synapse sourceNeuronName = "2" targetNeuronName = "16" weight = "7.094153968462921" />
    <synapse sourceNeuronName = "2" targetNeuronName = "17" weight = "20.54032395867904" />
    <synapse sourceNeuronName = "2" targetNeuronName = "18" weight = "6.31047308037574" />
    <synapse sourceNeuronName = "2" targetNeuronName = "19" weight = "22.655184828275843" />
    <synapse sourceNeuronName = "2" targetNeuronName = "20" weight = "19.722547717956623" />
    <synapse sourceNeuronName = "2" targetNeuronName = "21" weight = "-0.27127460618759147" />
    <synapse sourceNeuronName = "2" targetNeuronName = "22" weight = "0.500137602118925" />
    <synapse sourceNeuronName = "2" targetNeuronName = "23" weight = "24.520196688834485" />
    <synapse sourceNeuronName = "2" targetNeuronName = "24" weight = "25.946208212408706" />
    <synapse sourceNeuronName = "2" targetNeuronName = "25" weight = "23.242407545173915" />
    <synapse sourceNeuronName = "2" targetNeuronName = "26" weight = "12.41779002641937" />
    <synapse sourceNeuronName = "2" targetNeuronName = "27" weight = "10.388067088857593" />
    <synapse sourceNeuronName = "2" targetNeuronName = "28" weight = "13.232542827063606" />
    <synapse sourceNeuronName = "2" targetNeuronName = "29" weight = "24.847681279519215" />
    <synapse sourceNeuronName = "2" targetNeuronName = "30" weight = "1.5950446952183244" />
    <synapse sourceNeuronName = "2" targetNeuronName = "31" weight = "11.455799774503213" />
    <synapse sourceNeuronName = "2" targetNeuronName = "32" weight = "3.1934620875646536" />
    <synapse sourceNeuronName = "2" targetNeuronName = "33" weight = "0.766163623428354" />
    <synapse sourceNeuronName = "2" targetNeuronName = "34" weight = "4.375181220622971" />
    <synapse sourceNeuronName = "2" targetNeuronName = "35" weight = "4.430263548840209" />
    <synapse sourceNeuronName = "2" targetNeuronName = "36" weight = "3.2610856407612028" />
    <synapse sourceNeuronName = "2" targetNeuronName = "37" weight = "16.4918011039488" />
    <synapse sourceNeuronName = "2" targetNeuronName = "38" weight = "10.661568148690016" />
    <synapse sourceNeuronName = "3" targetNeuronName = "12" weight = "-0.1964256957347602" />
    <synapse sourceNeuronName = "3" targetNeuronName = "13" weight = "0.3182285111079073" />
    <synapse sourceNeuronName = "3" targetNeuronName = "14" weight = "19.17266631024639" />
    <synapse sourceNeuronName = "3" targetNeuronName = "15" weight = "11.73635514508847" />
    <synapse sourceNeuronName = "3" targetNeuronName = "16" weight = "13.027229457304689" />
    <synapse sourceNeuronName = "3" targetNeuronName = "17" weight = "19.32450985531562" />
    <synapse sourceNeuronName = "3" targetNeuronName = "18" weight = "11.68150432670646" />
    <synapse sourceNeuronName = "3" targetNeuronName = "19" weight = "12.553325481011285" />
    <synapse sourceNeuronName = "3" targetNeuronName = "20" weight = "20.08915885098336" />
    <synapse sourceNeuronName = "3" targetNeuronName = "21" weight = "15.798041901428249" />
    <synapse sourceNeuronName = "3" targetNeuronName = "22" weight = "20.44282344624274" />
    <synapse sourceNeuronName = "3" targetNeuronName = "23" weight = "11.462209076640193" />
    <synapse sourceNeuronName = "3" targetNeuronName = "24" weight = "1.7293556133678805" />
    <synapse sourceNeuronName = "3" targetNeuronName = "25" weight = "19.215432554839207" />
    <synapse sourceNeuronName = "3" targetNeuronName = "26" weight = "17.01819526339976" />
    <synapse sourceNeuronName = "3" targetNeuronName = "27" weight = "14.126987948807201" />
    <synapse sourceNeuronName = "3" targetNeuronName = "28" weight = "15.089341186637839" />
    <synapse sourceNeuronName = "3" targetNeuronName = "29" weight = "5.0988873109119535" />
    <synapse sourceNeuronName = "3" targetNeuronName = "30" weight = "6.82210171552388" />
    <synapse sourceNeuronName = "3" targetNeuronName = "31" weight = "20.06529748507502" />
    <synapse sourceNeuronName = "3" targetNeuronName = "32" weight = "16.745490905639148" />
    <synapse sourceNeuronName = "3" targetNeuronName = "33" weight = "5.767375738325912" />
    <synapse sourceNeuronName = "3" targetNeuronName = "34" weight = "1.331442642129467" />
    <synapse sourceNeuronName = "3" targetNeuronName = "35" weight = "16.527242408638294" />
    <synapse sourceNeuronName = "3" targetNeuronName = "36" weight = "18.15569526361907" />
    <synapse sourceNeuronName = "3" targetNeuronName = "37" weight = "22.477903364646178" />
    <synapse sourceNeuronName = "3" targetNeuronName = "38" weight = "9.950182858277213" />
    <synapse sourceNeuronName = "4" targetNeuronName = "12" weight = "17.704671526050937" />
    <synapse sourceNeuronName = "4" targetNeuronName = "13" weight = "19.49491018404984" />
    <synapse sourceNeuronName = "4" targetNeuronName = "14" weight = "16.451305611843637" />
    <synapse sourceNeuronName = "4" targetNeuronName = "15" weight = "9.073812879637007" />
    <synapse sourceNeuronName = "4" targetNeuronName = "16" weight = "6.835930680352968" />
    <synapse sourceNeuronName = "4" targetNeuronName = "17" weight = "14.431598834033185" />
    <synapse sourceNeuronName = "4" targetNeuronName = "18" weight = "24.78302550396407" />
    <synapse sourceNeuronName = "4" targetNeuronName = "19" weight = "15.687639619220636" />
    <synapse sourceNeuronName = "4" targetNeuronName = "20" weight = "22.767278793682568" />
    <synapse sourceNeuronName = "4" targetNeuronName = "21" weight = "0.5528056257406413" />
    <synapse sourceNeuronName = "4" targetNeuronName = "22" weight = "8.697882322483624" />
    <synapse sourceNeuronName = "4" targetNeuronName = "23" weight = "23.25055952003041" />
    <synapse sourceNeuronName = "4" targetNeuronName = "24" weight = "25.71989608554908" />
    <synapse sourceNeuronName = "4" targetNeuronName = "25" weight = "3.2930298902525132" />
    <synapse sourceNeuronName = "4" targetNeuronName = "26" weight = "7.962385232731119" />
    <synapse sourceNeuronName = "4" targetNeuronName = "27" weight = "14.014924165764391" />
    <synapse sourceNeuronName = "4" targetNeuronName = "28" weight = "13.318354285376723" />
    <synapse sourceNeuronName = "4" targetNeuronName = "29" weight = "8.938053816966484" />
    <synapse sourceNeuronName = "4" targetNeuronName = "30" weight = "12.68472414413765" />
    <synapse sourceNeuronName = "4" targetNeuronName = "31" weight = "-0.1539014432221334" />
    <synapse sourceNeuronName = "4" targetNeuronName = "32" weight = "15.078162620350948" />
    <synapse sourceNeuronName = "4" targetNeuronName = "33" weight = "13.560889722095569" />
    <synapse sourceNeuronName = "4" targetNeuronName = "34" weight = "25.17056266627429" />
    <synapse sourceNeuronName = "4" targetNeuronName = "35" weight = "0.7371671025546989" />
    <synapse sourceNeuronName = "4" targetNeuronName = "36" weight = "0.6449361621209713" />
    <synapse sourceNeuronName = "4" targetNeuronName = "37" weight = "8.23088219341391" />
    <synapse sourceNeuronName = "4" targetNeuronName = "38" weight = "25.479766969662965" />
    <synapse sourceNeuronName = "5" targetNeuronName = "12" weight = "15.066963638522278" />
    <synapse sourceNeuronName = "5" targetNeuronName = "13" weight = "25.43340306249847" />
    <synapse sourceNeuronName = "5" targetNeuronName = "14" weight = "16.502233006261662" />
    <synapse sourceNeuronName = "5" targetNeuronName = "15" weight = "2.1758059466650534" />
    <synapse sourceNeuronName = "5" targetNeuronName = "16" weight = "24.84472728412518" />
    <synapse sourceNeuronName = "5" targetNeuronName = "17" weight = "15.245346257871496" />
    <synapse sourceNeuronName = "5" targetNeuronName = "18" weight = "-0.11441844919195077" />
    <synapse sourceNeuronName = "5" targetNeuronName = "19" weight = "20.604051444532466" />
    <synapse sourceNeuronName = "5" targetNeuronName = "20" weight = "10.561092058917927" />
    <synapse sourceNeuronName = "5" targetNeuronName = "21" weight = "11.850253498546909" />
    <synapse sourceNeuronName = "5" targetNeuronName = "22" weight = "2.4276826976727266" />
    <synapse sourceNeuronName = "5" targetNeuronName = "23" weight = "7.46123356556021" />
    <synapse sourceNeuronName = "5" targetNeuronName = "24" weight = "4.236763064119882" />
    <synapse sourceNeuronName = "5" targetNeuronName = "25" weight = "11.776504079185488" />
    <synapse sourceNeuronName = "5" targetNeuronName = "26" weight = "7.3621826794302105" />
    <synapse sourceNeuronName = "5" targetNeuronName = "27" weight = "18.70934455918074" />
    <synapse sourceNeuronName = "5" targetNeuronName = "28" weight = "24.001368700526825" />
    <synapse sourceNeuronName = "5" targetNeuronName = "29" weight = "20.214960630486964" />
    <synapse sourceNeuronName = "5" targetNeuronName = "30" weight = "3.2576062511174086" />
    <synapse sourceNeuronName = "5" targetNeuronName = "31" weight = "4.307149861761505" />
    <synapse sourceNeuronName = "5" targetNeuronName = "32" weight = "12.074198528167065" />
    <synapse sourceNeuronName = "5" targetNeuronName = "33" weight = "22.671906363074807" />
    <synapse sourceNeuronName = "5" targetNeuronName = "34" weight = "3.153187523647321" />
    <synapse sourceNeuronName = "5" targetNeuronName = "35" weight = "8.794695347174493" />
    <synapse sourceNeuronName = "5" targetNeuronName = "36" weight = "25.4215608640828" />
    <synapse sourceNeuronName = "5" targetNeuronName = "37" weight = "22.92890159157558" />
    <synapse sourceNeuronName = "5" targetNeuronName = "38" weight = "10.539522466616312" />
    <synapse sourceNeuronName = "6" targetNeuronName = "12" weight = "20.003877492335544" />
    <synapse sourceNeuronName = "6" targetNeuronName = "13" weight = "18.780167737082106" />
    <synapse sourceNeuronName = "6" targetNeuronName = "14" weight = "13.689894190397057" />
    <synapse sourceNeuronName = "6" targetNeuronName = "15" weight = "8.047082697668422" />
    <synapse sourceNeuronName = "6" targetNeuronName = "16" weight = "11.306661533351985" />
    <synapse sourceNeuronName = "6" targetNeuronName = "17" weight = "19.64462341805943" />
    <synapse sourceNeuronName = "6" targetNeuronName = "18" weight = "19.359355700431987" />
    <synapse sourceNeuronName = "6" targetNeuronName = "19" weight = "25.44984059683235" />
    <synapse sourceNeuronName = "6" targetNeuronName = "20" weight = "7.764300983248967" />
    <synapse sourceNeuronName = "6" targetNeuronName = "21" weight = "13.927120559342647" />
    <synapse sourceNeuronName = "6" targetNeuronName = "22" weight = "16.519061180624465" />
    <synapse sourceNeuronName = "6" targetNeuronName = "23" weight = "10.076481807533467" />
    <synapse sourceNeuronName = "6" targetNeuronName = "24" weight = "25.020414428605015" />
    <synapse sourceNeuronName = "6" targetNeuronName = "25" weight = "22.371433161101017" />
    <synapse sourceNeuronName = "6" targetNeuronName = "26" weight = "12.455083962201053" />
    <synapse sourceNeuronName = "6" targetNeuronName = "27" weight = "4.768449269882085" />
    <synapse sourceNeuronName = "6" targetNeuronName = "28" weight = "21.8227005747243" />
    <synapse sourceNeuronName = "6" targetNeuronName = "29" weight = "14.01316483557421" />
    <synapse sourceNeuronName = "6" targetNeuronName = "30" weight = "13.406348672967669" />
    <synapse sourceNeuronName = "6" targetNeuronName = "31" weight = "6.616027331649607" />
    <synapse sourceNeuronName = "6" targetNeuronName = "32" weight = "3.884707924387878" />
    <synapse sourceNeuronName = "6" targetNeuronName = "33" weight = "5.660194384397781" />
    <synapse sourceNeuronName = "6" targetNeuronName = "34" weight = "-0.7556907507082188" />
    <synapse sourceNeuronName = "6" targetNeuronName = "35" weight = "13.790207112012594" />
    <synapse sourceNeuronName = "6" targetNeuronName = "36" weight = "12.857841371650096" />
    <synapse sourceNeuronName = "6" targetNeuronName = "37" weight = "20.141469342811813" />
    <synapse sourceNeuronName = "6" targetNeuronName = "38" weight = "25.53363496822551" />
    <synapse sourceNeuronName = "7" targetNeuronName = "12" weight = "5.643435557575176" />
    <synapse sourceNeuronName = "7" targetNeuronName = "13" weight = "22.087675585403" />
    <synapse sourceNeuronName = "7" targetNeuronName = "14" weight = "1.5421142125007825" />
    <synapse sourceNeuronName = "7" targetNeuronName = "15" weight = "8.28854355549663" />
    <synapse sourceNeuronName = "7" targetNeuronName = "16" weight = "17.8645612524466" />
    <synapse sourceNeuronName = "7" targetNeuronName = "17" weight = "12.134694120194665" />
    <synapse sourceNeuronName = "7" targetNeuronName = "18" weight = "3.229286761963518" />
    <synapse sourceNeuronName = "7" targetNeuronName = "19" weight = "22.880671959687508" />
    <synapse sourceNeuronName = "7" targetNeuronName = "20" weight = "6.262932812353554" />
    <synapse sourceNeuronName = "7" targetNeuronName = "21" weight = "2.3355801280772583" />
    <synapse sourceNeuronName = "7" targetNeuronName = "22" weight = "17.11328513109938" />
    <synapse sourceNeuronName = "7" targetNeuronName = "23" weight = "11.732988895020823" />
    <synapse sourceNeuronName = "7" targetNeuronName = "24" weight = "4.449123791552757" />
    <synapse sourceNeuronName = "7" targetNeuronName = "25" weight = "5.118353145041356" />
    <synapse sourceNeuronName = "7" targetNeuronName = "26" weight = "3.7159613535693943" />
    <synapse sourceNeuronName = "7" targetNeuronName = "27" weight = "6.17343514565612" />
    <synapse sourceNeuronName = "7" targetNeuronName = "28" weight = "6.6087721864860764" />
    <synapse sourceNeuronName = "7" targetNeuronName = "29" weight = "20.08671903075532" />
    <synapse sourceNeuronName = "7" targetNeuronName = "30" weight = "4.1273495726071285" />
    <synapse sourceNeuronName = "7" targetNeuronName = "31" weight = "9.911659155792098" />
    <synapse sourceNeuronName = "7" targetNeuronName = "32" weight = "8.910784570308666" />
    <synapse sourceNeuronName = "7" targetNeuronName = "33" weight = "16.96401244421394" />
    <synapse sourceNeuronName = "7" targetNeuronName = "34" weight = "12.936312250589276" />
    <synapse sourceNeuronName = "7" targetNeuronName = "35" weight = "3.3368615144834646" />
    <synapse sourceNeuronName = "7" targetNeuronName = "36" weight = "12.206323788399043" />
    <synapse sourceNeuronName = "7" targetNeuronName = "37" weight = "12.89514893596541" />
    <synapse sourceNeuronName = "7" targetNeuronName = "38" weight = "8.31912801465068" />
    <synapse sourceNeuronName = "8" targetNeuronName = "12" weight = "19.42078950506452" />
    <synapse sourceNeuronName = "8" targetNeuronName = "13" weight = "4.300931075938489" />
    <synapse sourceNeuronName = "8" targetNeuronName = "14" weight = "3.720169883547526" />
    <synapse sourceNeuronName = "8" targetNeuronName = "15" weight = "4.616616941435838" />
    <synapse sourceNeuronName = "8" targetNeuronName = "16" weight = "10.43924285727291" />
    <synapse sourceNeuronName = "8" targetNeuronName = "17" weight = "11.121929904903153" />
    <synapse sourceNeuronName = "8" targetNeuronName = "18" weight = "3.9461613666018565" />
    <synapse sourceNeuronName = "8" targetNeuronName = "19" weight = "17.29937791369051" />
    <synapse sourceNeuronName = "8" targetNeuronName = "20" weight = "21.914387185586087" />
    <synapse sourceNeuronName = "8" targetNeuronName = "21" weight = "5.233790152830746" />
    <synapse sourceNeuronName = "8" targetNeuronName = "22" weight = "21.870054342389707" />
    <synapse sourceNeuronName = "8" targetNeuronName = "23" weight = "14.855906110705291" />
    <synapse sourceNeuronName = "8" targetNeuronName = "24" weight = "7.526866165645242" />
    <synapse sourceNeuronName = "8" targetNeuronName = "25" weight = "5.041372772436076" />
    <synapse sourceNeuronName = "8" targetNeuronName = "26" weight = "20.562779336069497" />
    <synapse sourceNeuronName = "8" targetNeuronName = "27" weight = "16.00778964606629" />
    <synapse sourceNeuronName = "8" targetNeuronName = "28" weight = "8.757819350841006" />
    <synapse sourceNeuronName = "8" targetNeuronName = "29" weight = "21.291363194608273" />
    <synapse sourceNeuronName = "8" targetNeuronName = "30" weight = "13.969073392605708" />
    <synapse sourceNeuronName = "8" targetNeuronName = "31" weight = "9.013960014597295" />
    <synapse sourceNeuronName = "8" targetNeuronName = "32" weight = "4.128897237399538" />
    <synapse sourceNeuronName = "8" targetNeuronName = "33" weight = "19.876695870532327" />
    <synapse sourceNeuronName = "8" targetNeuronName = "34" weight = "11.515386991431013" />
    <synapse sourceNeuronName = "8" targetNeuronName = "35" weight = "20.514836299302583" />
    <synapse sourceNeuronName = "8" targetNeuronName = "36" weight = "13.221367330021906" />
    <synapse sourceNeuronName = "8" targetNeuronName = "37" weight = "14.82780990531276" />
    <synapse sourceNeuronName = "8" targetNeuronName = "38" weight = "6.573121331301474" />
    <synapse sourceNeuronName = "9" targetNeuronName = "12" weight = "7.5117958402350435" />
    <synapse sourceNeuronName = "9" targetNeuronName = "13" weight = "2.2004999538884995" />
    <synapse sourceNeuronName = "9" targetNeuronName = "14" weight = "1.3966666739607794" />
    <synapse sourceNeuronName = "9" targetNeuronName = "15" weight = "4.21471902968711" />
    <synapse sourceNeuronName = "9" targetNeuronName = "16" weight = "0.06911170826472635" />
    <synapse sourceNeuronName = "9" targetNeuronName = "17" weight = "21.861518910237393" />
    <synapse sourceNeuronName = "9" targetNeuronName = "18" weight = "5.55470528223342" />
    <synapse sourceNeuronName = "9" targetNeuronName = "19" weight = "8.12573471311764" />
    <synapse sourceNeuronName = "9" targetNeuronName = "20" weight = "21.060200370117922" />
    <synapse sourceNeuronName = "9" targetNeuronName = "21" weight = "10.785240436489872" />
    <synapse sourceNeuronName = "9" targetNeuronName = "22" weight = "-0.005169121233565832" />
    <synapse sourceNeuronName = "9" targetNeuronName = "23" weight = "25.78486435709718" />
    <synapse sourceNeuronName = "9" targetNeuronName = "24" weight = "12.065575388055468" />
    <synapse sourceNeuronName = "9" targetNeuronName = "25" weight = "12.640305560513903" />
    <synapse sourceNeuronName = "9" targetNeuronName = "26" weight = "11.899949854090647" />
    <synapse sourceNeuronName = "9" targetNeuronName = "27" weight = "5.819959046457739" />
    <synapse sourceNeuronName = "9" targetNeuronName = "28" weight = "5.280640890489208" />
    <synapse sourceNeuronName = "9" targetNeuronName = "29" weight = "24.49225770683965" />
    <synapse sourceNeuronName = "9" targetNeuronName = "30" weight = "23.08403230838613" />
    <synapse sourceNeuronName = "9" targetNeuronName = "31" weight = "2.7921493471247083" />
    <synapse sourceNeuronName = "9" targetNeuronName = "32" weight = "-0.12961258151020694" />
    <synapse sourceNeuronName = "9" targetNeuronName = "33" weight = "25.68954070475827" />
    <synapse sourceNeuronName = "9" targetNeuronName = "34" weight = "8.189236153999166" />
    <synapse sourceNeuronName = "9" targetNeuronName = "35" weight = "17.41705919734769" />
    <synapse sourceNeuronName = "9" targetNeuronName = "36" weight = "16.18241819445272" />
    <synapse sourceNeuronName = "9" targetNeuronName = "37" weight = "18.848493379971817" />
    <synapse sourceNeuronName = "9" targetNeuronName = "38" weight = "22.118317835258175" />
    <synapse sourceNeuronName = "10" targetNeuronName = "12" weight = "9.232790086478891" />
    <synapse sourceNeuronName = "10" targetNeuronName = "13" weight = "17.84183380290891" />
    <synapse sourceNeuronName = "10" targetNeuronName = "14" weight = "12.35473785020572" />
    <synapse sourceNeuronName = "10" targetNeuronName = "15" weight = "13.27630283517543" />
    <synapse sourceNeuronName = "10" targetNeuronName = "16" weight = "18.99688231610332" />
    <synapse sourceNeuronName = "10" targetNeuronName = "17" weight = "10.186039851564527" />
    <synapse sourceNeuronName = "10" targetNeuronName = "18" weight = "7.419726715962094" />
    <synapse sourceNeuronName = "10" targetNeuronName = "19" weight = "9.546184379590361" />
    <synapse sourceNeuronName = "10" targetNeuronName = "20" weight = "23.05687579697022" />
    <synapse sourceNeuronName = "10" targetNeuronName = "21" weight = "8.428662627716033" />
    <synapse sourceNeuronName = "10" targetNeuronName = "22" weight = "3.6394070382651007" />
    <synapse sourceNeuronName = "10" targetNeuronName = "23" weight = "9.319568383913605" />
    <synapse sourceNeuronName = "10" targetNeuronName = "24" weight = "16.25039976505913" />
    <synapse sourceNeuronName = "10" targetNeuronName = "25" weight = "5.3285805000006405" />
    <synapse sourceNeuronName = "10" targetNeuronName = "26" weight = "8.877964647177702" />
    <synapse sourceNeuronName = "10" targetNeuronName = "27" weight = "21.565958899707685" />
    <synapse sourceNeuronName = "10" targetNeuronName = "28" weight = "8.575873333342344" />
    <synapse sourceNeuronName = "10" targetNeuronName = "29" weight = "10.828143046182003" />
    <synapse sourceNeuronName = "10" targetNeuronName = "30" weight = "4.572908307049325" />
    <synapse sourceNeuronName = "10" targetNeuronName = "31" weight = "0.6673255160020568" />
    <synapse sourceNeuronName = "10" targetNeuronName = "32" weight = "21.36568884573441" />
    <synapse sourceNeuronName = "10" targetNeuronName = "33" weight = "10.303994533838695" />
    <synapse sourceNeuronName = "10" targetNeuronName = "34" weight = "13.908643932057933" />
    <synapse sourceNeuronName = "10" targetNeuronName = "35" weight = "7.991099916234036" />
    <synapse sourceNeuronName = "10" targetNeuronName = "36" weight = "0.0043626863898296175" />
    <synapse sourceNeuronName = "10" targetNeuronName = "37" weight = "20.537161406259322" />
    <synapse sourceNeuronName = "10" targetNeuronName = "38" weight = "17.231623111950825" />
    <synapse sourceNeuronName = "11" targetNeuronName = "12" weight = "4.382716980223707" />
    <synapse sourceNeuronName = "11" targetNeuronName = "13" weight = "24.96103284421517" />
    <synapse sourceNeuronName = "11" targetNeuronName = "14" weight = "6.973349878351832" />
    <synapse sourceNeuronName = "11" targetNeuronName = "15" weight = "4.6108851144442555" />
    <synapse sourceNeuronName = "11" targetNeuronName = "16" weight = "19.632598117928133" />
    <synapse sourceNeuronName = "11" targetNeuronName = "17" weight = "5.651186817741835" />
    <synapse sourceNeuronName = "11" targetNeuronName = "18" weight = "16.554373410766644" />
    <synapse sourceNeuronName = "11" targetNeuronName = "19" weight = "6.856072112066452" />
    <synapse sourceNeuronName = "11" targetNeuronName = "20" weight = "21.39059256131542" />
    <synapse sourceNeuronName = "11" targetNeuronName = "21" weight = "19.746885259960653" />
    <synapse sourceNeuronName = "11" targetNeuronName = "22" weight = "11.623881430954356" />
    <synapse sourceNeuronName = "11" targetNeuronName = "23" weight = "21.715187786170254" />
    <synapse sourceNeuronName = "11" targetNeuronName = "24" weight = "25.1285520914413" />
    <synapse sourceNeuronName = "11" targetNeuronName = "25" weight = "22.478743365557005" />
    <synapse sourceNeuronName = "11" targetNeuronName = "26" weight = "14.661320604978622" />
    <synapse sourceNeuronName = "11" targetNeuronName = "27" weight = "13.19221997132506" />
    <synapse sourceNeuronName = "11" targetNeuronName = "28" weight = "21.023237938992715" />
    <synapse sourceNeuronName = "11" targetNeuronName = "29" weight = "21.61906471016188" />
    <synapse sourceNeuronName = "11" targetNeuronName = "30" weight = "21.69486202085563" />
    <synapse sourceNeuronName = "11" targetNeuronName = "31" weight = "22.259757470865782" />
    <synapse sourceNeuronName = "11" targetNeuronName = "32" weight = "0.3478382060948386" />
    <synapse sourceNeuronName = "11" targetNeuronName = "33" weight = "3.9821991844721794" />
    <synapse sourceNeuronName = "11" targetNeuronName = "34" weight = "12.53904480577869" />
    <synapse sourceNeuronName = "11" targetNeuronName = "35" weight = "1.9149356890316143" />
    <synapse sourceNeuronName = "11" targetNeuronName = "36" weight = "14.081573444647805" />
    <synapse sourceNeuronName = "11" targetNeuronName = "37" weight = "20.623705199012186" />
    <synapse sourceNeuronName = "11" targetNeuronName = "38" weight = "25.16200923597067" />
</neuralNetwork>