<neuralNetwork>
    <neuron name = "0" type = "sensor" linkName = "Torso" />
    <neuron name = "1" type = "sensor" linkName = "Leg3" />
    <neuron name = "2" type = "sensor" linkName = "Leg5" />
    <neuron name = "3" type = "sensor" linkName = "Leg8" />
    <neuron name = "4" type = "sensor" linkName = "Leg9" />
    <neuron name = "5" type = "sensor" linkName = "Leg13" />
    <neuron name = "6" type = "sensor" linkName = "Leg16" />
    <neuron name = "7" type = "sensor" linkName = "Leg17" />
    <neuron name = "8" type = "sensor" linkName = "Leg18" />
    <neuron name = "9" type = "sensor" linkName = "Leg21" />
    <neuron name = "10" type = "sensor" linkName = "Leg23" />
    <neuron name = "11" type = "motor"  jointName = "Torso_Leg1" />
    <neuron name = "12" type = "motor"  jointName = "Torso_Leg2" />
    <neuron name = "13" type = "motor"  jointName = "Leg2_Leg3" />
    <neuron name = "14" type = "motor"  jointName = "Leg1_Leg4" />
    <neuron name = "15" type = "motor"  jointName = "Leg3_Leg5" />
    <neuron name = "16" type = "motor"  jointName = "Leg1_Leg6" />
    <neuron name = "17" type = "motor"  jointName = "Leg4_Leg7" />
    <neuron name = "18" type = "motor"  jointName = "Leg2_Leg8" />
    <neuron name = "19" type = "motor"  jointName = "Leg7_Leg9" />
    <neuron name = "20" type = "motor"  jointName = "Leg6_Leg10" />
    <neuron name = "21" type = "motor"  jointName = "Leg8_Leg11" />
    <neuron name = "22" type = "motor"  jointName = "Leg4_Leg12" />
    <neuron name = "23" type = "motor"  jointName = "Leg2_Leg13" />
    <neuron name = "24" type = "motor"  jointName = "Leg12_Leg14" />
    <neuron name = "25" type = "motor"  jointName = "Leg14_Leg15" />
    <neuron name = "26" type = "motor"  jointName = "Leg15_Leg16" />
    <neuron name = "27" type = "motor"  jointName = "Leg9_Leg17" />
    <neuron name = "28" type = "motor"  jointName = "Leg11_Leg18" />
    <neuron name = "29" type = "motor"  jointName = "Leg17_Leg19" />
    <neuron name = "30" type = "motor"  jointName = "Leg14_Leg20" />
    <neuron name = "31" type = "motor"  jointName = "Leg18_Leg21" />
    <neuron name = "32" type = "motor"  jointName = "Leg6_Leg22" />
    <neuron name = "33" type = "motor"  jointName = "Leg5_Leg23" />
    <neuron name = "34" type = "motor"  jointName = "Leg10_Leg24" />
    <synapse sourceNeuronName = "0" targetNeuronName = "11" weight = "14.36833717122559" />
    <synapse sourceNeuronName = "0" targetNeuronName = "12" weight = "13.387500549228342" />
    <synapse sourceNeuronName = "0" targetNeuronName = "13" weight = "6.349811608637536" />
    <synapse sourceNeuronName = "0" targetNeuronName = "14" weight = "7.024555734313321" />
    <synapse sourceNeuronName = "0" targetNeuronName = "15" weight = "7.32953621541181" />
    <synapse sourceNeuronName = "0" targetNeuronName = "16" weight = "3.6455991941809884" />
    <synapse sourceNeuronName = "0" targetNeuronName = "17" weight = "11.573075469581593" />
    <synapse sourceNeuronName = "0" targetNeuronName = "18" weight = "5.261169511391866" />
    <synapse sourceNeuronName = "0" targetNeuronName = "19" weight = "1.2459096790150612" />
    <synapse sourceNeuronName = "0" targetNeuronName = "20" weight = "6.72989971151246" />
    <synapse sourceNeuronName = "0" targetNeuronName = "21" weight = "22.61218466589357" />
    <synapse sourceNeuronName = "0" targetNeuronName = "22" weight = "10.249556180051176" />
    <synapse sourceNeuronName = "0" targetNeuronName = "23" weight = "6.441793834310449" />
    <synapse sourceNeuronName = "0" targetNeuronName = "24" weight = "2.371279002117298" />
    <synapse sourceNeuronName = "0" targetNeuronName = "25" weight = "21.455145572023284" />
    <synapse sourceNeuronName = "0" targetNeuronName = "26" weight = "0.063738233143809" />
    <synapse sourceNeuronName = "0" targetNeuronName = "27" weight = "17.305491583824015" />
    <synapse sourceNeuronName = "0" targetNeuronName = "28" weight = "21.346487292321598" />
    <synapse sourceNeuronName = "0" targetNeuronName = "29" weight = "7.627465868935797" />
    <synapse sourceNeuronName = "0" targetNeuronName = "30" weight = "6.076823791266356" />
    <synapse sourceNeuronName = "0" targetNeuronName = "31" weight = "18.1698894230989" />
    <synapse sourceNeuronName = "0" targetNeuronName = "32" weight = "3.840204148428562" />
    <synapse sourceNeuronName = "0" targetNeuronName = "33" weight = "21.59171242571041" />
    <synapse sourceNeuronName = "0" targetNeuronName = "34" weight = "-0.9079794823748939" />
    <synapse sourceNeuronName = "1" targetNeuronName = "11" weight = "5.333642005971925" />
    <synapse sourceNeuronName = "1" targetNeuronName = "12" weight = "17.148001334575707" />
    <synapse sourceNeuronName = "1" targetNeuronName = "13" weight = "14.028128607790585" />
    <synapse sourceNeuronName = "1" targetNeuronName = "14" weight = "-0.276189567878637" />
    <synapse sourceNeuronName = "1" targetNeuronName = "15" weight = "11.86177554166656" />
    <synapse sourceNeuronName = "1" targetNeuronName = "16" weight = "14.961131800993943" />
    <synapse sourceNeuronName = "1" targetNeuronName = "17" weight = "9.846423845438833" />
    <synapse sourceNeuronName = "1" targetNeuronName = "18" weight = "7.179751315071833" />
    <synapse sourceNeuronName = "1" targetNeuronName = "19" weight = "3.699461715547116" />
    <synapse sourceNeuronName = "1" targetNeuronName = "20" weight = "9.762642081355791" />
    <synapse sourceNeuronName = "1" targetNeuronName = "21" weight = "15.515340702200781" />
    <synapse sourceNeuronName = "1" targetNeuronName = "22" weight = "13.514920874453846" />
    <synapse sourceNeuronName = "1" targetNeuronName = "23" weight = "4.865934217984447" />
    <synapse sourceNeuronName = "1" targetNeuronName = "24" weight = "18.394138867579823" />
    <synapse sourceNeuronName = "1" targetNeuronName = "25" weight = "9.483639149998801" />
    <synapse sourceNeuronName = "1" targetNeuronName = "26" weight = "13.021423010972889" />
    <synapse sourceNeuronName = "1" targetNeuronName = "27" weight = "8.350858960135842" />
    <synapse sourceNeuronName = "1" targetNeuronName = "28" weight = "1.5807241169064001" />
    <synapse sourceNeuronName = "1" targetNeuronName = "29" weight = "18.574519018797933" />
    <synapse sourceNeuronName = "1" targetNeuronName = "30" weight = "13.060534158379296" />
    <synapse sourceNeuronName = "1" targetNeuronName = "31" weight = "22.32474667548707" />
    <synapse sourceNeuronName = "1" targetNeuronName = "32" weight = "-0.0849801448248515" />
    <synapse sourceNeuronName = "1" targetNeuronName = "33" weight = "17.264590650150154" />
    <synapse sourceNeuronName = "1" targetNeuronName = "34" weight = "19.022738899681222" />
    <synapse sourceNeuronName = "2" targetNeuronName = "11" weight = "16.159074626921345" />
    <synapse sourceNeuronName = "2" targetNeuronName = "12" weight = "-0.3325236112383507" />
    <synapse sourceNeuronName = "2" targetNeuronName = "13" weight = "13.372163513867967" />
    <synapse sourceNeuronName = "2" targetNeuronName = "14" weight = "3.382184243979302" />
    <synapse sourceNeuronName = "2" targetNeuronName = "15" weight = "22.193020448764365" />
    <synapse sourceNeuronName = "2" targetNeuronName = "16" weight = "13.588798896718444" />
    <synapse sourceNeuronName = "2" targetNeuronName = "17" weight = "16.59874666949382" />
    <synapse sourceNeuronName = "2" targetNeuronName = "18" weight = "17.967127196690313" />
    <synapse sourceNeuronName = "2" targetNeuronName = "19" weight = "15.54760857758184" />
    <synapse sourceNeuronName = "2" targetNeuronName = "20" weight = "-0.9676713247744102" />
    <synapse sourceNeuronName = "2" targetNeuronName = "21" weight = "13.206431905423198" />
    <synapse sourceNeuronName = "2" targetNeuronName = "22" weight = "12.254906502659594" />
    <synapse sourceNeuronName = "2" targetNeuronName = "23" weight = "2.923672811850018" />
    <synapse sourceNeuronName = "2" targetNeuronName = "24" weight = "22.591158787933296" />
    <synapse sourceNeuronName = "2" targetNeuronName = "25" weight = "21.553818143980386" />
    <synapse sourceNeuronName = "2" targetNeuronName = "26" weight = "22.08917905172635" />
    <synapse sourceNeuronName = "2" targetNeuronName = "27" weight = "16.66463186020276" />
    <synapse sourceNeuronName = "2" targetNeuronName = "28" weight = "19.49215889182249" />
    <synapse sourceNeuronName = "2" targetNeuronName = "29" weight = "4.758378099766869" />
    <synapse sourceNeuronName = "2" targetNeuronName = "30" weight = "8.056264929941024" />
    <synapse sourceNeuronName = "2" targetNeuronName = "31" weight = "20.33676888441279" />
    <synapse sourceNeuronName = "2" targetNeuronName = "32" weight = "10.50400874928522" />
    <synapse sourceNeuronName = "2" targetNeuronName = "33" weight = "7.908558596241516" />
    <synapse sourceNeuronName = "2" targetNeuronName = "34" weight = "7.437741713743735" />
    <synapse sourceNeuronName = "3" targetNeuronName = "11" weight = "20.40884963252176" />
    <synapse sourceNeuronName = "3" targetNeuronName = "12" weight = "8.750121371113197" />
    <synapse sourceNeuronName = "3" targetNeuronName = "13" weight = "20.364400819339384" />
    <synapse sourceNeuronName = "3" targetNeuronName = "14" weight = "4.692398950704418" />
    <synapse sourceNeuronName = "3" targetNeuronName = "15" weight = "5.512045732508268" />
    <synapse sourceNeuronName = "3" targetNeuronName = "16" weight = "13.353810542976412" />
    <synapse sourceNeuronName = "3" targetNeuronName = "17" weight = "5.31800689216555" />
    <synapse sourceNeuronName = "3" targetNeuronName = "18" weight = "21.597996443350567" />
    <synapse sourceNeuronName = "3" targetNeuronName = "19" weight = "9.862920885455486" />
    <synapse sourceNeuronName = "3" targetNeuronName = "20" weight = "0.21701480761626168" />
    <synapse sourceNeuronName = "3" targetNeuronName = "21" weight = "-0.09064828249161838" />
    <synapse sourceNeuronName = "3" targetNeuronName = "22" weight = "4.137941578480361" />
    <synapse sourceNeuronName = "3" targetNeuronName = "23" weight = "11.087688453121162" />
    <synapse sourceNeuronName = "3" targetNeuronName = "24" weight = "14.110788054657657" />
    <synapse sourceNeuronName = "3" targetNeuronName = "25" weight = "19.39853780155279" />
    <synapse sourceNeuronName = "3" targetNeuronName = "26" weight = "7.389263953451852" />
    <synapse sourceNeuronName = "3" targetNeuronName = "27" weight = "-0.6353331140356611" />
    <synapse sourceNeuronName = "3" targetNeuronName = "28" weight = "8.233398923287016" />
    <synapse sourceNeuronName = "3" targetNeuronName = "29" weight = "13.129265310206044" />
    <synapse sourceNeuronName = "3" targetNeuronName = "30" weight = "11.151546305722245" />
    <synapse sourceNeuronName = "3" targetNeuronName = "31" weight = "15.486376154214376" />
    <synapse sourceNeuronName = "3" targetNeuronName = "32" weight = "5.106413511816968" />
    <synapse sourceNeuronName = "3" targetNeuronName = "33" weight = "13.022119865518192" />
    <synapse sourceNeuronName = "3" targetNeuronName = "34" weight = "4.842601557508469" />
    <synapse sourceNeuronName = "4" targetNeuronName = "11" weight = "14.7240340936143" />
    <synapse sourceNeuronName = "4" targetNeuronName = "12" weight = "6.9893260908617085" />
    <synapse sourceNeuronName = "4" targetNeuronName = "13" weight = "6.579567235883942" />
    <synapse sourceNeuronName = "4" targetNeuronName = "14" weight = "16.757844171165083" />
    <synapse sourceNeuronName = "4" targetNeuronName = "15" weight = "11.902688408094049" />
    <synapse sourceNeuronName = "4" targetNeuronName = "16" weight = "11.7397256517254" />
    <synapse sourceNeuronName = "4" targetNeuronName = "17" weight = "3.064603698538386" />
    <synapse sourceNeuronName = "4" targetNeuronName = "18" weight = "14.520405340814747" />
    <synapse sourceNeuronName = "4" targetNeuronName = "19" weight = "3.5543112102424796" />
    <synapse sourceNeuronName = "4" targetNeuronName = "20" weight = "4.3106777834955885" />
    <synapse sourceNeuronName = "4" targetNeuronName = "21" weight = "5.063634080883959" />
    <synapse sourceNeuronName = "4" targetNeuronName = "22" weight = "6.625408615633967" />
    <synapse sourceNeuronName = "4" targetNeuronName = "23" weight = "10.788298718344905" />
    <synapse sourceNeuronName = "4" targetNeuronName = "24" weight = "6.599374167411511" />
    <synapse sourceNeuronName = "4" targetNeuronName = "25" weight = "22.923990203165257" />
    <synapse sourceNeuronName = "4" targetNeuronName = "26" weight = "15.914882540498937" />
    <synapse sourceNeuronName = "4" targetNeuronName = "27" weight = "-0.3701756369026059" />
    <synapse sourceNeuronName = "4" targetNeuronName = "28" weight = "10.478087515450657" />
    <synapse sourceNeuronName = "4" targetNeuronName = "29" weight = "19.57178974286211" />
    <synapse sourceNeuronName = "4" targetNeuronName = "30" weight = "10.866293069628231" />
    <synapse sourceNeuronName = "4" targetNeuronName = "31" weight = "15.703311914430056" />
    <synapse sourceNeuronName = "4" targetNeuronName = "32" weight = "1.0549490742195982" />
    <synapse sourceNeuronName = "4" targetNeuronName = "33" weight = "9.881763718809712" />
    <synapse sourceNeuronName = "4" targetNeuronName = "34" weight = "18.476974270458513" />
    <synapse sourceNeuronName = "5" targetNeuronName = "11" weight = "1.7730865471979254" />
    <synapse sourceNeuronName = "5" targetNeuronName = "12" weight = "18.173345021036944" />
    <synapse sourceNeuronName = "5" targetNeuronName = "13" weight = "-0.0930424526680369" />
    <synapse sourceNeuronName = "5" targetNeuronName = "14" weight = "-0.018359348165329692" />
    <synapse sourceNeuronName = "5" targetNeuronName = "15" weight = "2.884894332576205" />
    <synapse sourceNeuronName = "5" targetNeuronName = "16" weight = "13.269010949470665" />
    <synapse sourceNeuronName = "5" targetNeuronName = "17" weight = "15.368460164775648" />
    <synapse sourceNeuronName = "5" targetNeuronName = "18" weight = "3.528124369916826" />
    <synapse sourceNeuronName = "5" targetNeuronName = "19" weight = "11.388457322492963" />
    <synapse sourceNeuronName = "5" targetNeuronName = "20" weight = "10.50181781410362" />
    <synapse sourceNeuronName = "5" targetNeuronName = "21" weight = "15.942170390295836" />
    <synapse sourceNeuronName = "5" targetNeuronName = "22" weight = "0.2758944307279112" />
    <synapse sourceNeuronName = "5" targetNeuronName = "23" weight = "8.008568896861341" />
    <synapse sourceNeuronName = "5" targetNeuronName = "24" weight = "20.95990177804886" />
    <synapse sourceNeuronName = "5" targetNeuronName = "25" weight = "12.467330672674327" />
    <synapse sourceNeuronName = "5" targetNeuronName = "26" weight = "21.123063033818898" />
    <synapse sourceNeuronName = "5" targetNeuronName = "27" weight = "0.5535917472999241" />
    <synapse sourceNeuronName = "5" targetNeuronName = "28" weight = "15.137274239167766" />
    <synapse sourceNeuronName = "5" targetNeuronName = "29" weight = "3.869672691559451" />
    <synapse sourceNeuronName = "5" targetNeuronName = "30" weight = "3.1765025470522374" />
    <synapse sourceNeuronName = "5" targetNeuronName = "31" weight = "9.878409210187366" />
    <synapse sourceNeuronName = "5" targetNeuronName = "32" weight = "13.277142012592455" />
    <synapse sourceNeuronName = "5" targetNeuronName = "33" weight = "0.06413744131092702" />
    <synapse sourceNeuronName = "5" targetNeuronName = "34" weight = "18.22152116323059" />
    <synapse sourceNeuronName = "6" targetNeuronName = "11" weight = "7.558906564806817" />
    <synapse sourceNeuronName = "6" targetNeuronName = "12" weight = "8.420217669313697" />
    <synapse sourceNeuronName = "6" targetNeuronName = "13" weight = "18.34213172438607" />
    <synapse sourceNeuronName = "6" targetNeuronName = "14" weight = "11.698112743163875" />
    <synapse sourceNeuronName = "6" targetNeuronName = "15" weight = "17.497550605071105" />
    <synapse sourceNeuronName = "6" targetNeuronName = "16" weight = "16.166346983862724" />
    <synapse sourceNeuronName = "6" targetNeuronName = "17" weight = "10.276661484511632" />
    <synapse sourceNeuronName = "6" targetNeuronName = "18" weight = "20.627743152178187" />
    <synapse sourceNeuronName = "6" targetNeuronName = "19" weight = "12.140464210214665" />
    <synapse sourceNeuronName = "6" targetNeuronName = "20" weight = "8.953095663982275" />
    <synapse sourceNeuronName = "6" targetNeuronName = "21" weight = "10.850412932146922" />
    <synapse sourceNeuronName = "6" targetNeuronName = "22" weight = "1.7917738632973341" />
    <synapse sourceNeuronName = "6" targetNeuronName = "23" weight = "13.362382107956757" />
    <synapse sourceNeuronName = "6" targetNeuronName = "24" weight = "3.5176967635980123" />
    <synapse sourceNeuronName = "6" targetNeuronName = "25" weight = "15.21001955439517" />
    <synapse sourceNeuronName = "6" targetNeuronName = "26" weight = "3.5898420376760276" />
    <synapse sourceNeuronName = "6" targetNeuronName = "27" weight = "20.53662270213328" />
    <synapse sourceNeuronName = "6" targetNeuronName = "28" weight = "-0.4817989233985944" />
    <synapse sourceNeuronName = "6" targetNeuronName = "29" weight = "7.91234729509517" />
    <synapse sourceNeuronName = "6" targetNeuronName = "30" weight = "0.12554793803656228" />
    <synapse sourceNeuronName = "6" targetNeuronName = "31" weight = "12.14475703491393" />
    <synapse sourceNeuronName = "6" targetNeuronName = "32" weight = "7.828173065653303" />
    <synapse sourceNeuronName = "6" targetNeuronName = "33" weight = "21.639720711498285" />
    <synapse sourceNeuronName = "6" targetNeuronName = "34" weight = "18.434362031905806" />
    <synapse sourceNeuronName = "7" targetNeuronName = "11" weight = "3.111048616444224" />
    <synapse sourceNeuronName = "7" targetNeuronName = "12" weight = "2.6929690573645617" />
    <synapse sourceNeuronName = "7" targetNeuronName = "13" weight = "20.16943454668493" />
    <synapse sourceNeuronName = "7" targetNeuronName = "14" weight = "5.166317880817597" />
    <synapse sourceNeuronName = "7" targetNeuronName = "15" weight = "20.98315646613925" />
    <synapse sourceNeuronName = "7" targetNeuronName = "16" weight = "13.010888712101224" />
    <synapse sourceNeuronName = "7" targetNeuronName = "17" weight = "9.733035130117191" />
    <synapse sourceNeuronName = "7" targetNeuronName = "18" weight = "16.307410324857518" />
    <synapse sourceNeuronName = "7" targetNeuronName = "19" weight = "11.034623902194298" />
    <synapse sourceNeuronName = "7" targetNeuronName = "20" weight = "21.310177142478135" />
    <synapse sourceNeuronName = "7" targetNeuronName = "21" weight = "5.647150178063262" />
    <synapse sourceNeuronName = "7" targetNeuronName = "22" weight = "20.81966146513316" />
    <synapse sourceNeuronName = "7" targetNeuronName = "23" weight = "7.968855934588788" />
    <synapse sourceNeuronName = "7" targetNeuronName = "24" weight = "1.9221653337006934" />
    <synapse sourceNeuronName = "7" targetNeuronName = "25" weight = "7.792944502344113" />
    <synapse sourceNeuronName = "7" targetNeuronName = "26" weight = "18.9707131760863" />
    <synapse sourceNeuronName = "7" targetNeuronName = "27" weight = "2.851709911305286" />
    <synapse sourceNeuronName = "7" targetNeuronName = "28" weight = "-0.7554654008470729" />
    <synapse sourceNeuronName = "7" targetNeuronName = "29" weight = "10.14160378276061" />
    <synapse sourceNeuronName = "7" targetNeuronName = "30" weight = "17.64707823441426" />
    <synapse sourceNeuronName = "7" targetNeuronName = "31" weight = "9.480334792264237" />
    <synapse sourceNeuronName = "7" targetNeuronName = "32" weight = "19.305383908398326" />
    <synapse sourceNeuronName = "7" targetNeuronName = "33" weight = "11.060394267903074" />
    <synapse sourceNeuronName = "7" targetNeuronName = "34" weight = "15.092085119356302" />
    <synapse sourceNeuronName = "8" targetNeuronName = "11" weight = "13.985274732139597" />
    <synapse sourceNeuronName = "8" targetNeuronName = "12" weight = "-0.008767282256914477" />
    <synapse sourceNeuronName = "8" targetNeuronName = "13" weight = "16.534324170031375" />
    <synapse sourceNeuronName = "8" targetNeuronName = "14" weight = "1.2415692226508757" />
    <synapse sourceNeuronName = "8" targetNeuronName = "15" weight = "12.09083507142395" />
    <synapse sourceNeuronName = "8" targetNeuronName = "16" weight = "16.06112673964315" />
    <synapse sourceNeuronName = "8" targetNeuronName = "17" weight = "16.795322262840628" />
    <synapse sourceNeuronName = "8" targetNeuronName = "18" weight = "9.84679620097277" />
    <synapse sourceNeuronName = "8" targetNeuronName = "19" weight = "19.609042492078565" />
    <synapse sourceNeuronName = "8" targetNeuronName = "20" weight = "9.342314672736471" />
    <synapse sourceNeuronName = "8" targetNeuronName = "21" weight = "15.146664526634044" />
    <synapse sourceNeuronName = "8" targetNeuronName = "22" weight = "15.45431803101625" />
    <synapse sourceNeuronName = "8" targetNeuronName = "23" weight = "21.272346609084845" />
    <synapse sourceNeuronName = "8" targetNeuronName = "24" weight = "6.990916778803794" />
    <synapse sourceNeuronName = "8" targetNeuronName = "25" weight = "0.6724496979905146" />
    <synapse sourceNeuronName = "8" targetNeuronName = "26" weight = "3.925770311582137" />
    <synapse sourceNeuronName = "8" targetNeuronName = "27" weight = "7.226988679630509" />
    <synapse sourceNeuronName = "8" targetNeuronName = "28" weight = "1.4263620944391224" />
    <synapse sourceNeuronName = "8" targetNeuronName = "29" weight = "2.150260509265788" />
    <synapse sourceNeuronName = "8" targetNeuronName = "30" weight = "4.670029103023643" />
    <synapse sourceNeuronName = "8" targetNeuronName = "31" weight = "5.50134207252883" />
    <synapse sourceNeuronName = "8" targetNeuronName = "32" weight = "-0.4811351464303213" />
    <synapse sourceNeuronName = "8" targetNeuronName = "33" weight = "15.386014678590954" />
    <synapse sourceNeuronName = "8" targetNeuronName = "34" weight = "3.998169515535972" />
    <synapse sourceNeuronName = "9" targetNeuronName = "11" weight = "19.09844976619312" />
    <synapse sourceNeuronName = "9" targetNeuronName = "12" weight = "6.8173047839721255" />
    <synapse sourceNeuronName = "9" targetNeuronName = "13" weight = "-0.9474058140245143" />
    <synapse sourceNeuronName = "9" targetNeuronName = "14" weight = "7.6932901155600355" />
    <synapse sourceNeuronName = "9" targetNeuronName = "15" weight = "4.331818149968912" />
    <synapse sourceNeuronName = "9" targetNeuronName = "16" weight = "18.554225262992443" />
    <synapse sourceNeuronName = "9" targetNeuronName = "17" weight = "0.06687704076143142" />
    <synapse sourceNeuronName = "9" targetNeuronName = "18" weight = "9.940868410997435" />
    <synapse sourceNeuronName = "9" targetNeuronName = "19" weight = "18.64076048640097" />
    <synapse sourceNeuronName = "9" targetNeuronName = "20" weight = "14.139332067238053" />
    <synapse sourceNeuronName = "9" targetNeuronName = "21" weight = "7.932387498462347" />
    <synapse sourceNeuronName = "9" targetNeuronName = "22" weight = "3.2341757053873783" />
    <synapse sourceNeuronName = "9" targetNeuronName = "23" weight = "18.399520820799903" />
    <synapse sourceNeuronName = "9" targetNeuronName = "24" weight = "19.044675512604474" />
    <synapse sourceNeuronName = "9" targetNeuronName = "25" weight = "18.369491443386366" />
    <synapse sourceNeuronName = "9" targetNeuronName = "26" weight = "11.620997522950624" />
    <synapse sourceNeuronName = "9" targetNeuronName = "27" weight = "9.112188484290638" />
    <synapse sourceNeuronName = "9" targetNeuronName = "28" weight = "-0.3069183507136124" />
    <synapse sourceNeuronName = "9" targetNeuronName = "29" weight = "20.63194133540599" />
    <synapse sourceNeuronName = "9" targetNeuronName = "30" weight = "8.421854681086767" />
    <synapse sourceNeuronName = "9" targetNeuronName = "31" weight = "17.204318757743856" />
    <synapse sourceNeuronName = "9" targetNeuronName = "32" weight = "21.7166568725549" />
    <synapse sourceNeuronName = "9" targetNeuronName = "33" weight = "21.280342367441122" />
    <synapse sourceNeuronName = "9" targetNeuronName = "34" weight = "21.089722638225" />
    <synapse sourceNeuronName = "10" targetNeuronName = "11" weight = "9.003249688425758" />
    <synapse sourceNeuronName = "10" targetNeuronName = "12" weight = "9.216955937292465" />
    <synapse sourceNeuronName = "10" targetNeuronName = "13" weight = "16.401868256752504" />
    <synapse sourceNeuronName = "10" targetNeuronName = "14" weight = "5.658758749431644" />
    <synapse sourceNeuronName = "10" targetNeuronName = "15" weight = "3.609472248254712" />
    <synapse sourceNeuronName = "10" targetNeuronName = "16" weight = "5.323136233462378" />
    <synapse sourceNeuronName = "10" targetNeuronName = "17" weight = "17.436742301329687" />
    <synapse sourceNeuronName = "10" targetNeuronName = "18" weight = "20.78722775358815" />
    <synapse sourceNeuronName = "10" targetNeuronName = "19" weight = "0.49262634251334614" />
    <synapse sourceNeuronName = "10" targetNeuronName = "20" weight = "2.225496641007277" />
    <synapse sourceNeuronName = "10" targetNeuronName = "21" weight = "15.872091215675987" />
    <synapse sourceNeuronName = "10" targetNeuronName = "22" weight = "5.698013743636232" />
    <synapse sourceNeuronName = "10" targetNeuronName = "23" weight = "19.067880542552388" />
    <synapse sourceNeuronName = "10" targetNeuronName = "24" weight = "6.959163697554526" />
    <synapse sourceNeuronName = "10" targetNeuronName = "25" weight = "-0.14772728716867523" />
    <synapse sourceNeuronName = "10" targetNeuronName = "26" weight = "20.824042319769628" />
    <synapse sourceNeuronName = "10" targetNeuronName = "27" weight = "9.918211542143972" />
    <synapse sourceNeuronName = "10" targetNeuronName = "28" weight = "20.92450882543496" />
    <synapse sourceNeuronName = "10" targetNeuronName = "29" weight = "22.517112730399788" />
    <synapse sourceNeuronName = "10" targetNeuronName = "30" weight = "-0.35549570541444453" />
    <synapse sourceNeuronName = "10" targetNeuronName = "31" weight = "1.8915533713762205" />
    <synapse sourceNeuronName = "10" targetNeuronName = "32" weight = "9.814722225436933" />
    <synapse sourceNeuronName = "10" targetNeuronName = "33" weight = "22.43798319233402" />
    <synapse sourceNeuronName = "10" targetNeuronName = "34" weight = "6.958156914014862" />
</neuralNetwork>