<neuralNetwork>
    <neuron name = "0" type = "sensor" linkName = "Torso" />
    <neuron name = "1" type = "sensor" linkName = "Leg1" />
    <neuron name = "2" type = "sensor" linkName = "Leg3" />
    <neuron name = "3" type = "sensor" linkName = "Leg4" />
    <neuron name = "4" type = "sensor" linkName = "Leg5" />
    <neuron name = "5" type = "sensor" linkName = "Leg6" />
    <neuron name = "6" type = "sensor" linkName = "Leg7" />
    <neuron name = "7" type = "sensor" linkName = "Leg11" />
    <neuron name = "8" type = "sensor" linkName = "Leg13" />
    <neuron name = "9" type = "sensor" linkName = "Leg15" />
    <neuron name = "10" type = "sensor" linkName = "Leg17" />
    <neuron name = "11" type = "sensor" linkName = "Leg18" />
    <neuron name = "12" type = "sensor" linkName = "Leg19" />
    <neuron name = "13" type = "sensor" linkName = "Leg20" />
    <neuron name = "14" type = "sensor" linkName = "Leg21" />
    <neuron name = "15" type = "sensor" linkName = "Leg27" />
    <neuron name = "16" type = "sensor" linkName = "Leg28" />
    <neuron name = "17" type = "sensor" linkName = "Leg29" />
    <neuron name = "18" type = "motor"  jointName = "Torso_Leg1" />
    <neuron name = "19" type = "motor"  jointName = "Leg1_Leg2" />
    <neuron name = "20" type = "motor"  jointName = "Torso_Leg3" />
    <neuron name = "21" type = "motor"  jointName = "Leg2_Leg4" />
    <neuron name = "22" type = "motor"  jointName = "Leg4_Leg5" />
    <neuron name = "23" type = "motor"  jointName = "Leg5_Leg6" />
    <neuron name = "24" type = "motor"  jointName = "Leg1_Leg7" />
    <neuron name = "25" type = "motor"  jointName = "Leg7_Leg8" />
    <neuron name = "26" type = "motor"  jointName = "Leg8_Leg9" />
    <neuron name = "27" type = "motor"  jointName = "Leg7_Leg10" />
    <neuron name = "28" type = "motor"  jointName = "Leg6_Leg11" />
    <neuron name = "29" type = "motor"  jointName = "Leg2_Leg12" />
    <neuron name = "30" type = "motor"  jointName = "Leg12_Leg13" />
    <neuron name = "31" type = "motor"  jointName = "Leg5_Leg14" />
    <neuron name = "32" type = "motor"  jointName = "Leg11_Leg15" />
    <neuron name = "33" type = "motor"  jointName = "Leg10_Leg16" />
    <neuron name = "34" type = "motor"  jointName = "Leg13_Leg17" />
    <neuron name = "35" type = "motor"  jointName = "Leg5_Leg18" />
    <neuron name = "36" type = "motor"  jointName = "Leg13_Leg19" />
    <neuron name = "37" type = "motor"  jointName = "Leg18_Leg20" />
    <neuron name = "38" type = "motor"  jointName = "Leg2_Leg21" />
    <neuron name = "39" type = "motor"  jointName = "Leg19_Leg22" />
    <neuron name = "40" type = "motor"  jointName = "Leg6_Leg23" />
    <neuron name = "41" type = "motor"  jointName = "Leg9_Leg24" />
    <neuron name = "42" type = "motor"  jointName = "Leg19_Leg25" />
    <neuron name = "43" type = "motor"  jointName = "Leg23_Leg26" />
    <neuron name = "44" type = "motor"  jointName = "Leg21_Leg27" />
    <neuron name = "45" type = "motor"  jointName = "Leg17_Leg28" />
    <neuron name = "46" type = "motor"  jointName = "Leg19_Leg29" />
    <synapse sourceNeuronName = "0" targetNeuronName = "18" weight = "12.835060314990447" />
    <synapse sourceNeuronName = "0" targetNeuronName = "19" weight = "5.126468731761315" />
    <synapse sourceNeuronName = "0" targetNeuronName = "20" weight = "2.6329320334104627" />
    <synapse sourceNeuronName = "0" targetNeuronName = "21" weight = "27.416939464122983" />
    <synapse sourceNeuronName = "0" targetNeuronName = "22" weight = "14.384809266773322" />
    <synapse sourceNeuronName = "0" targetNeuronName = "23" weight = "25.857905519944076" />
    <synapse sourceNeuronName = "0" targetNeuronName = "24" weight = "10.119925899777291" />
    <synapse sourceNeuronName = "0" targetNeuronName = "25" weight = "3.3379736409270295" />
    <synapse sourceNeuronName = "0" targetNeuronName = "26" weight = "3.4484875951378697" />
    <synapse sourceNeuronName = "0" targetNeuronName = "27" weight = "7.324952924361254" />
    <synapse sourceNeuronName = "0" targetNeuronName = "28" weight = "3.874722914393968" />
    <synapse sourceNeuronName = "0" targetNeuronName = "29" weight = "26.920331816037876" />
    <synapse sourceNeuronName = "0" targetNeuronName = "30" weight = "1.5954854195271393" />
    <synapse sourceNeuronName = "0" targetNeuronName = "31" weight = "6.904599666935942" />
    <synapse sourceNeuronName = "0" targetNeuronName = "32" weight = "5.387778779978863" />
    <synapse sourceNeuronName = "0" targetNeuronName = "33" weight = "22.95677593246097" />
    <synapse sourceNeuronName = "0" targetNeuronName = "34" weight = "27.901133989877174" />
    <synapse sourceNeuronName = "0" targetNeuronName = "35" weight = "16.462244298669017" />
    <synapse sourceNeuronName = "0" targetNeuronName = "36" weight = "-0.714587208352271" />
    <synapse sourceNeuronName = "0" targetNeuronName = "37" weight = "0.04504323362637663" />
    <synapse sourceNeuronName = "0" targetNeuronName = "38" weight = "13.613079943850375" />
    <synapse sourceNeuronName = "0" targetNeuronName = "39" weight = "22.596126569340836" />
    <synapse sourceNeuronName = "0" targetNeuronName = "40" weight = "2.210341132375743" />
    <synapse sourceNeuronName = "0" targetNeuronName = "41" weight = "16.196532049333502" />
    <synapse sourceNeuronName = "0" targetNeuronName = "42" weight = "9.60949517512743" />
    <synapse sourceNeuronName = "0" targetNeuronName = "43" weight = "-0.27590669055252337" />
    <synapse sourceNeuronName = "0" targetNeuronName = "44" weight = "22.853798842379366" />
    <synapse sourceNeuronName = "0" targetNeuronName = "45" weight = "20.98407596975808" />
    <synapse sourceNeuronName = "0" targetNeuronName = "46" weight = "14.387011462005935" />
    <synapse sourceNeuronName = "1" targetNeuronName = "18" weight = "26.2031388504545" />
    <synapse sourceNeuronName = "1" targetNeuronName = "19" weight = "6.894948054552154" />
    <synapse sourceNeuronName = "1" targetNeuronName = "20" weight = "20.07157514336104" />
    <synapse sourceNeuronName = "1" targetNeuronName = "21" weight = "20.755659063224797" />
    <synapse sourceNeuronName = "1" targetNeuronName = "22" weight = "1.6382570214176884" />
    <synapse sourceNeuronName = "1" targetNeuronName = "23" weight = "5.206326875637971" />
    <synapse sourceNeuronName = "1" targetNeuronName = "24" weight = "1.3246905776815145" />
    <synapse sourceNeuronName = "1" targetNeuronName = "25" weight = "27.633040333779647" />
    <synapse sourceNeuronName = "1" targetNeuronName = "26" weight = "15.068879129022132" />
    <synapse sourceNeuronName = "1" targetNeuronName = "27" weight = "10.49588922338701" />
    <synapse sourceNeuronName = "1" targetNeuronName = "28" weight = "9.518091812994076" />
    <synapse sourceNeuronName = "1" targetNeuronName = "29" weight = "16.636393749906393" />
    <synapse sourceNeuronName = "1" targetNeuronName = "30" weight = "21.669882713626443" />
    <synapse sourceNeuronName = "1" targetNeuronName = "31" weight = "14.36864973161393" />
    <synapse sourceNeuronName = "1" targetNeuronName = "32" weight = "2.874757014533263" />
    <synapse sourceNeuronName = "1" targetNeuronName = "33" weight = "2.5660780759806734" />
    <synapse sourceNeuronName = "1" targetNeuronName = "34" weight = "13.2084669369966" />
    <synapse sourceNeuronName = "1" targetNeuronName = "35" weight = "11.843209492052333" />
    <synapse sourceNeuronName = "1" targetNeuronName = "36" weight = "1.1980505320708446" />
    <synapse sourceNeuronName = "1" targetNeuronName = "37" weight = "25.919711559176918" />
    <synapse sourceNeuronName = "1" targetNeuronName = "38" weight = "1.5235373470476028" />
    <synapse sourceNeuronName = "1" targetNeuronName = "39" weight = "12.929978143030015" />
    <synapse sourceNeuronName = "1" targetNeuronName = "40" weight = "19.098137508626515" />
    <synapse sourceNeuronName = "1" targetNeuronName = "41" weight = "-0.25428807017628186" />
    <synapse sourceNeuronName = "1" targetNeuronName = "42" weight = "11.876257283393086" />
    <synapse sourceNeuronName = "1" targetNeuronName = "43" weight = "16.820243774664117" />
    <synapse sourceNeuronName = "1" targetNeuronName = "44" weight = "8.541446785855905" />
    <synapse sourceNeuronName = "1" targetNeuronName = "45" weight = "9.246792555965948" />
    <synapse sourceNeuronName = "1" targetNeuronName = "46" weight = "4.163715676831874" />
    <synapse sourceNeuronName = "2" targetNeuronName = "18" weight = "8.018228692616457" />
    <synapse sourceNeuronName = "2" targetNeuronName = "19" weight = "20.87571821910184" />
    <synapse sourceNeuronName = "2" targetNeuronName = "20" weight = "6.188782327594228" />
    <synapse sourceNeuronName = "2" targetNeuronName = "21" weight = "13.693038494324067" />
    <synapse sourceNeuronName = "2" targetNeuronName = "22" weight = "17.239746338219422" />
    <synapse sourceNeuronName = "2" targetNeuronName = "23" weight = "16.010655537898362" />
    <synapse sourceNeuronName = "2" targetNeuronName = "24" weight = "2.285923838131913" />
    <synapse sourceNeuronName = "2" targetNeuronName = "25" weight = "5.77419335122317" />
    <synapse sourceNeuronName = "2" targetNeuronName = "26" weight = "7.764759154392198" />
    <synapse sourceNeuronName = "2" targetNeuronName = "27" weight = "27.030439408073633" />
    <synapse sourceNeuronName = "2" targetNeuronName = "28" weight = "15.485652122433816" />
    <synapse sourceNeuronName = "2" targetNeuronName = "29" weight = "20.073030067799852" />
    <synapse sourceNeuronName = "2" targetNeuronName = "30" weight = "0.39931244534863963" />
    <synapse sourceNeuronName = "2" targetNeuronName = "31" weight = "15.210623020707708" />
    <synapse sourceNeuronName = "2" targetNeuronName = "32" weight = "25.314852275618918" />
    <synapse sourceNeuronName = "2" targetNeuronName = "33" weight = "9.81739226109636" />
    <synapse sourceNeuronName = "2" targetNeuronName = "34" weight = "11.302723004645578" />
    <synapse sourceNeuronName = "2" targetNeuronName = "35" weight = "12.797448364077315" />
    <synapse sourceNeuronName = "2" targetNeuronName = "36" weight = "2.349290711569902" />
    <synapse sourceNeuronName = "2" targetNeuronName = "37" weight = "9.850792646983413" />
    <synapse sourceNeuronName = "2" targetNeuronName = "38" weight = "27.037991789741746" />
    <synapse sourceNeuronName = "2" targetNeuronName = "39" weight = "1.4149608975245784" />
    <synapse sourceNeuronName = "2" targetNeuronName = "40" weight = "2.4751105181196507" />
    <synapse sourceNeuronName = "2" targetNeuronName = "41" weight = "26.93231427411107" />
    <synapse sourceNeuronName = "2" targetNeuronName = "42" weight = "14.318135984379536" />
    <synapse sourceNeuronName = "2" targetNeuronName = "43" weight = "15.365839952576295" />
    <synapse sourceNeuronName = "2" targetNeuronName = "44" weight = "20.159395767438433" />
    <synapse sourceNeuronName = "2" targetNeuronName = "45" weight = "16.46405509533148" />
    <synapse sourceNeuronName = "2" targetNeuronName = "46" weight = "7.910135488312221" />
    <synapse sourceNeuronName = "3" targetNeuronName = "18" weight = "9.523814119217288" />
    <synapse sourceNeuronName = "3" targetNeuronName = "19" weight = "0.23818216123466263" />
    <synapse sourceNeuronName = "3" targetNeuronName = "20" weight = "15.459696627655674" />
    <synapse sourceNeuronName = "3" targetNeuronName = "21" weight = "1.6759735050146856" />
    <synapse sourceNeuronName = "3" targetNeuronName = "22" weight = "5.9420581006738304" />
    <synapse sourceNeuronName = "3" targetNeuronName = "23" weight = "6.16289410208764" />
    <synapse sourceNeuronName = "3" targetNeuronName = "24" weight = "19.61524331962511" />
    <synapse sourceNeuronName = "3" targetNeuronName = "25" weight = "4.1573614116391076" />
    <synapse sourceNeuronName = "3" targetNeuronName = "26" weight = "27.351590104233715" />
    <synapse sourceNeuronName = "3" targetNeuronName = "27" weight = "15.162286946384413" />
    <synapse sourceNeuronName = "3" targetNeuronName = "28" weight = "24.790775195324656" />
    <synapse sourceNeuronName = "3" targetNeuronName = "29" weight = "-0.8546073290756488" />
    <synapse sourceNeuronName = "3" targetNeuronName = "30" weight = "25.49308001314406" />
    <synapse sourceNeuronName = "3" targetNeuronName = "31" weight = "7.714209776860518" />
    <synapse sourceNeuronName = "3" targetNeuronName = "32" weight = "0.7727041161393902" />
    <synapse sourceNeuronName = "3" targetNeuronName = "33" weight = "6.171142237366878" />
    <synapse sourceNeuronName = "3" targetNeuronName = "34" weight = "5.2279043662017886" />
    <synapse sourceNeuronName = "3" targetNeuronName = "35" weight = "24.484440230384287" />
    <synapse sourceNeuronName = "3" targetNeuronName = "36" weight = "2.021348466511712" />
    <synapse sourceNeuronName = "3" targetNeuronName = "37" weight = "22.414605839546468" />
    <synapse sourceNeuronName = "3" targetNeuronName = "38" weight = "14.088175626216241" />
    <synapse sourceNeuronName = "3" targetNeuronName = "39" weight = "17.399918325933108" />
    <synapse sourceNeuronName = "3" targetNeuronName = "40" weight = "25.59128797029463" />
    <synapse sourceNeuronName = "3" targetNeuronName = "41" weight = "4.2203187678809195" />
    <synapse sourceNeuronName = "3" targetNeuronName = "42" weight = "17.73672652687487" />
    <synapse sourceNeuronName = "3" targetNeuronName = "43" weight = "12.992131460151237" />
    <synapse sourceNeuronName = "3" targetNeuronName = "44" weight = "0.7615065393565943" />
    <synapse sourceNeuronName = "3" targetNeuronName = "45" weight = "15.732069366127153" />
    <synapse sourceNeuronName = "3" targetNeuronName = "46" weight = "22.454474765894865" />
    <synapse sourceNeuronName = "4" targetNeuronName = "18" weight = "22.426028936857616" />
    <synapse sourceNeuronName = "4" targetNeuronName = "19" weight = "14.222863759869776" />
    <synapse sourceNeuronName = "4" targetNeuronName = "20" weight = "9.586047116130418" />
    <synapse sourceNeuronName = "4" targetNeuronName = "21" weight = "13.095640767416004" />
    <synapse sourceNeuronName = "4" targetNeuronName = "22" weight = "1.031695675683336" />
    <synapse sourceNeuronName = "4" targetNeuronName = "23" weight = "8.482896642310624" />
    <synapse sourceNeuronName = "4" targetNeuronName = "24" weight = "3.656020789832417" />
    <synapse sourceNeuronName = "4" targetNeuronName = "25" weight = "6.252863887036458" />
    <synapse sourceNeuronName = "4" targetNeuronName = "26" weight = "27.789496016579623" />
    <synapse sourceNeuronName = "4" targetNeuronName = "27" weight = "1.4014922392464588" />
    <synapse sourceNeuronName = "4" targetNeuronName = "28" weight = "21.857239622299492" />
    <synapse sourceNeuronName = "4" targetNeuronName = "29" weight = "17.86914832555292" />
    <synapse sourceNeuronName = "4" targetNeuronName = "30" weight = "7.406539153658066" />
    <synapse sourceNeuronName = "4" targetNeuronName = "31" weight = "6.712765136593594" />
    <synapse sourceNeuronName = "4" targetNeuronName = "32" weight = "10.387612459081842" />
    <synapse sourceNeuronName = "4" targetNeuronName = "33" weight = "14.982494508001723" />
    <synapse sourceNeuronName = "4" targetNeuronName = "34" weight = "24.24638300284405" />
    <synapse sourceNeuronName = "4" targetNeuronName = "35" weight = "13.475216528113886" />
    <synapse sourceNeuronName = "4" targetNeuronName = "36" weight = "1.3443965293983444" />
    <synapse sourceNeuronName = "4" targetNeuronName = "37" weight = "19.461458182122648" />
    <synapse sourceNeuronName = "4" targetNeuronName = "38" weight = "2.7084248776848083" />
    <synapse sourceNeuronName = "4" targetNeuronName = "39" weight = "7.758086683314485" />
    <synapse sourceNeuronName = "4" targetNeuronName = "40" weight = "12.258965440116205" />
    <synapse sourceNeuronName = "4" targetNeuronName = "41" weight = "8.814772902376253" />
    <synapse sourceNeuronName = "4" targetNeuronName = "42" weight = "23.721439342893213" />
    <synapse sourceNeuronName = "4" targetNeuronName = "43" weight = "25.342146241860547" />
    <synapse sourceNeuronName = "4" targetNeuronName = "44" weight = "3.3944590574443314" />
    <synapse sourceNeuronName = "4" targetNeuronName = "45" weight = "18.16994428207655" />
    <synapse sourceNeuronName = "4" targetNeuronName = "46" weight = "23.032171109871605" />
    <synapse sourceNeuronName = "5" targetNeuronName = "18" weight = "0.09060646529967542" />
    <synapse sourceNeuronName = "5" targetNeuronName = "19" weight = "14.638388835564937" />
    <synapse sourceNeuronName = "5" targetNeuronName = "20" weight = "26.415511645701493" />
    <synapse sourceNeuronName = "5" targetNeuronName = "21" weight = "-0.6102865891516732" />
    <synapse sourceNeuronName = "5" targetNeuronName = "22" weight = "6.547286259055062" />
    <synapse sourceNeuronName = "5" targetNeuronName = "23" weight = "26.96165651561791" />
    <synapse sourceNeuronName = "5" targetNeuronName = "24" weight = "5.749384079457124" />
    <synapse sourceNeuronName = "5" targetNeuronName = "25" weight = "13.517365554507025" />
    <synapse sourceNeuronName = "5" targetNeuronName = "26" weight = "1.696028932918491" />
    <synapse sourceNeuronName = "5" targetNeuronName = "27" weight = "15.331610937900749" />
    <synapse sourceNeuronName = "5" targetNeuronName = "28" weight = "-0.018190514768212762" />
    <synapse sourceNeuronName = "5" targetNeuronName = "29" weight = "22.232246349207152" />
    <synapse sourceNeuronName = "5" targetNeuronName = "30" weight = "26.98315799107435" />
    <synapse sourceNeuronName = "5" targetNeuronName = "31" weight = "21.354882845947248" />
    <synapse sourceNeuronName = "5" targetNeuronName = "32" weight = "21.19081123834871" />
    <synapse sourceNeuronName = "5" targetNeuronName = "33" weight = "14.734081367492745" />
    <synapse sourceNeuronName = "5" targetNeuronName = "34" weight = "0.7458323877923752" />
    <synapse sourceNeuronName = "5" targetNeuronName = "35" weight = "23.490507872895307" />
    <synapse sourceNeuronName = "5" targetNeuronName = "36" weight = "16.456109971506375" />
    <synapse sourceNeuronName = "5" targetNeuronName = "37" weight = "-0.7956407951660427" />
    <synapse sourceNeuronName = "5" targetNeuronName = "38" weight = "27.25182110328037" />
    <synapse sourceNeuronName = "5" targetNeuronName = "39" weight = "8.24384236819354" />
    <synapse sourceNeuronName = "5" targetNeuronName = "40" weight = "0.469711695348888" />
    <synapse sourceNeuronName = "5" targetNeuronName = "41" weight = "18.950291982237893" />
    <synapse sourceNeuronName = "5" targetNeuronName = "42" weight = "23.70031948012463" />
    <synapse sourceNeuronName = "5" targetNeuronName = "43" weight = "1.5687400972878507" />
    <synapse sourceNeuronName = "5" targetNeuronName = "44" weight = "27.660220008211258" />
    <synapse sourceNeuronName = "5" targetNeuronName = "45" weight = "20.52016964927329" />
    <synapse sourceNeuronName = "5" targetNeuronName = "46" weight = "5.019894016489168" />
    <synapse sourceNeuronName = "6" targetNeuronName = "18" weight = "16.010289571954377" />
    <synapse sourceNeuronName = "6" targetNeuronName = "19" weight = "21.36901006941367" />
    <synapse sourceNeuronName = "6" targetNeuronName = "20" weight = "17.741667440091167" />
    <synapse sourceNeuronName = "6" targetNeuronName = "21" weight = "13.14167317549404" />
    <synapse sourceNeuronName = "6" targetNeuronName = "22" weight = "22.293649818343372" />
    <synapse sourceNeuronName = "6" targetNeuronName = "23" weight = "12.866881265438693" />
    <synapse sourceNeuronName = "6" targetNeuronName = "24" weight = "7.5177963125761735" />
    <synapse sourceNeuronName = "6" targetNeuronName = "25" weight = "27.357596145039814" />
    <synapse sourceNeuronName = "6" targetNeuronName = "26" weight = "20.99440988242466" />
    <synapse sourceNeuronName = "6" targetNeuronName = "27" weight = "4.263392835670936" />
    <synapse sourceNeuronName = "6" targetNeuronName = "28" weight = "23.7442316641343" />
    <synapse sourceNeuronName = "6" targetNeuronName = "29" weight = "14.816704177567518" />
    <synapse sourceNeuronName = "6" targetNeuronName = "30" weight = "11.949552685781192" />
    <synapse sourceNeuronName = "6" targetNeuronName = "31" weight = "10.851528109127015" />
    <synapse sourceNeuronName = "6" targetNeuronName = "32" weight = "15.806020895705867" />
    <synapse sourceNeuronName = "6" targetNeuronName = "33" weight = "24.11051906098955" />
    <synapse sourceNeuronName = "6" targetNeuronName = "34" weight = "6.203517348965047" />
    <synapse sourceNeuronName = "6" targetNeuronName = "35" weight = "16.173290159308944" />
    <synapse sourceNeuronName = "6" targetNeuronName = "36" weight = "5.562468608816867" />
    <synapse sourceNeuronName = "6" targetNeuronName = "37" weight = "24.176479623149376" />
    <synapse sourceNeuronName = "6" targetNeuronName = "38" weight = "24.93937460245522" />
    <synapse sourceNeuronName = "6" targetNeuronName = "39" weight = "5.117204103991387" />
    <synapse sourceNeuronName = "6" targetNeuronName = "40" weight = "7.8708350375047385" />
    <synapse sourceNeuronName = "6" targetNeuronName = "41" weight = "0.3654192480776213" />
    <synapse sourceNeuronName = "6" targetNeuronName = "42" weight = "1.0812084262986104" />
    <synapse sourceNeuronName = "6" targetNeuronName = "43" weight = "9.488897485581493" />
    <synapse sourceNeuronName = "6" targetNeuronName = "44" weight = "21.30972789627174" />
    <synapse sourceNeuronName = "6" targetNeuronName = "45" weight = "9.853041924159108" />
    <synapse sourceNeuronName = "6" targetNeuronName = "46" weight = "15.365429595246997" />
    <synapse sourceNeuronName = "7" targetNeuronName = "18" weight = "1.97584478813019" />
    <synapse sourceNeuronName = "7" targetNeuronName = "19" weight = "4.4658067834256485" />
    <synapse sourceNeuronName = "7" targetNeuronName = "20" weight = "4.549655127013821" />
    <synapse sourceNeuronName = "7" targetNeuronName = "21" weight = "10.827672642159875" />
    <synapse sourceNeuronName = "7" targetNeuronName = "22" weight = "3.6393438236793" />
    <synapse sourceNeuronName = "7" targetNeuronName = "23" weight = "22.911485069470825" />
    <synapse sourceNeuronName = "7" targetNeuronName = "24" weight = "6.092880097821859" />
    <synapse sourceNeuronName = "7" targetNeuronName = "25" weight = "20.958515028411927" />
    <synapse sourceNeuronName = "7" targetNeuronName = "26" weight = "26.526059366672627" />
    <synapse sourceNeuronName = "7" targetNeuronName = "27" weight = "13.109271574919331" />
    <synapse sourceNeuronName = "7" targetNeuronName = "28" weight = "18.421490407265264" />
    <synapse sourceNeuronName = "7" targetNeuronName = "29" weight = "13.775862589364495" />
    <synapse sourceNeuronName = "7" targetNeuronName = "30" weight = "27.689695278163235" />
    <synapse sourceNeuronName = "7" targetNeuronName = "31" weight = "20.337021373381408" />
    <synapse sourceNeuronName = "7" targetNeuronName = "32" weight = "5.140854452923298" />
    <synapse sourceNeuronName = "7" targetNeuronName = "33" weight = "0.4012774707403479" />
    <synapse sourceNeuronName = "7" targetNeuronName = "34" weight = "13.322366430966277" />
    <synapse sourceNeuronName = "7" targetNeuronName = "35" weight = "10.214659037092346" />
    <synapse sourceNeuronName = "7" targetNeuronName = "36" weight = "24.54723337410522" />
    <synapse sourceNeuronName = "7" targetNeuronName = "37" weight = "24.344076947413644" />
    <synapse sourceNeuronName = "7" targetNeuronName = "38" weight = "17.492502645325768" />
    <synapse sourceNeuronName = "7" targetNeuronName = "39" weight = "12.557830053616867" />
    <synapse sourceNeuronName = "7" targetNeuronName = "40" weight = "5.947795295045915" />
    <synapse sourceNeuronName = "7" targetNeuronName = "41" weight = "18.721813108928377" />
    <synapse sourceNeuronName = "7" targetNeuronName = "42" weight = "22.081981311100876" />
    <synapse sourceNeuronName = "7" targetNeuronName = "43" weight = "12.265814051687038" />
    <synapse sourceNeuronName = "7" targetNeuronName = "44" weight = "0.5230665551825007" />
    <synapse sourceNeuronName = "7" targetNeuronName = "45" weight = "13.25390696749874" />
    <synapse sourceNeuronName = "7" targetNeuronName = "46" weight = "5.106094092301671" />
    <synapse sourceNeuronName = "8" targetNeuronName = "18" weight = "21.66200066822699" />
    <synapse sourceNeuronName = "8" targetNeuronName = "19" weight = "27.890763895431718" />
    <synapse sourceNeuronName = "8" targetNeuronName = "20" weight = "22.453996466552223" />
    <synapse sourceNeuronName = "8" targetNeuronName = "21" weight = "9.7368753049939" />
    <synapse sourceNeuronName = "8" targetNeuronName = "22" weight = "2.1101425741099478" />
    <synapse sourceNeuronName = "8" targetNeuronName = "23" weight = "11.66796217489548" />
    <synapse sourceNeuronName = "8" targetNeuronName = "24" weight = "21.92074568873641" />
    <synapse sourceNeuronName = "8" targetNeuronName = "25" weight = "-0.42434689681006965" />
    <synapse sourceNeuronName = "8" targetNeuronName = "26" weight = "21.111640573199352" />
    <synapse sourceNeuronName = "8" targetNeuronName = "27" weight = "25.06490556517842" />
    <synapse sourceNeuronName = "8" targetNeuronName = "28" weight = "19.114848760883618" />
    <synapse sourceNeuronName = "8" targetNeuronName = "29" weight = "17.112043217232703" />
    <synapse sourceNeuronName = "8" targetNeuronName = "30" weight = "12.016401614715582" />
    <synapse sourceNeuronName = "8" targetNeuronName = "31" weight = "23.366162792491167" />
    <synapse sourceNeuronName = "8" targetNeuronName = "32" weight = "7.987847159844666" />
    <synapse sourceNeuronName = "8" targetNeuronName = "33" weight = "20.703764217408438" />
    <synapse sourceNeuronName = "8" targetNeuronName = "34" weight = "23.186170660892973" />
    <synapse sourceNeuronName = "8" targetNeuronName = "35" weight = "2.8103836425301676" />
    <synapse sourceNeuronName = "8" targetNeuronName = "36" weight = "5.467014824114556" />
    <synapse sourceNeuronName = "8" targetNeuronName = "37" weight = "18.100794488932195" />
    <synapse sourceNeuronName = "8" targetNeuronName = "38" weight = "4.2762289993532185" />
    <synapse sourceNeuronName = "8" targetNeuronName = "39" weight = "1.1978536843291758" />
    <synapse sourceNeuronName = "8" targetNeuronName = "40" weight = "0.5644003134656015" />
    <synapse sourceNeuronName = "8" targetNeuronName = "41" weight = "21.19771717497603" />
    <synapse sourceNeuronName = "8" targetNeuronName = "42" weight = "17.651582804640555" />
    <synapse sourceNeuronName = "8" targetNeuronName = "43" weight = "4.84491948924312" />
    <synapse sourceNeuronName = "8" targetNeuronName = "44" weight = "7.21993459822934" />
    <synapse sourceNeuronName = "8" targetNeuronName = "45" weight = "18.88860556623978" />
    <synapse sourceNeuronName = "8" targetNeuronName = "46" weight = "25.391996463505315" />
    <synapse sourceNeuronName = "9" targetNeuronName = "18" weight = "24.954903482390616" />
    <synapse sourceNeuronName = "9" targetNeuronName = "19" weight = "16.31303463837417" />
    <synapse sourceNeuronName = "9" targetNeuronName = "20" weight = "14.496429824595847" />
    <synapse sourceNeuronName = "9" targetNeuronName = "21" weight = "10.975577160082812" />
    <synapse sourceNeuronName = "9" targetNeuronName = "22" weight = "10.29015160495402" />
    <synapse sourceNeuronName = "9" targetNeuronName = "23" weight = "15.065382629053254" />
    <synapse sourceNeuronName = "9" targetNeuronName = "24" weight = "8.052090966504664" />
    <synapse sourceNeuronName = "9" targetNeuronName = "25" weight = "9.837083348297305" />
    <synapse sourceNeuronName = "9" targetNeuronName = "26" weight = "12.216582718735168" />
    <synapse sourceNeuronName = "9" targetNeuronName = "27" weight = "19.47828190348099" />
    <synapse sourceNeuronName = "9" targetNeuronName = "28" weight = "14.075341820732339" />
    <synapse sourceNeuronName = "9" targetNeuronName = "29" weight = "18.09921058404683" />
    <synapse sourceNeuronName = "9" targetNeuronName = "30" weight = "6.5515934587241444" />
    <synapse sourceNeuronName = "9" targetNeuronName = "31" weight = "16.0613544428031" />
    <synapse sourceNeuronName = "9" targetNeuronName = "32" weight = "2.5733924597470104" />
    <synapse sourceNeuronName = "9" targetNeuronName = "33" weight = "-0.8481693016517553" />
    <synapse sourceNeuronName = "9" targetNeuronName = "34" weight = "14.929172208396322" />
    <synapse sourceNeuronName = "9" targetNeuronName = "35" weight = "0.337455222764083" />
    <synapse sourceNeuronName = "9" targetNeuronName = "36" weight = "19.472507502436194" />
    <synapse sourceNeuronName = "9" targetNeuronName = "37" weight = "14.17648207755013" />
    <synapse sourceNeuronName = "9" targetNeuronName = "38" weight = "5.842627421260162" />
    <synapse sourceNeuronName = "9" targetNeuronName = "39" weight = "25.255732172522105" />
    <synapse sourceNeuronName = "9" targetNeuronName = "40" weight = "24.390270027975966" />
    <synapse sourceNeuronName = "9" targetNeuronName = "41" weight = "7.115125159584515" />
    <synapse sourceNeuronName = "9" targetNeuronName = "42" weight = "27.487590838763143" />
    <synapse sourceNeuronName = "9" targetNeuronName = "43" weight = "22.77957612247917" />
    <synapse sourceNeuronName = "9" targetNeuronName = "44" weight = "21.85343204125553" />
    <synapse sourceNeuronName = "9" targetNeuronName = "45" weight = "5.582700119742855" />
    <synapse sourceNeuronName = "9" targetNeuronName = "46" weight = "12.068221187788804" />
    <synapse sourceNeuronName = "10" targetNeuronName = "18" weight = "23.436886826782732" />
    <synapse sourceNeuronName = "10" targetNeuronName = "19" weight = "11.636232414206198" />
    <synapse sourceNeuronName = "10" targetNeuronName = "20" weight = "22.62781914663126" />
    <synapse sourceNeuronName = "10" targetNeuronName = "21" weight = "8.49850410015114" />
    <synapse sourceNeuronName = "10" targetNeuronName = "22" weight = "15.224362753136575" />
    <synapse sourceNeuronName = "10" targetNeuronName = "23" weight = "-0.09394818262269711" />
    <synapse sourceNeuronName = "10" targetNeuronName = "24" weight = "21.801659695232548" />
    <synapse sourceNeuronName = "10" targetNeuronName = "25" weight = "18.112404982781044" />
    <synapse sourceNeuronName = "10" targetNeuronName = "26" weight = "15.930997691994179" />
    <synapse sourceNeuronName = "10" targetNeuronName = "27" weight = "5.632476561999258" />
    <synapse sourceNeuronName = "10" targetNeuronName = "28" weight = "0.8014191273086175" />
    <synapse sourceNeuronName = "10" targetNeuronName = "29" weight = "15.411429455255977" />
    <synapse sourceNeuronName = "10" targetNeuronName = "30" weight = "27.353650422531665" />
    <synapse sourceNeuronName = "10" targetNeuronName = "31" weight = "1.5820606554671004" />
    <synapse sourceNeuronName = "10" targetNeuronName = "32" weight = "2.1006905101918907" />
    <synapse sourceNeuronName = "10" targetNeuronName = "33" weight = "11.982628158551462" />
    <synapse sourceNeuronName = "10" targetNeuronName = "34" weight = "5.821118729232756" />
    <synapse sourceNeuronName = "10" targetNeuronName = "35" weight = "24.5007845804027" />
    <synapse sourceNeuronName = "10" targetNeuronName = "36" weight = "14.591361803876046" />
    <synapse sourceNeuronName = "10" targetNeuronName = "37" weight = "27.093610921456904" />
    <synapse sourceNeuronName = "10" targetNeuronName = "38" weight = "22.327551937974835" />
    <synapse sourceNeuronName = "10" targetNeuronName = "39" weight = "15.390520958908002" />
    <synapse sourceNeuronName = "10" targetNeuronName = "40" weight = "26.770438926495192" />
    <synapse sourceNeuronName = "10" targetNeuronName = "41" weight = "16.92372902148933" />
    <synapse sourceNeuronName = "10" targetNeuronName = "42" weight = "12.328920419419676" />
    <synapse sourceNeuronName = "10" targetNeuronName = "43" weight = "19.11536099147592" />
    <synapse sourceNeuronName = "10" targetNeuronName = "44" weight = "3.9111251743953828" />
    <synapse sourceNeuronName = "10" targetNeuronName = "45" weight = "22.122519051273652" />
    <synapse sourceNeuronName = "10" targetNeuronName = "46" weight = "0.7161760155342454" />
    <synapse sourceNeuronName = "11" targetNeuronName = "18" weight = "26.96130055543371" />
    <synapse sourceNeuronName = "11" targetNeuronName = "19" weight = "15.53928272794975" />
    <synapse sourceNeuronName = "11" targetNeuronName = "20" weight = "3.6793838888782044" />
    <synapse sourceNeuronName = "11" targetNeuronName = "21" weight = "-0.8608178949793602" />
    <synapse sourceNeuronName = "11" targetNeuronName = "22" weight = "19.361822154151596" />
    <synapse sourceNeuronName = "11" targetNeuronName = "23" weight = "17.724094514429922" />
    <synapse sourceNeuronName = "11" targetNeuronName = "24" weight = "2.7185488636363115" />
    <synapse sourceNeuronName = "11" targetNeuronName = "25" weight = "25.899433811801465" />
    <synapse sourceNeuronName = "11" targetNeuronName = "26" weight = "21.97883757630726" />
    <synapse sourceNeuronName = "11" targetNeuronName = "27" weight = "14.56783621594062" />
    <synapse sourceNeuronName = "11" targetNeuronName = "28" weight = "22.22760434188266" />
    <synapse sourceNeuronName = "11" targetNeuronName = "29" weight = "7.6985057791158376" />
    <synapse sourceNeuronName = "11" targetNeuronName = "30" weight = "18.031301986143912" />
    <synapse sourceNeuronName = "11" targetNeuronName = "31" weight = "1.093509255838247" />
    <synapse sourceNeuronName = "11" targetNeuronName = "32" weight = "23.42153814358774" />
    <synapse sourceNeuronName = "11" targetNeuronName = "33" weight = "11.068385147253743" />
    <synapse sourceNeuronName = "11" targetNeuronName = "34" weight = "25.939944088765795" />
    <synapse sourceNeuronName = "11" targetNeuronName = "35" weight = "2.368266289840976" />
    <synapse sourceNeuronName = "11" targetNeuronName = "36" weight = "9.582771248290484" />
    <synapse sourceNeuronName = "11" targetNeuronName = "37" weight = "9.129823464915871" />
    <synapse sourceNeuronName = "11" targetNeuronName = "38" weight = "4.888255243836525" />
    <synapse sourceNeuronName = "11" targetNeuronName = "39" weight = "2.881670926436176" />
    <synapse sourceNeuronName = "11" targetNeuronName = "40" weight = "-0.5614478628729251" />
    <synapse sourceNeuronName = "11" targetNeuronName = "41" weight = "11.50563494188275" />
    <synapse sourceNeuronName = "11" targetNeuronName = "42" weight = "10.5114059057407" />
    <synapse sourceNeuronName = "11" targetNeuronName = "43" weight = "9.548374833638624" />
    <synapse sourceNeuronName = "11" targetNeuronName = "44" weight = "21.67266875785173" />
    <synapse sourceNeuronName = "11" targetNeuronName = "45" weight = "-0.7011933735970302" />
    <synapse sourceNeuronName = "11" targetNeuronName = "46" weight = "0.02593825646932557" />
    <synapse sourceNeuronName = "12" targetNeuronName = "18" weight = "17.806927981363476" />
    <synapse sourceNeuronName = "12" targetNeuronName = "19" weight = "5.9806607765747355" />
    <synapse sourceNeuronName = "12" targetNeuronName = "20" weight = "8.311181982503784" />
    <synapse sourceNeuronName = "12" targetNeuronName = "21" weight = "11.681178346074216" />
    <synapse sourceNeuronName = "12" targetNeuronName = "22" weight = "12.562053452497489" />
    <synapse sourceNeuronName = "12" targetNeuronName = "23" weight = "4.78241136093439" />
    <synapse sourceNeuronName = "12" targetNeuronName = "24" weight = "0.1704364184647369" />
    <synapse sourceNeuronName = "12" targetNeuronName = "25" weight = "25.459581893623376" />
    <synapse sourceNeuronName = "12" targetNeuronName = "26" weight = "1.1405160267219054" />
    <synapse sourceNeuronName = "12" targetNeuronName = "27" weight = "22.15276866496134" />
    <synapse sourceNeuronName = "12" targetNeuronName = "28" weight = "13.16105091268894" />
    <synapse sourceNeuronName = "12" targetNeuronName = "29" weight = "3.883953895017836" />
    <synapse sourceNeuronName = "12" targetNeuronName = "30" weight = "7.330537038115388" />
    <synapse sourceNeuronName = "12" targetNeuronName = "31" weight = "0.9842364692070744" />
    <synapse sourceNeuronName = "12" targetNeuronName = "32" weight = "4.868054540594731" />
    <synapse sourceNeuronName = "12" targetNeuronName = "33" weight = "20.060085868015417" />
    <synapse sourceNeuronName = "12" targetNeuronName = "34" weight = "13.551647600269753" />
    <synapse sourceNeuronName = "12" targetNeuronName = "35" weight = "24.49998550959699" />
    <synapse sourceNeuronName = "12" targetNeuronName = "36" weight = "2.023104202757217" />
    <synapse sourceNeuronName = "12" targetNeuronName = "37" weight = "10.095758568395663" />
    <synapse sourceNeuronName = "12" targetNeuronName = "38" weight = "17.501093617647363" />
    <synapse sourceNeuronName = "12" targetNeuronName = "39" weight = "7.965110060649611" />
    <synapse sourceNeuronName = "12" targetNeuronName = "40" weight = "5.043154621354043" />
    <synapse sourceNeuronName = "12" targetNeuronName = "41" weight = "23.94147408872012" />
    <synapse sourceNeuronName = "12" targetNeuronName = "42" weight = "22.92850245724166" />
    <synapse sourceNeuronName = "12" targetNeuronName = "43" weight = "20.95061986699581" />
    <synapse sourceNeuronName = "12" targetNeuronName = "44" weight = "-0.26985827929512896" />
    <synapse sourceNeuronName = "12" targetNeuronName = "45" weight = "18.54540236852919" />
    <synapse sourceNeuronName = "12" targetNeuronName = "46" weight = "11.951144720693428" />
    <synapse sourceNeuronName = "13" targetNeuronName = "18" weight = "19.848630418687385" />
    <synapse sourceNeuronName = "13" targetNeuronName = "19" weight = "16.37296331951922" />
    <synapse sourceNeuronName = "13" targetNeuronName = "20" weight = "27.326932509780146" />
    <synapse sourceNeuronName = "13" targetNeuronName = "21" weight = "12.663874383671885" />
    <synapse sourceNeuronName = "13" targetNeuronName = "22" weight = "5.234110263180556" />
    <synapse sourceNeuronName = "13" targetNeuronName = "23" weight = "8.533344072311731" />
    <synapse sourceNeuronName = "13" targetNeuronName = "24" weight = "20.099361592805682" />
    <synapse sourceNeuronName = "13" targetNeuronName = "25" weight = "25.299203913311377" />
    <synapse sourceNeuronName = "13" targetNeuronName = "26" weight = "19.423405629021463" />
    <synapse sourceNeuronName = "13" targetNeuronName = "27" weight = "27.18980761983719" />
    <synapse sourceNeuronName = "13" targetNeuronName = "28" weight = "21.775034683114967" />
    <synapse sourceNeuronName = "13" targetNeuronName = "29" weight = "19.972372243027838" />
    <synapse sourceNeuronName = "13" targetNeuronName = "30" weight = "10.299085696226689" />
    <synapse sourceNeuronName = "13" targetNeuronName = "31" weight = "17.838491655090973" />
    <synapse sourceNeuronName = "13" targetNeuronName = "32" weight = "9.371288458387163" />
    <synapse sourceNeuronName = "13" targetNeuronName = "33" weight = "-0.46455524971927575" />
    <synapse sourceNeuronName = "13" targetNeuronName = "34" weight = "6.7631546597704055" />
    <synapse sourceNeuronName = "13" targetNeuronName = "35" weight = "-0.515269038913355" />
    <synapse sourceNeuronName = "13" targetNeuronName = "36" weight = "8.986682413337268" />
    <synapse sourceNeuronName = "13" targetNeuronName = "37" weight = "18.44766534739945" />
    <synapse sourceNeuronName = "13" targetNeuronName = "38" weight = "20.461803042580144" />
    <synapse sourceNeuronName = "13" targetNeuronName = "39" weight = "19.594434040538705" />
    <synapse sourceNeuronName = "13" targetNeuronName = "40" weight = "20.59784315248196" />
    <synapse sourceNeuronName = "13" targetNeuronName = "41" weight = "27.793634455663828" />
    <synapse sourceNeuronName = "13" targetNeuronName = "42" weight = "20.846192516886365" />
    <synapse sourceNeuronName = "13" targetNeuronName = "43" weight = "21.73355689206483" />
    <synapse sourceNeuronName = "13" targetNeuronName = "44" weight = "2.7608365501617147" />
    <synapse sourceNeuronName = "13" targetNeuronName = "45" weight = "0.3109474200867255" />
    <synapse sourceNeuronName = "13" targetNeuronName = "46" weight = "10.670975444355808" />
    <synapse sourceNeuronName = "14" targetNeuronName = "18" weight = "2.3088451803950605" />
    <synapse sourceNeuronName = "14" targetNeuronName = "19" weight = "13.263864431081023" />
    <synapse sourceNeuronName = "14" targetNeuronName = "20" weight = "17.475018036392054" />
    <synapse sourceNeuronName = "14" targetNeuronName = "21" weight = "21.266677777065553" />
    <synapse sourceNeuronName = "14" targetNeuronName = "22" weight = "4.36531203744431" />
    <synapse sourceNeuronName = "14" targetNeuronName = "23" weight = "25.047390073703962" />
    <synapse sourceNeuronName = "14" targetNeuronName = "24" weight = "5.29179124561559" />
    <synapse sourceNeuronName = "14" targetNeuronName = "25" weight = "13.491264484980446" />
    <synapse sourceNeuronName = "14" targetNeuronName = "26" weight = "25.603470383124566" />
    <synapse sourceNeuronName = "14" targetNeuronName = "27" weight = "10.641999247223572" />
    <synapse sourceNeuronName = "14" targetNeuronName = "28" weight = "18.839785596629028" />
    <synapse sourceNeuronName = "14" targetNeuronName = "29" weight = "19.21984153145548" />
    <synapse sourceNeuronName = "14" targetNeuronName = "30" weight = "-0.13728171574610704" />
    <synapse sourceNeuronName = "14" targetNeuronName = "31" weight = "11.921872631883518" />
    <synapse sourceNeuronName = "14" targetNeuronName = "32" weight = "26.669897013485272" />
    <synapse sourceNeuronName = "14" targetNeuronName = "33" weight = "27.33089436096439" />
    <synapse sourceNeuronName = "14" targetNeuronName = "34" weight = "-0.6915003487557577" />
    <synapse sourceNeuronName = "14" targetNeuronName = "35" weight = "19.563479593203343" />
    <synapse sourceNeuronName = "14" targetNeuronName = "36" weight = "11.753374702046509" />
    <synapse sourceNeuronName = "14" targetNeuronName = "37" weight = "15.76959473528515" />
    <synapse sourceNeuronName = "14" targetNeuronName = "38" weight = "0.8965813313230937" />
    <synapse sourceNeuronName = "14" targetNeuronName = "39" weight = "16.817861691311823" />
    <synapse sourceNeuronName = "14" targetNeuronName = "40" weight = "16.63884145140272" />
    <synapse sourceNeuronName = "14" targetNeuronName = "41" weight = "14.300576888380558" />
    <synapse sourceNeuronName = "14" targetNeuronName = "42" weight = "3.099856795426657" />
    <synapse sourceNeuronName = "14" targetNeuronName = "43" weight = "8.782760375636226" />
    <synapse sourceNeuronName = "14" targetNeuronName = "44" weight = "3.216549025026862" />
    <synapse sourceNeuronName = "14" targetNeuronName = "45" weight = "3.6002978192132904" />
    <synapse sourceNeuronName = "14" targetNeuronName = "46" weight = "22.344634793366303" />
    <synapse sourceNeuronName = "15" targetNeuronName = "18" weight = "10.39009303653058" />
    <synapse sourceNeuronName = "15" targetNeuronName = "19" weight = "0.006047867686090225" />
    <synapse sourceNeuronName = "15" targetNeuronName = "20" weight = "18.66392385340665" />
    <synapse sourceNeuronName = "15" targetNeuronName = "21" weight = "24.368208693597637" />
    <synapse sourceNeuronName = "15" targetNeuronName = "22" weight = "1.4958765565750385" />
    <synapse sourceNeuronName = "15" targetNeuronName = "23" weight = "14.364009689747924" />
    <synapse sourceNeuronName = "15" targetNeuronName = "24" weight = "3.085005675540101" />
    <synapse sourceNeuronName = "15" targetNeuronName = "25" weight = "18.008530535945955" />
    <synapse sourceNeuronName = "15" targetNeuronName = "26" weight = "19.210934660918838" />
    <synapse sourceNeuronName = "15" targetNeuronName = "27" weight = "14.661492261355825" />
    <synapse sourceNeuronName = "15" targetNeuronName = "28" weight = "20.239139226233053" />
    <synapse sourceNeuronName = "15" targetNeuronName = "29" weight = "14.192787458226162" />
    <synapse sourceNeuronName = "15" targetNeuronName = "30" weight = "21.775339789695348" />
    <synapse sourceNeuronName = "15" targetNeuronName = "31" weight = "4.10664174699439" />
    <synapse sourceNeuronName = "15" targetNeuronName = "32" weight = "18.43862042784858" />
    <synapse sourceNeuronName = "15" targetNeuronName = "33" weight = "4.319160146160332" />
    <synapse sourceNeuronName = "15" targetNeuronName = "34" weight = "11.04421507172935" />
    <synapse sourceNeuronName = "15" targetNeuronName = "35" weight = "24.36362835971959" />
    <synapse sourceNeuronName = "15" targetNeuronName = "36" weight = "9.459487729278434" />
    <synapse sourceNeuronName = "15" targetNeuronName = "37" weight = "10.25115443810548" />
    <synapse sourceNeuronName = "15" targetNeuronName = "38" weight = "18.321435913264498" />
    <synapse sourceNeuronName = "15" targetNeuronName = "39" weight = "8.907123805614665" />
    <synapse sourceNeuronName = "15" targetNeuronName = "40" weight = "5.494430471189995" />
    <synapse sourceNeuronName = "15" targetNeuronName = "41" weight = "9.17449877291934" />
    <synapse sourceNeuronName = "15" targetNeuronName = "42" weight = "15.338059435925558" />
    <synapse sourceNeuronName = "15" targetNeuronName = "43" weight = "4.420257271629131" />
    <synapse sourceNeuronName = "15" targetNeuronName = "44" weight = "17.54082867027399" />
    <synapse sourceNeuronName = "15" targetNeuronName = "45" weight = "22.70743571272167" />
    <synapse sourceNeuronName = "15" targetNeuronName = "46" weight = "15.356821065541435" />
    <synapse sourceNeuronName = "16" targetNeuronName = "18" weight = "20.256454203994227" />
    <synapse sourceNeuronName = "16" targetNeuronName = "19" weight = "23.20070110235407" />
    <synapse sourceNeuronName = "16" targetNeuronName = "20" weight = "27.9863259377189" />
    <synapse sourceNeuronName = "16" targetNeuronName = "21" weight = "11.457801995148575" />
    <synapse sourceNeuronName = "16" targetNeuronName = "22" weight = "26.644520759818242" />
    <synapse sourceNeuronName = "16" targetNeuronName = "23" weight = "17.633004715523576" />
    <synapse sourceNeuronName = "16" targetNeuronName = "24" weight = "16.572159428712027" />
    <synapse sourceNeuronName = "16" targetNeuronName = "25" weight = "15.179421255331029" />
    <synapse sourceNeuronName = "16" targetNeuronName = "26" weight = "8.842711956309646" />
    <synapse sourceNeuronName = "16" targetNeuronName = "27" weight = "24.61623764397651" />
    <synapse sourceNeuronName = "16" targetNeuronName = "28" weight = "23.49787836098331" />
    <synapse sourceNeuronName = "16" targetNeuronName = "29" weight = "-0.029031900986339343" />
    <synapse sourceNeuronName = "16" targetNeuronName = "30" weight = "16.323762671379495" />
    <synapse sourceNeuronName = "16" targetNeuronName = "31" weight = "27.070578039353503" />
    <synapse sourceNeuronName = "16" targetNeuronName = "32" weight = "23.566458845534054" />
    <synapse sourceNeuronName = "16" targetNeuronName = "33" weight = "8.144581706459407" />
    <synapse sourceNeuronName = "16" targetNeuronName = "34" weight = "9.63985341597903" />
    <synapse sourceNeuronName = "16" targetNeuronName = "35" weight = "22.314968038839535" />
    <synapse sourceNeuronName = "16" targetNeuronName = "36" weight = "6.831451636993612" />
    <synapse sourceNeuronName = "16" targetNeuronName = "37" weight = "22.4419566236194" />
    <synapse sourceNeuronName = "16" targetNeuronName = "38" weight = "20.685594463257573" />
    <synapse sourceNeuronName = "16" targetNeuronName = "39" weight = "8.932038071134485" />
    <synapse sourceNeuronName = "16" targetNeuronName = "40" weight = "13.645499009214252" />
    <synapse sourceNeuronName = "16" targetNeuronName = "41" weight = "9.000872054221345" />
    <synapse sourceNeuronName = "16" targetNeuronName = "42" weight = "12.86420911192426" />
    <synapse sourceNeuronName = "16" targetNeuronName = "43" weight = "27.286215341540643" />
    <synapse sourceNeuronName = "16" targetNeuronName = "44" weight = "13.80639397157557" />
    <synapse sourceNeuronName = "16" targetNeuronName = "45" weight = "27.54563120150759" />
    <synapse sourceNeuronName = "16" targetNeuronName = "46" weight = "4.9154464168271295" />
    <synapse sourceNeuronName = "17" targetNeuronName = "18" weight = "27.083377994419667" />
    <synapse sourceNeuronName = "17" targetNeuronName = "19" weight = "10.11876496532708" />
    <synapse sourceNeuronName = "17" targetNeuronName = "20" weight = "26.390003799049925" />
    <synapse sourceNeuronName = "17" targetNeuronName = "21" weight = "26.561086027602986" />
    <synapse sourceNeuronName = "17" targetNeuronName = "22" weight = "0.39799745404087394" />
    <synapse sourceNeuronName = "17" targetNeuronName = "23" weight = "27.230145135431638" />
    <synapse sourceNeuronName = "17" targetNeuronName = "24" weight = "21.242957482880527" />
    <synapse sourceNeuronName = "17" targetNeuronName = "25" weight = "17.649258354597062" />
    <synapse sourceNeuronName = "17" targetNeuronName = "26" weight = "25.849601432048402" />
    <synapse sourceNeuronName = "17" targetNeuronName = "27" weight = "2.950206842080327" />
    <synapse sourceNeuronName = "17" targetNeuronName = "28" weight = "5.660468988211773" />
    <synapse sourceNeuronName = "17" targetNeuronName = "29" weight = "19.918889725940723" />
    <synapse sourceNeuronName = "17" targetNeuronName = "30" weight = "0.3733064460349409" />
    <synapse sourceNeuronName = "17" targetNeuronName = "31" weight = "4.489824224487331" />
    <synapse sourceNeuronName = "17" targetNeuronName = "32" weight = "1.9360347965585172" />
    <synapse sourceNeuronName = "17" targetNeuronName = "33" weight = "25.305508875211917" />
    <synapse sourceNeuronName = "17" targetNeuronName = "34" weight = "8.264779587433322" />
    <synapse sourceNeuronName = "17" targetNeuronName = "35" weight = "3.498240028014659" />
    <synapse sourceNeuronName = "17" targetNeuronName = "36" weight = "11.526441342645905" />
    <synapse sourceNeuronName = "17" targetNeuronName = "37" weight = "10.77323596243163" />
    <synapse sourceNeuronName = "17" targetNeuronName = "38" weight = "1.421573303215748" />
    <synapse sourceNeuronName = "17" targetNeuronName = "39" weight = "17.5071412888544" />
    <synapse sourceNeuronName = "17" targetNeuronName = "40" weight = "23.031754398057817" />
    <synapse sourceNeuronName = "17" targetNeuronName = "41" weight = "2.6699781201452453" />
    <synapse sourceNeuronName = "17" targetNeuronName = "42" weight = "20.44776330921068" />
    <synapse sourceNeuronName = "17" targetNeuronName = "43" weight = "26.302941449551803" />
    <synapse sourceNeuronName = "17" targetNeuronName = "44" weight = "16.119610078203024" />
    <synapse sourceNeuronName = "17" targetNeuronName = "45" weight = "5.913215707438533" />
    <synapse sourceNeuronName = "17" targetNeuronName = "46" weight = "16.71092546481949" />
</neuralNetwork>