<neuralNetwork>
    <neuron name = "0" type = "sensor" linkName = "Torso" />
    <neuron name = "1" type = "sensor" linkName = "Leg2" />
    <neuron name = "2" type = "sensor" linkName = "Leg3" />
    <neuron name = "3" type = "sensor" linkName = "Leg6" />
    <neuron name = "4" type = "sensor" linkName = "Leg12" />
    <neuron name = "5" type = "sensor" linkName = "Leg13" />
    <neuron name = "6" type = "sensor" linkName = "Leg14" />
    <neuron name = "7" type = "sensor" linkName = "Leg16" />
    <neuron name = "8" type = "sensor" linkName = "Leg18" />
    <neuron name = "9" type = "sensor" linkName = "Leg20" />
    <neuron name = "10" type = "sensor" linkName = "Leg22" />
    <neuron name = "11" type = "motor"  jointName = "Torso_Leg1" />
    <neuron name = "12" type = "motor"  jointName = "Leg1_Leg2" />
    <neuron name = "13" type = "motor"  jointName = "Leg1_Leg3" />
    <neuron name = "14" type = "motor"  jointName = "Leg1_Leg4" />
    <neuron name = "15" type = "motor"  jointName = "Leg3_Leg5" />
    <neuron name = "16" type = "motor"  jointName = "Torso_Leg6" />
    <neuron name = "17" type = "motor"  jointName = "Leg5_Leg7" />
    <neuron name = "18" type = "motor"  jointName = "Torso_Leg8" />
    <neuron name = "19" type = "motor"  jointName = "Leg8_Leg9" />
    <neuron name = "20" type = "motor"  jointName = "Leg4_Leg10" />
    <neuron name = "21" type = "motor"  jointName = "Leg7_Leg11" />
    <neuron name = "22" type = "motor"  jointName = "Leg4_Leg12" />
    <neuron name = "23" type = "motor"  jointName = "Leg3_Leg13" />
    <neuron name = "24" type = "motor"  jointName = "Leg9_Leg14" />
    <neuron name = "25" type = "motor"  jointName = "Leg10_Leg15" />
    <neuron name = "26" type = "motor"  jointName = "Leg13_Leg16" />
    <neuron name = "27" type = "motor"  jointName = "Leg12_Leg17" />
    <neuron name = "28" type = "motor"  jointName = "Leg16_Leg18" />
    <neuron name = "29" type = "motor"  jointName = "Leg9_Leg19" />
    <neuron name = "30" type = "motor"  jointName = "Leg14_Leg20" />
    <neuron name = "31" type = "motor"  jointName = "Leg11_Leg21" />
    <neuron name = "32" type = "motor"  jointName = "Leg9_Leg22" />
    <neuron name = "33" type = "motor"  jointName = "Leg16_Leg23" />
    <neuron name = "34" type = "motor"  jointName = "Leg19_Leg24" />
    <neuron name = "35" type = "motor"  jointName = "Leg24_Leg25" />
    <synapse sourceNeuronName = "0" targetNeuronName = "11" weight = "6.835742432263721" />
    <synapse sourceNeuronName = "0" targetNeuronName = "12" weight = "14.544738542369021" />
    <synapse sourceNeuronName = "0" targetNeuronName = "13" weight = "23.477914032970226" />
    <synapse sourceNeuronName = "0" targetNeuronName = "14" weight = "6.116207267035099" />
    <synapse sourceNeuronName = "0" targetNeuronName = "15" weight = "23.98010486291587" />
    <synapse sourceNeuronName = "0" targetNeuronName = "16" weight = "13.867994006462364" />
    <synapse sourceNeuronName = "0" targetNeuronName = "17" weight = "2.9969998867735113" />
    <synapse sourceNeuronName = "0" targetNeuronName = "18" weight = "10.043877532972932" />
    <synapse sourceNeuronName = "0" targetNeuronName = "19" weight = "0.01070150273650805" />
    <synapse sourceNeuronName = "0" targetNeuronName = "20" weight = "21.228976143451877" />
    <synapse sourceNeuronName = "0" targetNeuronName = "21" weight = "22.33885828202556" />
    <synapse sourceNeuronName = "0" targetNeuronName = "22" weight = "2.5610412370322364" />
    <synapse sourceNeuronName = "0" targetNeuronName = "23" weight = "22.560547368245114" />
    <synapse sourceNeuronName = "0" targetNeuronName = "24" weight = "20.802428995452374" />
    <synapse sourceNeuronName = "0" targetNeuronName = "25" weight = "19.093460504715573" />
    <synapse sourceNeuronName = "0" targetNeuronName = "26" weight = "17.514496850739157" />
    <synapse sourceNeuronName = "0" targetNeuronName = "27" weight = "0.3936985674468856" />
    <synapse sourceNeuronName = "0" targetNeuronName = "28" weight = "4.189197846280372" />
    <synapse sourceNeuronName = "0" targetNeuronName = "29" weight = "-0.5556069555540629" />
    <synapse sourceNeuronName = "0" targetNeuronName = "30" weight = "9.750599391605167" />
    <synapse sourceNeuronName = "0" targetNeuronName = "31" weight = "14.995211562670608" />
    <synapse sourceNeuronName = "0" targetNeuronName = "32" weight = "23.488506895625594" />
    <synapse sourceNeuronName = "0" targetNeuronName = "33" weight = "7.967385356802998" />
    <synapse sourceNeuronName = "0" targetNeuronName = "34" weight = "10.158196449607761" />
    <synapse sourceNeuronName = "0" targetNeuronName = "35" weight = "10.21209752448585" />
    <synapse sourceNeuronName = "1" targetNeuronName = "11" weight = "1.8992266609488309" />
    <synapse sourceNeuronName = "1" targetNeuronName = "12" weight = "23.512308718725574" />
    <synapse sourceNeuronName = "1" targetNeuronName = "13" weight = "11.240014468158527" />
    <synapse sourceNeuronName = "1" targetNeuronName = "14" weight = "22.533568913993246" />
    <synapse sourceNeuronName = "1" targetNeuronName = "15" weight = "9.735215484278903" />
    <synapse sourceNeuronName = "1" targetNeuronName = "16" weight = "11.113853098956165" />
    <synapse sourceNeuronName = "1" targetNeuronName = "17" weight = "-0.7684783662791091" />
    <synapse sourceNeuronName = "1" targetNeuronName = "18" weight = "8.670182410667415" />
    <synapse sourceNeuronName = "1" targetNeuronName = "19" weight = "18.722445747500046" />
    <synapse sourceNeuronName = "1" targetNeuronName = "20" weight = "5.157850877909921" />
    <synapse sourceNeuronName = "1" targetNeuronName = "21" weight = "18.033681939590387" />
    <synapse sourceNeuronName = "1" targetNeuronName = "22" weight = "5.391621891917048" />
    <synapse sourceNeuronName = "1" targetNeuronName = "23" weight = "5.3034545551586305" />
    <synapse sourceNeuronName = "1" targetNeuronName = "24" weight = "14.583284692056132" />
    <synapse sourceNeuronName = "1" targetNeuronName = "25" weight = "20.938306523549496" />
    <synapse sourceNeuronName = "1" targetNeuronName = "26" weight = "10.238865943224432" />
    <synapse sourceNeuronName = "1" targetNeuronName = "27" weight = "8.765105949098288" />
    <synapse sourceNeuronName = "1" targetNeuronName = "28" weight = "13.88283822572394" />
    <synapse sourceNeuronName = "1" targetNeuronName = "29" weight = "12.819691874986576" />
    <synapse sourceNeuronName = "1" targetNeuronName = "30" weight = "16.318522775922382" />
    <synapse sourceNeuronName = "1" targetNeuronName = "31" weight = "15.683994514399547" />
    <synapse sourceNeuronName = "1" targetNeuronName = "32" weight = "16.849358901643534" />
    <synapse sourceNeuronName = "1" targetNeuronName = "33" weight = "3.9058342485539725" />
    <synapse sourceNeuronName = "1" targetNeuronName = "34" weight = "17.717861766965882" />
    <synapse sourceNeuronName = "1" targetNeuronName = "35" weight = "2.57099502589788" />
    <synapse sourceNeuronName = "2" targetNeuronName = "11" weight = "14.407810274355546" />
    <synapse sourceNeuronName = "2" targetNeuronName = "12" weight = "4.947348341870026" />
    <synapse sourceNeuronName = "2" targetNeuronName = "13" weight = "14.676661768399015" />
    <synapse sourceNeuronName = "2" targetNeuronName = "14" weight = "4.268054081717671" />
    <synapse sourceNeuronName = "2" targetNeuronName = "15" weight = "-0.19787642085820534" />
    <synapse sourceNeuronName = "2" targetNeuronName = "16" weight = "6.3368877338650496" />
    <synapse sourceNeuronName = "2" targetNeuronName = "17" weight = "1.010840249907317" />
    <synapse sourceNeuronName = "2" targetNeuronName = "18" weight = "5.181808594883184" />
    <synapse sourceNeuronName = "2" targetNeuronName = "19" weight = "17.758012607947542" />
    <synapse sourceNeuronName = "2" targetNeuronName = "20" weight = "12.902557812779898" />
    <synapse sourceNeuronName = "2" targetNeuronName = "21" weight = "0.5016599042411594" />
    <synapse sourceNeuronName = "2" targetNeuronName = "22" weight = "18.502927023651132" />
    <synapse sourceNeuronName = "2" targetNeuronName = "23" weight = "5.051270805816528" />
    <synapse sourceNeuronName = "2" targetNeuronName = "24" weight = "10.531654775041517" />
    <synapse sourceNeuronName = "2" targetNeuronName = "25" weight = "5.231111857058913" />
    <synapse sourceNeuronName = "2" targetNeuronName = "26" weight = "11.162893047553933" />
    <synapse sourceNeuronName = "2" targetNeuronName = "27" weight = "16.899315993201796" />
    <synapse sourceNeuronName = "2" targetNeuronName = "28" weight = "13.3238862422563" />
    <synapse sourceNeuronName = "2" targetNeuronName = "29" weight = "10.717483408925766" />
    <synapse sourceNeuronName = "2" targetNeuronName = "30" weight = "12.852719133049138" />
    <synapse sourceNeuronName = "2" targetNeuronName = "31" weight = "3.931248070669728" />
    <synapse sourceNeuronName = "2" targetNeuronName = "32" weight = "9.236651299772811" />
    <synapse sourceNeuronName = "2" targetNeuronName = "33" weight = "7.779160756443044" />
    <synapse sourceNeuronName = "2" targetNeuronName = "34" weight = "6.1408599933781405" />
    <synapse sourceNeuronName = "2" targetNeuronName = "35" weight = "3.930965154508929" />
    <synapse sourceNeuronName = "3" targetNeuronName = "11" weight = "5.901887887542868" />
    <synapse sourceNeuronName = "3" targetNeuronName = "12" weight = "4.681988903388369" />
    <synapse sourceNeuronName = "3" targetNeuronName = "13" weight = "0.5562980253408716" />
    <synapse sourceNeuronName = "3" targetNeuronName = "14" weight = "20.814574482054528" />
    <synapse sourceNeuronName = "3" targetNeuronName = "15" weight = "14.954000628043083" />
    <synapse sourceNeuronName = "3" targetNeuronName = "16" weight = "-0.06075359237821176" />
    <synapse sourceNeuronName = "3" targetNeuronName = "17" weight = "-0.03228604127311818" />
    <synapse sourceNeuronName = "3" targetNeuronName = "18" weight = "23.91471854060667" />
    <synapse sourceNeuronName = "3" targetNeuronName = "19" weight = "2.7277691982261385" />
    <synapse sourceNeuronName = "3" targetNeuronName = "20" weight = "16.545073149741768" />
    <synapse sourceNeuronName = "3" targetNeuronName = "21" weight = "8.778973172125374" />
    <synapse sourceNeuronName = "3" targetNeuronName = "22" weight = "20.708264635266143" />
    <synapse sourceNeuronName = "3" targetNeuronName = "23" weight = "14.699902789400454" />
    <synapse sourceNeuronName = "3" targetNeuronName = "24" weight = "1.2652046140095083" />
    <synapse sourceNeuronName = "3" targetNeuronName = "25" weight = "19.602626651389976" />
    <synapse sourceNeuronName = "3" targetNeuronName = "26" weight = "3.9910915532966698" />
    <synapse sourceNeuronName = "3" targetNeuronName = "27" weight = "10.582546507984723" />
    <synapse sourceNeuronName = "3" targetNeuronName = "28" weight = "1.9334048036107867" />
    <synapse sourceNeuronName = "3" targetNeuronName = "29" weight = "17.367706560938576" />
    <synapse sourceNeuronName = "3" targetNeuronName = "30" weight = "5.057397740217637" />
    <synapse sourceNeuronName = "3" targetNeuronName = "31" weight = "5.114720436830709" />
    <synapse sourceNeuronName = "3" targetNeuronName = "32" weight = "21.763656171219253" />
    <synapse sourceNeuronName = "3" targetNeuronName = "33" weight = "13.818152707353274" />
    <synapse sourceNeuronName = "3" targetNeuronName = "34" weight = "7.556732409319812" />
    <synapse sourceNeuronName = "3" targetNeuronName = "35" weight = "-0.7482209620281779" />
    <synapse sourceNeuronName = "4" targetNeuronName = "11" weight = "-0.7695242901569357" />
    <synapse sourceNeuronName = "4" targetNeuronName = "12" weight = "19.77488741178347" />
    <synapse sourceNeuronName = "4" targetNeuronName = "13" weight = "12.483584879966651" />
    <synapse sourceNeuronName = "4" targetNeuronName = "14" weight = "0.07036110139703" />
    <synapse sourceNeuronName = "4" targetNeuronName = "15" weight = "15.494322144916236" />
    <synapse sourceNeuronName = "4" targetNeuronName = "16" weight = "1.9034448543371671" />
    <synapse sourceNeuronName = "4" targetNeuronName = "17" weight = "20.89250112888179" />
    <synapse sourceNeuronName = "4" targetNeuronName = "18" weight = "17.67736130681219" />
    <synapse sourceNeuronName = "4" targetNeuronName = "19" weight = "0.18443586823197267" />
    <synapse sourceNeuronName = "4" targetNeuronName = "20" weight = "9.105990640193008" />
    <synapse sourceNeuronName = "4" targetNeuronName = "21" weight = "17.917024942706075" />
    <synapse sourceNeuronName = "4" targetNeuronName = "22" weight = "0.6072544508219766" />
    <synapse sourceNeuronName = "4" targetNeuronName = "23" weight = "9.0308481884159" />
    <synapse sourceNeuronName = "4" targetNeuronName = "24" weight = "2.7709752429674976" />
    <synapse sourceNeuronName = "4" targetNeuronName = "25" weight = "5.947803261657476" />
    <synapse sourceNeuronName = "4" targetNeuronName = "26" weight = "12.465948300522282" />
    <synapse sourceNeuronName = "4" targetNeuronName = "27" weight = "1.1769300191501335" />
    <synapse sourceNeuronName = "4" targetNeuronName = "28" weight = "18.315383329265526" />
    <synapse sourceNeuronName = "4" targetNeuronName = "29" weight = "23.8029892121197" />
    <synapse sourceNeuronName = "4" targetNeuronName = "30" weight = "6.619723611516335" />
    <synapse sourceNeuronName = "4" targetNeuronName = "31" weight = "14.012512923409663" />
    <synapse sourceNeuronName = "4" targetNeuronName = "32" weight = "20.226268840870517" />
    <synapse sourceNeuronName = "4" targetNeuronName = "33" weight = "14.066811028361226" />
    <synapse sourceNeuronName = "4" targetNeuronName = "34" weight = "10.30578566142158" />
    <synapse sourceNeuronName = "4" targetNeuronName = "35" weight = "13.09143894923574" />
    <synapse sourceNeuronName = "5" targetNeuronName = "11" weight = "-0.9832575954284375" />
    <synapse sourceNeuronName = "5" targetNeuronName = "12" weight = "13.193634950545315" />
    <synapse sourceNeuronName = "5" targetNeuronName = "13" weight = "0.5647021758991824" />
    <synapse sourceNeuronName = "5" targetNeuronName = "14" weight = "-0.3226089056631761" />
    <synapse sourceNeuronName = "5" targetNeuronName = "15" weight = "21.830611255338727" />
    <synapse sourceNeuronName = "5" targetNeuronName = "16" weight = "6.0718320599880204" />
    <synapse sourceNeuronName = "5" targetNeuronName = "17" weight = "2.7909787461054196" />
    <synapse sourceNeuronName = "5" targetNeuronName = "18" weight = "2.844028702006694" />
    <synapse sourceNeuronName = "5" targetNeuronName = "19" weight = "3.8717231870224973" />
    <synapse sourceNeuronName = "5" targetNeuronName = "20" weight = "1.76685928923526" />
    <synapse sourceNeuronName = "5" targetNeuronName = "21" weight = "18.422202215915693" />
    <synapse sourceNeuronName = "5" targetNeuronName = "22" weight = "9.127894907431168" />
    <synapse sourceNeuronName = "5" targetNeuronName = "23" weight = "20.253058968298596" />
    <synapse sourceNeuronName = "5" targetNeuronName = "24" weight = "18.47201013581435" />
    <synapse sourceNeuronName = "5" targetNeuronName = "25" weight = "18.09981756012088" />
    <synapse sourceNeuronName = "5" targetNeuronName = "26" weight = "9.350176289087521" />
    <synapse sourceNeuronName = "5" targetNeuronName = "27" weight = "11.54159860405829" />
    <synapse sourceNeuronName = "5" targetNeuronName = "28" weight = "-0.7984242607830807" />
    <synapse sourceNeuronName = "5" targetNeuronName = "29" weight = "4.346044844168659" />
    <synapse sourceNeuronName = "5" targetNeuronName = "30" weight = "16.078842295220102" />
    <synapse sourceNeuronName = "5" targetNeuronName = "31" weight = "1.3881475098694538" />
    <synapse sourceNeuronName = "5" targetNeuronName = "32" weight = "7.513931588565956" />
    <synapse sourceNeuronName = "5" targetNeuronName = "33" weight = "-0.0532289278728717" />
    <synapse sourceNeuronName = "5" targetNeuronName = "34" weight = "10.682558969327717" />
    <synapse sourceNeuronName = "5" targetNeuronName = "35" weight = "5.368861576642038" />
    <synapse sourceNeuronName = "6" targetNeuronName = "11" weight = "5.65156217416363" />
    <synapse sourceNeuronName = "6" targetNeuronName = "12" weight = "15.145432226948571" />
    <synapse sourceNeuronName = "6" targetNeuronName = "13" weight = "11.034354520389112" />
    <synapse sourceNeuronName = "6" targetNeuronName = "14" weight = "2.139771637234065" />
    <synapse sourceNeuronName = "6" targetNeuronName = "15" weight = "13.629210477549073" />
    <synapse sourceNeuronName = "6" targetNeuronName = "16" weight = "3.2418328306859543" />
    <synapse sourceNeuronName = "6" targetNeuronName = "17" weight = "19.604416945699704" />
    <synapse sourceNeuronName = "6" targetNeuronName = "18" weight = "15.431647741593967" />
    <synapse sourceNeuronName = "6" targetNeuronName = "19" weight = "22.794058007773923" />
    <synapse sourceNeuronName = "6" targetNeuronName = "20" weight = "8.044686756930103" />
    <synapse sourceNeuronName = "6" targetNeuronName = "21" weight = "21.210984029215343" />
    <synapse sourceNeuronName = "6" targetNeuronName = "22" weight = "9.826657443058727" />
    <synapse sourceNeuronName = "6" targetNeuronName = "23" weight = "22.59411045923905" />
    <synapse sourceNeuronName = "6" targetNeuronName = "24" weight = "0.5764903080790345" />
    <synapse sourceNeuronName = "6" targetNeuronName = "25" weight = "3.416933827978589" />
    <synapse sourceNeuronName = "6" targetNeuronName = "26" weight = "14.143131987820507" />
    <synapse sourceNeuronName = "6" targetNeuronName = "27" weight = "20.666953961384934" />
    <synapse sourceNeuronName = "6" targetNeuronName = "28" weight = "23.05055517540315" />
    <synapse sourceNeuronName = "6" targetNeuronName = "29" weight = "3.9233652139944875" />
    <synapse sourceNeuronName = "6" targetNeuronName = "30" weight = "11.220088682828056" />
    <synapse sourceNeuronName = "6" targetNeuronName = "31" weight = "11.059362525358255" />
    <synapse sourceNeuronName = "6" targetNeuronName = "32" weight = "12.033081911233449" />
    <synapse sourceNeuronName = "6" targetNeuronName = "33" weight = "5.500991332634584" />
    <synapse sourceNeuronName = "6" targetNeuronName = "34" weight = "12.804836887840164" />
    <synapse sourceNeuronName = "6" targetNeuronName = "35" weight = "4.777577835643344" />
    <synapse sourceNeuronName = "7" targetNeuronName = "11" weight = "2.924228765252749" />
    <synapse sourceNeuronName = "7" targetNeuronName = "12" weight = "19.338080498201716" />
    <synapse sourceNeuronName = "7" targetNeuronName = "13" weight = "1.319759984246836" />
    <synapse sourceNeuronName = "7" targetNeuronName = "14" weight = "21.43098058906944" />
    <synapse sourceNeuronName = "7" targetNeuronName = "15" weight = "9.225243952597285" />
    <synapse sourceNeuronName = "7" targetNeuronName = "16" weight = "23.546803035038415" />
    <synapse sourceNeuronName = "7" targetNeuronName = "17" weight = "11.500975981994934" />
    <synapse sourceNeuronName = "7" targetNeuronName = "18" weight = "9.147699802869624" />
    <synapse sourceNeuronName = "7" targetNeuronName = "19" weight = "15.72313801684431" />
    <synapse sourceNeuronName = "7" targetNeuronName = "20" weight = "-0.05940284927202133" />
    <synapse sourceNeuronName = "7" targetNeuronName = "21" weight = "21.709367921010674" />
    <synapse sourceNeuronName = "7" targetNeuronName = "22" weight = "4.5304199914501195" />
    <synapse sourceNeuronName = "7" targetNeuronName = "23" weight = "-0.8302316997440736" />
    <synapse sourceNeuronName = "7" targetNeuronName = "24" weight = "15.05606099906516" />
    <synapse sourceNeuronName = "7" targetNeuronName = "25" weight = "18.871642473767174" />
    <synapse sourceNeuronName = "7" targetNeuronName = "26" weight = "3.4384545299249956" />
    <synapse sourceNeuronName = "7" targetNeuronName = "27" weight = "20.109214691143116" />
    <synapse sourceNeuronName = "7" targetNeuronName = "28" weight = "-0.3979955892879713" />
    <synapse sourceNeuronName = "7" targetNeuronName = "29" weight = "15.611191709782723" />
    <synapse sourceNeuronName = "7" targetNeuronName = "30" weight = "10.40235760706573" />
    <synapse sourceNeuronName = "7" targetNeuronName = "31" weight = "2.001491921437438" />
    <synapse sourceNeuronName = "7" targetNeuronName = "32" weight = "9.282658650846113" />
    <synapse sourceNeuronName = "7" targetNeuronName = "33" weight = "20.584243695857705" />
    <synapse sourceNeuronName = "7" targetNeuronName = "34" weight = "15.597388830395111" />
    <synapse sourceNeuronName = "7" targetNeuronName = "35" weight = "6.199970987253915" />
    <synapse sourceNeuronName = "8" targetNeuronName = "11" weight = "2.33818052154316" />
    <synapse sourceNeuronName = "8" targetNeuronName = "12" weight = "5.2136756589649265" />
    <synapse sourceNeuronName = "8" targetNeuronName = "13" weight = "4.002682630491953" />
    <synapse sourceNeuronName = "8" targetNeuronName = "14" weight = "5.898140990273949" />
    <synapse sourceNeuronName = "8" targetNeuronName = "15" weight = "20.071561360847394" />
    <synapse sourceNeuronName = "8" targetNeuronName = "16" weight = "2.599096644085495" />
    <synapse sourceNeuronName = "8" targetNeuronName = "17" weight = "23.432054850540602" />
    <synapse sourceNeuronName = "8" targetNeuronName = "18" weight = "13.12861248430484" />
    <synapse sourceNeuronName = "8" targetNeuronName = "19" weight = "18.132415438132764" />
    <synapse sourceNeuronName = "8" targetNeuronName = "20" weight = "23.34334777391195" />
    <synapse sourceNeuronName = "8" targetNeuronName = "21" weight = "6.530335084153905" />
    <synapse sourceNeuronName = "8" targetNeuronName = "22" weight = "3.25977321300598" />
    <synapse sourceNeuronName = "8" targetNeuronName = "23" weight = "13.297786801353443" />
    <synapse sourceNeuronName = "8" targetNeuronName = "24" weight = "20.47382391133032" />
    <synapse sourceNeuronName = "8" targetNeuronName = "25" weight = "23.762747062601758" />
    <synapse sourceNeuronName = "8" targetNeuronName = "26" weight = "4.658020215463991" />
    <synapse sourceNeuronName = "8" targetNeuronName = "27" weight = "16.45985038806044" />
    <synapse sourceNeuronName = "8" targetNeuronName = "28" weight = "13.21031989408847" />
    <synapse sourceNeuronName = "8" targetNeuronName = "29" weight = "4.861212648825023" />
    <synapse sourceNeuronName = "8" targetNeuronName = "30" weight = "22.317441109440036" />
    <synapse sourceNeuronName = "8" targetNeuronName = "31" weight = "0.5233053583049494" />
    <synapse sourceNeuronName = "8" targetNeuronName = "32" weight = "16.31849619285633" />
    <synapse sourceNeuronName = "8" targetNeuronName = "33" weight = "20.162691691934697" />
    <synapse sourceNeuronName = "8" targetNeuronName = "34" weight = "23.383656919971173" />
    <synapse sourceNeuronName = "8" targetNeuronName = "35" weight = "9.461050294854418" />
    <synapse sourceNeuronName = "9" targetNeuronName = "11" weight = "3.831488372888792" />
    <synapse sourceNeuronName = "9" targetNeuronName = "12" weight = "20.495264637224786" />
    <synapse sourceNeuronName = "9" targetNeuronName = "13" weight = "13.752668596971214" />
    <synapse sourceNeuronName = "9" targetNeuronName = "14" weight = "2.2457345859312174" />
    <synapse sourceNeuronName = "9" targetNeuronName = "15" weight = "19.071683624018746" />
    <synapse sourceNeuronName = "9" targetNeuronName = "16" weight = "14.560017592917607" />
    <synapse sourceNeuronName = "9" targetNeuronName = "17" weight = "22.343681607032334" />
    <synapse sourceNeuronName = "9" targetNeuronName = "18" weight = "21.345219556569855" />
    <synapse sourceNeuronName = "9" targetNeuronName = "19" weight = "16.393976126369985" />
    <synapse sourceNeuronName = "9" targetNeuronName = "20" weight = "22.161767426333125" />
    <synapse sourceNeuronName = "9" targetNeuronName = "21" weight = "0.5239824896028376" />
    <synapse sourceNeuronName = "9" targetNeuronName = "22" weight = "-0.3188928839652624" />
    <synapse sourceNeuronName = "9" targetNeuronName = "23" weight = "8.637255801155911" />
    <synapse sourceNeuronName = "9" targetNeuronName = "24" weight = "9.040670336653978" />
    <synapse sourceNeuronName = "9" targetNeuronName = "25" weight = "23.999383376861743" />
    <synapse sourceNeuronName = "9" targetNeuronName = "26" weight = "9.707503607379893" />
    <synapse sourceNeuronName = "9" targetNeuronName = "27" weight = "6.107705458320912" />
    <synapse sourceNeuronName = "9" targetNeuronName = "28" weight = "19.130460134958422" />
    <synapse sourceNeuronName = "9" targetNeuronName = "29" weight = "7.8165262416539605" />
    <synapse sourceNeuronName = "9" targetNeuronName = "30" weight = "23.089993224282473" />
    <synapse sourceNeuronName = "9" targetNeuronName = "31" weight = "16.49834147723913" />
    <synapse sourceNeuronName = "9" targetNeuronName = "32" weight = "1.461911917773707" />
    <synapse sourceNeuronName = "9" targetNeuronName = "33" weight = "9.849490047715008" />
    <synapse sourceNeuronName = "9" targetNeuronName = "34" weight = "23.928692633872863" />
    <synapse sourceNeuronName = "9" targetNeuronName = "35" weight = "3.15434281035712" />
    <synapse sourceNeuronName = "10" targetNeuronName = "11" weight = "23.568872051833303" />
    <synapse sourceNeuronName = "10" targetNeuronName = "12" weight = "23.832823495787064" />
    <synapse sourceNeuronName = "10" targetNeuronName = "13" weight = "9.24459205635945" />
    <synapse sourceNeuronName = "10" targetNeuronName = "14" weight = "11.466550940563526" />
    <synapse sourceNeuronName = "10" targetNeuronName = "15" weight = "-0.7405699792652839" />
    <synapse sourceNeuronName = "10" targetNeuronName = "16" weight = "13.02583293836146" />
    <synapse sourceNeuronName = "10" targetNeuronName = "17" weight = "-0.5170411209428146" />
    <synapse sourceNeuronName = "10" targetNeuronName = "18" weight = "10.749250273489437" />
    <synapse sourceNeuronName = "10" targetNeuronName = "19" weight = "0.2913165538253364" />
    <synapse sourceNeuronName = "10" targetNeuronName = "20" weight = "9.726061417351623" />
    <synapse sourceNeuronName = "10" targetNeuronName = "21" weight = "17.324492795742607" />
    <synapse sourceNeuronName = "10" targetNeuronName = "22" weight = "19.86343552204438" />
    <synapse sourceNeuronName = "10" targetNeuronName = "23" weight = "14.793349411339058" />
    <synapse sourceNeuronName = "10" targetNeuronName = "24" weight = "17.666352480757297" />
    <synapse sourceNeuronName = "10" targetNeuronName = "25" weight = "0.6107562612155597" />
    <synapse sourceNeuronName = "10" targetNeuronName = "26" weight = "2.082747426010843" />
    <synapse sourceNeuronName = "10" targetNeuronName = "27" weight = "7.774315126567517" />
    <synapse sourceNeuronName = "10" targetNeuronName = "28" weight = "22.170397218207356" />
    <synapse sourceNeuronName = "10" targetNeuronName = "29" weight = "12.006058745693801" />
    <synapse sourceNeuronName = "10" targetNeuronName = "30" weight = "4.133090957704117" />
    <synapse sourceNeuronName = "10" targetNeuronName = "31" weight = "12.779264336982216" />
    <synapse sourceNeuronName = "10" targetNeuronName = "32" weight = "21.141687690487082" />
    <synapse sourceNeuronName = "10" targetNeuronName = "33" weight = "23.853254100862337" />
    <synapse sourceNeuronName = "10" targetNeuronName = "34" weight = "2.392312449431656" />
    <synapse sourceNeuronName = "10" targetNeuronName = "35" weight = "18.530234596438305" />
</neuralNetwork>