<neuralNetwork>
    <neuron name = "0" type = "sensor" linkName = "Torso" />
    <neuron name = "1" type = "sensor" linkName = "Leg2" />
    <neuron name = "2" type = "sensor" linkName = "Leg4" />
    <neuron name = "3" type = "sensor" linkName = "Leg6" />
    <neuron name = "4" type = "sensor" linkName = "Leg8" />
    <neuron name = "5" type = "sensor" linkName = "Leg9" />
    <neuron name = "6" type = "sensor" linkName = "Leg10" />
    <neuron name = "7" type = "sensor" linkName = "Leg12" />
    <neuron name = "8" type = "sensor" linkName = "Leg14" />
    <neuron name = "9" type = "sensor" linkName = "Leg16" />
    <neuron name = "10" type = "sensor" linkName = "Leg17" />
    <neuron name = "11" type = "sensor" linkName = "Leg19" />
    <neuron name = "12" type = "sensor" linkName = "Leg20" />
    <neuron name = "13" type = "sensor" linkName = "Leg21" />
    <neuron name = "14" type = "sensor" linkName = "Leg22" />
    <neuron name = "15" type = "sensor" linkName = "Leg24" />
    <neuron name = "16" type = "motor"  jointName = "Torso_Leg1" />
    <neuron name = "17" type = "motor"  jointName = "Torso_Leg2" />
    <neuron name = "18" type = "motor"  jointName = "Leg1_Leg3" />
    <neuron name = "19" type = "motor"  jointName = "Leg3_Leg4" />
    <neuron name = "20" type = "motor"  jointName = "Leg3_Leg5" />
    <neuron name = "21" type = "motor"  jointName = "Torso_Leg6" />
    <neuron name = "22" type = "motor"  jointName = "Leg6_Leg7" />
    <neuron name = "23" type = "motor"  jointName = "Leg3_Leg8" />
    <neuron name = "24" type = "motor"  jointName = "Leg7_Leg9" />
    <neuron name = "25" type = "motor"  jointName = "Leg2_Leg10" />
    <neuron name = "26" type = "motor"  jointName = "Leg6_Leg11" />
    <neuron name = "27" type = "motor"  jointName = "Leg1_Leg12" />
    <neuron name = "28" type = "motor"  jointName = "Leg12_Leg13" />
    <neuron name = "29" type = "motor"  jointName = "Leg2_Leg14" />
    <neuron name = "30" type = "motor"  jointName = "Leg12_Leg15" />
    <neuron name = "31" type = "motor"  jointName = "Leg15_Leg16" />
    <neuron name = "32" type = "motor"  jointName = "Leg2_Leg17" />
    <neuron name = "33" type = "motor"  jointName = "Leg16_Leg18" />
    <neuron name = "34" type = "motor"  jointName = "Leg18_Leg19" />
    <neuron name = "35" type = "motor"  jointName = "Leg4_Leg20" />
    <neuron name = "36" type = "motor"  jointName = "Leg13_Leg21" />
    <neuron name = "37" type = "motor"  jointName = "Leg9_Leg22" />
    <neuron name = "38" type = "motor"  jointName = "Leg14_Leg23" />
    <neuron name = "39" type = "motor"  jointName = "Leg23_Leg24" />
    <synapse sourceNeuronName = "0" targetNeuronName = "16" weight = "10.71946538652432" />
    <synapse sourceNeuronName = "0" targetNeuronName = "17" weight = "8.986191418394156" />
    <synapse sourceNeuronName = "0" targetNeuronName = "18" weight = "0.7806304984048973" />
    <synapse sourceNeuronName = "0" targetNeuronName = "19" weight = "3.885610911984876" />
    <synapse sourceNeuronName = "0" targetNeuronName = "20" weight = "17.50915221257626" />
    <synapse sourceNeuronName = "0" targetNeuronName = "21" weight = "-0.1176468213586368" />
    <synapse sourceNeuronName = "0" targetNeuronName = "22" weight = "7.356242387773548" />
    <synapse sourceNeuronName = "0" targetNeuronName = "23" weight = "3.2426650105188886" />
    <synapse sourceNeuronName = "0" targetNeuronName = "24" weight = "12.98169017510746" />
    <synapse sourceNeuronName = "0" targetNeuronName = "25" weight = "5.437112251037967" />
    <synapse sourceNeuronName = "0" targetNeuronName = "26" weight = "9.286880119737152" />
    <synapse sourceNeuronName = "0" targetNeuronName = "27" weight = "13.079382900340626" />
    <synapse sourceNeuronName = "0" targetNeuronName = "28" weight = "10.04506305022599" />
    <synapse sourceNeuronName = "0" targetNeuronName = "29" weight = "8.489025849351517" />
    <synapse sourceNeuronName = "0" targetNeuronName = "30" weight = "20.77270212255666" />
    <synapse sourceNeuronName = "0" targetNeuronName = "31" weight = "13.689694033701393" />
    <synapse sourceNeuronName = "0" targetNeuronName = "32" weight = "5.081214397161577" />
    <synapse sourceNeuronName = "0" targetNeuronName = "33" weight = "0.7856665967068004" />
    <synapse sourceNeuronName = "0" targetNeuronName = "34" weight = "3.3555063420855893" />
    <synapse sourceNeuronName = "0" targetNeuronName = "35" weight = "17.882783424070794" />
    <synapse sourceNeuronName = "0" targetNeuronName = "36" weight = "12.095542255328407" />
    <synapse sourceNeuronName = "0" targetNeuronName = "37" weight = "10.513644133003188" />
    <synapse sourceNeuronName = "0" targetNeuronName = "38" weight = "11.89501454977524" />
    <synapse sourceNeuronName = "0" targetNeuronName = "39" weight = "4.065513533181259" />
    <synapse sourceNeuronName = "1" targetNeuronName = "16" weight = "4.97268172101942" />
    <synapse sourceNeuronName = "1" targetNeuronName = "17" weight = "14.245160575562538" />
    <synapse sourceNeuronName = "1" targetNeuronName = "18" weight = "0.4744897231672853" />
    <synapse sourceNeuronName = "1" targetNeuronName = "19" weight = "9.860796848331347" />
    <synapse sourceNeuronName = "1" targetNeuronName = "20" weight = "7.669250640518747" />
    <synapse sourceNeuronName = "1" targetNeuronName = "21" weight = "2.914296101926621" />
    <synapse sourceNeuronName = "1" targetNeuronName = "22" weight = "-0.2875530177070704" />
    <synapse sourceNeuronName = "1" targetNeuronName = "23" weight = "-0.21191004018481507" />
    <synapse sourceNeuronName = "1" targetNeuronName = "24" weight = "0.647633875767764" />
    <synapse sourceNeuronName = "1" targetNeuronName = "25" weight = "21.73707983702652" />
    <synapse sourceNeuronName = "1" targetNeuronName = "26" weight = "17.95620243470563" />
    <synapse sourceNeuronName = "1" targetNeuronName = "27" weight = "7.989967582586161" />
    <synapse sourceNeuronName = "1" targetNeuronName = "28" weight = "16.404301827888016" />
    <synapse sourceNeuronName = "1" targetNeuronName = "29" weight = "13.188737241448454" />
    <synapse sourceNeuronName = "1" targetNeuronName = "30" weight = "21.284551623290916" />
    <synapse sourceNeuronName = "1" targetNeuronName = "31" weight = "15.904851825218675" />
    <synapse sourceNeuronName = "1" targetNeuronName = "32" weight = "14.537314791463563" />
    <synapse sourceNeuronName = "1" targetNeuronName = "33" weight = "14.732697563750357" />
    <synapse sourceNeuronName = "1" targetNeuronName = "34" weight = "8.38923011374441" />
    <synapse sourceNeuronName = "1" targetNeuronName = "35" weight = "21.741992937546776" />
    <synapse sourceNeuronName = "1" targetNeuronName = "36" weight = "15.515639893672294" />
    <synapse sourceNeuronName = "1" targetNeuronName = "37" weight = "-0.45089353080275796" />
    <synapse sourceNeuronName = "1" targetNeuronName = "38" weight = "8.122948084626824" />
    <synapse sourceNeuronName = "1" targetNeuronName = "39" weight = "11.69286313924129" />
    <synapse sourceNeuronName = "2" targetNeuronName = "16" weight = "1.2470965281513404" />
    <synapse sourceNeuronName = "2" targetNeuronName = "17" weight = "18.136712381155043" />
    <synapse sourceNeuronName = "2" targetNeuronName = "18" weight = "17.01745405611007" />
    <synapse sourceNeuronName = "2" targetNeuronName = "19" weight = "7.4805574100709435" />
    <synapse sourceNeuronName = "2" targetNeuronName = "20" weight = "13.029079173182907" />
    <synapse sourceNeuronName = "2" targetNeuronName = "21" weight = "16.409854833731018" />
    <synapse sourceNeuronName = "2" targetNeuronName = "22" weight = "1.629471428027399" />
    <synapse sourceNeuronName = "2" targetNeuronName = "23" weight = "16.720610758661955" />
    <synapse sourceNeuronName = "2" targetNeuronName = "24" weight = "13.009563874177406" />
    <synapse sourceNeuronName = "2" targetNeuronName = "25" weight = "20.201856522947708" />
    <synapse sourceNeuronName = "2" targetNeuronName = "26" weight = "15.48474376429052" />
    <synapse sourceNeuronName = "2" targetNeuronName = "27" weight = "1.6427209462287715" />
    <synapse sourceNeuronName = "2" targetNeuronName = "28" weight = "0.4932270950918456" />
    <synapse sourceNeuronName = "2" targetNeuronName = "29" weight = "3.467391112009669" />
    <synapse sourceNeuronName = "2" targetNeuronName = "30" weight = "17.62172784778079" />
    <synapse sourceNeuronName = "2" targetNeuronName = "31" weight = "2.6952069177080684" />
    <synapse sourceNeuronName = "2" targetNeuronName = "32" weight = "22.81691591992849" />
    <synapse sourceNeuronName = "2" targetNeuronName = "33" weight = "19.571451525389033" />
    <synapse sourceNeuronName = "2" targetNeuronName = "34" weight = "13.092357498865585" />
    <synapse sourceNeuronName = "2" targetNeuronName = "35" weight = "1.9343942702614783" />
    <synapse sourceNeuronName = "2" targetNeuronName = "36" weight = "7.760231097278165" />
    <synapse sourceNeuronName = "2" targetNeuronName = "37" weight = "-0.41931384727879895" />
    <synapse sourceNeuronName = "2" targetNeuronName = "38" weight = "2.667417222468619" />
    <synapse sourceNeuronName = "2" targetNeuronName = "39" weight = "18.773914596797454" />
    <synapse sourceNeuronName = "3" targetNeuronName = "16" weight = "22.224882788264022" />
    <synapse sourceNeuronName = "3" targetNeuronName = "17" weight = "20.476726073510793" />
    <synapse sourceNeuronName = "3" targetNeuronName = "18" weight = "17.814486099161854" />
    <synapse sourceNeuronName = "3" targetNeuronName = "19" weight = "0.6529449393436222" />
    <synapse sourceNeuronName = "3" targetNeuronName = "20" weight = "19.522757011709373" />
    <synapse sourceNeuronName = "3" targetNeuronName = "21" weight = "19.453107533848936" />
    <synapse sourceNeuronName = "3" targetNeuronName = "22" weight = "7.24854400423394" />
    <synapse sourceNeuronName = "3" targetNeuronName = "23" weight = "3.294479572283814" />
    <synapse sourceNeuronName = "3" targetNeuronName = "24" weight = "10.053204570968031" />
    <synapse sourceNeuronName = "3" targetNeuronName = "25" weight = "3.102637353189704" />
    <synapse sourceNeuronName = "3" targetNeuronName = "26" weight = "21.788196338372316" />
    <synapse sourceNeuronName = "3" targetNeuronName = "27" weight = "8.143383694452005" />
    <synapse sourceNeuronName = "3" targetNeuronName = "28" weight = "1.3405926653174207" />
    <synapse sourceNeuronName = "3" targetNeuronName = "29" weight = "19.439557081987747" />
    <synapse sourceNeuronName = "3" targetNeuronName = "30" weight = "5.767579456377859" />
    <synapse sourceNeuronName = "3" targetNeuronName = "31" weight = "6.8343974866910555" />
    <synapse sourceNeuronName = "3" targetNeuronName = "32" weight = "11.668907820514654" />
    <synapse sourceNeuronName = "3" targetNeuronName = "33" weight = "19.691504515078705" />
    <synapse sourceNeuronName = "3" targetNeuronName = "34" weight = "15.101467064149201" />
    <synapse sourceNeuronName = "3" targetNeuronName = "35" weight = "10.256841824325576" />
    <synapse sourceNeuronName = "3" targetNeuronName = "36" weight = "5.845822512729522" />
    <synapse sourceNeuronName = "3" targetNeuronName = "37" weight = "6.8887243200840365" />
    <synapse sourceNeuronName = "3" targetNeuronName = "38" weight = "7.447579352124841" />
    <synapse sourceNeuronName = "3" targetNeuronName = "39" weight = "10.940714432919393" />
    <synapse sourceNeuronName = "4" targetNeuronName = "16" weight = "5.997583802967823" />
    <synapse sourceNeuronName = "4" targetNeuronName = "17" weight = "22.438097166754286" />
    <synapse sourceNeuronName = "4" targetNeuronName = "18" weight = "-0.6981147508664183" />
    <synapse sourceNeuronName = "4" targetNeuronName = "19" weight = "0.047687895229717725" />
    <synapse sourceNeuronName = "4" targetNeuronName = "20" weight = "20.86016537692168" />
    <synapse sourceNeuronName = "4" targetNeuronName = "21" weight = "1.9247155098427777" />
    <synapse sourceNeuronName = "4" targetNeuronName = "22" weight = "4.610731728011983" />
    <synapse sourceNeuronName = "4" targetNeuronName = "23" weight = "2.3836646031867126" />
    <synapse sourceNeuronName = "4" targetNeuronName = "24" weight = "10.90221267905502" />
    <synapse sourceNeuronName = "4" targetNeuronName = "25" weight = "8.840175137166057" />
    <synapse sourceNeuronName = "4" targetNeuronName = "26" weight = "14.369368144852547" />
    <synapse sourceNeuronName = "4" targetNeuronName = "27" weight = "18.25813505958356" />
    <synapse sourceNeuronName = "4" targetNeuronName = "28" weight = "7.556960054390297" />
    <synapse sourceNeuronName = "4" targetNeuronName = "29" weight = "9.715574256881046" />
    <synapse sourceNeuronName = "4" targetNeuronName = "30" weight = "-0.44686493835677155" />
    <synapse sourceNeuronName = "4" targetNeuronName = "31" weight = "14.203279911648044" />
    <synapse sourceNeuronName = "4" targetNeuronName = "32" weight = "21.433322494071405" />
    <synapse sourceNeuronName = "4" targetNeuronName = "33" weight = "8.175415585691884" />
    <synapse sourceNeuronName = "4" targetNeuronName = "34" weight = "7.848163110978064" />
    <synapse sourceNeuronName = "4" targetNeuronName = "35" weight = "9.036821265023647" />
    <synapse sourceNeuronName = "4" targetNeuronName = "36" weight = "9.570016744189262" />
    <synapse sourceNeuronName = "4" targetNeuronName = "37" weight = "10.003514889168748" />
    <synapse sourceNeuronName = "4" targetNeuronName = "38" weight = "0.0026586119167202327" />
    <synapse sourceNeuronName = "4" targetNeuronName = "39" weight = "21.976766606978842" />
    <synapse sourceNeuronName = "5" targetNeuronName = "16" weight = "9.93806737323177" />
    <synapse sourceNeuronName = "5" targetNeuronName = "17" weight = "8.463624318548494" />
    <synapse sourceNeuronName = "5" targetNeuronName = "18" weight = "19.537940764231806" />
    <synapse sourceNeuronName = "5" targetNeuronName = "19" weight = "-0.4777684563041449" />
    <synapse sourceNeuronName = "5" targetNeuronName = "20" weight = "16.630120338829254" />
    <synapse sourceNeuronName = "5" targetNeuronName = "21" weight = "20.285427461509485" />
    <synapse sourceNeuronName = "5" targetNeuronName = "22" weight = "-0.35871788368158963" />
    <synapse sourceNeuronName = "5" targetNeuronName = "23" weight = "6.963779264402527" />
    <synapse sourceNeuronName = "5" targetNeuronName = "24" weight = "8.511063711308257" />
    <synapse sourceNeuronName = "5" targetNeuronName = "25" weight = "20.610838662573727" />
    <synapse sourceNeuronName = "5" targetNeuronName = "26" weight = "9.421113069524218" />
    <synapse sourceNeuronName = "5" targetNeuronName = "27" weight = "-0.775753914748158" />
    <synapse sourceNeuronName = "5" targetNeuronName = "28" weight = "22.436467868465165" />
    <synapse sourceNeuronName = "5" targetNeuronName = "29" weight = "6.799874678565897" />
    <synapse sourceNeuronName = "5" targetNeuronName = "30" weight = "21.871465220715265" />
    <synapse sourceNeuronName = "5" targetNeuronName = "31" weight = "5.596220001269715" />
    <synapse sourceNeuronName = "5" targetNeuronName = "32" weight = "21.695201676108468" />
    <synapse sourceNeuronName = "5" targetNeuronName = "33" weight = "17.73164109748829" />
    <synapse sourceNeuronName = "5" targetNeuronName = "34" weight = "0.013901171147631786" />
    <synapse sourceNeuronName = "5" targetNeuronName = "35" weight = "10.860910235160322" />
    <synapse sourceNeuronName = "5" targetNeuronName = "36" weight = "15.2432701150336" />
    <synapse sourceNeuronName = "5" targetNeuronName = "37" weight = "18.836779507468485" />
    <synapse sourceNeuronName = "5" targetNeuronName = "38" weight = "3.055431876344212" />
    <synapse sourceNeuronName = "5" targetNeuronName = "39" weight = "1.8510144586247153" />
    <synapse sourceNeuronName = "6" targetNeuronName = "16" weight = "17.092575424202714" />
    <synapse sourceNeuronName = "6" targetNeuronName = "17" weight = "5.624007862187643" />
    <synapse sourceNeuronName = "6" targetNeuronName = "18" weight = "22.2360804382691" />
    <synapse sourceNeuronName = "6" targetNeuronName = "19" weight = "4.386978828123326" />
    <synapse sourceNeuronName = "6" targetNeuronName = "20" weight = "-0.16000930257110735" />
    <synapse sourceNeuronName = "6" targetNeuronName = "21" weight = "19.212580408212386" />
    <synapse sourceNeuronName = "6" targetNeuronName = "22" weight = "21.763142457163564" />
    <synapse sourceNeuronName = "6" targetNeuronName = "23" weight = "2.368417551416461" />
    <synapse sourceNeuronName = "6" targetNeuronName = "24" weight = "-0.8360605867152149" />
    <synapse sourceNeuronName = "6" targetNeuronName = "25" weight = "7.670076946934717" />
    <synapse sourceNeuronName = "6" targetNeuronName = "26" weight = "16.08518221953134" />
    <synapse sourceNeuronName = "6" targetNeuronName = "27" weight = "7.762900527849752" />
    <synapse sourceNeuronName = "6" targetNeuronName = "28" weight = "20.91055991966836" />
    <synapse sourceNeuronName = "6" targetNeuronName = "29" weight = "13.214125676690792" />
    <synapse sourceNeuronName = "6" targetNeuronName = "30" weight = "21.184345101822814" />
    <synapse sourceNeuronName = "6" targetNeuronName = "31" weight = "19.304460877679098" />
    <synapse sourceNeuronName = "6" targetNeuronName = "32" weight = "19.025985586790394" />
    <synapse sourceNeuronName = "6" targetNeuronName = "33" weight = "11.429793365030864" />
    <synapse sourceNeuronName = "6" targetNeuronName = "34" weight = "22.495950868819563" />
    <synapse sourceNeuronName = "6" targetNeuronName = "35" weight = "9.5991516342934" />
    <synapse sourceNeuronName = "6" targetNeuronName = "36" weight = "9.595960406932619" />
    <synapse sourceNeuronName = "6" targetNeuronName = "37" weight = "5.554386495884007" />
    <synapse sourceNeuronName = "6" targetNeuronName = "38" weight = "5.084973781047751" />
    <synapse sourceNeuronName = "6" targetNeuronName = "39" weight = "2.3387954964755986" />
    <synapse sourceNeuronName = "7" targetNeuronName = "16" weight = "12.882073215477948" />
    <synapse sourceNeuronName = "7" targetNeuronName = "17" weight = "9.407555379155095" />
    <synapse sourceNeuronName = "7" targetNeuronName = "18" weight = "11.29250426636668" />
    <synapse sourceNeuronName = "7" targetNeuronName = "19" weight = "17.52580825980375" />
    <synapse sourceNeuronName = "7" targetNeuronName = "20" weight = "2.437231500218287" />
    <synapse sourceNeuronName = "7" targetNeuronName = "21" weight = "22.24841435612921" />
    <synapse sourceNeuronName = "7" targetNeuronName = "22" weight = "4.821055084802642" />
    <synapse sourceNeuronName = "7" targetNeuronName = "23" weight = "22.771138728320903" />
    <synapse sourceNeuronName = "7" targetNeuronName = "24" weight = "13.755044520865633" />
    <synapse sourceNeuronName = "7" targetNeuronName = "25" weight = "12.052749596752623" />
    <synapse sourceNeuronName = "7" targetNeuronName = "26" weight = "10.729508596763019" />
    <synapse sourceNeuronName = "7" targetNeuronName = "27" weight = "16.580116694420337" />
    <synapse sourceNeuronName = "7" targetNeuronName = "28" weight = "11.673846737321057" />
    <synapse sourceNeuronName = "7" targetNeuronName = "29" weight = "7.5103502314795385" />
    <synapse sourceNeuronName = "7" targetNeuronName = "30" weight = "4.858374576942103" />
    <synapse sourceNeuronName = "7" targetNeuronName = "31" weight = "-0.6136199590098581" />
    <synapse sourceNeuronName = "7" targetNeuronName = "32" weight = "6.602175598080846" />
    <synapse sourceNeuronName = "7" targetNeuronName = "33" weight = "9.307573347190147" />
    <synapse sourceNeuronName = "7" targetNeuronName = "34" weight = "9.95777877224719" />
    <synapse sourceNeuronName = "7" targetNeuronName = "35" weight = "8.427880255055097" />
    <synapse sourceNeuronName = "7" targetNeuronName = "36" weight = "21.630715360796287" />
    <synapse sourceNeuronName = "7" targetNeuronName = "37" weight = "2.1738259342970894" />
    <synapse sourceNeuronName = "7" targetNeuronName = "38" weight = "7.018292934428629" />
    <synapse sourceNeuronName = "7" targetNeuronName = "39" weight = "9.227391685695196" />
    <synapse sourceNeuronName = "8" targetNeuronName = "16" weight = "-0.8050239830163903" />
    <synapse sourceNeuronName = "8" targetNeuronName = "17" weight = "21.070006228761784" />
    <synapse sourceNeuronName = "8" targetNeuronName = "18" weight = "2.474570810791171" />
    <synapse sourceNeuronName = "8" targetNeuronName = "19" weight = "19.857247069299113" />
    <synapse sourceNeuronName = "8" targetNeuronName = "20" weight = "2.026212405989373" />
    <synapse sourceNeuronName = "8" targetNeuronName = "21" weight = "2.460210482700554" />
    <synapse sourceNeuronName = "8" targetNeuronName = "22" weight = "12.47084809477638" />
    <synapse sourceNeuronName = "8" targetNeuronName = "23" weight = "11.89622500122559" />
    <synapse sourceNeuronName = "8" targetNeuronName = "24" weight = "20.40982458092773" />
    <synapse sourceNeuronName = "8" targetNeuronName = "25" weight = "2.3048246504225043" />
    <synapse sourceNeuronName = "8" targetNeuronName = "26" weight = "0.20609653879483592" />
    <synapse sourceNeuronName = "8" targetNeuronName = "27" weight = "3.313726828447898" />
    <synapse sourceNeuronName = "8" targetNeuronName = "28" weight = "11.930329972190735" />
    <synapse sourceNeuronName = "8" targetNeuronName = "29" weight = "19.828424250061683" />
    <synapse sourceNeuronName = "8" targetNeuronName = "30" weight = "18.043010908840483" />
    <synapse sourceNeuronName = "8" targetNeuronName = "31" weight = "8.851050187327726" />
    <synapse sourceNeuronName = "8" targetNeuronName = "32" weight = "21.151090557279886" />
    <synapse sourceNeuronName = "8" targetNeuronName = "33" weight = "8.886314907631704" />
    <synapse sourceNeuronName = "8" targetNeuronName = "34" weight = "8.391524904623695" />
    <synapse sourceNeuronName = "8" targetNeuronName = "35" weight = "11.771441536243422" />
    <synapse sourceNeuronName = "8" targetNeuronName = "36" weight = "3.563139292544925" />
    <synapse sourceNeuronName = "8" targetNeuronName = "37" weight = "14.134457441684138" />
    <synapse sourceNeuronName = "8" targetNeuronName = "38" weight = "-0.12495121213880811" />
    <synapse sourceNeuronName = "8" targetNeuronName = "39" weight = "13.517851263868026" />
    <synapse sourceNeuronName = "9" targetNeuronName = "16" weight = "-0.39475144354798886" />
    <synapse sourceNeuronName = "9" targetNeuronName = "17" weight = "16.711862012481877" />
    <synapse sourceNeuronName = "9" targetNeuronName = "18" weight = "15.771862772213922" />
    <synapse sourceNeuronName = "9" targetNeuronName = "19" weight = "3.405061791161205" />
    <synapse sourceNeuronName = "9" targetNeuronName = "20" weight = "9.896513127293943" />
    <synapse sourceNeuronName = "9" targetNeuronName = "21" weight = "2.1407953565740554" />
    <synapse sourceNeuronName = "9" targetNeuronName = "22" weight = "18.550833518539477" />
    <synapse sourceNeuronName = "9" targetNeuronName = "23" weight = "20.13738212218931" />
    <synapse sourceNeuronName = "9" targetNeuronName = "24" weight = "0.7402724906009102" />
    <synapse sourceNeuronName = "9" targetNeuronName = "25" weight = "0.6014945628287096" />
    <synapse sourceNeuronName = "9" targetNeuronName = "26" weight = "1.4925074058221268" />
    <synapse sourceNeuronName = "9" targetNeuronName = "27" weight = "4.490991689238533" />
    <synapse sourceNeuronName = "9" targetNeuronName = "28" weight = "0.08249851846940448" />
    <synapse sourceNeuronName = "9" targetNeuronName = "29" weight = "14.532433652386324" />
    <synapse sourceNeuronName = "9" targetNeuronName = "30" weight = "14.533097692605798" />
    <synapse sourceNeuronName = "9" targetNeuronName = "31" weight = "13.444532142305864" />
    <synapse sourceNeuronName = "9" targetNeuronName = "32" weight = "22.93468111148119" />
    <synapse sourceNeuronName = "9" targetNeuronName = "33" weight = "11.18347826920254" />
    <synapse sourceNeuronName = "9" targetNeuronName = "34" weight = "12.801860195111386" />
    <synapse sourceNeuronName = "9" targetNeuronName = "35" weight = "1.2963162054017694" />
    <synapse sourceNeuronName = "9" targetNeuronName = "36" weight = "8.425814631659833" />
    <synapse sourceNeuronName = "9" targetNeuronName = "37" weight = "12.029169524990103" />
    <synapse sourceNeuronName = "9" targetNeuronName = "38" weight = "9.95618514470982" />
    <synapse sourceNeuronName = "9" targetNeuronName = "39" weight = "3.7703580367432608" />
    <synapse sourceNeuronName = "10" targetNeuronName = "16" weight = "8.472549936313573" />
    <synapse sourceNeuronName = "10" targetNeuronName = "17" weight = "8.25773567592232" />
    <synapse sourceNeuronName = "10" targetNeuronName = "18" weight = "10.87660427291194" />
    <synapse sourceNeuronName = "10" targetNeuronName = "19" weight = "19.710799425345705" />
    <synapse sourceNeuronName = "10" targetNeuronName = "20" weight = "2.8202758213664483" />
    <synapse sourceNeuronName = "10" targetNeuronName = "21" weight = "3.379973453613103" />
    <synapse sourceNeuronName = "10" targetNeuronName = "22" weight = "19.13207370241325" />
    <synapse sourceNeuronName = "10" targetNeuronName = "23" weight = "11.616529388375806" />
    <synapse sourceNeuronName = "10" targetNeuronName = "24" weight = "7.497259134366667" />
    <synapse sourceNeuronName = "10" targetNeuronName = "25" weight = "19.00852717136528" />
    <synapse sourceNeuronName = "10" targetNeuronName = "26" weight = "11.342070441669744" />
    <synapse sourceNeuronName = "10" targetNeuronName = "27" weight = "22.762929816118657" />
    <synapse sourceNeuronName = "10" targetNeuronName = "28" weight = "15.010926547745708" />
    <synapse sourceNeuronName = "10" targetNeuronName = "29" weight = "15.815712682183115" />
    <synapse sourceNeuronName = "10" targetNeuronName = "30" weight = "0.5448995991675218" />
    <synapse sourceNeuronName = "10" targetNeuronName = "31" weight = "11.89543916213086" />
    <synapse sourceNeuronName = "10" targetNeuronName = "32" weight = "18.71477582407007" />
    <synapse sourceNeuronName = "10" targetNeuronName = "33" weight = "-0.4796046038433719" />
    <synapse sourceNeuronName = "10" targetNeuronName = "34" weight = "0.40563117802624316" />
    <synapse sourceNeuronName = "10" targetNeuronName = "35" weight = "-0.7807675734394754" />
    <synapse sourceNeuronName = "10" targetNeuronName = "36" weight = "-0.9291120754228475" />
    <synapse sourceNeuronName = "10" targetNeuronName = "37" weight = "2.0736755917439202" />
    <synapse sourceNeuronName = "10" targetNeuronName = "38" weight = "-0.1534182655208065" />
    <synapse sourceNeuronName = "10" targetNeuronName = "39" weight = "2.2994353466570336" />
    <synapse sourceNeuronName = "11" targetNeuronName = "16" weight = "8.461233233009017" />
    <synapse sourceNeuronName = "11" targetNeuronName = "17" weight = "2.3006989318931472" />
    <synapse sourceNeuronName = "11" targetNeuronName = "18" weight = "1.679863235841336" />
    <synapse sourceNeuronName = "11" targetNeuronName = "19" weight = "15.641367114399635" />
    <synapse sourceNeuronName = "11" targetNeuronName = "20" weight = "17.33808551105762" />
    <synapse sourceNeuronName = "11" targetNeuronName = "21" weight = "4.9742363736116895" />
    <synapse sourceNeuronName = "11" targetNeuronName = "22" weight = "18.581910623153117" />
    <synapse sourceNeuronName = "11" targetNeuronName = "23" weight = "9.597580831700203" />
    <synapse sourceNeuronName = "11" targetNeuronName = "24" weight = "22.469375254501198" />
    <synapse sourceNeuronName = "11" targetNeuronName = "25" weight = "21.26144613440234" />
    <synapse sourceNeuronName = "11" targetNeuronName = "26" weight = "5.30289103877148" />
    <synapse sourceNeuronName = "11" targetNeuronName = "27" weight = "6.577120027648184" />
    <synapse sourceNeuronName = "11" targetNeuronName = "28" weight = "10.732054842691685" />
    <synapse sourceNeuronName = "11" targetNeuronName = "29" weight = "16.37253886591869" />
    <synapse sourceNeuronName = "11" targetNeuronName = "30" weight = "9.418433753385402" />
    <synapse sourceNeuronName = "11" targetNeuronName = "31" weight = "-0.6589681847848992" />
    <synapse sourceNeuronName = "11" targetNeuronName = "32" weight = "9.464684806479994" />
    <synapse sourceNeuronName = "11" targetNeuronName = "33" weight = "5.974761929510132" />
    <synapse sourceNeuronName = "11" targetNeuronName = "34" weight = "12.52927974805982" />
    <synapse sourceNeuronName = "11" targetNeuronName = "35" weight = "1.8215547792555293" />
    <synapse sourceNeuronName = "11" targetNeuronName = "36" weight = "10.322733907602778" />
    <synapse sourceNeuronName = "11" targetNeuronName = "37" weight = "4.142144580721599" />
    <synapse sourceNeuronName = "11" targetNeuronName = "38" weight = "2.6687551065367074" />
    <synapse sourceNeuronName = "11" targetNeuronName = "39" weight = "-0.7149972870938237" />
    <synapse sourceNeuronName = "12" targetNeuronName = "16" weight = "8.052361316221006" />
    <synapse sourceNeuronName = "12" targetNeuronName = "17" weight = "9.007367780699973" />
    <synapse sourceNeuronName = "12" targetNeuronName = "18" weight = "15.981608825427102" />
    <synapse sourceNeuronName = "12" targetNeuronName = "19" weight = "9.365220480608363" />
    <synapse sourceNeuronName = "12" targetNeuronName = "20" weight = "10.542987611611679" />
    <synapse sourceNeuronName = "12" targetNeuronName = "21" weight = "7.884326117794451" />
    <synapse sourceNeuronName = "12" targetNeuronName = "22" weight = "22.62184015603534" />
    <synapse sourceNeuronName = "12" targetNeuronName = "23" weight = "-0.6531779670038906" />
    <synapse sourceNeuronName = "12" targetNeuronName = "24" weight = "3.8787220226097574" />
    <synapse sourceNeuronName = "12" targetNeuronName = "25" weight = "11.48349770869083" />
    <synapse sourceNeuronName = "12" targetNeuronName = "26" weight = "6.751629473921897" />
    <synapse sourceNeuronName = "12" targetNeuronName = "27" weight = "2.939795957614197" />
    <synapse sourceNeuronName = "12" targetNeuronName = "28" weight = "0.9836671203042293" />
    <synapse sourceNeuronName = "12" targetNeuronName = "29" weight = "5.9395535204459575" />
    <synapse sourceNeuronName = "12" targetNeuronName = "30" weight = "13.326553070320415" />
    <synapse sourceNeuronName = "12" targetNeuronName = "31" weight = "5.387117046123595" />
    <synapse sourceNeuronName = "12" targetNeuronName = "32" weight = "13.951222443188957" />
    <synapse sourceNeuronName = "12" targetNeuronName = "33" weight = "21.59592125255574" />
    <synapse sourceNeuronName = "12" targetNeuronName = "34" weight = "2.713291514550086" />
    <synapse sourceNeuronName = "12" targetNeuronName = "35" weight = "13.131343530116283" />
    <synapse sourceNeuronName = "12" targetNeuronName = "36" weight = "6.237258927045475" />
    <synapse sourceNeuronName = "12" targetNeuronName = "37" weight = "15.672269508648064" />
    <synapse sourceNeuronName = "12" targetNeuronName = "38" weight = "8.071626816594225" />
    <synapse sourceNeuronName = "12" targetNeuronName = "39" weight = "20.22427039888876" />
    <synapse sourceNeuronName = "13" targetNeuronName = "16" weight = "11.836004310099268" />
    <synapse sourceNeuronName = "13" targetNeuronName = "17" weight = "8.228518646474626" />
    <synapse sourceNeuronName = "13" targetNeuronName = "18" weight = "5.4364948823253005" />
    <synapse sourceNeuronName = "13" targetNeuronName = "19" weight = "2.673921140156729" />
    <synapse sourceNeuronName = "13" targetNeuronName = "20" weight = "-0.21201637162675446" />
    <synapse sourceNeuronName = "13" targetNeuronName = "21" weight = "2.0245142221996293" />
    <synapse sourceNeuronName = "13" targetNeuronName = "22" weight = "17.31819986859798" />
    <synapse sourceNeuronName = "13" targetNeuronName = "23" weight = "22.983899359026438" />
    <synapse sourceNeuronName = "13" targetNeuronName = "24" weight = "15.995023016373281" />
    <synapse sourceNeuronName = "13" targetNeuronName = "25" weight = "0.5987105626399885" />
    <synapse sourceNeuronName = "13" targetNeuronName = "26" weight = "4.978319820557397" />
    <synapse sourceNeuronName = "13" targetNeuronName = "27" weight = "22.2765646727852" />
    <synapse sourceNeuronName = "13" targetNeuronName = "28" weight = "9.327593912305716" />
    <synapse sourceNeuronName = "13" targetNeuronName = "29" weight = "5.1116589443477585" />
    <synapse sourceNeuronName = "13" targetNeuronName = "30" weight = "4.521425599764333" />
    <synapse sourceNeuronName = "13" targetNeuronName = "31" weight = "16.23841190937545" />
    <synapse sourceNeuronName = "13" targetNeuronName = "32" weight = "21.188980229127363" />
    <synapse sourceNeuronName = "13" targetNeuronName = "33" weight = "1.1912003208224125" />
    <synapse sourceNeuronName = "13" targetNeuronName = "34" weight = "0.49002240399456465" />
    <synapse sourceNeuronName = "13" targetNeuronName = "35" weight = "11.578098505272859" />
    <synapse sourceNeuronName = "13" targetNeuronName = "36" weight = "16.418249179080394" />
    <synapse sourceNeuronName = "13" targetNeuronName = "37" weight = "19.07044527896913" />
    <synapse sourceNeuronName = "13" targetNeuronName = "38" weight = "10.198995751644414" />
    <synapse sourceNeuronName = "13" targetNeuronName = "39" weight = "2.1424209554397358" />
    <synapse sourceNeuronName = "14" targetNeuronName = "16" weight = "8.169571890543118" />
    <synapse sourceNeuronName = "14" targetNeuronName = "17" weight = "19.047868393500224" />
    <synapse sourceNeuronName = "14" targetNeuronName = "18" weight = "20.22693602678562" />
    <synapse sourceNeuronName = "14" targetNeuronName = "19" weight = "10.188891815976255" />
    <synapse sourceNeuronName = "14" targetNeuronName = "20" weight = "0.8772135676162849" />
    <synapse sourceNeuronName = "14" targetNeuronName = "21" weight = "3.4614314023515327" />
    <synapse sourceNeuronName = "14" targetNeuronName = "22" weight = "2.7898462144393097" />
    <synapse sourceNeuronName = "14" targetNeuronName = "23" weight = "14.161401145336276" />
    <synapse sourceNeuronName = "14" targetNeuronName = "24" weight = "19.12698012877572" />
    <synapse sourceNeuronName = "14" targetNeuronName = "25" weight = "18.70488218445104" />
    <synapse sourceNeuronName = "14" targetNeuronName = "26" weight = "0.9474201101176325" />
    <synapse sourceNeuronName = "14" targetNeuronName = "27" weight = "8.612071560117599" />
    <synapse sourceNeuronName = "14" targetNeuronName = "28" weight = "19.491772088245728" />
    <synapse sourceNeuronName = "14" targetNeuronName = "29" weight = "11.817024368005242" />
    <synapse sourceNeuronName = "14" targetNeuronName = "30" weight = "16.574472803148662" />
    <synapse sourceNeuronName = "14" targetNeuronName = "31" weight = "22.358992459325446" />
    <synapse sourceNeuronName = "14" targetNeuronName = "32" weight = "11.127747175105387" />
    <synapse sourceNeuronName = "14" targetNeuronName = "33" weight = "20.349308535023255" />
    <synapse sourceNeuronName = "14" targetNeuronName = "34" weight = "17.355818404824817" />
    <synapse sourceNeuronName = "14" targetNeuronName = "35" weight = "8.967607349867027" />
    <synapse sourceNeuronName = "14" targetNeuronName = "36" weight = "22.952084146158587" />
    <synapse sourceNeuronName = "14" targetNeuronName = "37" weight = "20.196897403234516" />
    <synapse sourceNeuronName = "14" targetNeuronName = "38" weight = "22.214492890950993" />
    <synapse sourceNeuronName = "14" targetNeuronName = "39" weight = "3.0714008863643265" />
    <synapse sourceNeuronName = "15" targetNeuronName = "16" weight = "3.8678514913133313" />
    <synapse sourceNeuronName = "15" targetNeuronName = "17" weight = "10.253711965815555" />
    <synapse sourceNeuronName = "15" targetNeuronName = "18" weight = "6.425557581248076" />
    <synapse sourceNeuronName = "15" targetNeuronName = "19" weight = "19.69011035475792" />
    <synapse sourceNeuronName = "15" targetNeuronName = "20" weight = "12.316176002897443" />
    <synapse sourceNeuronName = "15" targetNeuronName = "21" weight = "0.45094419181981493" />
    <synapse sourceNeuronName = "15" targetNeuronName = "22" weight = "16.58990457564107" />
    <synapse sourceNeuronName = "15" targetNeuronName = "23" weight = "16.933092487465707" />
    <synapse sourceNeuronName = "15" targetNeuronName = "24" weight = "13.2945325069253" />
    <synapse sourceNeuronName = "15" targetNeuronName = "25" weight = "17.5360781066868" />
    <synapse sourceNeuronName = "15" targetNeuronName = "26" weight = "21.803735842036783" />
    <synapse sourceNeuronName = "15" targetNeuronName = "27" weight = "6.256334532462633" />
    <synapse sourceNeuronName = "15" targetNeuronName = "28" weight = "4.145852129094004" />
    <synapse sourceNeuronName = "15" targetNeuronName = "29" weight = "11.629638462403246" />
    <synapse sourceNeuronName = "15" targetNeuronName = "30" weight = "-0.27716731511935233" />
    <synapse sourceNeuronName = "15" targetNeuronName = "31" weight = "14.02365139398361" />
    <synapse sourceNeuronName = "15" targetNeuronName = "32" weight = "3.1645327251638378" />
    <synapse sourceNeuronName = "15" targetNeuronName = "33" weight = "3.1000995360373897" />
    <synapse sourceNeuronName = "15" targetNeuronName = "34" weight = "19.34045341148458" />
    <synapse sourceNeuronName = "15" targetNeuronName = "35" weight = "10.657713597274277" />
    <synapse sourceNeuronName = "15" targetNeuronName = "36" weight = "22.0070580399538" />
    <synapse sourceNeuronName = "15" targetNeuronName = "37" weight = "12.731366813997344" />
    <synapse sourceNeuronName = "15" targetNeuronName = "38" weight = "20.88416816526243" />
    <synapse sourceNeuronName = "15" targetNeuronName = "39" weight = "5.686376306997578" />
</neuralNetwork>