<neuralNetwork>
    <neuron name = "0" type = "sensor" linkName = "Torso" />
    <neuron name = "1" type = "sensor" linkName = "Leg2" />
    <neuron name = "2" type = "sensor" linkName = "Leg3" />
    <neuron name = "3" type = "sensor" linkName = "Leg8" />
    <neuron name = "4" type = "sensor" linkName = "Leg10" />
    <neuron name = "5" type = "sensor" linkName = "Leg14" />
    <neuron name = "6" type = "sensor" linkName = "Leg16" />
    <neuron name = "7" type = "sensor" linkName = "Leg19" />
    <neuron name = "8" type = "sensor" linkName = "Leg20" />
    <neuron name = "9" type = "sensor" linkName = "Leg22" />
    <neuron name = "10" type = "sensor" linkName = "Leg23" />
    <neuron name = "11" type = "motor"  jointName = "Torso_Leg1" />
    <neuron name = "12" type = "motor"  jointName = "Torso_Leg2" />
    <neuron name = "13" type = "motor"  jointName = "Leg2_Leg3" />
    <neuron name = "14" type = "motor"  jointName = "Leg2_Leg4" />
    <neuron name = "15" type = "motor"  jointName = "Leg1_Leg5" />
    <neuron name = "16" type = "motor"  jointName = "Torso_Leg6" />
    <neuron name = "17" type = "motor"  jointName = "Leg3_Leg7" />
    <neuron name = "18" type = "motor"  jointName = "Leg5_Leg8" />
    <neuron name = "19" type = "motor"  jointName = "Leg8_Leg9" />
    <neuron name = "20" type = "motor"  jointName = "Leg5_Leg10" />
    <neuron name = "21" type = "motor"  jointName = "Leg6_Leg11" />
    <neuron name = "22" type = "motor"  jointName = "Leg2_Leg12" />
    <neuron name = "23" type = "motor"  jointName = "Leg3_Leg13" />
    <neuron name = "24" type = "motor"  jointName = "Leg6_Leg14" />
    <neuron name = "25" type = "motor"  jointName = "Leg6_Leg15" />
    <neuron name = "26" type = "motor"  jointName = "Leg14_Leg16" />
    <neuron name = "27" type = "motor"  jointName = "Leg10_Leg17" />
    <neuron name = "28" type = "motor"  jointName = "Leg1_Leg18" />
    <neuron name = "29" type = "motor"  jointName = "Leg9_Leg19" />
    <neuron name = "30" type = "motor"  jointName = "Leg8_Leg20" />
    <neuron name = "31" type = "motor"  jointName = "Leg13_Leg21" />
    <neuron name = "32" type = "motor"  jointName = "Leg18_Leg22" />
    <neuron name = "33" type = "motor"  jointName = "Leg4_Leg23" />
    <neuron name = "34" type = "motor"  jointName = "Leg23_Leg24" />
    <neuron name = "35" type = "motor"  jointName = "Leg19_Leg25" />
    <synapse sourceNeuronName = "0" targetNeuronName = "11" weight = "-0.8329581440525554" />
    <synapse sourceNeuronName = "0" targetNeuronName = "12" weight = "16.425986760876803" />
    <synapse sourceNeuronName = "0" targetNeuronName = "13" weight = "9.117399867874447" />
    <synapse sourceNeuronName = "0" targetNeuronName = "14" weight = "16.00255738682527" />
    <synapse sourceNeuronName = "0" targetNeuronName = "15" weight = "16.44179642177445" />
    <synapse sourceNeuronName = "0" targetNeuronName = "16" weight = "13.78601048959387" />
    <synapse sourceNeuronName = "0" targetNeuronName = "17" weight = "20.836452866142118" />
    <synapse sourceNeuronName = "0" targetNeuronName = "18" weight = "19.02568145416908" />
    <synapse sourceNeuronName = "0" targetNeuronName = "19" weight = "9.143741784159745" />
    <synapse sourceNeuronName = "0" targetNeuronName = "20" weight = "15.855847918439686" />
    <synapse sourceNeuronName = "0" targetNeuronName = "21" weight = "5.8262086179010755" />
    <synapse sourceNeuronName = "0" targetNeuronName = "22" weight = "23.99738144656282" />
    <synapse sourceNeuronName = "0" targetNeuronName = "23" weight = "6.8106422577910255" />
    <synapse sourceNeuronName = "0" targetNeuronName = "24" weight = "-0.05485725892081428" />
    <synapse sourceNeuronName = "0" targetNeuronName = "25" weight = "12.108019278950763" />
    <synapse sourceNeuronName = "0" targetNeuronName = "26" weight = "20.485649314140236" />
    <synapse sourceNeuronName = "0" targetNeuronName = "27" weight = "9.75757976158209" />
    <synapse sourceNeuronName = "0" targetNeuronName = "28" weight = "5.480030456439173" />
    <synapse sourceNeuronName = "0" targetNeuronName = "29" weight = "10.781595189053714" />
    <synapse sourceNeuronName = "0" targetNeuronName = "30" weight = "20.81132275163149" />
    <synapse sourceNeuronName = "0" targetNeuronName = "31" weight = "22.93364826118557" />
    <synapse sourceNeuronName = "0" targetNeuronName = "32" weight = "16.354010520780776" />
    <synapse sourceNeuronName = "0" targetNeuronName = "33" weight = "9.891397539432212" />
    <synapse sourceNeuronName = "0" targetNeuronName = "34" weight = "-0.07361266836424984" />
    <synapse sourceNeuronName = "0" targetNeuronName = "35" weight = "7.4876345084288065" />
    <synapse sourceNeuronName = "1" targetNeuronName = "11" weight = "20.956957401920356" />
    <synapse sourceNeuronName = "1" targetNeuronName = "12" weight = "9.48052656857846" />
    <synapse sourceNeuronName = "1" targetNeuronName = "13" weight = "-0.5268476267256202" />
    <synapse sourceNeuronName = "1" targetNeuronName = "14" weight = "4.074622426397118" />
    <synapse sourceNeuronName = "1" targetNeuronName = "15" weight = "-0.8654319485406838" />
    <synapse sourceNeuronName = "1" targetNeuronName = "16" weight = "19.837588191008923" />
    <synapse sourceNeuronName = "1" targetNeuronName = "17" weight = "4.984354252261712" />
    <synapse sourceNeuronName = "1" targetNeuronName = "18" weight = "10.819174187987603" />
    <synapse sourceNeuronName = "1" targetNeuronName = "19" weight = "17.717989696906375" />
    <synapse sourceNeuronName = "1" targetNeuronName = "20" weight = "21.106469206126594" />
    <synapse sourceNeuronName = "1" targetNeuronName = "21" weight = "0.24418502954286847" />
    <synapse sourceNeuronName = "1" targetNeuronName = "22" weight = "2.9229869104226047" />
    <synapse sourceNeuronName = "1" targetNeuronName = "23" weight = "16.736421352294634" />
    <synapse sourceNeuronName = "1" targetNeuronName = "24" weight = "5.596302932192399" />
    <synapse sourceNeuronName = "1" targetNeuronName = "25" weight = "23.976231049812412" />
    <synapse sourceNeuronName = "1" targetNeuronName = "26" weight = "2.151901727800277" />
    <synapse sourceNeuronName = "1" targetNeuronName = "27" weight = "-0.8223850916025862" />
    <synapse sourceNeuronName = "1" targetNeuronName = "28" weight = "23.786458053904205" />
    <synapse sourceNeuronName = "1" targetNeuronName = "29" weight = "5.989884411649141" />
    <synapse sourceNeuronName = "1" targetNeuronName = "30" weight = "1.8957083266402033" />
    <synapse sourceNeuronName = "1" targetNeuronName = "31" weight = "16.615970203654868" />
    <synapse sourceNeuronName = "1" targetNeuronName = "32" weight = "18.25120418884734" />
    <synapse sourceNeuronName = "1" targetNeuronName = "33" weight = "-0.6568035683691761" />
    <synapse sourceNeuronName = "1" targetNeuronName = "34" weight = "14.00243875542118" />
    <synapse sourceNeuronName = "1" targetNeuronName = "35" weight = "15.095606928809183" />
    <synapse sourceNeuronName = "2" targetNeuronName = "11" weight = "7.989296131864116" />
    <synapse sourceNeuronName = "2" targetNeuronName = "12" weight = "22.515030170346744" />
    <synapse sourceNeuronName = "2" targetNeuronName = "13" weight = "2.8780028095941916" />
    <synapse sourceNeuronName = "2" targetNeuronName = "14" weight = "9.018105550467546" />
    <synapse sourceNeuronName = "2" targetNeuronName = "15" weight = "4.724690286251261" />
    <synapse sourceNeuronName = "2" targetNeuronName = "16" weight = "-0.21226409027239235" />
    <synapse sourceNeuronName = "2" targetNeuronName = "17" weight = "4.820883463487156" />
    <synapse sourceNeuronName = "2" targetNeuronName = "18" weight = "12.207852234254581" />
    <synapse sourceNeuronName = "2" targetNeuronName = "19" weight = "16.78111058023134" />
    <synapse sourceNeuronName = "2" targetNeuronName = "20" weight = "2.9013069143094823" />
    <synapse sourceNeuronName = "2" targetNeuronName = "21" weight = "2.975399008177866" />
    <synapse sourceNeuronName = "2" targetNeuronName = "22" weight = "5.835268902678548" />
    <synapse sourceNeuronName = "2" targetNeuronName = "23" weight = "19.579324040396983" />
    <synapse sourceNeuronName = "2" targetNeuronName = "24" weight = "9.37026169114427" />
    <synapse sourceNeuronName = "2" targetNeuronName = "25" weight = "5.489685382569685" />
    <synapse sourceNeuronName = "2" targetNeuronName = "26" weight = "14.006283153635271" />
    <synapse sourceNeuronName = "2" targetNeuronName = "27" weight = "22.57428853005336" />
    <synapse sourceNeuronName = "2" targetNeuronName = "28" weight = "5.907966210031163" />
    <synapse sourceNeuronName = "2" targetNeuronName = "29" weight = "2.848286848754939" />
    <synapse sourceNeuronName = "2" targetNeuronName = "30" weight = "4.671361877817888" />
    <synapse sourceNeuronName = "2" targetNeuronName = "31" weight = "17.922632009472043" />
    <synapse sourceNeuronName = "2" targetNeuronName = "32" weight = "16.570326788211315" />
    <synapse sourceNeuronName = "2" targetNeuronName = "33" weight = "7.397553328401939" />
    <synapse sourceNeuronName = "2" targetNeuronName = "34" weight = "14.341915162356635" />
    <synapse sourceNeuronName = "2" targetNeuronName = "35" weight = "7.434603352525521" />
    <synapse sourceNeuronName = "3" targetNeuronName = "11" weight = "19.950626027111927" />
    <synapse sourceNeuronName = "3" targetNeuronName = "12" weight = "2.1120789310733588" />
    <synapse sourceNeuronName = "3" targetNeuronName = "13" weight = "2.1765269843100405" />
    <synapse sourceNeuronName = "3" targetNeuronName = "14" weight = "1.808533140660188" />
    <synapse sourceNeuronName = "3" targetNeuronName = "15" weight = "11.357447515626562" />
    <synapse sourceNeuronName = "3" targetNeuronName = "16" weight = "7.890356640090626" />
    <synapse sourceNeuronName = "3" targetNeuronName = "17" weight = "10.068313723048332" />
    <synapse sourceNeuronName = "3" targetNeuronName = "18" weight = "4.188434597755701" />
    <synapse sourceNeuronName = "3" targetNeuronName = "19" weight = "18.17380175973609" />
    <synapse sourceNeuronName = "3" targetNeuronName = "20" weight = "13.774274825622491" />
    <synapse sourceNeuronName = "3" targetNeuronName = "21" weight = "23.021599585155638" />
    <synapse sourceNeuronName = "3" targetNeuronName = "22" weight = "9.47274168697236" />
    <synapse sourceNeuronName = "3" targetNeuronName = "23" weight = "-0.9280424966457859" />
    <synapse sourceNeuronName = "3" targetNeuronName = "24" weight = "2.967041335752286" />
    <synapse sourceNeuronName = "3" targetNeuronName = "25" weight = "11.488155384096485" />
    <synapse sourceNeuronName = "3" targetNeuronName = "26" weight = "20.353851781893653" />
    <synapse sourceNeuronName = "3" targetNeuronName = "27" weight = "4.1475750057610705" />
    <synapse sourceNeuronName = "3" targetNeuronName = "28" weight = "1.3776458296852239" />
    <synapse sourceNeuronName = "3" targetNeuronName = "29" weight = "7.952200562824231" />
    <synapse sourceNeuronName = "3" targetNeuronName = "30" weight = "6.664325564852096" />
    <synapse sourceNeuronName = "3" targetNeuronName = "31" weight = "7.353150393506112" />
    <synapse sourceNeuronName = "3" targetNeuronName = "32" weight = "1.069706589934067" />
    <synapse sourceNeuronName = "3" targetNeuronName = "33" weight = "3.7471397239636337" />
    <synapse sourceNeuronName = "3" targetNeuronName = "34" weight = "23.29474726201317" />
    <synapse sourceNeuronName = "3" targetNeuronName = "35" weight = "1.3688914810093804" />
    <synapse sourceNeuronName = "4" targetNeuronName = "11" weight = "17.830144353722737" />
    <synapse sourceNeuronName = "4" targetNeuronName = "12" weight = "9.123176118581759" />
    <synapse sourceNeuronName = "4" targetNeuronName = "13" weight = "2.030316012393111" />
    <synapse sourceNeuronName = "4" targetNeuronName = "14" weight = "5.160167164345825" />
    <synapse sourceNeuronName = "4" targetNeuronName = "15" weight = "19.47573600600919" />
    <synapse sourceNeuronName = "4" targetNeuronName = "16" weight = "9.000344805356038" />
    <synapse sourceNeuronName = "4" targetNeuronName = "17" weight = "6.679140902507004" />
    <synapse sourceNeuronName = "4" targetNeuronName = "18" weight = "23.979142444095583" />
    <synapse sourceNeuronName = "4" targetNeuronName = "19" weight = "16.671085421814173" />
    <synapse sourceNeuronName = "4" targetNeuronName = "20" weight = "20.62696871568867" />
    <synapse sourceNeuronName = "4" targetNeuronName = "21" weight = "11.99474173561372" />
    <synapse sourceNeuronName = "4" targetNeuronName = "22" weight = "15.613228679455567" />
    <synapse sourceNeuronName = "4" targetNeuronName = "23" weight = "2.8887967373407024" />
    <synapse sourceNeuronName = "4" targetNeuronName = "24" weight = "12.849761782091507" />
    <synapse sourceNeuronName = "4" targetNeuronName = "25" weight = "13.946833855537239" />
    <synapse sourceNeuronName = "4" targetNeuronName = "26" weight = "6.845609271147954" />
    <synapse sourceNeuronName = "4" targetNeuronName = "27" weight = "10.597028651837693" />
    <synapse sourceNeuronName = "4" targetNeuronName = "28" weight = "2.0018705739935063" />
    <synapse sourceNeuronName = "4" targetNeuronName = "29" weight = "13.881020521404134" />
    <synapse sourceNeuronName = "4" targetNeuronName = "30" weight = "10.012851790567515" />
    <synapse sourceNeuronName = "4" targetNeuronName = "31" weight = "23.190145693238037" />
    <synapse sourceNeuronName = "4" targetNeuronName = "32" weight = "7.284538841782949" />
    <synapse sourceNeuronName = "4" targetNeuronName = "33" weight = "10.50414742927935" />
    <synapse sourceNeuronName = "4" targetNeuronName = "34" weight = "17.702116630043044" />
    <synapse sourceNeuronName = "4" targetNeuronName = "35" weight = "9.717321919548795" />
    <synapse sourceNeuronName = "5" targetNeuronName = "11" weight = "6.070399941075864" />
    <synapse sourceNeuronName = "5" targetNeuronName = "12" weight = "1.5386496035091524" />
    <synapse sourceNeuronName = "5" targetNeuronName = "13" weight = "2.8005079815250973" />
    <synapse sourceNeuronName = "5" targetNeuronName = "14" weight = "14.056216061583841" />
    <synapse sourceNeuronName = "5" targetNeuronName = "15" weight = "17.773318689112273" />
    <synapse sourceNeuronName = "5" targetNeuronName = "16" weight = "4.291450369469352" />
    <synapse sourceNeuronName = "5" targetNeuronName = "17" weight = "3.9121150845867714" />
    <synapse sourceNeuronName = "5" targetNeuronName = "18" weight = "1.3604676414100827" />
    <synapse sourceNeuronName = "5" targetNeuronName = "19" weight = "12.647354997669733" />
    <synapse sourceNeuronName = "5" targetNeuronName = "20" weight = "11.390146100590377" />
    <synapse sourceNeuronName = "5" targetNeuronName = "21" weight = "6.502161432748378" />
    <synapse sourceNeuronName = "5" targetNeuronName = "22" weight = "6.175330724360504" />
    <synapse sourceNeuronName = "5" targetNeuronName = "23" weight = "11.669918180605237" />
    <synapse sourceNeuronName = "5" targetNeuronName = "24" weight = "16.623863676795942" />
    <synapse sourceNeuronName = "5" targetNeuronName = "25" weight = "9.585577130606074" />
    <synapse sourceNeuronName = "5" targetNeuronName = "26" weight = "4.3685499556658165" />
    <synapse sourceNeuronName = "5" targetNeuronName = "27" weight = "13.915526493667835" />
    <synapse sourceNeuronName = "5" targetNeuronName = "28" weight = "1.981942945257929" />
    <synapse sourceNeuronName = "5" targetNeuronName = "29" weight = "6.0872386282888336" />
    <synapse sourceNeuronName = "5" targetNeuronName = "30" weight = "4.7393930615052575" />
    <synapse sourceNeuronName = "5" targetNeuronName = "31" weight = "12.57420502994479" />
    <synapse sourceNeuronName = "5" targetNeuronName = "32" weight = "16.549238314496048" />
    <synapse sourceNeuronName = "5" targetNeuronName = "33" weight = "12.543002149559424" />
    <synapse sourceNeuronName = "5" targetNeuronName = "34" weight = "1.193060992686069" />
    <synapse sourceNeuronName = "5" targetNeuronName = "35" weight = "6.271196098510094" />
    <synapse sourceNeuronName = "6" targetNeuronName = "11" weight = "20.13419624975444" />
    <synapse sourceNeuronName = "6" targetNeuronName = "12" weight = "17.826416056017745" />
    <synapse sourceNeuronName = "6" targetNeuronName = "13" weight = "5.007025775887112" />
    <synapse sourceNeuronName = "6" targetNeuronName = "14" weight = "4.9989696625506514" />
    <synapse sourceNeuronName = "6" targetNeuronName = "15" weight = "15.477506869390261" />
    <synapse sourceNeuronName = "6" targetNeuronName = "16" weight = "16.051124916078734" />
    <synapse sourceNeuronName = "6" targetNeuronName = "17" weight = "15.028728253914757" />
    <synapse sourceNeuronName = "6" targetNeuronName = "18" weight = "16.97601349879045" />
    <synapse sourceNeuronName = "6" targetNeuronName = "19" weight = "20.308430564208557" />
    <synapse sourceNeuronName = "6" targetNeuronName = "20" weight = "23.605477313321103" />
    <synapse sourceNeuronName = "6" targetNeuronName = "21" weight = "4.100994355192324" />
    <synapse sourceNeuronName = "6" targetNeuronName = "22" weight = "19.696653951330195" />
    <synapse sourceNeuronName = "6" targetNeuronName = "23" weight = "20.267975843622605" />
    <synapse sourceNeuronName = "6" targetNeuronName = "24" weight = "1.893805961841828" />
    <synapse sourceNeuronName = "6" targetNeuronName = "25" weight = "20.65186943126424" />
    <synapse sourceNeuronName = "6" targetNeuronName = "26" weight = "1.4993825101954137" />
    <synapse sourceNeuronName = "6" targetNeuronName = "27" weight = "3.918608182421014" />
    <synapse sourceNeuronName = "6" targetNeuronName = "28" weight = "14.888704302942413" />
    <synapse sourceNeuronName = "6" targetNeuronName = "29" weight = "0.3765770429877089" />
    <synapse sourceNeuronName = "6" targetNeuronName = "30" weight = "-0.27719416969014166" />
    <synapse sourceNeuronName = "6" targetNeuronName = "31" weight = "22.0472105574114" />
    <synapse sourceNeuronName = "6" targetNeuronName = "32" weight = "9.982376089089318" />
    <synapse sourceNeuronName = "6" targetNeuronName = "33" weight = "6.270996666118568" />
    <synapse sourceNeuronName = "6" targetNeuronName = "34" weight = "3.0824108461150477" />
    <synapse sourceNeuronName = "6" targetNeuronName = "35" weight = "10.944388223876276" />
    <synapse sourceNeuronName = "7" targetNeuronName = "11" weight = "19.275194711517784" />
    <synapse sourceNeuronName = "7" targetNeuronName = "12" weight = "2.641474055427643" />
    <synapse sourceNeuronName = "7" targetNeuronName = "13" weight = "13.489447172384912" />
    <synapse sourceNeuronName = "7" targetNeuronName = "14" weight = "12.767333154358141" />
    <synapse sourceNeuronName = "7" targetNeuronName = "15" weight = "12.285746820682883" />
    <synapse sourceNeuronName = "7" targetNeuronName = "16" weight = "12.033082150104846" />
    <synapse sourceNeuronName = "7" targetNeuronName = "17" weight = "9.92338256592707" />
    <synapse sourceNeuronName = "7" targetNeuronName = "18" weight = "23.023940525078714" />
    <synapse sourceNeuronName = "7" targetNeuronName = "19" weight = "4.835999526885146" />
    <synapse sourceNeuronName = "7" targetNeuronName = "20" weight = "3.13670704596999" />
    <synapse sourceNeuronName = "7" targetNeuronName = "21" weight = "20.076618971544395" />
    <synapse sourceNeuronName = "7" targetNeuronName = "22" weight = "14.205812163600621" />
    <synapse sourceNeuronName = "7" targetNeuronName = "23" weight = "21.738111211579355" />
    <synapse sourceNeuronName = "7" targetNeuronName = "24" weight = "8.521132006583171" />
    <synapse sourceNeuronName = "7" targetNeuronName = "25" weight = "3.072248291023331" />
    <synapse sourceNeuronName = "7" targetNeuronName = "26" weight = "3.304225781708168" />
    <synapse sourceNeuronName = "7" targetNeuronName = "27" weight = "9.87993167545067" />
    <synapse sourceNeuronName = "7" targetNeuronName = "28" weight = "3.2860548238920524" />
    <synapse sourceNeuronName = "7" targetNeuronName = "29" weight = "6.3697529503289365" />
    <synapse sourceNeuronName = "7" targetNeuronName = "30" weight = "15.384891654923717" />
    <synapse sourceNeuronName = "7" targetNeuronName = "31" weight = "1.2315467319877187" />
    <synapse sourceNeuronName = "7" targetNeuronName = "32" weight = "16.96910375190755" />
    <synapse sourceNeuronName = "7" targetNeuronName = "33" weight = "16.37118082055699" />
    <synapse sourceNeuronName = "7" targetNeuronName = "34" weight = "20.896908723332825" />
    <synapse sourceNeuronName = "7" targetNeuronName = "35" weight = "20.545636043195962" />
    <synapse sourceNeuronName = "8" targetNeuronName = "11" weight = "11.031881628504609" />
    <synapse sourceNeuronName = "8" targetNeuronName = "12" weight = "19.203744578457492" />
    <synapse sourceNeuronName = "8" targetNeuronName = "13" weight = "3.8838723372557045" />
    <synapse sourceNeuronName = "8" targetNeuronName = "14" weight = "10.38466446138873" />
    <synapse sourceNeuronName = "8" targetNeuronName = "15" weight = "0.6643327071784313" />
    <synapse sourceNeuronName = "8" targetNeuronName = "16" weight = "3.124828002863479" />
    <synapse sourceNeuronName = "8" targetNeuronName = "17" weight = "19.2875095150319" />
    <synapse sourceNeuronName = "8" targetNeuronName = "18" weight = "0.9850561295296192" />
    <synapse sourceNeuronName = "8" targetNeuronName = "19" weight = "14.51572650022245" />
    <synapse sourceNeuronName = "8" targetNeuronName = "20" weight = "4.707499401073618" />
    <synapse sourceNeuronName = "8" targetNeuronName = "21" weight = "12.137994407157397" />
    <synapse sourceNeuronName = "8" targetNeuronName = "22" weight = "6.252443482441836" />
    <synapse sourceNeuronName = "8" targetNeuronName = "23" weight = "23.435758873395066" />
    <synapse sourceNeuronName = "8" targetNeuronName = "24" weight = "20.41342569799092" />
    <synapse sourceNeuronName = "8" targetNeuronName = "25" weight = "8.200972592329993" />
    <synapse sourceNeuronName = "8" targetNeuronName = "26" weight = "2.4123040647466962" />
    <synapse sourceNeuronName = "8" targetNeuronName = "27" weight = "20.245493839948182" />
    <synapse sourceNeuronName = "8" targetNeuronName = "28" weight = "11.762289731974116" />
    <synapse sourceNeuronName = "8" targetNeuronName = "29" weight = "18.643777877363654" />
    <synapse sourceNeuronName = "8" targetNeuronName = "30" weight = "22.318214048626015" />
    <synapse sourceNeuronName = "8" targetNeuronName = "31" weight = "10.099410878668845" />
    <synapse sourceNeuronName = "8" targetNeuronName = "32" weight = "14.77459480615573" />
    <synapse sourceNeuronName = "8" targetNeuronName = "33" weight = "19.277362347188696" />
    <synapse sourceNeuronName = "8" targetNeuronName = "34" weight = "2.639815351418685" />
    <synapse sourceNeuronName = "8" targetNeuronName = "35" weight = "5.207690251161316" />
    <synapse sourceNeuronName = "9" targetNeuronName = "11" weight = "12.966242154301481" />
    <synapse sourceNeuronName = "9" targetNeuronName = "12" weight = "0.7890330930615983" />
    <synapse sourceNeuronName = "9" targetNeuronName = "13" weight = "13.376528986171639" />
    <synapse sourceNeuronName = "9" targetNeuronName = "14" weight = "15.500757659702366" />
    <synapse sourceNeuronName = "9" targetNeuronName = "15" weight = "2.6340564951882817" />
    <synapse sourceNeuronName = "9" targetNeuronName = "16" weight = "4.672311134008204" />
    <synapse sourceNeuronName = "9" targetNeuronName = "17" weight = "3.626959021645166" />
    <synapse sourceNeuronName = "9" targetNeuronName = "18" weight = "8.268702017586254" />
    <synapse sourceNeuronName = "9" targetNeuronName = "19" weight = "4.127634004734968" />
    <synapse sourceNeuronName = "9" targetNeuronName = "20" weight = "2.0272398008726107" />
    <synapse sourceNeuronName = "9" targetNeuronName = "21" weight = "6.1847095870746" />
    <synapse sourceNeuronName = "9" targetNeuronName = "22" weight = "9.371968574482409" />
    <synapse sourceNeuronName = "9" targetNeuronName = "23" weight = "18.81777184970656" />
    <synapse sourceNeuronName = "9" targetNeuronName = "24" weight = "18.944953007201967" />
    <synapse sourceNeuronName = "9" targetNeuronName = "25" weight = "19.301265422620084" />
    <synapse sourceNeuronName = "9" targetNeuronName = "26" weight = "10.604592218977375" />
    <synapse sourceNeuronName = "9" targetNeuronName = "27" weight = "11.632725866908054" />
    <synapse sourceNeuronName = "9" targetNeuronName = "28" weight = "16.750121953275148" />
    <synapse sourceNeuronName = "9" targetNeuronName = "29" weight = "1.0290735836122398" />
    <synapse sourceNeuronName = "9" targetNeuronName = "30" weight = "20.229730479095068" />
    <synapse sourceNeuronName = "9" targetNeuronName = "31" weight = "13.146201084975004" />
    <synapse sourceNeuronName = "9" targetNeuronName = "32" weight = "17.612599989632454" />
    <synapse sourceNeuronName = "9" targetNeuronName = "33" weight = "13.931356655488282" />
    <synapse sourceNeuronName = "9" targetNeuronName = "34" weight = "9.53834519959386" />
    <synapse sourceNeuronName = "9" targetNeuronName = "35" weight = "10.948024346882278" />
    <synapse sourceNeuronName = "10" targetNeuronName = "11" weight = "11.137759815126051" />
    <synapse sourceNeuronName = "10" targetNeuronName = "12" weight = "5.9672161124717915" />
    <synapse sourceNeuronName = "10" targetNeuronName = "13" weight = "6.152897618746773" />
    <synapse sourceNeuronName = "10" targetNeuronName = "14" weight = "7.659755789921874" />
    <synapse sourceNeuronName = "10" targetNeuronName = "15" weight = "22.84848010885889" />
    <synapse sourceNeuronName = "10" targetNeuronName = "16" weight = "2.946322016183146" />
    <synapse sourceNeuronName = "10" targetNeuronName = "17" weight = "15.524184720848506" />
    <synapse sourceNeuronName = "10" targetNeuronName = "18" weight = "7.09343376751379" />
    <synapse sourceNeuronName = "10" targetNeuronName = "19" weight = "1.6914285731444636" />
    <synapse sourceNeuronName = "10" targetNeuronName = "20" weight = "21.91433909747681" />
    <synapse sourceNeuronName = "10" targetNeuronName = "21" weight = "3.520850772094792" />
    <synapse sourceNeuronName = "10" targetNeuronName = "22" weight = "0.6624453689155494" />
    <synapse sourceNeuronName = "10" targetNeuronName = "23" weight = "5.018057855220491" />
    <synapse sourceNeuronName = "10" targetNeuronName = "24" weight = "14.31993802929153" />
    <synapse sourceNeuronName = "10" targetNeuronName = "25" weight = "4.038531160562368" />
    <synapse sourceNeuronName = "10" targetNeuronName = "26" weight = "15.854289395073316" />
    <synapse sourceNeuronName = "10" targetNeuronName = "27" weight = "11.494879691099733" />
    <synapse sourceNeuronName = "10" targetNeuronName = "28" weight = "14.132455557121945" />
    <synapse sourceNeuronName = "10" targetNeuronName = "29" weight = "22.220071645263246" />
    <synapse sourceNeuronName = "10" targetNeuronName = "30" weight = "17.373205675573047" />
    <synapse sourceNeuronName = "10" targetNeuronName = "31" weight = "17.65207284871651" />
    <synapse sourceNeuronName = "10" targetNeuronName = "32" weight = "0.7529293063617002" />
    <synapse sourceNeuronName = "10" targetNeuronName = "33" weight = "22.811103471072343" />
    <synapse sourceNeuronName = "10" targetNeuronName = "34" weight = "22.919110240990353" />
    <synapse sourceNeuronName = "10" targetNeuronName = "35" weight = "7.09421315323492" />
</neuralNetwork>