<neuralNetwork>
    <neuron name = "0" type = "sensor" linkName = "Torso" />
    <neuron name = "1" type = "sensor" linkName = "Leg1" />
    <neuron name = "2" type = "sensor" linkName = "Leg5" />
    <neuron name = "3" type = "sensor" linkName = "Leg6" />
    <neuron name = "4" type = "sensor" linkName = "Leg7" />
    <neuron name = "5" type = "sensor" linkName = "Leg8" />
    <neuron name = "6" type = "sensor" linkName = "Leg9" />
    <neuron name = "7" type = "sensor" linkName = "Leg10" />
    <neuron name = "8" type = "sensor" linkName = "Leg11" />
    <neuron name = "9" type = "sensor" linkName = "Leg15" />
    <neuron name = "10" type = "sensor" linkName = "Leg16" />
    <neuron name = "11" type = "sensor" linkName = "Leg19" />
    <neuron name = "12" type = "sensor" linkName = "Leg21" />
    <neuron name = "13" type = "sensor" linkName = "Leg22" />
    <neuron name = "14" type = "sensor" linkName = "Leg25" />
    <neuron name = "15" type = "motor"  jointName = "Torso_Leg1" />
    <neuron name = "16" type = "motor"  jointName = "Leg1_Leg2" />
    <neuron name = "17" type = "motor"  jointName = "Leg2_Leg3" />
    <neuron name = "18" type = "motor"  jointName = "Leg3_Leg4" />
    <neuron name = "19" type = "motor"  jointName = "Leg4_Leg5" />
    <neuron name = "20" type = "motor"  jointName = "Leg5_Leg6" />
    <neuron name = "21" type = "motor"  jointName = "Leg3_Leg7" />
    <neuron name = "22" type = "motor"  jointName = "Leg6_Leg8" />
    <neuron name = "23" type = "motor"  jointName = "Leg8_Leg9" />
    <neuron name = "24" type = "motor"  jointName = "Leg7_Leg10" />
    <neuron name = "25" type = "motor"  jointName = "Leg6_Leg11" />
    <neuron name = "26" type = "motor"  jointName = "Leg10_Leg12" />
    <neuron name = "27" type = "motor"  jointName = "Leg10_Leg13" />
    <neuron name = "28" type = "motor"  jointName = "Torso_Leg14" />
    <neuron name = "29" type = "motor"  jointName = "Leg3_Leg15" />
    <neuron name = "30" type = "motor"  jointName = "Leg4_Leg16" />
    <neuron name = "31" type = "motor"  jointName = "Leg16_Leg17" />
    <neuron name = "32" type = "motor"  jointName = "Leg14_Leg18" />
    <neuron name = "33" type = "motor"  jointName = "Leg2_Leg19" />
    <neuron name = "34" type = "motor"  jointName = "Leg19_Leg20" />
    <neuron name = "35" type = "motor"  jointName = "Leg12_Leg21" />
    <neuron name = "36" type = "motor"  jointName = "Leg9_Leg22" />
    <neuron name = "37" type = "motor"  jointName = "Leg15_Leg23" />
    <neuron name = "38" type = "motor"  jointName = "Leg22_Leg24" />
    <neuron name = "39" type = "motor"  jointName = "Leg11_Leg25" />
    <synapse sourceNeuronName = "0" targetNeuronName = "15" weight = "15.578166165739233" />
    <synapse sourceNeuronName = "0" targetNeuronName = "16" weight = "17.44957511866962" />
    <synapse sourceNeuronName = "0" targetNeuronName = "17" weight = "17.77017838152373" />
    <synapse sourceNeuronName = "0" targetNeuronName = "18" weight = "9.267023782940612" />
    <synapse sourceNeuronName = "0" targetNeuronName = "19" weight = "8.630803337081357" />
    <synapse sourceNeuronName = "0" targetNeuronName = "20" weight = "6.459201118805242" />
    <synapse sourceNeuronName = "0" targetNeuronName = "21" weight = "3.357138663377633" />
    <synapse sourceNeuronName = "0" targetNeuronName = "22" weight = "5.335664710446415" />
    <synapse sourceNeuronName = "0" targetNeuronName = "23" weight = "22.14307844721908" />
    <synapse sourceNeuronName = "0" targetNeuronName = "24" weight = "21.49045271967591" />
    <synapse sourceNeuronName = "0" targetNeuronName = "25" weight = "10.136308853063825" />
    <synapse sourceNeuronName = "0" targetNeuronName = "26" weight = "21.111785415757428" />
    <synapse sourceNeuronName = "0" targetNeuronName = "27" weight = "7.4473170504962365" />
    <synapse sourceNeuronName = "0" targetNeuronName = "28" weight = "8.37982213106936" />
    <synapse sourceNeuronName = "0" targetNeuronName = "29" weight = "23.19517659400677" />
    <synapse sourceNeuronName = "0" targetNeuronName = "30" weight = "10.799503286987811" />
    <synapse sourceNeuronName = "0" targetNeuronName = "31" weight = "12.6647939514232" />
    <synapse sourceNeuronName = "0" targetNeuronName = "32" weight = "20.87303658549532" />
    <synapse sourceNeuronName = "0" targetNeuronName = "33" weight = "15.25273026322403" />
    <synapse sourceNeuronName = "0" targetNeuronName = "34" weight = "5.493677214848004" />
    <synapse sourceNeuronName = "0" targetNeuronName = "35" weight = "1.126545519810091" />
    <synapse sourceNeuronName = "0" targetNeuronName = "36" weight = "23.043534219805824" />
    <synapse sourceNeuronName = "0" targetNeuronName = "37" weight = "21.295474442933923" />
    <synapse sourceNeuronName = "0" targetNeuronName = "38" weight = "16.29749189085867" />
    <synapse sourceNeuronName = "0" targetNeuronName = "39" weight = "-0.32962937699854056" />
    <synapse sourceNeuronName = "1" targetNeuronName = "15" weight = "16.170442889537398" />
    <synapse sourceNeuronName = "1" targetNeuronName = "16" weight = "11.499516751421208" />
    <synapse sourceNeuronName = "1" targetNeuronName = "17" weight = "7.801356909638283" />
    <synapse sourceNeuronName = "1" targetNeuronName = "18" weight = "21.02064205516059" />
    <synapse sourceNeuronName = "1" targetNeuronName = "19" weight = "17.040586393573975" />
    <synapse sourceNeuronName = "1" targetNeuronName = "20" weight = "1.8633663649200058" />
    <synapse sourceNeuronName = "1" targetNeuronName = "21" weight = "22.33228707991343" />
    <synapse sourceNeuronName = "1" targetNeuronName = "22" weight = "6.907915223045367" />
    <synapse sourceNeuronName = "1" targetNeuronName = "23" weight = "20.222640922913925" />
    <synapse sourceNeuronName = "1" targetNeuronName = "24" weight = "22.838598344622458" />
    <synapse sourceNeuronName = "1" targetNeuronName = "25" weight = "23.132242136557945" />
    <synapse sourceNeuronName = "1" targetNeuronName = "26" weight = "11.825678645533134" />
    <synapse sourceNeuronName = "1" targetNeuronName = "27" weight = "18.18599307363824" />
    <synapse sourceNeuronName = "1" targetNeuronName = "28" weight = "13.784023248875695" />
    <synapse sourceNeuronName = "1" targetNeuronName = "29" weight = "19.185581184902563" />
    <synapse sourceNeuronName = "1" targetNeuronName = "30" weight = "-0.8868930310669007" />
    <synapse sourceNeuronName = "1" targetNeuronName = "31" weight = "8.6747799687613" />
    <synapse sourceNeuronName = "1" targetNeuronName = "32" weight = "21.80264771576229" />
    <synapse sourceNeuronName = "1" targetNeuronName = "33" weight = "4.275537202620403" />
    <synapse sourceNeuronName = "1" targetNeuronName = "34" weight = "4.480383989472684" />
    <synapse sourceNeuronName = "1" targetNeuronName = "35" weight = "0.0420493394329573" />
    <synapse sourceNeuronName = "1" targetNeuronName = "36" weight = "16.918687910435356" />
    <synapse sourceNeuronName = "1" targetNeuronName = "37" weight = "11.928776725668984" />
    <synapse sourceNeuronName = "1" targetNeuronName = "38" weight = "18.437896787149935" />
    <synapse sourceNeuronName = "1" targetNeuronName = "39" weight = "11.211515373086518" />
    <synapse sourceNeuronName = "2" targetNeuronName = "15" weight = "8.537612944580376" />
    <synapse sourceNeuronName = "2" targetNeuronName = "16" weight = "22.56563945895267" />
    <synapse sourceNeuronName = "2" targetNeuronName = "17" weight = "1.9465314607277056" />
    <synapse sourceNeuronName = "2" targetNeuronName = "18" weight = "13.816948941365274" />
    <synapse sourceNeuronName = "2" targetNeuronName = "19" weight = "22.523852355562894" />
    <synapse sourceNeuronName = "2" targetNeuronName = "20" weight = "16.4768225409845" />
    <synapse sourceNeuronName = "2" targetNeuronName = "21" weight = "19.695918588512725" />
    <synapse sourceNeuronName = "2" targetNeuronName = "22" weight = "20.586969677952315" />
    <synapse sourceNeuronName = "2" targetNeuronName = "23" weight = "-0.5186493035553149" />
    <synapse sourceNeuronName = "2" targetNeuronName = "24" weight = "8.518663566892677" />
    <synapse sourceNeuronName = "2" targetNeuronName = "25" weight = "6.376651987244218" />
    <synapse sourceNeuronName = "2" targetNeuronName = "26" weight = "2.767253343387375" />
    <synapse sourceNeuronName = "2" targetNeuronName = "27" weight = "2.652593315918659" />
    <synapse sourceNeuronName = "2" targetNeuronName = "28" weight = "17.21190603845226" />
    <synapse sourceNeuronName = "2" targetNeuronName = "29" weight = "17.725292315635407" />
    <synapse sourceNeuronName = "2" targetNeuronName = "30" weight = "18.717614217121596" />
    <synapse sourceNeuronName = "2" targetNeuronName = "31" weight = "18.22271694189812" />
    <synapse sourceNeuronName = "2" targetNeuronName = "32" weight = "8.169263535357345" />
    <synapse sourceNeuronName = "2" targetNeuronName = "33" weight = "18.517691325266696" />
    <synapse sourceNeuronName = "2" targetNeuronName = "34" weight = "1.3351621907377549" />
    <synapse sourceNeuronName = "2" targetNeuronName = "35" weight = "-0.5823910274354546" />
    <synapse sourceNeuronName = "2" targetNeuronName = "36" weight = "11.850340033462764" />
    <synapse sourceNeuronName = "2" targetNeuronName = "37" weight = "7.904557194912655" />
    <synapse sourceNeuronName = "2" targetNeuronName = "38" weight = "23.678459460236486" />
    <synapse sourceNeuronName = "2" targetNeuronName = "39" weight = "7.346469364233622" />
    <synapse sourceNeuronName = "3" targetNeuronName = "15" weight = "19.488343209951772" />
    <synapse sourceNeuronName = "3" targetNeuronName = "16" weight = "1.2772222743932784" />
    <synapse sourceNeuronName = "3" targetNeuronName = "17" weight = "14.617157849439778" />
    <synapse sourceNeuronName = "3" targetNeuronName = "18" weight = "0.9057834196120615" />
    <synapse sourceNeuronName = "3" targetNeuronName = "19" weight = "14.628148965980998" />
    <synapse sourceNeuronName = "3" targetNeuronName = "20" weight = "13.533683245594794" />
    <synapse sourceNeuronName = "3" targetNeuronName = "21" weight = "20.51738808430821" />
    <synapse sourceNeuronName = "3" targetNeuronName = "22" weight = "2.223137128107345" />
    <synapse sourceNeuronName = "3" targetNeuronName = "23" weight = "20.869335301105167" />
    <synapse sourceNeuronName = "3" targetNeuronName = "24" weight = "3.3301074422961214" />
    <synapse sourceNeuronName = "3" targetNeuronName = "25" weight = "21.588483953749417" />
    <synapse sourceNeuronName = "3" targetNeuronName = "26" weight = "-0.6139119463050365" />
    <synapse sourceNeuronName = "3" targetNeuronName = "27" weight = "1.3947519922503075" />
    <synapse sourceNeuronName = "3" targetNeuronName = "28" weight = "17.85887624808308" />
    <synapse sourceNeuronName = "3" targetNeuronName = "29" weight = "18.569293103538634" />
    <synapse sourceNeuronName = "3" targetNeuronName = "30" weight = "12.47340807235446" />
    <synapse sourceNeuronName = "3" targetNeuronName = "31" weight = "18.707955673799795" />
    <synapse sourceNeuronName = "3" targetNeuronName = "32" weight = "8.070611600654818" />
    <synapse sourceNeuronName = "3" targetNeuronName = "33" weight = "4.082311718066587" />
    <synapse sourceNeuronName = "3" targetNeuronName = "34" weight = "2.818512176629449" />
    <synapse sourceNeuronName = "3" targetNeuronName = "35" weight = "0.3582822402939898" />
    <synapse sourceNeuronName = "3" targetNeuronName = "36" weight = "20.49484451266922" />
    <synapse sourceNeuronName = "3" targetNeuronName = "37" weight = "23.004828596793196" />
    <synapse sourceNeuronName = "3" targetNeuronName = "38" weight = "11.269474476275263" />
    <synapse sourceNeuronName = "3" targetNeuronName = "39" weight = "5.000403358359577" />
    <synapse sourceNeuronName = "4" targetNeuronName = "15" weight = "6.5514598211152615" />
    <synapse sourceNeuronName = "4" targetNeuronName = "16" weight = "22.54249937955086" />
    <synapse sourceNeuronName = "4" targetNeuronName = "17" weight = "12.540830381759344" />
    <synapse sourceNeuronName = "4" targetNeuronName = "18" weight = "0.2107146571228493" />
    <synapse sourceNeuronName = "4" targetNeuronName = "19" weight = "16.05855321154324" />
    <synapse sourceNeuronName = "4" targetNeuronName = "20" weight = "9.002856848725864" />
    <synapse sourceNeuronName = "4" targetNeuronName = "21" weight = "8.850155624721582" />
    <synapse sourceNeuronName = "4" targetNeuronName = "22" weight = "18.521872110427942" />
    <synapse sourceNeuronName = "4" targetNeuronName = "23" weight = "16.409877972098368" />
    <synapse sourceNeuronName = "4" targetNeuronName = "24" weight = "0.8759628900168412" />
    <synapse sourceNeuronName = "4" targetNeuronName = "25" weight = "5.840600293589177" />
    <synapse sourceNeuronName = "4" targetNeuronName = "26" weight = "9.263339257840196" />
    <synapse sourceNeuronName = "4" targetNeuronName = "27" weight = "5.74386927553145" />
    <synapse sourceNeuronName = "4" targetNeuronName = "28" weight = "12.598633165430854" />
    <synapse sourceNeuronName = "4" targetNeuronName = "29" weight = "19.018706564965107" />
    <synapse sourceNeuronName = "4" targetNeuronName = "30" weight = "1.9261588519223531" />
    <synapse sourceNeuronName = "4" targetNeuronName = "31" weight = "9.834327788133855" />
    <synapse sourceNeuronName = "4" targetNeuronName = "32" weight = "23.94724454143586" />
    <synapse sourceNeuronName = "4" targetNeuronName = "33" weight = "15.86605631937558" />
    <synapse sourceNeuronName = "4" targetNeuronName = "34" weight = "4.046362845969357" />
    <synapse sourceNeuronName = "4" targetNeuronName = "35" weight = "5.159154564907715" />
    <synapse sourceNeuronName = "4" targetNeuronName = "36" weight = "20.23584038649232" />
    <synapse sourceNeuronName = "4" targetNeuronName = "37" weight = "0.8823255436560742" />
    <synapse sourceNeuronName = "4" targetNeuronName = "38" weight = "4.85591862558674" />
    <synapse sourceNeuronName = "4" targetNeuronName = "39" weight = "14.802202504561313" />
    <synapse sourceNeuronName = "5" targetNeuronName = "15" weight = "13.324747501804003" />
    <synapse sourceNeuronName = "5" targetNeuronName = "16" weight = "16.755979359665318" />
    <synapse sourceNeuronName = "5" targetNeuronName = "17" weight = "8.571835992226443" />
    <synapse sourceNeuronName = "5" targetNeuronName = "18" weight = "2.9837676807311957" />
    <synapse sourceNeuronName = "5" targetNeuronName = "19" weight = "5.151254801766207" />
    <synapse sourceNeuronName = "5" targetNeuronName = "20" weight = "0.9509459952683494" />
    <synapse sourceNeuronName = "5" targetNeuronName = "21" weight = "3.8443151039866965" />
    <synapse sourceNeuronName = "5" targetNeuronName = "22" weight = "11.47393065693757" />
    <synapse sourceNeuronName = "5" targetNeuronName = "23" weight = "1.162897040862108" />
    <synapse sourceNeuronName = "5" targetNeuronName = "24" weight = "0.8199057071372344" />
    <synapse sourceNeuronName = "5" targetNeuronName = "25" weight = "17.025985018908404" />
    <synapse sourceNeuronName = "5" targetNeuronName = "26" weight = "1.9144377999908238" />
    <synapse sourceNeuronName = "5" targetNeuronName = "27" weight = "4.794164220158046" />
    <synapse sourceNeuronName = "5" targetNeuronName = "28" weight = "7.190909629700521" />
    <synapse sourceNeuronName = "5" targetNeuronName = "29" weight = "12.078441543116504" />
    <synapse sourceNeuronName = "5" targetNeuronName = "30" weight = "5.247145490275844" />
    <synapse sourceNeuronName = "5" targetNeuronName = "31" weight = "0.1320032327931273" />
    <synapse sourceNeuronName = "5" targetNeuronName = "32" weight = "0.3776627918994726" />
    <synapse sourceNeuronName = "5" targetNeuronName = "33" weight = "10.131774114025902" />
    <synapse sourceNeuronName = "5" targetNeuronName = "34" weight = "21.06004383192867" />
    <synapse sourceNeuronName = "5" targetNeuronName = "35" weight = "22.301367244513518" />
    <synapse sourceNeuronName = "5" targetNeuronName = "36" weight = "11.269020940840633" />
    <synapse sourceNeuronName = "5" targetNeuronName = "37" weight = "2.0681157658533467" />
    <synapse sourceNeuronName = "5" targetNeuronName = "38" weight = "16.8290804402637" />
    <synapse sourceNeuronName = "5" targetNeuronName = "39" weight = "8.377092401743658" />
    <synapse sourceNeuronName = "6" targetNeuronName = "15" weight = "9.4962410206563" />
    <synapse sourceNeuronName = "6" targetNeuronName = "16" weight = "1.4040516255538575" />
    <synapse sourceNeuronName = "6" targetNeuronName = "17" weight = "11.979049100755418" />
    <synapse sourceNeuronName = "6" targetNeuronName = "18" weight = "3.6502465054040405" />
    <synapse sourceNeuronName = "6" targetNeuronName = "19" weight = "11.716045874979992" />
    <synapse sourceNeuronName = "6" targetNeuronName = "20" weight = "9.61468853705459" />
    <synapse sourceNeuronName = "6" targetNeuronName = "21" weight = "3.8041428858150494" />
    <synapse sourceNeuronName = "6" targetNeuronName = "22" weight = "7.460487818792551" />
    <synapse sourceNeuronName = "6" targetNeuronName = "23" weight = "12.796201782216563" />
    <synapse sourceNeuronName = "6" targetNeuronName = "24" weight = "5.698021251303879" />
    <synapse sourceNeuronName = "6" targetNeuronName = "25" weight = "16.318546382756857" />
    <synapse sourceNeuronName = "6" targetNeuronName = "26" weight = "11.604358220938222" />
    <synapse sourceNeuronName = "6" targetNeuronName = "27" weight = "1.2248331633873435" />
    <synapse sourceNeuronName = "6" targetNeuronName = "28" weight = "8.021000002861474" />
    <synapse sourceNeuronName = "6" targetNeuronName = "29" weight = "4.0170272575868395" />
    <synapse sourceNeuronName = "6" targetNeuronName = "30" weight = "14.961202793994486" />
    <synapse sourceNeuronName = "6" targetNeuronName = "31" weight = "5.570389737238242" />
    <synapse sourceNeuronName = "6" targetNeuronName = "32" weight = "0.9559761791945323" />
    <synapse sourceNeuronName = "6" targetNeuronName = "33" weight = "18.58305289226268" />
    <synapse sourceNeuronName = "6" targetNeuronName = "34" weight = "6.211328137663897" />
    <synapse sourceNeuronName = "6" targetNeuronName = "35" weight = "17.337440135481273" />
    <synapse sourceNeuronName = "6" targetNeuronName = "36" weight = "21.377277450766844" />
    <synapse sourceNeuronName = "6" targetNeuronName = "37" weight = "8.09402273387874" />
    <synapse sourceNeuronName = "6" targetNeuronName = "38" weight = "0.699527429343628" />
    <synapse sourceNeuronName = "6" targetNeuronName = "39" weight = "7.461569645306646" />
    <synapse sourceNeuronName = "7" targetNeuronName = "15" weight = "23.899950610870476" />
    <synapse sourceNeuronName = "7" targetNeuronName = "16" weight = "0.3545422712089499" />
    <synapse sourceNeuronName = "7" targetNeuronName = "17" weight = "10.583384559241264" />
    <synapse sourceNeuronName = "7" targetNeuronName = "18" weight = "14.19135760764018" />
    <synapse sourceNeuronName = "7" targetNeuronName = "19" weight = "3.4019210167246747" />
    <synapse sourceNeuronName = "7" targetNeuronName = "20" weight = "9.378938704329817" />
    <synapse sourceNeuronName = "7" targetNeuronName = "21" weight = "1.1367448550351273" />
    <synapse sourceNeuronName = "7" targetNeuronName = "22" weight = "13.28689748270124" />
    <synapse sourceNeuronName = "7" targetNeuronName = "23" weight = "0.052993744907679385" />
    <synapse sourceNeuronName = "7" targetNeuronName = "24" weight = "9.428371547929324" />
    <synapse sourceNeuronName = "7" targetNeuronName = "25" weight = "3.6785106562116097" />
    <synapse sourceNeuronName = "7" targetNeuronName = "26" weight = "14.311652978556184" />
    <synapse sourceNeuronName = "7" targetNeuronName = "27" weight = "20.61514173810138" />
    <synapse sourceNeuronName = "7" targetNeuronName = "28" weight = "0.7317733743552555" />
    <synapse sourceNeuronName = "7" targetNeuronName = "29" weight = "14.935801904985288" />
    <synapse sourceNeuronName = "7" targetNeuronName = "30" weight = "11.637332341669996" />
    <synapse sourceNeuronName = "7" targetNeuronName = "31" weight = "6.7407813634284475" />
    <synapse sourceNeuronName = "7" targetNeuronName = "32" weight = "18.221028614934276" />
    <synapse sourceNeuronName = "7" targetNeuronName = "33" weight = "8.751096299737611" />
    <synapse sourceNeuronName = "7" targetNeuronName = "34" weight = "21.913758866800272" />
    <synapse sourceNeuronName = "7" targetNeuronName = "35" weight = "18.126098915209564" />
    <synapse sourceNeuronName = "7" targetNeuronName = "36" weight = "17.404873856974184" />
    <synapse sourceNeuronName = "7" targetNeuronName = "37" weight = "20.61148459180388" />
    <synapse sourceNeuronName = "7" targetNeuronName = "38" weight = "2.5610515351066407" />
    <synapse sourceNeuronName = "7" targetNeuronName = "39" weight = "21.337429852766107" />
    <synapse sourceNeuronName = "8" targetNeuronName = "15" weight = "14.459141786554323" />
    <synapse sourceNeuronName = "8" targetNeuronName = "16" weight = "15.233495274316933" />
    <synapse sourceNeuronName = "8" targetNeuronName = "17" weight = "7.662680483889771" />
    <synapse sourceNeuronName = "8" targetNeuronName = "18" weight = "2.4474278843133117" />
    <synapse sourceNeuronName = "8" targetNeuronName = "19" weight = "2.398580697038395" />
    <synapse sourceNeuronName = "8" targetNeuronName = "20" weight = "7.301980361607011" />
    <synapse sourceNeuronName = "8" targetNeuronName = "21" weight = "14.234997267390332" />
    <synapse sourceNeuronName = "8" targetNeuronName = "22" weight = "21.76301903198416" />
    <synapse sourceNeuronName = "8" targetNeuronName = "23" weight = "2.580677806278043" />
    <synapse sourceNeuronName = "8" targetNeuronName = "24" weight = "11.375236462056069" />
    <synapse sourceNeuronName = "8" targetNeuronName = "25" weight = "13.820870364275349" />
    <synapse sourceNeuronName = "8" targetNeuronName = "26" weight = "23.705475257615536" />
    <synapse sourceNeuronName = "8" targetNeuronName = "27" weight = "4.997165127073082" />
    <synapse sourceNeuronName = "8" targetNeuronName = "28" weight = "10.962220528503432" />
    <synapse sourceNeuronName = "8" targetNeuronName = "29" weight = "14.18395443853632" />
    <synapse sourceNeuronName = "8" targetNeuronName = "30" weight = "23.350090995335176" />
    <synapse sourceNeuronName = "8" targetNeuronName = "31" weight = "13.668183960900164" />
    <synapse sourceNeuronName = "8" targetNeuronName = "32" weight = "5.187871667488673" />
    <synapse sourceNeuronName = "8" targetNeuronName = "33" weight = "4.096344489730839" />
    <synapse sourceNeuronName = "8" targetNeuronName = "34" weight = "4.282186266161334" />
    <synapse sourceNeuronName = "8" targetNeuronName = "35" weight = "3.1368107158417073" />
    <synapse sourceNeuronName = "8" targetNeuronName = "36" weight = "19.124109565049555" />
    <synapse sourceNeuronName = "8" targetNeuronName = "37" weight = "3.647654680838712" />
    <synapse sourceNeuronName = "8" targetNeuronName = "38" weight = "14.906042128939877" />
    <synapse sourceNeuronName = "8" targetNeuronName = "39" weight = "4.27231897983422" />
    <synapse sourceNeuronName = "9" targetNeuronName = "15" weight = "6.928031091131945" />
    <synapse sourceNeuronName = "9" targetNeuronName = "16" weight = "7.187941985204317" />
    <synapse sourceNeuronName = "9" targetNeuronName = "17" weight = "21.535799866328183" />
    <synapse sourceNeuronName = "9" targetNeuronName = "18" weight = "18.08664890075963" />
    <synapse sourceNeuronName = "9" targetNeuronName = "19" weight = "3.929192600546389" />
    <synapse sourceNeuronName = "9" targetNeuronName = "20" weight = "3.2422562303912033" />
    <synapse sourceNeuronName = "9" targetNeuronName = "21" weight = "22.625694868091905" />
    <synapse sourceNeuronName = "9" targetNeuronName = "22" weight = "17.53908092439987" />
    <synapse sourceNeuronName = "9" targetNeuronName = "23" weight = "12.290123426663857" />
    <synapse sourceNeuronName = "9" targetNeuronName = "24" weight = "-0.8943469505602893" />
    <synapse sourceNeuronName = "9" targetNeuronName = "25" weight = "22.484922595101523" />
    <synapse sourceNeuronName = "9" targetNeuronName = "26" weight = "0.0275672236586737" />
    <synapse sourceNeuronName = "9" targetNeuronName = "27" weight = "22.94998244726827" />
    <synapse sourceNeuronName = "9" targetNeuronName = "28" weight = "16.827112072396254" />
    <synapse sourceNeuronName = "9" targetNeuronName = "29" weight = "22.450997110172246" />
    <synapse sourceNeuronName = "9" targetNeuronName = "30" weight = "17.78311745284977" />
    <synapse sourceNeuronName = "9" targetNeuronName = "31" weight = "22.25108543925552" />
    <synapse sourceNeuronName = "9" targetNeuronName = "32" weight = "20.33352313252047" />
    <synapse sourceNeuronName = "9" targetNeuronName = "33" weight = "20.2289767194636" />
    <synapse sourceNeuronName = "9" targetNeuronName = "34" weight = "4.667045819499808" />
    <synapse sourceNeuronName = "9" targetNeuronName = "35" weight = "9.907871990754863" />
    <synapse sourceNeuronName = "9" targetNeuronName = "36" weight = "7.933977174448094" />
    <synapse sourceNeuronName = "9" targetNeuronName = "37" weight = "8.83865324262722" />
    <synapse sourceNeuronName = "9" targetNeuronName = "38" weight = "17.810965081669313" />
    <synapse sourceNeuronName = "9" targetNeuronName = "39" weight = "4.524728817119207" />
    <synapse sourceNeuronName = "10" targetNeuronName = "15" weight = "-0.22037679996352222" />
    <synapse sourceNeuronName = "10" targetNeuronName = "16" weight = "20.712935334060855" />
    <synapse sourceNeuronName = "10" targetNeuronName = "17" weight = "10.952654479910363" />
    <synapse sourceNeuronName = "10" targetNeuronName = "18" weight = "18.2499008335351" />
    <synapse sourceNeuronName = "10" targetNeuronName = "19" weight = "21.893638348728334" />
    <synapse sourceNeuronName = "10" targetNeuronName = "20" weight = "17.744890765887433" />
    <synapse sourceNeuronName = "10" targetNeuronName = "21" weight = "23.721961346088662" />
    <synapse sourceNeuronName = "10" targetNeuronName = "22" weight = "21.926537602475715" />
    <synapse sourceNeuronName = "10" targetNeuronName = "23" weight = "3.547850513955021" />
    <synapse sourceNeuronName = "10" targetNeuronName = "24" weight = "21.75228021332666" />
    <synapse sourceNeuronName = "10" targetNeuronName = "25" weight = "18.13186110405953" />
    <synapse sourceNeuronName = "10" targetNeuronName = "26" weight = "6.28051893588203" />
    <synapse sourceNeuronName = "10" targetNeuronName = "27" weight = "21.130130898542745" />
    <synapse sourceNeuronName = "10" targetNeuronName = "28" weight = "18.728448524899182" />
    <synapse sourceNeuronName = "10" targetNeuronName = "29" weight = "10.10052273878571" />
    <synapse sourceNeuronName = "10" targetNeuronName = "30" weight = "5.861724983546641" />
    <synapse sourceNeuronName = "10" targetNeuronName = "31" weight = "23.114985174651867" />
    <synapse sourceNeuronName = "10" targetNeuronName = "32" weight = "4.707536427434778" />
    <synapse sourceNeuronName = "10" targetNeuronName = "33" weight = "1.8172181554826095" />
    <synapse sourceNeuronName = "10" targetNeuronName = "34" weight = "11.585283944272902" />
    <synapse sourceNeuronName = "10" targetNeuronName = "35" weight = "14.891583089306655" />
    <synapse sourceNeuronName = "10" targetNeuronName = "36" weight = "13.527672990185394" />
    <synapse sourceNeuronName = "10" targetNeuronName = "37" weight = "4.634791717140511" />
    <synapse sourceNeuronName = "10" targetNeuronName = "38" weight = "10.216972551671715" />
    <synapse sourceNeuronName = "10" targetNeuronName = "39" weight = "-0.20289796461346787" />
    <synapse sourceNeuronName = "11" targetNeuronName = "15" weight = "23.73535696108109" />
    <synapse sourceNeuronName = "11" targetNeuronName = "16" weight = "15.443179811432667" />
    <synapse sourceNeuronName = "11" targetNeuronName = "17" weight = "1.1930973964847835" />
    <synapse sourceNeuronName = "11" targetNeuronName = "18" weight = "13.035938680375098" />
    <synapse sourceNeuronName = "11" targetNeuronName = "19" weight = "8.31514057112672" />
    <synapse sourceNeuronName = "11" targetNeuronName = "20" weight = "13.241783394093627" />
    <synapse sourceNeuronName = "11" targetNeuronName = "21" weight = "17.27470702545273" />
    <synapse sourceNeuronName = "11" targetNeuronName = "22" weight = "0.8916153217424958" />
    <synapse sourceNeuronName = "11" targetNeuronName = "23" weight = "5.885065636628173" />
    <synapse sourceNeuronName = "11" targetNeuronName = "24" weight = "15.218485689704355" />
    <synapse sourceNeuronName = "11" targetNeuronName = "25" weight = "8.635754334492965" />
    <synapse sourceNeuronName = "11" targetNeuronName = "26" weight = "11.415390240724019" />
    <synapse sourceNeuronName = "11" targetNeuronName = "27" weight = "5.035074447518676" />
    <synapse sourceNeuronName = "11" targetNeuronName = "28" weight = "20.704329224225663" />
    <synapse sourceNeuronName = "11" targetNeuronName = "29" weight = "15.63383035668274" />
    <synapse sourceNeuronName = "11" targetNeuronName = "30" weight = "8.747327955173542" />
    <synapse sourceNeuronName = "11" targetNeuronName = "31" weight = "21.81713027220104" />
    <synapse sourceNeuronName = "11" targetNeuronName = "32" weight = "11.514085508783573" />
    <synapse sourceNeuronName = "11" targetNeuronName = "33" weight = "1.4763000004810047" />
    <synapse sourceNeuronName = "11" targetNeuronName = "34" weight = "16.509514140240444" />
    <synapse sourceNeuronName = "11" targetNeuronName = "35" weight = "3.42852868986828" />
    <synapse sourceNeuronName = "11" targetNeuronName = "36" weight = "4.144767292304089" />
    <synapse sourceNeuronName = "11" targetNeuronName = "37" weight = "10.466803639534447" />
    <synapse sourceNeuronName = "11" targetNeuronName = "38" weight = "13.218228946471022" />
    <synapse sourceNeuronName = "11" targetNeuronName = "39" weight = "23.82592842822936" />
    <synapse sourceNeuronName = "12" targetNeuronName = "15" weight = "20.131380934434116" />
    <synapse sourceNeuronName = "12" targetNeuronName = "16" weight = "15.389771218265654" />
    <synapse sourceNeuronName = "12" targetNeuronName = "17" weight = "23.088747337562875" />
    <synapse sourceNeuronName = "12" targetNeuronName = "18" weight = "14.153078212385266" />
    <synapse sourceNeuronName = "12" targetNeuronName = "19" weight = "17.839627785624653" />
    <synapse sourceNeuronName = "12" targetNeuronName = "20" weight = "8.168317299752903" />
    <synapse sourceNeuronName = "12" targetNeuronName = "21" weight = "22.847806965126527" />
    <synapse sourceNeuronName = "12" targetNeuronName = "22" weight = "4.70502274244129" />
    <synapse sourceNeuronName = "12" targetNeuronName = "23" weight = "14.365113631695431" />
    <synapse sourceNeuronName = "12" targetNeuronName = "24" weight = "0.9839944219900292" />
    <synapse sourceNeuronName = "12" targetNeuronName = "25" weight = "12.918455614972489" />
    <synapse sourceNeuronName = "12" targetNeuronName = "26" weight = "19.480061377593316" />
    <synapse sourceNeuronName = "12" targetNeuronName = "27" weight = "10.286995248216842" />
    <synapse sourceNeuronName = "12" targetNeuronName = "28" weight = "-0.27633875130086605" />
    <synapse sourceNeuronName = "12" targetNeuronName = "29" weight = "16.88610151991927" />
    <synapse sourceNeuronName = "12" targetNeuronName = "30" weight = "23.195777315467076" />
    <synapse sourceNeuronName = "12" targetNeuronName = "31" weight = "14.963677410795112" />
    <synapse sourceNeuronName = "12" targetNeuronName = "32" weight = "12.974834097256148" />
    <synapse sourceNeuronName = "12" targetNeuronName = "33" weight = "2.7809659198823313" />
    <synapse sourceNeuronName = "12" targetNeuronName = "34" weight = "5.228950949262374" />
    <synapse sourceNeuronName = "12" targetNeuronName = "35" weight = "13.968950900670947" />
    <synapse sourceNeuronName = "12" targetNeuronName = "36" weight = "16.504320750051885" />
    <synapse sourceNeuronName = "12" targetNeuronName = "37" weight = "21.066255248190387" />
    <synapse sourceNeuronName = "12" targetNeuronName = "38" weight = "17.554613675424495" />
    <synapse sourceNeuronName = "12" targetNeuronName = "39" weight = "17.69921842919251" />
    <synapse sourceNeuronName = "13" targetNeuronName = "15" weight = "16.558167485115394" />
    <synapse sourceNeuronName = "13" targetNeuronName = "16" weight = "14.312960131524719" />
    <synapse sourceNeuronName = "13" targetNeuronName = "17" weight = "23.75851932639945" />
    <synapse sourceNeuronName = "13" targetNeuronName = "18" weight = "0.44886329286633697" />
    <synapse sourceNeuronName = "13" targetNeuronName = "19" weight = "6.770365006025087" />
    <synapse sourceNeuronName = "13" targetNeuronName = "20" weight = "-0.42777758792212817" />
    <synapse sourceNeuronName = "13" targetNeuronName = "21" weight = "4.408295275643482" />
    <synapse sourceNeuronName = "13" targetNeuronName = "22" weight = "0.6389976422322983" />
    <synapse sourceNeuronName = "13" targetNeuronName = "23" weight = "3.8065128019723566" />
    <synapse sourceNeuronName = "13" targetNeuronName = "24" weight = "23.703445901687687" />
    <synapse sourceNeuronName = "13" targetNeuronName = "25" weight = "13.68168713243014" />
    <synapse sourceNeuronName = "13" targetNeuronName = "26" weight = "7.401944368344406" />
    <synapse sourceNeuronName = "13" targetNeuronName = "27" weight = "8.827519043538668" />
    <synapse sourceNeuronName = "13" targetNeuronName = "28" weight = "7.378339892576591" />
    <synapse sourceNeuronName = "13" targetNeuronName = "29" weight = "22.77941646312844" />
    <synapse sourceNeuronName = "13" targetNeuronName = "30" weight = "14.782026751359005" />
    <synapse sourceNeuronName = "13" targetNeuronName = "31" weight = "8.4934888971232" />
    <synapse sourceNeuronName = "13" targetNeuronName = "32" weight = "11.850863249360406" />
    <synapse sourceNeuronName = "13" targetNeuronName = "33" weight = "6.739716180995146" />
    <synapse sourceNeuronName = "13" targetNeuronName = "34" weight = "21.35931990757317" />
    <synapse sourceNeuronName = "13" targetNeuronName = "35" weight = "12.45329598625325" />
    <synapse sourceNeuronName = "13" targetNeuronName = "36" weight = "9.481317058193193" />
    <synapse sourceNeuronName = "13" targetNeuronName = "37" weight = "10.929479322658649" />
    <synapse sourceNeuronName = "13" targetNeuronName = "38" weight = "11.288795795632534" />
    <synapse sourceNeuronName = "13" targetNeuronName = "39" weight = "20.532048280299385" />
    <synapse sourceNeuronName = "14" targetNeuronName = "15" weight = "-0.8596661267563079" />
    <synapse sourceNeuronName = "14" targetNeuronName = "16" weight = "-0.2895811602489714" />
    <synapse sourceNeuronName = "14" targetNeuronName = "17" weight = "11.835763645022185" />
    <synapse sourceNeuronName = "14" targetNeuronName = "18" weight = "12.27116907757699" />
    <synapse sourceNeuronName = "14" targetNeuronName = "19" weight = "0.43747014918879934" />
    <synapse sourceNeuronName = "14" targetNeuronName = "20" weight = "20.00957144093655" />
    <synapse sourceNeuronName = "14" targetNeuronName = "21" weight = "-0.8033325070217414" />
    <synapse sourceNeuronName = "14" targetNeuronName = "22" weight = "18.60266617644077" />
    <synapse sourceNeuronName = "14" targetNeuronName = "23" weight = "1.3565023094205078" />
    <synapse sourceNeuronName = "14" targetNeuronName = "24" weight = "13.26447412571212" />
    <synapse sourceNeuronName = "14" targetNeuronName = "25" weight = "0.10699110327421568" />
    <synapse sourceNeuronName = "14" targetNeuronName = "26" weight = "5.662012473605447" />
    <synapse sourceNeuronName = "14" targetNeuronName = "27" weight = "21.785520443141003" />
    <synapse sourceNeuronName = "14" targetNeuronName = "28" weight = "0.27040721685477154" />
    <synapse sourceNeuronName = "14" targetNeuronName = "29" weight = "22.557667605088476" />
    <synapse sourceNeuronName = "14" targetNeuronName = "30" weight = "13.289242208414214" />
    <synapse sourceNeuronName = "14" targetNeuronName = "31" weight = "17.725992566833785" />
    <synapse sourceNeuronName = "14" targetNeuronName = "32" weight = "20.62099256665492" />
    <synapse sourceNeuronName = "14" targetNeuronName = "33" weight = "1.174247509573815" />
    <synapse sourceNeuronName = "14" targetNeuronName = "34" weight = "18.980641179474365" />
    <synapse sourceNeuronName = "14" targetNeuronName = "35" weight = "22.327651684228922" />
    <synapse sourceNeuronName = "14" targetNeuronName = "36" weight = "15.789610009709627" />
    <synapse sourceNeuronName = "14" targetNeuronName = "37" weight = "23.917557068348888" />
    <synapse sourceNeuronName = "14" targetNeuronName = "38" weight = "2.8240959264961267" />
    <synapse sourceNeuronName = "14" targetNeuronName = "39" weight = "20.03821497100965" />
</neuralNetwork>