<neuralNetwork>
    <neuron name = "0" type = "sensor" linkName = "Torso" />
    <neuron name = "1" type = "sensor" linkName = "Leg2" />
    <neuron name = "2" type = "sensor" linkName = "Leg3" />
    <neuron name = "3" type = "sensor" linkName = "Leg6" />
    <neuron name = "4" type = "sensor" linkName = "Leg7" />
    <neuron name = "5" type = "sensor" linkName = "Leg9" />
    <neuron name = "6" type = "sensor" linkName = "Leg11" />
    <neuron name = "7" type = "sensor" linkName = "Leg14" />
    <neuron name = "8" type = "sensor" linkName = "Leg17" />
    <neuron name = "9" type = "sensor" linkName = "Leg23" />
    <neuron name = "10" type = "sensor" linkName = "Leg27" />
    <neuron name = "11" type = "motor"  jointName = "Torso_Leg1" />
    <neuron name = "12" type = "motor"  jointName = "Torso_Leg2" />
    <neuron name = "13" type = "motor"  jointName = "Leg2_Leg3" />
    <neuron name = "14" type = "motor"  jointName = "Torso_Leg4" />
    <neuron name = "15" type = "motor"  jointName = "Leg2_Leg5" />
    <neuron name = "16" type = "motor"  jointName = "Leg3_Leg6" />
    <neuron name = "17" type = "motor"  jointName = "Leg6_Leg7" />
    <neuron name = "18" type = "motor"  jointName = "Leg1_Leg8" />
    <neuron name = "19" type = "motor"  jointName = "Leg7_Leg9" />
    <neuron name = "20" type = "motor"  jointName = "Leg8_Leg10" />
    <neuron name = "21" type = "motor"  jointName = "Leg9_Leg11" />
    <neuron name = "22" type = "motor"  jointName = "Leg5_Leg12" />
    <neuron name = "23" type = "motor"  jointName = "Leg11_Leg13" />
    <neuron name = "24" type = "motor"  jointName = "Leg4_Leg14" />
    <neuron name = "25" type = "motor"  jointName = "Leg12_Leg15" />
    <neuron name = "26" type = "motor"  jointName = "Leg5_Leg16" />
    <neuron name = "27" type = "motor"  jointName = "Leg6_Leg17" />
    <neuron name = "28" type = "motor"  jointName = "Leg16_Leg18" />
    <neuron name = "29" type = "motor"  jointName = "Leg17_Leg19" />
    <neuron name = "30" type = "motor"  jointName = "Leg19_Leg20" />
    <neuron name = "31" type = "motor"  jointName = "Leg14_Leg21" />
    <neuron name = "32" type = "motor"  jointName = "Leg4_Leg22" />
    <neuron name = "33" type = "motor"  jointName = "Leg21_Leg23" />
    <neuron name = "34" type = "motor"  jointName = "Leg13_Leg24" />
    <neuron name = "35" type = "motor"  jointName = "Leg15_Leg25" />
    <neuron name = "36" type = "motor"  jointName = "Leg18_Leg26" />
    <neuron name = "37" type = "motor"  jointName = "Leg4_Leg27" />
    <synapse sourceNeuronName = "0" targetNeuronName = "11" weight = "1.5828583879659153" />
    <synapse sourceNeuronName = "0" targetNeuronName = "12" weight = "25.827224722719663" />
    <synapse sourceNeuronName = "0" targetNeuronName = "13" weight = "2.16671099194962" />
    <synapse sourceNeuronName = "0" targetNeuronName = "14" weight = "12.757135521974174" />
    <synapse sourceNeuronName = "0" targetNeuronName = "15" weight = "22.114340318880696" />
    <synapse sourceNeuronName = "0" targetNeuronName = "16" weight = "16.416358882973803" />
    <synapse sourceNeuronName = "0" targetNeuronName = "17" weight = "0.7871117192383128" />
    <synapse sourceNeuronName = "0" targetNeuronName = "18" weight = "18.39369274458588" />
    <synapse sourceNeuronName = "0" targetNeuronName = "19" weight = "13.80525798353258" />
    <synapse sourceNeuronName = "0" targetNeuronName = "20" weight = "25.69537138904341" />
    <synapse sourceNeuronName = "0" targetNeuronName = "21" weight = "12.16450117776149" />
    <synapse sourceNeuronName = "0" targetNeuronName = "22" weight = "6.776084038356031" />
    <synapse sourceNeuronName = "0" targetNeuronName = "23" weight = "6.088975067556468" />
    <synapse sourceNeuronName = "0" targetNeuronName = "24" weight = "-0.21292561395596166" />
    <synapse sourceNeuronName = "0" targetNeuronName = "25" weight = "21.038799397412863" />
    <synapse sourceNeuronName = "0" targetNeuronName = "26" weight = "6.576421254782547" />
    <synapse sourceNeuronName = "0" targetNeuronName = "27" weight = "3.3596591514994767" />
    <synapse sourceNeuronName = "0" targetNeuronName = "28" weight = "1.7676724170229567" />
    <synapse sourceNeuronName = "0" targetNeuronName = "29" weight = "5.249138741302295" />
    <synapse sourceNeuronName = "0" targetNeuronName = "30" weight = "18.183610912627117" />
    <synapse sourceNeuronName = "0" targetNeuronName = "31" weight = "25.194644882262683" />
    <synapse sourceNeuronName = "0" targetNeuronName = "32" weight = "3.805009668937725" />
    <synapse sourceNeuronName = "0" targetNeuronName = "33" weight = "20.106534229741868" />
    <synapse sourceNeuronName = "0" targetNeuronName = "34" weight = "7.005906058778759" />
    <synapse sourceNeuronName = "0" targetNeuronName = "35" weight = "13.307794785374279" />
    <synapse sourceNeuronName = "0" targetNeuronName = "36" weight = "14.199038814213266" />
    <synapse sourceNeuronName = "0" targetNeuronName = "37" weight = "2.6077784959887595" />
    <synapse sourceNeuronName = "1" targetNeuronName = "11" weight = "-0.6920860644983466" />
    <synapse sourceNeuronName = "1" targetNeuronName = "12" weight = "4.944291539609708" />
    <synapse sourceNeuronName = "1" targetNeuronName = "13" weight = "2.212442685970752" />
    <synapse sourceNeuronName = "1" targetNeuronName = "14" weight = "23.92159725764256" />
    <synapse sourceNeuronName = "1" targetNeuronName = "15" weight = "24.068639033482743" />
    <synapse sourceNeuronName = "1" targetNeuronName = "16" weight = "4.47851487362624" />
    <synapse sourceNeuronName = "1" targetNeuronName = "17" weight = "16.582713154217096" />
    <synapse sourceNeuronName = "1" targetNeuronName = "18" weight = "8.874792015761498" />
    <synapse sourceNeuronName = "1" targetNeuronName = "19" weight = "12.218345691463368" />
    <synapse sourceNeuronName = "1" targetNeuronName = "20" weight = "10.315150979748795" />
    <synapse sourceNeuronName = "1" targetNeuronName = "21" weight = "14.04903593595381" />
    <synapse sourceNeuronName = "1" targetNeuronName = "22" weight = "19.53032063280623" />
    <synapse sourceNeuronName = "1" targetNeuronName = "23" weight = "25.582683305134697" />
    <synapse sourceNeuronName = "1" targetNeuronName = "24" weight = "9.934298058129901" />
    <synapse sourceNeuronName = "1" targetNeuronName = "25" weight = "9.138418929044715" />
    <synapse sourceNeuronName = "1" targetNeuronName = "26" weight = "19.70734440552076" />
    <synapse sourceNeuronName = "1" targetNeuronName = "27" weight = "6.711014302272488" />
    <synapse sourceNeuronName = "1" targetNeuronName = "28" weight = "12.954005121612157" />
    <synapse sourceNeuronName = "1" targetNeuronName = "29" weight = "25.06131325806393" />
    <synapse sourceNeuronName = "1" targetNeuronName = "30" weight = "4.936116361582865" />
    <synapse sourceNeuronName = "1" targetNeuronName = "31" weight = "17.006459138354565" />
    <synapse sourceNeuronName = "1" targetNeuronName = "32" weight = "19.905326998333976" />
    <synapse sourceNeuronName = "1" targetNeuronName = "33" weight = "24.83411649793013" />
    <synapse sourceNeuronName = "1" targetNeuronName = "34" weight = "15.268580951525369" />
    <synapse sourceNeuronName = "1" targetNeuronName = "35" weight = "23.425408166138073" />
    <synapse sourceNeuronName = "1" targetNeuronName = "36" weight = "9.470655040679672" />
    <synapse sourceNeuronName = "1" targetNeuronName = "37" weight = "23.9229949001507" />
    <synapse sourceNeuronName = "2" targetNeuronName = "11" weight = "15.76915133654082" />
    <synapse sourceNeuronName = "2" targetNeuronName = "12" weight = "7.9614994332975915" />
    <synapse sourceNeuronName = "2" targetNeuronName = "13" weight = "7.362025912337714" />
    <synapse sourceNeuronName = "2" targetNeuronName = "14" weight = "23.151800506617313" />
    <synapse sourceNeuronName = "2" targetNeuronName = "15" weight = "11.684366250280123" />
    <synapse sourceNeuronName = "2" targetNeuronName = "16" weight = "24.466960026838844" />
    <synapse sourceNeuronName = "2" targetNeuronName = "17" weight = "10.724737039701477" />
    <synapse sourceNeuronName = "2" targetNeuronName = "18" weight = "18.68871564910123" />
    <synapse sourceNeuronName = "2" targetNeuronName = "19" weight = "20.799001961074598" />
    <synapse sourceNeuronName = "2" targetNeuronName = "20" weight = "5.178075578180459" />
    <synapse sourceNeuronName = "2" targetNeuronName = "21" weight = "13.763997580358907" />
    <synapse sourceNeuronName = "2" targetNeuronName = "22" weight = "22.562516649395956" />
    <synapse sourceNeuronName = "2" targetNeuronName = "23" weight = "7.05888411075286" />
    <synapse sourceNeuronName = "2" targetNeuronName = "24" weight = "5.308296428703247" />
    <synapse sourceNeuronName = "2" targetNeuronName = "25" weight = "0.9940717359939086" />
    <synapse sourceNeuronName = "2" targetNeuronName = "26" weight = "0.7051597225663366" />
    <synapse sourceNeuronName = "2" targetNeuronName = "27" weight = "4.972954857838105" />
    <synapse sourceNeuronName = "2" targetNeuronName = "28" weight = "9.65600318561936" />
    <synapse sourceNeuronName = "2" targetNeuronName = "29" weight = "14.718897084251616" />
    <synapse sourceNeuronName = "2" targetNeuronName = "30" weight = "14.726671912244074" />
    <synapse sourceNeuronName = "2" targetNeuronName = "31" weight = "4.283366751586978" />
    <synapse sourceNeuronName = "2" targetNeuronName = "32" weight = "25.690291990527427" />
    <synapse sourceNeuronName = "2" targetNeuronName = "33" weight = "13.216353766538456" />
    <synapse sourceNeuronName = "2" targetNeuronName = "34" weight = "5.712530313094604" />
    <synapse sourceNeuronName = "2" targetNeuronName = "35" weight = "3.3113560949631946" />
    <synapse sourceNeuronName = "2" targetNeuronName = "36" weight = "14.542914201073838" />
    <synapse sourceNeuronName = "2" targetNeuronName = "37" weight = "7.744273553099285" />
    <synapse sourceNeuronName = "3" targetNeuronName = "11" weight = "2.673920058614679" />
    <synapse sourceNeuronName = "3" targetNeuronName = "12" weight = "19.272383226075636" />
    <synapse sourceNeuronName = "3" targetNeuronName = "13" weight = "19.517081661930042" />
    <synapse sourceNeuronName = "3" targetNeuronName = "14" weight = "3.246541247783118" />
    <synapse sourceNeuronName = "3" targetNeuronName = "15" weight = "2.7088478348326044" />
    <synapse sourceNeuronName = "3" targetNeuronName = "16" weight = "4.985788553412254" />
    <synapse sourceNeuronName = "3" targetNeuronName = "17" weight = "23.206968632296075" />
    <synapse sourceNeuronName = "3" targetNeuronName = "18" weight = "13.70667963324039" />
    <synapse sourceNeuronName = "3" targetNeuronName = "19" weight = "-0.07712449272461352" />
    <synapse sourceNeuronName = "3" targetNeuronName = "20" weight = "9.636909889650719" />
    <synapse sourceNeuronName = "3" targetNeuronName = "21" weight = "23.06600886715931" />
    <synapse sourceNeuronName = "3" targetNeuronName = "22" weight = "20.24454299941401" />
    <synapse sourceNeuronName = "3" targetNeuronName = "23" weight = "9.394631001737228" />
    <synapse sourceNeuronName = "3" targetNeuronName = "24" weight = "20.899822388558736" />
    <synapse sourceNeuronName = "3" targetNeuronName = "25" weight = "23.752911040182944" />
    <synapse sourceNeuronName = "3" targetNeuronName = "26" weight = "21.72673735501206" />
    <synapse sourceNeuronName = "3" targetNeuronName = "27" weight = "22.75616429210539" />
    <synapse sourceNeuronName = "3" targetNeuronName = "28" weight = "3.245237820570476" />
    <synapse sourceNeuronName = "3" targetNeuronName = "29" weight = "25.097059436787884" />
    <synapse sourceNeuronName = "3" targetNeuronName = "30" weight = "13.848947871495595" />
    <synapse sourceNeuronName = "3" targetNeuronName = "31" weight = "2.640337304969768" />
    <synapse sourceNeuronName = "3" targetNeuronName = "32" weight = "22.85539687744459" />
    <synapse sourceNeuronName = "3" targetNeuronName = "33" weight = "21.891074350660585" />
    <synapse sourceNeuronName = "3" targetNeuronName = "34" weight = "16.8590131861668" />
    <synapse sourceNeuronName = "3" targetNeuronName = "35" weight = "11.193308905064221" />
    <synapse sourceNeuronName = "3" targetNeuronName = "36" weight = "3.4409849141588644" />
    <synapse sourceNeuronName = "3" targetNeuronName = "37" weight = "-0.7936965425685243" />
    <synapse sourceNeuronName = "4" targetNeuronName = "11" weight = "24.87781771687482" />
    <synapse sourceNeuronName = "4" targetNeuronName = "12" weight = "24.828702153219982" />
    <synapse sourceNeuronName = "4" targetNeuronName = "13" weight = "11.68974359090688" />
    <synapse sourceNeuronName = "4" targetNeuronName = "14" weight = "12.023706464012315" />
    <synapse sourceNeuronName = "4" targetNeuronName = "15" weight = "21.560680780532905" />
    <synapse sourceNeuronName = "4" targetNeuronName = "16" weight = "24.370958728673017" />
    <synapse sourceNeuronName = "4" targetNeuronName = "17" weight = "9.124491458335068" />
    <synapse sourceNeuronName = "4" targetNeuronName = "18" weight = "11.623245930324495" />
    <synapse sourceNeuronName = "4" targetNeuronName = "19" weight = "7.2700216882033075" />
    <synapse sourceNeuronName = "4" targetNeuronName = "20" weight = "25.69769607733189" />
    <synapse sourceNeuronName = "4" targetNeuronName = "21" weight = "22.30993462094962" />
    <synapse sourceNeuronName = "4" targetNeuronName = "22" weight = "12.610467230585776" />
    <synapse sourceNeuronName = "4" targetNeuronName = "23" weight = "14.54442593600089" />
    <synapse sourceNeuronName = "4" targetNeuronName = "24" weight = "12.372601591545152" />
    <synapse sourceNeuronName = "4" targetNeuronName = "25" weight = "4.508673372654182" />
    <synapse sourceNeuronName = "4" targetNeuronName = "26" weight = "12.201486180500522" />
    <synapse sourceNeuronName = "4" targetNeuronName = "27" weight = "7.222011651911165" />
    <synapse sourceNeuronName = "4" targetNeuronName = "28" weight = "4.8097834881106305" />
    <synapse sourceNeuronName = "4" targetNeuronName = "29" weight = "15.36585940591456" />
    <synapse sourceNeuronName = "4" targetNeuronName = "30" weight = "23.57341036004124" />
    <synapse sourceNeuronName = "4" targetNeuronName = "31" weight = "22.701817187007002" />
    <synapse sourceNeuronName = "4" targetNeuronName = "32" weight = "4.808797620259597" />
    <synapse sourceNeuronName = "4" targetNeuronName = "33" weight = "10.055852884371058" />
    <synapse sourceNeuronName = "4" targetNeuronName = "34" weight = "3.067722451508077" />
    <synapse sourceNeuronName = "4" targetNeuronName = "35" weight = "21.395151687412685" />
    <synapse sourceNeuronName = "4" targetNeuronName = "36" weight = "23.364900647378473" />
    <synapse sourceNeuronName = "4" targetNeuronName = "37" weight = "22.78023107529413" />
    <synapse sourceNeuronName = "5" targetNeuronName = "11" weight = "5.729525773529825" />
    <synapse sourceNeuronName = "5" targetNeuronName = "12" weight = "23.381791434858847" />
    <synapse sourceNeuronName = "5" targetNeuronName = "13" weight = "-0.6333902627723322" />
    <synapse sourceNeuronName = "5" targetNeuronName = "14" weight = "7.981688453931557" />
    <synapse sourceNeuronName = "5" targetNeuronName = "15" weight = "2.1392446588367426" />
    <synapse sourceNeuronName = "5" targetNeuronName = "16" weight = "21.17364212810375" />
    <synapse sourceNeuronName = "5" targetNeuronName = "17" weight = "5.000104316986065" />
    <synapse sourceNeuronName = "5" targetNeuronName = "18" weight = "3.317146417265681" />
    <synapse sourceNeuronName = "5" targetNeuronName = "19" weight = "21.73481381558494" />
    <synapse sourceNeuronName = "5" targetNeuronName = "20" weight = "13.965488100344734" />
    <synapse sourceNeuronName = "5" targetNeuronName = "21" weight = "-0.10536964103719393" />
    <synapse sourceNeuronName = "5" targetNeuronName = "22" weight = "15.439645921197403" />
    <synapse sourceNeuronName = "5" targetNeuronName = "23" weight = "5.688873443031333" />
    <synapse sourceNeuronName = "5" targetNeuronName = "24" weight = "8.499185464904464" />
    <synapse sourceNeuronName = "5" targetNeuronName = "25" weight = "2.946706057287301" />
    <synapse sourceNeuronName = "5" targetNeuronName = "26" weight = "14.78629001691538" />
    <synapse sourceNeuronName = "5" targetNeuronName = "27" weight = "7.248865488020678" />
    <synapse sourceNeuronName = "5" targetNeuronName = "28" weight = "16.637026951585458" />
    <synapse sourceNeuronName = "5" targetNeuronName = "29" weight = "16.41562067872718" />
    <synapse sourceNeuronName = "5" targetNeuronName = "30" weight = "3.6315678135768854" />
    <synapse sourceNeuronName = "5" targetNeuronName = "31" weight = "3.447940903993474" />
    <synapse sourceNeuronName = "5" targetNeuronName = "32" weight = "14.21130957457984" />
    <synapse sourceNeuronName = "5" targetNeuronName = "33" weight = "20.128404089317492" />
    <synapse sourceNeuronName = "5" targetNeuronName = "34" weight = "20.392385569869745" />
    <synapse sourceNeuronName = "5" targetNeuronName = "35" weight = "6.979847852491584" />
    <synapse sourceNeuronName = "5" targetNeuronName = "36" weight = "3.4798835127723073" />
    <synapse sourceNeuronName = "5" targetNeuronName = "37" weight = "7.6577868587269595" />
    <synapse sourceNeuronName = "6" targetNeuronName = "11" weight = "9.601089633057995" />
    <synapse sourceNeuronName = "6" targetNeuronName = "12" weight = "5.527529713779019" />
    <synapse sourceNeuronName = "6" targetNeuronName = "13" weight = "11.119162865164576" />
    <synapse sourceNeuronName = "6" targetNeuronName = "14" weight = "15.208928004010733" />
    <synapse sourceNeuronName = "6" targetNeuronName = "15" weight = "18.83997155450288" />
    <synapse sourceNeuronName = "6" targetNeuronName = "16" weight = "0.37013318851518706" />
    <synapse sourceNeuronName = "6" targetNeuronName = "17" weight = "23.182794103287396" />
    <synapse sourceNeuronName = "6" targetNeuronName = "18" weight = "22.708974717242373" />
    <synapse sourceNeuronName = "6" targetNeuronName = "19" weight = "14.653448922262774" />
    <synapse sourceNeuronName = "6" targetNeuronName = "20" weight = "23.889662156629004" />
    <synapse sourceNeuronName = "6" targetNeuronName = "21" weight = "19.291298830018903" />
    <synapse sourceNeuronName = "6" targetNeuronName = "22" weight = "11.242890546075904" />
    <synapse sourceNeuronName = "6" targetNeuronName = "23" weight = "18.650800957292226" />
    <synapse sourceNeuronName = "6" targetNeuronName = "24" weight = "20.940512363305118" />
    <synapse sourceNeuronName = "6" targetNeuronName = "25" weight = "5.446539941640663" />
    <synapse sourceNeuronName = "6" targetNeuronName = "26" weight = "15.609432671953936" />
    <synapse sourceNeuronName = "6" targetNeuronName = "27" weight = "2.915564396859289" />
    <synapse sourceNeuronName = "6" targetNeuronName = "28" weight = "7.423876017517303" />
    <synapse sourceNeuronName = "6" targetNeuronName = "29" weight = "8.08967839404536" />
    <synapse sourceNeuronName = "6" targetNeuronName = "30" weight = "18.747960464609864" />
    <synapse sourceNeuronName = "6" targetNeuronName = "31" weight = "18.4732569853735" />
    <synapse sourceNeuronName = "6" targetNeuronName = "32" weight = "17.570377177706074" />
    <synapse sourceNeuronName = "6" targetNeuronName = "33" weight = "-0.6852070261271401" />
    <synapse sourceNeuronName = "6" targetNeuronName = "34" weight = "18.995758381444006" />
    <synapse sourceNeuronName = "6" targetNeuronName = "35" weight = "14.341512586510422" />
    <synapse sourceNeuronName = "6" targetNeuronName = "36" weight = "0.9127909008837958" />
    <synapse sourceNeuronName = "6" targetNeuronName = "37" weight = "-0.6609759927850823" />
    <synapse sourceNeuronName = "7" targetNeuronName = "11" weight = "1.0385981796499761" />
    <synapse sourceNeuronName = "7" targetNeuronName = "12" weight = "0.45966483640099387" />
    <synapse sourceNeuronName = "7" targetNeuronName = "13" weight = "0.7732098168177375" />
    <synapse sourceNeuronName = "7" targetNeuronName = "14" weight = "11.500372149526076" />
    <synapse sourceNeuronName = "7" targetNeuronName = "15" weight = "13.078469642699396" />
    <synapse sourceNeuronName = "7" targetNeuronName = "16" weight = "18.01679795639082" />
    <synapse sourceNeuronName = "7" targetNeuronName = "17" weight = "20.54475001628742" />
    <synapse sourceNeuronName = "7" targetNeuronName = "18" weight = "22.551269551860774" />
    <synapse sourceNeuronName = "7" targetNeuronName = "19" weight = "0.9408526628780791" />
    <synapse sourceNeuronName = "7" targetNeuronName = "20" weight = "2.0556816242693072" />
    <synapse sourceNeuronName = "7" targetNeuronName = "21" weight = "20.128441354518326" />
    <synapse sourceNeuronName = "7" targetNeuronName = "22" weight = "-0.036326728205952064" />
    <synapse sourceNeuronName = "7" targetNeuronName = "23" weight = "9.443043937587946" />
    <synapse sourceNeuronName = "7" targetNeuronName = "24" weight = "20.861284997575115" />
    <synapse sourceNeuronName = "7" targetNeuronName = "25" weight = "16.225878260030186" />
    <synapse sourceNeuronName = "7" targetNeuronName = "26" weight = "15.023583079615335" />
    <synapse sourceNeuronName = "7" targetNeuronName = "27" weight = "5.605169875267644" />
    <synapse sourceNeuronName = "7" targetNeuronName = "28" weight = "16.88762371351112" />
    <synapse sourceNeuronName = "7" targetNeuronName = "29" weight = "1.3841967263411248" />
    <synapse sourceNeuronName = "7" targetNeuronName = "30" weight = "14.972196055184526" />
    <synapse sourceNeuronName = "7" targetNeuronName = "31" weight = "25.226329336822356" />
    <synapse sourceNeuronName = "7" targetNeuronName = "32" weight = "6.373777571348313" />
    <synapse sourceNeuronName = "7" targetNeuronName = "33" weight = "16.682580491198202" />
    <synapse sourceNeuronName = "7" targetNeuronName = "34" weight = "1.9047868696315198" />
    <synapse sourceNeuronName = "7" targetNeuronName = "35" weight = "7.7972806406500546" />
    <synapse sourceNeuronName = "7" targetNeuronName = "36" weight = "19.275020743796" />
    <synapse sourceNeuronName = "7" targetNeuronName = "37" weight = "15.254151355237404" />
    <synapse sourceNeuronName = "8" targetNeuronName = "11" weight = "2.9396628521275323" />
    <synapse sourceNeuronName = "8" targetNeuronName = "12" weight = "20.53387398494099" />
    <synapse sourceNeuronName = "8" targetNeuronName = "13" weight = "17.727121032148048" />
    <synapse sourceNeuronName = "8" targetNeuronName = "14" weight = "22.00602977651978" />
    <synapse sourceNeuronName = "8" targetNeuronName = "15" weight = "4.115425897193185" />
    <synapse sourceNeuronName = "8" targetNeuronName = "16" weight = "0.7260052742935783" />
    <synapse sourceNeuronName = "8" targetNeuronName = "17" weight = "18.776431745530115" />
    <synapse sourceNeuronName = "8" targetNeuronName = "18" weight = "3.8942965893968955" />
    <synapse sourceNeuronName = "8" targetNeuronName = "19" weight = "25.825194375527513" />
    <synapse sourceNeuronName = "8" targetNeuronName = "20" weight = "14.679224485463461" />
    <synapse sourceNeuronName = "8" targetNeuronName = "21" weight = "10.745140350083103" />
    <synapse sourceNeuronName = "8" targetNeuronName = "22" weight = "19.46164955612764" />
    <synapse sourceNeuronName = "8" targetNeuronName = "23" weight = "8.446201604292236" />
    <synapse sourceNeuronName = "8" targetNeuronName = "24" weight = "2.747392555191611" />
    <synapse sourceNeuronName = "8" targetNeuronName = "25" weight = "0.7946125152057419" />
    <synapse sourceNeuronName = "8" targetNeuronName = "26" weight = "9.193412554419302" />
    <synapse sourceNeuronName = "8" targetNeuronName = "27" weight = "10.58182114268504" />
    <synapse sourceNeuronName = "8" targetNeuronName = "28" weight = "24.629937690506818" />
    <synapse sourceNeuronName = "8" targetNeuronName = "29" weight = "5.031561682040486" />
    <synapse sourceNeuronName = "8" targetNeuronName = "30" weight = "10.826122169848029" />
    <synapse sourceNeuronName = "8" targetNeuronName = "31" weight = "5.587127695382016" />
    <synapse sourceNeuronName = "8" targetNeuronName = "32" weight = "0.32314536359062873" />
    <synapse sourceNeuronName = "8" targetNeuronName = "33" weight = "6.460392353213985" />
    <synapse sourceNeuronName = "8" targetNeuronName = "34" weight = "16.091589859785053" />
    <synapse sourceNeuronName = "8" targetNeuronName = "35" weight = "1.0985786786239027" />
    <synapse sourceNeuronName = "8" targetNeuronName = "36" weight = "6.134339026221007" />
    <synapse sourceNeuronName = "8" targetNeuronName = "37" weight = "1.1223410533068385" />
    <synapse sourceNeuronName = "9" targetNeuronName = "11" weight = "25.879336998608988" />
    <synapse sourceNeuronName = "9" targetNeuronName = "12" weight = "-0.6948514077671911" />
    <synapse sourceNeuronName = "9" targetNeuronName = "13" weight = "18.80489884663139" />
    <synapse sourceNeuronName = "9" targetNeuronName = "14" weight = "22.130488847796435" />
    <synapse sourceNeuronName = "9" targetNeuronName = "15" weight = "6.227890912111455" />
    <synapse sourceNeuronName = "9" targetNeuronName = "16" weight = "22.788658775110925" />
    <synapse sourceNeuronName = "9" targetNeuronName = "17" weight = "19.441743645081708" />
    <synapse sourceNeuronName = "9" targetNeuronName = "18" weight = "16.8895299823942" />
    <synapse sourceNeuronName = "9" targetNeuronName = "19" weight = "23.03855264751803" />
    <synapse sourceNeuronName = "9" targetNeuronName = "20" weight = "10.288709212062429" />
    <synapse sourceNeuronName = "9" targetNeuronName = "21" weight = "14.471788553741549" />
    <synapse sourceNeuronName = "9" targetNeuronName = "22" weight = "25.71408993576028" />
    <synapse sourceNeuronName = "9" targetNeuronName = "23" weight = "24.82494442824668" />
    <synapse sourceNeuronName = "9" targetNeuronName = "24" weight = "18.505160684800682" />
    <synapse sourceNeuronName = "9" targetNeuronName = "25" weight = "9.89375360093972" />
    <synapse sourceNeuronName = "9" targetNeuronName = "26" weight = "6.630958655852567" />
    <synapse sourceNeuronName = "9" targetNeuronName = "27" weight = "6.3375868385278835" />
    <synapse sourceNeuronName = "9" targetNeuronName = "28" weight = "25.316361401544647" />
    <synapse sourceNeuronName = "9" targetNeuronName = "29" weight = "17.18084157016566" />
    <synapse sourceNeuronName = "9" targetNeuronName = "30" weight = "2.5738059969029434" />
    <synapse sourceNeuronName = "9" targetNeuronName = "31" weight = "9.677052830677297" />
    <synapse sourceNeuronName = "9" targetNeuronName = "32" weight = "4.608928843072783" />
    <synapse sourceNeuronName = "9" targetNeuronName = "33" weight = "9.519151982834707" />
    <synapse sourceNeuronName = "9" targetNeuronName = "34" weight = "0.56821958436446" />
    <synapse sourceNeuronName = "9" targetNeuronName = "35" weight = "20.816167811161268" />
    <synapse sourceNeuronName = "9" targetNeuronName = "36" weight = "1.4062733744772844" />
    <synapse sourceNeuronName = "9" targetNeuronName = "37" weight = "-0.1510092769946061" />
    <synapse sourceNeuronName = "10" targetNeuronName = "11" weight = "16.522833933121696" />
    <synapse sourceNeuronName = "10" targetNeuronName = "12" weight = "23.357343436873585" />
    <synapse sourceNeuronName = "10" targetNeuronName = "13" weight = "3.777228885378456" />
    <synapse sourceNeuronName = "10" targetNeuronName = "14" weight = "-0.5371483319029838" />
    <synapse sourceNeuronName = "10" targetNeuronName = "15" weight = "6.495096798110099" />
    <synapse sourceNeuronName = "10" targetNeuronName = "16" weight = "18.522133514642523" />
    <synapse sourceNeuronName = "10" targetNeuronName = "17" weight = "18.836066856598052" />
    <synapse sourceNeuronName = "10" targetNeuronName = "18" weight = "8.95719083918337" />
    <synapse sourceNeuronName = "10" targetNeuronName = "19" weight = "0.8897858472889613" />
    <synapse sourceNeuronName = "10" targetNeuronName = "20" weight = "14.606641994435732" />
    <synapse sourceNeuronName = "10" targetNeuronName = "21" weight = "19.237799931802567" />
    <synapse sourceNeuronName = "10" targetNeuronName = "22" weight = "2.8565832328409044" />
    <synapse sourceNeuronName = "10" targetNeuronName = "23" weight = "9.568073191727477" />
    <synapse sourceNeuronName = "10" targetNeuronName = "24" weight = "16.200929528191722" />
    <synapse sourceNeuronName = "10" targetNeuronName = "25" weight = "21.73690722346394" />
    <synapse sourceNeuronName = "10" targetNeuronName = "26" weight = "21.254426860369875" />
    <synapse sourceNeuronName = "10" targetNeuronName = "27" weight = "14.117889874694708" />
    <synapse sourceNeuronName = "10" targetNeuronName = "28" weight = "24.15622557431498" />
    <synapse sourceNeuronName = "10" targetNeuronName = "29" weight = "18.85917009369853" />
    <synapse sourceNeuronName = "10" targetNeuronName = "30" weight = "17.662290097045513" />
    <synapse sourceNeuronName = "10" targetNeuronName = "31" weight = "4.504713728677273" />
    <synapse sourceNeuronName = "10" targetNeuronName = "32" weight = "10.871600953301638" />
    <synapse sourceNeuronName = "10" targetNeuronName = "33" weight = "7.868827556499811" />
    <synapse sourceNeuronName = "10" targetNeuronName = "34" weight = "22.145650688615333" />
    <synapse sourceNeuronName = "10" targetNeuronName = "35" weight = "25.640309473906758" />
    <synapse sourceNeuronName = "10" targetNeuronName = "36" weight = "-0.5104158996161956" />
    <synapse sourceNeuronName = "10" targetNeuronName = "37" weight = "10.936203247049148" />
</neuralNetwork>