<neuralNetwork>
    <neuron name = "0" type = "sensor" linkName = "Torso" />
    <neuron name = "1" type = "sensor" linkName = "Leg4" />
    <neuron name = "2" type = "sensor" linkName = "Leg5" />
    <neuron name = "3" type = "sensor" linkName = "Leg6" />
    <neuron name = "4" type = "sensor" linkName = "Leg11" />
    <neuron name = "5" type = "sensor" linkName = "Leg13" />
    <neuron name = "6" type = "sensor" linkName = "Leg16" />
    <neuron name = "7" type = "sensor" linkName = "Leg17" />
    <neuron name = "8" type = "sensor" linkName = "Leg19" />
    <neuron name = "9" type = "sensor" linkName = "Leg20" />
    <neuron name = "10" type = "sensor" linkName = "Leg21" />
    <neuron name = "11" type = "sensor" linkName = "Leg25" />
    <neuron name = "12" type = "motor"  jointName = "Torso_Leg1" />
    <neuron name = "13" type = "motor"  jointName = "Torso_Leg2" />
    <neuron name = "14" type = "motor"  jointName = "Leg1_Leg3" />
    <neuron name = "15" type = "motor"  jointName = "Leg3_Leg4" />
    <neuron name = "16" type = "motor"  jointName = "Leg2_Leg5" />
    <neuron name = "17" type = "motor"  jointName = "Leg2_Leg6" />
    <neuron name = "18" type = "motor"  jointName = "Leg1_Leg7" />
    <neuron name = "19" type = "motor"  jointName = "Leg6_Leg8" />
    <neuron name = "20" type = "motor"  jointName = "Leg2_Leg9" />
    <neuron name = "21" type = "motor"  jointName = "Leg9_Leg10" />
    <neuron name = "22" type = "motor"  jointName = "Leg3_Leg11" />
    <neuron name = "23" type = "motor"  jointName = "Leg8_Leg12" />
    <neuron name = "24" type = "motor"  jointName = "Leg7_Leg13" />
    <neuron name = "25" type = "motor"  jointName = "Leg5_Leg14" />
    <neuron name = "26" type = "motor"  jointName = "Leg5_Leg15" />
    <neuron name = "27" type = "motor"  jointName = "Leg12_Leg16" />
    <neuron name = "28" type = "motor"  jointName = "Leg11_Leg17" />
    <neuron name = "29" type = "motor"  jointName = "Leg7_Leg18" />
    <neuron name = "30" type = "motor"  jointName = "Leg17_Leg19" />
    <neuron name = "31" type = "motor"  jointName = "Leg14_Leg20" />
    <neuron name = "32" type = "motor"  jointName = "Leg12_Leg21" />
    <neuron name = "33" type = "motor"  jointName = "Leg21_Leg22" />
    <neuron name = "34" type = "motor"  jointName = "Leg15_Leg23" />
    <neuron name = "35" type = "motor"  jointName = "Leg16_Leg24" />
    <neuron name = "36" type = "motor"  jointName = "Leg22_Leg25" />
    <synapse sourceNeuronName = "0" targetNeuronName = "12" weight = "1.2422764712556194" />
    <synapse sourceNeuronName = "0" targetNeuronName = "13" weight = "1.5865565913081645" />
    <synapse sourceNeuronName = "0" targetNeuronName = "14" weight = "12.249017486253623" />
    <synapse sourceNeuronName = "0" targetNeuronName = "15" weight = "12.89298657347648" />
    <synapse sourceNeuronName = "0" targetNeuronName = "16" weight = "4.232974515900585" />
    <synapse sourceNeuronName = "0" targetNeuronName = "17" weight = "6.204325180168633" />
    <synapse sourceNeuronName = "0" targetNeuronName = "18" weight = "23.00590352355551" />
    <synapse sourceNeuronName = "0" targetNeuronName = "19" weight = "-0.2374300823243044" />
    <synapse sourceNeuronName = "0" targetNeuronName = "20" weight = "0.17398921390140254" />
    <synapse sourceNeuronName = "0" targetNeuronName = "21" weight = "9.665743086232379" />
    <synapse sourceNeuronName = "0" targetNeuronName = "22" weight = "10.084960405272446" />
    <synapse sourceNeuronName = "0" targetNeuronName = "23" weight = "11.580448780857495" />
    <synapse sourceNeuronName = "0" targetNeuronName = "24" weight = "7.912353675185106" />
    <synapse sourceNeuronName = "0" targetNeuronName = "25" weight = "21.207160814326876" />
    <synapse sourceNeuronName = "0" targetNeuronName = "26" weight = "3.0229288792146374" />
    <synapse sourceNeuronName = "0" targetNeuronName = "27" weight = "20.132798316279892" />
    <synapse sourceNeuronName = "0" targetNeuronName = "28" weight = "9.198073150320747" />
    <synapse sourceNeuronName = "0" targetNeuronName = "29" weight = "4.999422311966904" />
    <synapse sourceNeuronName = "0" targetNeuronName = "30" weight = "5.069141872979589" />
    <synapse sourceNeuronName = "0" targetNeuronName = "31" weight = "3.8276168643662434" />
    <synapse sourceNeuronName = "0" targetNeuronName = "32" weight = "22.60350194386955" />
    <synapse sourceNeuronName = "0" targetNeuronName = "33" weight = "22.471681752077288" />
    <synapse sourceNeuronName = "0" targetNeuronName = "34" weight = "20.363940413929512" />
    <synapse sourceNeuronName = "0" targetNeuronName = "35" weight = "0.04141401219056129" />
    <synapse sourceNeuronName = "0" targetNeuronName = "36" weight = "14.25370697479446" />
    <synapse sourceNeuronName = "1" targetNeuronName = "12" weight = "13.871319815664846" />
    <synapse sourceNeuronName = "1" targetNeuronName = "13" weight = "1.503284498174402" />
    <synapse sourceNeuronName = "1" targetNeuronName = "14" weight = "6.368019459606298" />
    <synapse sourceNeuronName = "1" targetNeuronName = "15" weight = "17.90693260960591" />
    <synapse sourceNeuronName = "1" targetNeuronName = "16" weight = "15.280162298635126" />
    <synapse sourceNeuronName = "1" targetNeuronName = "17" weight = "0.416341975857935" />
    <synapse sourceNeuronName = "1" targetNeuronName = "18" weight = "20.735551842708116" />
    <synapse sourceNeuronName = "1" targetNeuronName = "19" weight = "19.653401670338102" />
    <synapse sourceNeuronName = "1" targetNeuronName = "20" weight = "17.79822829168765" />
    <synapse sourceNeuronName = "1" targetNeuronName = "21" weight = "14.911237348624674" />
    <synapse sourceNeuronName = "1" targetNeuronName = "22" weight = "23.22683959351136" />
    <synapse sourceNeuronName = "1" targetNeuronName = "23" weight = "6.34317614486622" />
    <synapse sourceNeuronName = "1" targetNeuronName = "24" weight = "6.363627478407856" />
    <synapse sourceNeuronName = "1" targetNeuronName = "25" weight = "19.238949884522732" />
    <synapse sourceNeuronName = "1" targetNeuronName = "26" weight = "8.072783207660033" />
    <synapse sourceNeuronName = "1" targetNeuronName = "27" weight = "1.9314229658973625" />
    <synapse sourceNeuronName = "1" targetNeuronName = "28" weight = "11.821429092290426" />
    <synapse sourceNeuronName = "1" targetNeuronName = "29" weight = "8.417279606598635" />
    <synapse sourceNeuronName = "1" targetNeuronName = "30" weight = "11.551843542573721" />
    <synapse sourceNeuronName = "1" targetNeuronName = "31" weight = "0.39311129591483396" />
    <synapse sourceNeuronName = "1" targetNeuronName = "32" weight = "11.477393481485771" />
    <synapse sourceNeuronName = "1" targetNeuronName = "33" weight = "0.8547371003703046" />
    <synapse sourceNeuronName = "1" targetNeuronName = "34" weight = "5.166211473390485" />
    <synapse sourceNeuronName = "1" targetNeuronName = "35" weight = "7.36419599867925" />
    <synapse sourceNeuronName = "1" targetNeuronName = "36" weight = "14.071909503570538" />
    <synapse sourceNeuronName = "2" targetNeuronName = "12" weight = "12.852260094379435" />
    <synapse sourceNeuronName = "2" targetNeuronName = "13" weight = "18.9464404186006" />
    <synapse sourceNeuronName = "2" targetNeuronName = "14" weight = "9.893052377818439" />
    <synapse sourceNeuronName = "2" targetNeuronName = "15" weight = "9.727335676797587" />
    <synapse sourceNeuronName = "2" targetNeuronName = "16" weight = "4.123486277568507" />
    <synapse sourceNeuronName = "2" targetNeuronName = "17" weight = "12.756907917881685" />
    <synapse sourceNeuronName = "2" targetNeuronName = "18" weight = "8.638134703734865" />
    <synapse sourceNeuronName = "2" targetNeuronName = "19" weight = "3.1331167803019015" />
    <synapse sourceNeuronName = "2" targetNeuronName = "20" weight = "17.454048104162347" />
    <synapse sourceNeuronName = "2" targetNeuronName = "21" weight = "5.313684940190719" />
    <synapse sourceNeuronName = "2" targetNeuronName = "22" weight = "14.402448433729957" />
    <synapse sourceNeuronName = "2" targetNeuronName = "23" weight = "1.2905504044172629" />
    <synapse sourceNeuronName = "2" targetNeuronName = "24" weight = "10.403055316412471" />
    <synapse sourceNeuronName = "2" targetNeuronName = "25" weight = "10.48752807959502" />
    <synapse sourceNeuronName = "2" targetNeuronName = "26" weight = "16.353861404813433" />
    <synapse sourceNeuronName = "2" targetNeuronName = "27" weight = "21.74696496510388" />
    <synapse sourceNeuronName = "2" targetNeuronName = "28" weight = "14.970268147699166" />
    <synapse sourceNeuronName = "2" targetNeuronName = "29" weight = "18.284097369683654" />
    <synapse sourceNeuronName = "2" targetNeuronName = "30" weight = "3.322816336434726" />
    <synapse sourceNeuronName = "2" targetNeuronName = "31" weight = "22.711344596988287" />
    <synapse sourceNeuronName = "2" targetNeuronName = "32" weight = "16.45414469060485" />
    <synapse sourceNeuronName = "2" targetNeuronName = "33" weight = "3.3476272201745214" />
    <synapse sourceNeuronName = "2" targetNeuronName = "34" weight = "23.754312248612443" />
    <synapse sourceNeuronName = "2" targetNeuronName = "35" weight = "9.504669014271773" />
    <synapse sourceNeuronName = "2" targetNeuronName = "36" weight = "9.654770265756245" />
    <synapse sourceNeuronName = "3" targetNeuronName = "12" weight = "6.9316852854859095" />
    <synapse sourceNeuronName = "3" targetNeuronName = "13" weight = "23.059219188137586" />
    <synapse sourceNeuronName = "3" targetNeuronName = "14" weight = "18.735391670621983" />
    <synapse sourceNeuronName = "3" targetNeuronName = "15" weight = "4.682708662719508" />
    <synapse sourceNeuronName = "3" targetNeuronName = "16" weight = "22.756107943874483" />
    <synapse sourceNeuronName = "3" targetNeuronName = "17" weight = "-0.7621542283895851" />
    <synapse sourceNeuronName = "3" targetNeuronName = "18" weight = "18.669224358211405" />
    <synapse sourceNeuronName = "3" targetNeuronName = "19" weight = "22.567636432828365" />
    <synapse sourceNeuronName = "3" targetNeuronName = "20" weight = "13.79715237157957" />
    <synapse sourceNeuronName = "3" targetNeuronName = "21" weight = "6.1717402919436175" />
    <synapse sourceNeuronName = "3" targetNeuronName = "22" weight = "5.2448955719360795" />
    <synapse sourceNeuronName = "3" targetNeuronName = "23" weight = "20.402005237225815" />
    <synapse sourceNeuronName = "3" targetNeuronName = "24" weight = "7.70649193092296" />
    <synapse sourceNeuronName = "3" targetNeuronName = "25" weight = "-0.27578363372348835" />
    <synapse sourceNeuronName = "3" targetNeuronName = "26" weight = "16.871164287590894" />
    <synapse sourceNeuronName = "3" targetNeuronName = "27" weight = "13.679230413461102" />
    <synapse sourceNeuronName = "3" targetNeuronName = "28" weight = "18.439295800954813" />
    <synapse sourceNeuronName = "3" targetNeuronName = "29" weight = "4.544682163233825" />
    <synapse sourceNeuronName = "3" targetNeuronName = "30" weight = "19.646589459512903" />
    <synapse sourceNeuronName = "3" targetNeuronName = "31" weight = "7.056957888231809" />
    <synapse sourceNeuronName = "3" targetNeuronName = "32" weight = "0.9845554608932807" />
    <synapse sourceNeuronName = "3" targetNeuronName = "33" weight = "10.521577362694199" />
    <synapse sourceNeuronName = "3" targetNeuronName = "34" weight = "15.405873818661991" />
    <synapse sourceNeuronName = "3" targetNeuronName = "35" weight = "-0.09659142407819254" />
    <synapse sourceNeuronName = "3" targetNeuronName = "36" weight = "-0.6090717388714103" />
    <synapse sourceNeuronName = "4" targetNeuronName = "12" weight = "9.620472926116657" />
    <synapse sourceNeuronName = "4" targetNeuronName = "13" weight = "18.420772557913697" />
    <synapse sourceNeuronName = "4" targetNeuronName = "14" weight = "21.135073167311855" />
    <synapse sourceNeuronName = "4" targetNeuronName = "15" weight = "21.562462433300762" />
    <synapse sourceNeuronName = "4" targetNeuronName = "16" weight = "4.265341562461953" />
    <synapse sourceNeuronName = "4" targetNeuronName = "17" weight = "11.153919556408693" />
    <synapse sourceNeuronName = "4" targetNeuronName = "18" weight = "6.635128309895026" />
    <synapse sourceNeuronName = "4" targetNeuronName = "19" weight = "4.832462174268127" />
    <synapse sourceNeuronName = "4" targetNeuronName = "20" weight = "9.192439535751946" />
    <synapse sourceNeuronName = "4" targetNeuronName = "21" weight = "19.52638104898456" />
    <synapse sourceNeuronName = "4" targetNeuronName = "22" weight = "4.697976516320368" />
    <synapse sourceNeuronName = "4" targetNeuronName = "23" weight = "20.53008091559481" />
    <synapse sourceNeuronName = "4" targetNeuronName = "24" weight = "13.05307775690754" />
    <synapse sourceNeuronName = "4" targetNeuronName = "25" weight = "16.205596031286376" />
    <synapse sourceNeuronName = "4" targetNeuronName = "26" weight = "-0.45424162707947324" />
    <synapse sourceNeuronName = "4" targetNeuronName = "27" weight = "0.053749622431523925" />
    <synapse sourceNeuronName = "4" targetNeuronName = "28" weight = "8.787411615920519" />
    <synapse sourceNeuronName = "4" targetNeuronName = "29" weight = "2.3849437498678525" />
    <synapse sourceNeuronName = "4" targetNeuronName = "30" weight = "3.09306562584045" />
    <synapse sourceNeuronName = "4" targetNeuronName = "31" weight = "3.0498680478928932" />
    <synapse sourceNeuronName = "4" targetNeuronName = "32" weight = "0.7117746457914862" />
    <synapse sourceNeuronName = "4" targetNeuronName = "33" weight = "17.614469697347012" />
    <synapse sourceNeuronName = "4" targetNeuronName = "34" weight = "-0.6259098195100973" />
    <synapse sourceNeuronName = "4" targetNeuronName = "35" weight = "4.340636201182858" />
    <synapse sourceNeuronName = "4" targetNeuronName = "36" weight = "18.938482391895022" />
    <synapse sourceNeuronName = "5" targetNeuronName = "12" weight = "2.2528680358150766" />
    <synapse sourceNeuronName = "5" targetNeuronName = "13" weight = "13.821006166354719" />
    <synapse sourceNeuronName = "5" targetNeuronName = "14" weight = "21.303859236012343" />
    <synapse sourceNeuronName = "5" targetNeuronName = "15" weight = "23.424809871730744" />
    <synapse sourceNeuronName = "5" targetNeuronName = "16" weight = "5.133193941455362" />
    <synapse sourceNeuronName = "5" targetNeuronName = "17" weight = "8.344736449350343" />
    <synapse sourceNeuronName = "5" targetNeuronName = "18" weight = "4.404283465271009" />
    <synapse sourceNeuronName = "5" targetNeuronName = "19" weight = "17.95850275237558" />
    <synapse sourceNeuronName = "5" targetNeuronName = "20" weight = "8.773396495663295" />
    <synapse sourceNeuronName = "5" targetNeuronName = "21" weight = "20.639218028918748" />
    <synapse sourceNeuronName = "5" targetNeuronName = "22" weight = "18.43364957213534" />
    <synapse sourceNeuronName = "5" targetNeuronName = "23" weight = "11.746310382034387" />
    <synapse sourceNeuronName = "5" targetNeuronName = "24" weight = "22.15740808719278" />
    <synapse sourceNeuronName = "5" targetNeuronName = "25" weight = "8.856504180361581" />
    <synapse sourceNeuronName = "5" targetNeuronName = "26" weight = "10.893711554145831" />
    <synapse sourceNeuronName = "5" targetNeuronName = "27" weight = "0.5589603311880835" />
    <synapse sourceNeuronName = "5" targetNeuronName = "28" weight = "19.853687572482464" />
    <synapse sourceNeuronName = "5" targetNeuronName = "29" weight = "12.02934270084597" />
    <synapse sourceNeuronName = "5" targetNeuronName = "30" weight = "-0.6847393399691112" />
    <synapse sourceNeuronName = "5" targetNeuronName = "31" weight = "7.762485691848978" />
    <synapse sourceNeuronName = "5" targetNeuronName = "32" weight = "16.513404440549106" />
    <synapse sourceNeuronName = "5" targetNeuronName = "33" weight = "10.111671127781408" />
    <synapse sourceNeuronName = "5" targetNeuronName = "34" weight = "7.777352949865477" />
    <synapse sourceNeuronName = "5" targetNeuronName = "35" weight = "19.13108400075433" />
    <synapse sourceNeuronName = "5" targetNeuronName = "36" weight = "14.471170550016591" />
    <synapse sourceNeuronName = "6" targetNeuronName = "12" weight = "1.835330963850033" />
    <synapse sourceNeuronName = "6" targetNeuronName = "13" weight = "9.433386291036879" />
    <synapse sourceNeuronName = "6" targetNeuronName = "14" weight = "17.25325213549922" />
    <synapse sourceNeuronName = "6" targetNeuronName = "15" weight = "3.599834505939299" />
    <synapse sourceNeuronName = "6" targetNeuronName = "16" weight = "5.45539245676387" />
    <synapse sourceNeuronName = "6" targetNeuronName = "17" weight = "8.375068821933796" />
    <synapse sourceNeuronName = "6" targetNeuronName = "18" weight = "13.138768712943554" />
    <synapse sourceNeuronName = "6" targetNeuronName = "19" weight = "3.46286499794879" />
    <synapse sourceNeuronName = "6" targetNeuronName = "20" weight = "8.722389990278312" />
    <synapse sourceNeuronName = "6" targetNeuronName = "21" weight = "16.752137712496864" />
    <synapse sourceNeuronName = "6" targetNeuronName = "22" weight = "5.423266188843801" />
    <synapse sourceNeuronName = "6" targetNeuronName = "23" weight = "19.088410834021413" />
    <synapse sourceNeuronName = "6" targetNeuronName = "24" weight = "12.186955394277142" />
    <synapse sourceNeuronName = "6" targetNeuronName = "25" weight = "18.08810833109167" />
    <synapse sourceNeuronName = "6" targetNeuronName = "26" weight = "10.136846125522364" />
    <synapse sourceNeuronName = "6" targetNeuronName = "27" weight = "14.340889631108345" />
    <synapse sourceNeuronName = "6" targetNeuronName = "28" weight = "0.9283093374151739" />
    <synapse sourceNeuronName = "6" targetNeuronName = "29" weight = "19.377334968003293" />
    <synapse sourceNeuronName = "6" targetNeuronName = "30" weight = "23.92571838092074" />
    <synapse sourceNeuronName = "6" targetNeuronName = "31" weight = "18.69874449850541" />
    <synapse sourceNeuronName = "6" targetNeuronName = "32" weight = "2.286452079588753" />
    <synapse sourceNeuronName = "6" targetNeuronName = "33" weight = "16.972583948269246" />
    <synapse sourceNeuronName = "6" targetNeuronName = "34" weight = "14.927432678831558" />
    <synapse sourceNeuronName = "6" targetNeuronName = "35" weight = "14.16672034142326" />
    <synapse sourceNeuronName = "6" targetNeuronName = "36" weight = "16.347381607468094" />
    <synapse sourceNeuronName = "7" targetNeuronName = "12" weight = "6.542932485467041" />
    <synapse sourceNeuronName = "7" targetNeuronName = "13" weight = "10.394741018784819" />
    <synapse sourceNeuronName = "7" targetNeuronName = "14" weight = "1.8670386488303583" />
    <synapse sourceNeuronName = "7" targetNeuronName = "15" weight = "2.145830114316192" />
    <synapse sourceNeuronName = "7" targetNeuronName = "16" weight = "3.157238092886911" />
    <synapse sourceNeuronName = "7" targetNeuronName = "17" weight = "7.774383125449219" />
    <synapse sourceNeuronName = "7" targetNeuronName = "18" weight = "10.121669596130177" />
    <synapse sourceNeuronName = "7" targetNeuronName = "19" weight = "16.448020350329184" />
    <synapse sourceNeuronName = "7" targetNeuronName = "20" weight = "13.983615146944192" />
    <synapse sourceNeuronName = "7" targetNeuronName = "21" weight = "1.8267114329610625" />
    <synapse sourceNeuronName = "7" targetNeuronName = "22" weight = "5.738098740255557" />
    <synapse sourceNeuronName = "7" targetNeuronName = "23" weight = "2.952577212424216" />
    <synapse sourceNeuronName = "7" targetNeuronName = "24" weight = "10.355144381706767" />
    <synapse sourceNeuronName = "7" targetNeuronName = "25" weight = "15.672537222812927" />
    <synapse sourceNeuronName = "7" targetNeuronName = "26" weight = "0.9748849485427682" />
    <synapse sourceNeuronName = "7" targetNeuronName = "27" weight = "15.803488716130392" />
    <synapse sourceNeuronName = "7" targetNeuronName = "28" weight = "3.0215532213474123" />
    <synapse sourceNeuronName = "7" targetNeuronName = "29" weight = "8.658030029463985" />
    <synapse sourceNeuronName = "7" targetNeuronName = "30" weight = "19.61995882811231" />
    <synapse sourceNeuronName = "7" targetNeuronName = "31" weight = "11.711060729771976" />
    <synapse sourceNeuronName = "7" targetNeuronName = "32" weight = "17.642523712566888" />
    <synapse sourceNeuronName = "7" targetNeuronName = "33" weight = "-0.371315695153134" />
    <synapse sourceNeuronName = "7" targetNeuronName = "34" weight = "22.21992741013363" />
    <synapse sourceNeuronName = "7" targetNeuronName = "35" weight = "20.564569896208067" />
    <synapse sourceNeuronName = "7" targetNeuronName = "36" weight = "18.11468560800756" />
    <synapse sourceNeuronName = "8" targetNeuronName = "12" weight = "12.889885015524625" />
    <synapse sourceNeuronName = "8" targetNeuronName = "13" weight = "22.01376579265616" />
    <synapse sourceNeuronName = "8" targetNeuronName = "14" weight = "19.09468143620752" />
    <synapse sourceNeuronName = "8" targetNeuronName = "15" weight = "19.457276698879706" />
    <synapse sourceNeuronName = "8" targetNeuronName = "16" weight = "12.679477296037401" />
    <synapse sourceNeuronName = "8" targetNeuronName = "17" weight = "16.317606610775275" />
    <synapse sourceNeuronName = "8" targetNeuronName = "18" weight = "12.11976038726465" />
    <synapse sourceNeuronName = "8" targetNeuronName = "19" weight = "16.59660753173076" />
    <synapse sourceNeuronName = "8" targetNeuronName = "20" weight = "10.366709096970377" />
    <synapse sourceNeuronName = "8" targetNeuronName = "21" weight = "10.408877165493026" />
    <synapse sourceNeuronName = "8" targetNeuronName = "22" weight = "1.6338883572776446" />
    <synapse sourceNeuronName = "8" targetNeuronName = "23" weight = "21.820160458047642" />
    <synapse sourceNeuronName = "8" targetNeuronName = "24" weight = "-0.935635815672072" />
    <synapse sourceNeuronName = "8" targetNeuronName = "25" weight = "15.391212733148585" />
    <synapse sourceNeuronName = "8" targetNeuronName = "26" weight = "13.992900441316234" />
    <synapse sourceNeuronName = "8" targetNeuronName = "27" weight = "22.141618039726207" />
    <synapse sourceNeuronName = "8" targetNeuronName = "28" weight = "0.5260154354441058" />
    <synapse sourceNeuronName = "8" targetNeuronName = "29" weight = "11.724867754238645" />
    <synapse sourceNeuronName = "8" targetNeuronName = "30" weight = "17.539200050528724" />
    <synapse sourceNeuronName = "8" targetNeuronName = "31" weight = "22.49252060645774" />
    <synapse sourceNeuronName = "8" targetNeuronName = "32" weight = "19.21498077379728" />
    <synapse sourceNeuronName = "8" targetNeuronName = "33" weight = "18.63616136076846" />
    <synapse sourceNeuronName = "8" targetNeuronName = "34" weight = "7.026179047116694" />
    <synapse sourceNeuronName = "8" targetNeuronName = "35" weight = "7.432141187603328" />
    <synapse sourceNeuronName = "8" targetNeuronName = "36" weight = "11.16506078944436" />
    <synapse sourceNeuronName = "9" targetNeuronName = "12" weight = "16.815070409957062" />
    <synapse sourceNeuronName = "9" targetNeuronName = "13" weight = "17.444113959526618" />
    <synapse sourceNeuronName = "9" targetNeuronName = "14" weight = "17.67963643675907" />
    <synapse sourceNeuronName = "9" targetNeuronName = "15" weight = "15.640989105131222" />
    <synapse sourceNeuronName = "9" targetNeuronName = "16" weight = "23.778631452917082" />
    <synapse sourceNeuronName = "9" targetNeuronName = "17" weight = "0.01592117869946641" />
    <synapse sourceNeuronName = "9" targetNeuronName = "18" weight = "11.906238653636787" />
    <synapse sourceNeuronName = "9" targetNeuronName = "19" weight = "12.475176010032145" />
    <synapse sourceNeuronName = "9" targetNeuronName = "20" weight = "20.967202296709065" />
    <synapse sourceNeuronName = "9" targetNeuronName = "21" weight = "6.4450064629196735" />
    <synapse sourceNeuronName = "9" targetNeuronName = "22" weight = "6.330822075665735" />
    <synapse sourceNeuronName = "9" targetNeuronName = "23" weight = "1.7216413060692615" />
    <synapse sourceNeuronName = "9" targetNeuronName = "24" weight = "3.2305235165482094" />
    <synapse sourceNeuronName = "9" targetNeuronName = "25" weight = "3.1372736094070577" />
    <synapse sourceNeuronName = "9" targetNeuronName = "26" weight = "21.605331446737498" />
    <synapse sourceNeuronName = "9" targetNeuronName = "27" weight = "2.5847474283872" />
    <synapse sourceNeuronName = "9" targetNeuronName = "28" weight = "20.400857719117624" />
    <synapse sourceNeuronName = "9" targetNeuronName = "29" weight = "1.2576836259719455" />
    <synapse sourceNeuronName = "9" targetNeuronName = "30" weight = "8.66458906178076" />
    <synapse sourceNeuronName = "9" targetNeuronName = "31" weight = "0.43453145463360854" />
    <synapse sourceNeuronName = "9" targetNeuronName = "32" weight = "17.680489680208428" />
    <synapse sourceNeuronName = "9" targetNeuronName = "33" weight = "7.379159853131771" />
    <synapse sourceNeuronName = "9" targetNeuronName = "34" weight = "6.393754115898729" />
    <synapse sourceNeuronName = "9" targetNeuronName = "35" weight = "1.8518563379023973" />
    <synapse sourceNeuronName = "9" targetNeuronName = "36" weight = "5.077913293293169" />
    <synapse sourceNeuronName = "10" targetNeuronName = "12" weight = "22.236912839249502" />
    <synapse sourceNeuronName = "10" targetNeuronName = "13" weight = "5.463316949433251" />
    <synapse sourceNeuronName = "10" targetNeuronName = "14" weight = "17.48345136605562" />
    <synapse sourceNeuronName = "10" targetNeuronName = "15" weight = "16.527873219684377" />
    <synapse sourceNeuronName = "10" targetNeuronName = "16" weight = "16.047839370457755" />
    <synapse sourceNeuronName = "10" targetNeuronName = "17" weight = "-0.5817653985120982" />
    <synapse sourceNeuronName = "10" targetNeuronName = "18" weight = "1.3178270647831538" />
    <synapse sourceNeuronName = "10" targetNeuronName = "19" weight = "1.669112312752317" />
    <synapse sourceNeuronName = "10" targetNeuronName = "20" weight = "15.12418353465651" />
    <synapse sourceNeuronName = "10" targetNeuronName = "21" weight = "13.869233603553548" />
    <synapse sourceNeuronName = "10" targetNeuronName = "22" weight = "2.998770812356872" />
    <synapse sourceNeuronName = "10" targetNeuronName = "23" weight = "6.14755811554495" />
    <synapse sourceNeuronName = "10" targetNeuronName = "24" weight = "6.169470515466103" />
    <synapse sourceNeuronName = "10" targetNeuronName = "25" weight = "12.297141022669829" />
    <synapse sourceNeuronName = "10" targetNeuronName = "26" weight = "9.161694549531909" />
    <synapse sourceNeuronName = "10" targetNeuronName = "27" weight = "0.4259403436704621" />
    <synapse sourceNeuronName = "10" targetNeuronName = "28" weight = "7.166351807159817" />
    <synapse sourceNeuronName = "10" targetNeuronName = "29" weight = "6.176266739491305" />
    <synapse sourceNeuronName = "10" targetNeuronName = "30" weight = "23.699471676129463" />
    <synapse sourceNeuronName = "10" targetNeuronName = "31" weight = "11.89556858836284" />
    <synapse sourceNeuronName = "10" targetNeuronName = "32" weight = "21.540134775899578" />
    <synapse sourceNeuronName = "10" targetNeuronName = "33" weight = "1.1682697790783356" />
    <synapse sourceNeuronName = "10" targetNeuronName = "34" weight = "8.11478175658917" />
    <synapse sourceNeuronName = "10" targetNeuronName = "35" weight = "2.529410051797721" />
    <synapse sourceNeuronName = "10" targetNeuronName = "36" weight = "12.195493124001231" />
    <synapse sourceNeuronName = "11" targetNeuronName = "12" weight = "15.253601952010737" />
    <synapse sourceNeuronName = "11" targetNeuronName = "13" weight = "-0.7276207634334833" />
    <synapse sourceNeuronName = "11" targetNeuronName = "14" weight = "13.873287426753043" />
    <synapse sourceNeuronName = "11" targetNeuronName = "15" weight = "2.555207158013232" />
    <synapse sourceNeuronName = "11" targetNeuronName = "16" weight = "5.421265369126844" />
    <synapse sourceNeuronName = "11" targetNeuronName = "17" weight = "1.3905890201306788" />
    <synapse sourceNeuronName = "11" targetNeuronName = "18" weight = "18.209378916284596" />
    <synapse sourceNeuronName = "11" targetNeuronName = "19" weight = "1.896109634598881" />
    <synapse sourceNeuronName = "11" targetNeuronName = "20" weight = "23.70068070049645" />
    <synapse sourceNeuronName = "11" targetNeuronName = "21" weight = "23.890133620643354" />
    <synapse sourceNeuronName = "11" targetNeuronName = "22" weight = "20.670170940833753" />
    <synapse sourceNeuronName = "11" targetNeuronName = "23" weight = "23.367870640970544" />
    <synapse sourceNeuronName = "11" targetNeuronName = "24" weight = "23.730198210864966" />
    <synapse sourceNeuronName = "11" targetNeuronName = "25" weight = "12.998972770468809" />
    <synapse sourceNeuronName = "11" targetNeuronName = "26" weight = "11.597032051236448" />
    <synapse sourceNeuronName = "11" targetNeuronName = "27" weight = "3.030755826942051" />
    <synapse sourceNeuronName = "11" targetNeuronName = "28" weight = "12.084038223352309" />
    <synapse sourceNeuronName = "11" targetNeuronName = "29" weight = "19.66203933468088" />
    <synapse sourceNeuronName = "11" targetNeuronName = "30" weight = "13.040910749543686" />
    <synapse sourceNeuronName = "11" targetNeuronName = "31" weight = "6.779797825388524" />
    <synapse sourceNeuronName = "11" targetNeuronName = "32" weight = "3.000962009725054" />
    <synapse sourceNeuronName = "11" targetNeuronName = "33" weight = "10.266138195092513" />
    <synapse sourceNeuronName = "11" targetNeuronName = "34" weight = "21.283904301632163" />
    <synapse sourceNeuronName = "11" targetNeuronName = "35" weight = "18.17840544613983" />
    <synapse sourceNeuronName = "11" targetNeuronName = "36" weight = "18.838894782697945" />
</neuralNetwork>