<neuralNetwork>
    <neuron name = "0" type = "sensor" linkName = "Torso" />
    <neuron name = "1" type = "sensor" linkName = "Leg1" />
    <neuron name = "2" type = "sensor" linkName = "Leg3" />
    <neuron name = "3" type = "sensor" linkName = "Leg5" />
    <neuron name = "4" type = "sensor" linkName = "Leg6" />
    <neuron name = "5" type = "sensor" linkName = "Leg9" />
    <neuron name = "6" type = "sensor" linkName = "Leg11" />
    <neuron name = "7" type = "sensor" linkName = "Leg12" />
    <neuron name = "8" type = "sensor" linkName = "Leg14" />
    <neuron name = "9" type = "sensor" linkName = "Leg15" />
    <neuron name = "10" type = "sensor" linkName = "Leg20" />
    <neuron name = "11" type = "sensor" linkName = "Leg22" />
    <neuron name = "12" type = "sensor" linkName = "Leg25" />
    <neuron name = "13" type = "motor"  jointName = "Torso_Leg1" />
    <neuron name = "14" type = "motor"  jointName = "Leg1_Leg2" />
    <neuron name = "15" type = "motor"  jointName = "Leg2_Leg3" />
    <neuron name = "16" type = "motor"  jointName = "Leg3_Leg4" />
    <neuron name = "17" type = "motor"  jointName = "Torso_Leg5" />
    <neuron name = "18" type = "motor"  jointName = "Leg2_Leg6" />
    <neuron name = "19" type = "motor"  jointName = "Leg1_Leg7" />
    <neuron name = "20" type = "motor"  jointName = "Leg4_Leg8" />
    <neuron name = "21" type = "motor"  jointName = "Leg5_Leg9" />
    <neuron name = "22" type = "motor"  jointName = "Leg5_Leg10" />
    <neuron name = "23" type = "motor"  jointName = "Leg4_Leg11" />
    <neuron name = "24" type = "motor"  jointName = "Leg6_Leg12" />
    <neuron name = "25" type = "motor"  jointName = "Leg1_Leg13" />
    <neuron name = "26" type = "motor"  jointName = "Leg10_Leg14" />
    <neuron name = "27" type = "motor"  jointName = "Leg10_Leg15" />
    <neuron name = "28" type = "motor"  jointName = "Leg11_Leg16" />
    <neuron name = "29" type = "motor"  jointName = "Leg16_Leg17" />
    <neuron name = "30" type = "motor"  jointName = "Leg8_Leg18" />
    <neuron name = "31" type = "motor"  jointName = "Leg7_Leg19" />
    <neuron name = "32" type = "motor"  jointName = "Leg6_Leg20" />
    <neuron name = "33" type = "motor"  jointName = "Leg10_Leg21" />
    <neuron name = "34" type = "motor"  jointName = "Leg4_Leg22" />
    <neuron name = "35" type = "motor"  jointName = "Leg17_Leg23" />
    <neuron name = "36" type = "motor"  jointName = "Leg7_Leg24" />
    <neuron name = "37" type = "motor"  jointName = "Leg19_Leg25" />
    <neuron name = "38" type = "motor"  jointName = "Leg25_Leg26" />
    <synapse sourceNeuronName = "0" targetNeuronName = "13" weight = "10.638270500446911" />
    <synapse sourceNeuronName = "0" targetNeuronName = "14" weight = "18.44921805892007" />
    <synapse sourceNeuronName = "0" targetNeuronName = "15" weight = "-0.6618375462751198" />
    <synapse sourceNeuronName = "0" targetNeuronName = "16" weight = "10.20789277794888" />
    <synapse sourceNeuronName = "0" targetNeuronName = "17" weight = "20.49526153145052" />
    <synapse sourceNeuronName = "0" targetNeuronName = "18" weight = "5.757160921609161" />
    <synapse sourceNeuronName = "0" targetNeuronName = "19" weight = "3.2790256555137782" />
    <synapse sourceNeuronName = "0" targetNeuronName = "20" weight = "5.298871567418162" />
    <synapse sourceNeuronName = "0" targetNeuronName = "21" weight = "11.350042150607111" />
    <synapse sourceNeuronName = "0" targetNeuronName = "22" weight = "12.62524726531567" />
    <synapse sourceNeuronName = "0" targetNeuronName = "23" weight = "7.854122239039535" />
    <synapse sourceNeuronName = "0" targetNeuronName = "24" weight = "2.963580830967005" />
    <synapse sourceNeuronName = "0" targetNeuronName = "25" weight = "18.907838698471593" />
    <synapse sourceNeuronName = "0" targetNeuronName = "26" weight = "19.148155935513955" />
    <synapse sourceNeuronName = "0" targetNeuronName = "27" weight = "0.08371316523092798" />
    <synapse sourceNeuronName = "0" targetNeuronName = "28" weight = "-0.9413560254501256" />
    <synapse sourceNeuronName = "0" targetNeuronName = "29" weight = "-0.6532701809026888" />
    <synapse sourceNeuronName = "0" targetNeuronName = "30" weight = "5.298452584434853" />
    <synapse sourceNeuronName = "0" targetNeuronName = "31" weight = "16.30161236488489" />
    <synapse sourceNeuronName = "0" targetNeuronName = "32" weight = "20.806834823733332" />
    <synapse sourceNeuronName = "0" targetNeuronName = "33" weight = "6.286029881361208" />
    <synapse sourceNeuronName = "0" targetNeuronName = "34" weight = "11.970568877310072" />
    <synapse sourceNeuronName = "0" targetNeuronName = "35" weight = "24.112279950796815" />
    <synapse sourceNeuronName = "0" targetNeuronName = "36" weight = "23.338407098641042" />
    <synapse sourceNeuronName = "0" targetNeuronName = "37" weight = "15.972159905085626" />
    <synapse sourceNeuronName = "0" targetNeuronName = "38" weight = "8.017287638504103" />
    <synapse sourceNeuronName = "1" targetNeuronName = "13" weight = "9.713328798732984" />
    <synapse sourceNeuronName = "1" targetNeuronName = "14" weight = "6.774234769534722" />
    <synapse sourceNeuronName = "1" targetNeuronName = "15" weight = "23.501306429432688" />
    <synapse sourceNeuronName = "1" targetNeuronName = "16" weight = "11.808294017743073" />
    <synapse sourceNeuronName = "1" targetNeuronName = "17" weight = "22.714555247768004" />
    <synapse sourceNeuronName = "1" targetNeuronName = "18" weight = "17.22310537192205" />
    <synapse sourceNeuronName = "1" targetNeuronName = "19" weight = "15.356649245742723" />
    <synapse sourceNeuronName = "1" targetNeuronName = "20" weight = "4.162741464623075" />
    <synapse sourceNeuronName = "1" targetNeuronName = "21" weight = "10.814187135941374" />
    <synapse sourceNeuronName = "1" targetNeuronName = "22" weight = "2.327349677391584" />
    <synapse sourceNeuronName = "1" targetNeuronName = "23" weight = "13.355089719815144" />
    <synapse sourceNeuronName = "1" targetNeuronName = "24" weight = "1.8081785950409643" />
    <synapse sourceNeuronName = "1" targetNeuronName = "25" weight = "12.777259266435635" />
    <synapse sourceNeuronName = "1" targetNeuronName = "26" weight = "3.7217607307354816" />
    <synapse sourceNeuronName = "1" targetNeuronName = "27" weight = "6.066658146813446" />
    <synapse sourceNeuronName = "1" targetNeuronName = "28" weight = "15.223518151433161" />
    <synapse sourceNeuronName = "1" targetNeuronName = "29" weight = "10.90541248019196" />
    <synapse sourceNeuronName = "1" targetNeuronName = "30" weight = "19.77336679544502" />
    <synapse sourceNeuronName = "1" targetNeuronName = "31" weight = "12.653774661008336" />
    <synapse sourceNeuronName = "1" targetNeuronName = "32" weight = "22.50853695313607" />
    <synapse sourceNeuronName = "1" targetNeuronName = "33" weight = "13.78140453164194" />
    <synapse sourceNeuronName = "1" targetNeuronName = "34" weight = "20.401685286178214" />
    <synapse sourceNeuronName = "1" targetNeuronName = "35" weight = "16.075701264433484" />
    <synapse sourceNeuronName = "1" targetNeuronName = "36" weight = "24.836840139880163" />
    <synapse sourceNeuronName = "1" targetNeuronName = "37" weight = "17.155789317154213" />
    <synapse sourceNeuronName = "1" targetNeuronName = "38" weight = "18.202909288949403" />
    <synapse sourceNeuronName = "2" targetNeuronName = "13" weight = "19.968370835746367" />
    <synapse sourceNeuronName = "2" targetNeuronName = "14" weight = "1.8874798711422773" />
    <synapse sourceNeuronName = "2" targetNeuronName = "15" weight = "7.504586899685952" />
    <synapse sourceNeuronName = "2" targetNeuronName = "16" weight = "3.466289553783094" />
    <synapse sourceNeuronName = "2" targetNeuronName = "17" weight = "3.8507048518272065" />
    <synapse sourceNeuronName = "2" targetNeuronName = "18" weight = "18.37368987459608" />
    <synapse sourceNeuronName = "2" targetNeuronName = "19" weight = "3.378007810153817" />
    <synapse sourceNeuronName = "2" targetNeuronName = "20" weight = "-0.5588651404068137" />
    <synapse sourceNeuronName = "2" targetNeuronName = "21" weight = "4.256134330200549" />
    <synapse sourceNeuronName = "2" targetNeuronName = "22" weight = "10.953541463537917" />
    <synapse sourceNeuronName = "2" targetNeuronName = "23" weight = "24.2311676422723" />
    <synapse sourceNeuronName = "2" targetNeuronName = "24" weight = "1.1712773023070957" />
    <synapse sourceNeuronName = "2" targetNeuronName = "25" weight = "1.4256068551626742" />
    <synapse sourceNeuronName = "2" targetNeuronName = "26" weight = "7.218451603383139" />
    <synapse sourceNeuronName = "2" targetNeuronName = "27" weight = "1.208447516138218" />
    <synapse sourceNeuronName = "2" targetNeuronName = "28" weight = "8.892169238634292" />
    <synapse sourceNeuronName = "2" targetNeuronName = "29" weight = "0.7057981755775875" />
    <synapse sourceNeuronName = "2" targetNeuronName = "30" weight = "11.402713159787924" />
    <synapse sourceNeuronName = "2" targetNeuronName = "31" weight = "4.523512154401661" />
    <synapse sourceNeuronName = "2" targetNeuronName = "32" weight = "1.5464221924440693" />
    <synapse sourceNeuronName = "2" targetNeuronName = "33" weight = "7.621716996419039" />
    <synapse sourceNeuronName = "2" targetNeuronName = "34" weight = "10.466606612168443" />
    <synapse sourceNeuronName = "2" targetNeuronName = "35" weight = "9.57292296345565" />
    <synapse sourceNeuronName = "2" targetNeuronName = "36" weight = "1.9573472181580645" />
    <synapse sourceNeuronName = "2" targetNeuronName = "37" weight = "12.298946649031645" />
    <synapse sourceNeuronName = "2" targetNeuronName = "38" weight = "10.638011827275228" />
    <synapse sourceNeuronName = "3" targetNeuronName = "13" weight = "18.119060306980625" />
    <synapse sourceNeuronName = "3" targetNeuronName = "14" weight = "5.748804978896336" />
    <synapse sourceNeuronName = "3" targetNeuronName = "15" weight = "10.483116030148599" />
    <synapse sourceNeuronName = "3" targetNeuronName = "16" weight = "9.913798129400256" />
    <synapse sourceNeuronName = "3" targetNeuronName = "17" weight = "16.475077646715025" />
    <synapse sourceNeuronName = "3" targetNeuronName = "18" weight = "23.039378376319238" />
    <synapse sourceNeuronName = "3" targetNeuronName = "19" weight = "19.022850146465945" />
    <synapse sourceNeuronName = "3" targetNeuronName = "20" weight = "14.152332703164035" />
    <synapse sourceNeuronName = "3" targetNeuronName = "21" weight = "9.761018327699839" />
    <synapse sourceNeuronName = "3" targetNeuronName = "22" weight = "13.00292712238541" />
    <synapse sourceNeuronName = "3" targetNeuronName = "23" weight = "1.8992216095321615" />
    <synapse sourceNeuronName = "3" targetNeuronName = "24" weight = "4.9632024739342455" />
    <synapse sourceNeuronName = "3" targetNeuronName = "25" weight = "15.630501241732798" />
    <synapse sourceNeuronName = "3" targetNeuronName = "26" weight = "11.639899614467764" />
    <synapse sourceNeuronName = "3" targetNeuronName = "27" weight = "8.476776992289304" />
    <synapse sourceNeuronName = "3" targetNeuronName = "28" weight = "13.418758134201893" />
    <synapse sourceNeuronName = "3" targetNeuronName = "29" weight = "8.786185427059554" />
    <synapse sourceNeuronName = "3" targetNeuronName = "30" weight = "11.799528044033687" />
    <synapse sourceNeuronName = "3" targetNeuronName = "31" weight = "19.6804718914182" />
    <synapse sourceNeuronName = "3" targetNeuronName = "32" weight = "2.4753559384647503" />
    <synapse sourceNeuronName = "3" targetNeuronName = "33" weight = "12.71212341945431" />
    <synapse sourceNeuronName = "3" targetNeuronName = "34" weight = "18.151734738381794" />
    <synapse sourceNeuronName = "3" targetNeuronName = "35" weight = "14.607248350433897" />
    <synapse sourceNeuronName = "3" targetNeuronName = "36" weight = "5.602585056228183" />
    <synapse sourceNeuronName = "3" targetNeuronName = "37" weight = "22.804616976909486" />
    <synapse sourceNeuronName = "3" targetNeuronName = "38" weight = "19.426991363083012" />
    <synapse sourceNeuronName = "4" targetNeuronName = "13" weight = "22.523134086842163" />
    <synapse sourceNeuronName = "4" targetNeuronName = "14" weight = "7.7209264786231255" />
    <synapse sourceNeuronName = "4" targetNeuronName = "15" weight = "11.297794277173386" />
    <synapse sourceNeuronName = "4" targetNeuronName = "16" weight = "12.895325081000083" />
    <synapse sourceNeuronName = "4" targetNeuronName = "17" weight = "-0.42966485109835495" />
    <synapse sourceNeuronName = "4" targetNeuronName = "18" weight = "5.730074627821944" />
    <synapse sourceNeuronName = "4" targetNeuronName = "19" weight = "3.7280176007822323" />
    <synapse sourceNeuronName = "4" targetNeuronName = "20" weight = "10.045837129892886" />
    <synapse sourceNeuronName = "4" targetNeuronName = "21" weight = "16.002957943023652" />
    <synapse sourceNeuronName = "4" targetNeuronName = "22" weight = "11.985617346463886" />
    <synapse sourceNeuronName = "4" targetNeuronName = "23" weight = "10.365042771869897" />
    <synapse sourceNeuronName = "4" targetNeuronName = "24" weight = "9.7645728185641" />
    <synapse sourceNeuronName = "4" targetNeuronName = "25" weight = "-0.33101690201231126" />
    <synapse sourceNeuronName = "4" targetNeuronName = "26" weight = "5.1837118751109506" />
    <synapse sourceNeuronName = "4" targetNeuronName = "27" weight = "3.77334831842343" />
    <synapse sourceNeuronName = "4" targetNeuronName = "28" weight = "9.66189423159544" />
    <synapse sourceNeuronName = "4" targetNeuronName = "29" weight = "24.523539903619312" />
    <synapse sourceNeuronName = "4" targetNeuronName = "30" weight = "16.068836611163842" />
    <synapse sourceNeuronName = "4" targetNeuronName = "31" weight = "11.353893082079514" />
    <synapse sourceNeuronName = "4" targetNeuronName = "32" weight = "13.179607181384185" />
    <synapse sourceNeuronName = "4" targetNeuronName = "33" weight = "3.005058980463838" />
    <synapse sourceNeuronName = "4" targetNeuronName = "34" weight = "14.533953641652042" />
    <synapse sourceNeuronName = "4" targetNeuronName = "35" weight = "10.243755227598918" />
    <synapse sourceNeuronName = "4" targetNeuronName = "36" weight = "6.667074345727966" />
    <synapse sourceNeuronName = "4" targetNeuronName = "37" weight = "13.27472772503855" />
    <synapse sourceNeuronName = "4" targetNeuronName = "38" weight = "24.410111540020765" />
    <synapse sourceNeuronName = "5" targetNeuronName = "13" weight = "18.21680558103665" />
    <synapse sourceNeuronName = "5" targetNeuronName = "14" weight = "7.542316830572426" />
    <synapse sourceNeuronName = "5" targetNeuronName = "15" weight = "4.361253414907073" />
    <synapse sourceNeuronName = "5" targetNeuronName = "16" weight = "13.940457495028815" />
    <synapse sourceNeuronName = "5" targetNeuronName = "17" weight = "12.908768877366054" />
    <synapse sourceNeuronName = "5" targetNeuronName = "18" weight = "6.695181551876977" />
    <synapse sourceNeuronName = "5" targetNeuronName = "19" weight = "20.61392004122003" />
    <synapse sourceNeuronName = "5" targetNeuronName = "20" weight = "1.1886134457686377" />
    <synapse sourceNeuronName = "5" targetNeuronName = "21" weight = "4.568659331935711" />
    <synapse sourceNeuronName = "5" targetNeuronName = "22" weight = "-0.3227462961468881" />
    <synapse sourceNeuronName = "5" targetNeuronName = "23" weight = "10.901289639248692" />
    <synapse sourceNeuronName = "5" targetNeuronName = "24" weight = "3.7016040476765077" />
    <synapse sourceNeuronName = "5" targetNeuronName = "25" weight = "1.133394479818203" />
    <synapse sourceNeuronName = "5" targetNeuronName = "26" weight = "6.600097691865466" />
    <synapse sourceNeuronName = "5" targetNeuronName = "27" weight = "10.937925249507227" />
    <synapse sourceNeuronName = "5" targetNeuronName = "28" weight = "24.182293096924212" />
    <synapse sourceNeuronName = "5" targetNeuronName = "29" weight = "23.39325675714763" />
    <synapse sourceNeuronName = "5" targetNeuronName = "30" weight = "8.950222022303866" />
    <synapse sourceNeuronName = "5" targetNeuronName = "31" weight = "9.52477239280208" />
    <synapse sourceNeuronName = "5" targetNeuronName = "32" weight = "-0.3167265755706077" />
    <synapse sourceNeuronName = "5" targetNeuronName = "33" weight = "20.307889498929548" />
    <synapse sourceNeuronName = "5" targetNeuronName = "34" weight = "21.495660098007416" />
    <synapse sourceNeuronName = "5" targetNeuronName = "35" weight = "15.618955726339692" />
    <synapse sourceNeuronName = "5" targetNeuronName = "36" weight = "17.359719758682914" />
    <synapse sourceNeuronName = "5" targetNeuronName = "37" weight = "9.920177866681026" />
    <synapse sourceNeuronName = "5" targetNeuronName = "38" weight = "22.850646080810066" />
    <synapse sourceNeuronName = "6" targetNeuronName = "13" weight = "18.326050259612543" />
    <synapse sourceNeuronName = "6" targetNeuronName = "14" weight = "4.914495082031799" />
    <synapse sourceNeuronName = "6" targetNeuronName = "15" weight = "-0.9540568030503414" />
    <synapse sourceNeuronName = "6" targetNeuronName = "16" weight = "6.835400964147305" />
    <synapse sourceNeuronName = "6" targetNeuronName = "17" weight = "11.55448984760991" />
    <synapse sourceNeuronName = "6" targetNeuronName = "18" weight = "20.557464002295568" />
    <synapse sourceNeuronName = "6" targetNeuronName = "19" weight = "20.157511247617766" />
    <synapse sourceNeuronName = "6" targetNeuronName = "20" weight = "21.628506164727543" />
    <synapse sourceNeuronName = "6" targetNeuronName = "21" weight = "2.5956534948850063" />
    <synapse sourceNeuronName = "6" targetNeuronName = "22" weight = "22.177284488536852" />
    <synapse sourceNeuronName = "6" targetNeuronName = "23" weight = "3.880006049532362" />
    <synapse sourceNeuronName = "6" targetNeuronName = "24" weight = "16.513608967974253" />
    <synapse sourceNeuronName = "6" targetNeuronName = "25" weight = "12.218483276318945" />
    <synapse sourceNeuronName = "6" targetNeuronName = "26" weight = "11.732263498341037" />
    <synapse sourceNeuronName = "6" targetNeuronName = "27" weight = "23.181883901614633" />
    <synapse sourceNeuronName = "6" targetNeuronName = "28" weight = "21.44182072546385" />
    <synapse sourceNeuronName = "6" targetNeuronName = "29" weight = "7.0952998506691785" />
    <synapse sourceNeuronName = "6" targetNeuronName = "30" weight = "9.489333809636886" />
    <synapse sourceNeuronName = "6" targetNeuronName = "31" weight = "17.789865784634728" />
    <synapse sourceNeuronName = "6" targetNeuronName = "32" weight = "10.340156677405526" />
    <synapse sourceNeuronName = "6" targetNeuronName = "33" weight = "12.599813366615674" />
    <synapse sourceNeuronName = "6" targetNeuronName = "34" weight = "7.823511535853207" />
    <synapse sourceNeuronName = "6" targetNeuronName = "35" weight = "14.765934063887626" />
    <synapse sourceNeuronName = "6" targetNeuronName = "36" weight = "4.378958265877731" />
    <synapse sourceNeuronName = "6" targetNeuronName = "37" weight = "20.3421592460251" />
    <synapse sourceNeuronName = "6" targetNeuronName = "38" weight = "21.699422636761796" />
    <synapse sourceNeuronName = "7" targetNeuronName = "13" weight = "16.13329508505037" />
    <synapse sourceNeuronName = "7" targetNeuronName = "14" weight = "5.170840378549464" />
    <synapse sourceNeuronName = "7" targetNeuronName = "15" weight = "21.492668548377427" />
    <synapse sourceNeuronName = "7" targetNeuronName = "16" weight = "23.87969956992567" />
    <synapse sourceNeuronName = "7" targetNeuronName = "17" weight = "11.865843593808837" />
    <synapse sourceNeuronName = "7" targetNeuronName = "18" weight = "6.241664478501723" />
    <synapse sourceNeuronName = "7" targetNeuronName = "19" weight = "15.239611626666942" />
    <synapse sourceNeuronName = "7" targetNeuronName = "20" weight = "5.491608717150645" />
    <synapse sourceNeuronName = "7" targetNeuronName = "21" weight = "23.63643737597668" />
    <synapse sourceNeuronName = "7" targetNeuronName = "22" weight = "7.357976915953143" />
    <synapse sourceNeuronName = "7" targetNeuronName = "23" weight = "16.310038741834468" />
    <synapse sourceNeuronName = "7" targetNeuronName = "24" weight = "17.99381342071004" />
    <synapse sourceNeuronName = "7" targetNeuronName = "25" weight = "9.002647620456683" />
    <synapse sourceNeuronName = "7" targetNeuronName = "26" weight = "15.026281024543426" />
    <synapse sourceNeuronName = "7" targetNeuronName = "27" weight = "7.603996135584229" />
    <synapse sourceNeuronName = "7" targetNeuronName = "28" weight = "-0.4905948906851827" />
    <synapse sourceNeuronName = "7" targetNeuronName = "29" weight = "19.6009807702765" />
    <synapse sourceNeuronName = "7" targetNeuronName = "30" weight = "1.1228654735746129" />
    <synapse sourceNeuronName = "7" targetNeuronName = "31" weight = "12.673302919998708" />
    <synapse sourceNeuronName = "7" targetNeuronName = "32" weight = "17.56182367968115" />
    <synapse sourceNeuronName = "7" targetNeuronName = "33" weight = "15.950303782278105" />
    <synapse sourceNeuronName = "7" targetNeuronName = "34" weight = "-0.15381665102091446" />
    <synapse sourceNeuronName = "7" targetNeuronName = "35" weight = "18.857673295056973" />
    <synapse sourceNeuronName = "7" targetNeuronName = "36" weight = "13.140867908694645" />
    <synapse sourceNeuronName = "7" targetNeuronName = "37" weight = "9.741098063263811" />
    <synapse sourceNeuronName = "7" targetNeuronName = "38" weight = "-0.024130385381598174" />
    <synapse sourceNeuronName = "8" targetNeuronName = "13" weight = "6.9765651247886655" />
    <synapse sourceNeuronName = "8" targetNeuronName = "14" weight = "17.238498929872303" />
    <synapse sourceNeuronName = "8" targetNeuronName = "15" weight = "0.8965186822478699" />
    <synapse sourceNeuronName = "8" targetNeuronName = "16" weight = "11.559490278493655" />
    <synapse sourceNeuronName = "8" targetNeuronName = "17" weight = "8.433088973657613" />
    <synapse sourceNeuronName = "8" targetNeuronName = "18" weight = "11.210863375041813" />
    <synapse sourceNeuronName = "8" targetNeuronName = "19" weight = "7.804171133758405" />
    <synapse sourceNeuronName = "8" targetNeuronName = "20" weight = "12.183886138629836" />
    <synapse sourceNeuronName = "8" targetNeuronName = "21" weight = "13.361351817975395" />
    <synapse sourceNeuronName = "8" targetNeuronName = "22" weight = "4.5186006761184885" />
    <synapse sourceNeuronName = "8" targetNeuronName = "23" weight = "18.18776146856332" />
    <synapse sourceNeuronName = "8" targetNeuronName = "24" weight = "8.941894618973667" />
    <synapse sourceNeuronName = "8" targetNeuronName = "25" weight = "-0.32561903409005755" />
    <synapse sourceNeuronName = "8" targetNeuronName = "26" weight = "9.720805329869252" />
    <synapse sourceNeuronName = "8" targetNeuronName = "27" weight = "2.9887509553474496" />
    <synapse sourceNeuronName = "8" targetNeuronName = "28" weight = "20.696570996675135" />
    <synapse sourceNeuronName = "8" targetNeuronName = "29" weight = "5.236518184994302" />
    <synapse sourceNeuronName = "8" targetNeuronName = "30" weight = "16.15282470942344" />
    <synapse sourceNeuronName = "8" targetNeuronName = "31" weight = "0.12128739654290066" />
    <synapse sourceNeuronName = "8" targetNeuronName = "32" weight = "3.104836070965362" />
    <synapse sourceNeuronName = "8" targetNeuronName = "33" weight = "18.383163134785278" />
    <synapse sourceNeuronName = "8" targetNeuronName = "34" weight = "9.216884913763849" />
    <synapse sourceNeuronName = "8" targetNeuronName = "35" weight = "0.05898759397376252" />
    <synapse sourceNeuronName = "8" targetNeuronName = "36" weight = "17.68148046753303" />
    <synapse sourceNeuronName = "8" targetNeuronName = "37" weight = "20.25624971046859" />
    <synapse sourceNeuronName = "8" targetNeuronName = "38" weight = "8.933645991441079" />
    <synapse sourceNeuronName = "9" targetNeuronName = "13" weight = "6.642558086318004" />
    <synapse sourceNeuronName = "9" targetNeuronName = "14" weight = "15.563491546005803" />
    <synapse sourceNeuronName = "9" targetNeuronName = "15" weight = "13.472669879483597" />
    <synapse sourceNeuronName = "9" targetNeuronName = "16" weight = "24.500047560291787" />
    <synapse sourceNeuronName = "9" targetNeuronName = "17" weight = "16.30192414173535" />
    <synapse sourceNeuronName = "9" targetNeuronName = "18" weight = "23.078507391007456" />
    <synapse sourceNeuronName = "9" targetNeuronName = "19" weight = "2.703127120888035" />
    <synapse sourceNeuronName = "9" targetNeuronName = "20" weight = "15.450798642531868" />
    <synapse sourceNeuronName = "9" targetNeuronName = "21" weight = "9.934696623648094" />
    <synapse sourceNeuronName = "9" targetNeuronName = "22" weight = "10.17049016706064" />
    <synapse sourceNeuronName = "9" targetNeuronName = "23" weight = "21.530282186677223" />
    <synapse sourceNeuronName = "9" targetNeuronName = "24" weight = "2.6387350650131864" />
    <synapse sourceNeuronName = "9" targetNeuronName = "25" weight = "6.242190383392114" />
    <synapse sourceNeuronName = "9" targetNeuronName = "26" weight = "7.689184989114455" />
    <synapse sourceNeuronName = "9" targetNeuronName = "27" weight = "2.708129538042523" />
    <synapse sourceNeuronName = "9" targetNeuronName = "28" weight = "18.2429131649484" />
    <synapse sourceNeuronName = "9" targetNeuronName = "29" weight = "16.863422416889044" />
    <synapse sourceNeuronName = "9" targetNeuronName = "30" weight = "24.621732445786957" />
    <synapse sourceNeuronName = "9" targetNeuronName = "31" weight = "15.815167796224323" />
    <synapse sourceNeuronName = "9" targetNeuronName = "32" weight = "5.919196901042675" />
    <synapse sourceNeuronName = "9" targetNeuronName = "33" weight = "-0.7032725087974612" />
    <synapse sourceNeuronName = "9" targetNeuronName = "34" weight = "9.892974192227816" />
    <synapse sourceNeuronName = "9" targetNeuronName = "35" weight = "6.788554095064355" />
    <synapse sourceNeuronName = "9" targetNeuronName = "36" weight = "4.646359985534508" />
    <synapse sourceNeuronName = "9" targetNeuronName = "37" weight = "14.514554649709487" />
    <synapse sourceNeuronName = "9" targetNeuronName = "38" weight = "20.496190468607853" />
    <synapse sourceNeuronName = "10" targetNeuronName = "13" weight = "1.75037947465486" />
    <synapse sourceNeuronName = "10" targetNeuronName = "14" weight = "13.783829971178067" />
    <synapse sourceNeuronName = "10" targetNeuronName = "15" weight = "9.19506897619216" />
    <synapse sourceNeuronName = "10" targetNeuronName = "16" weight = "14.760633573391893" />
    <synapse sourceNeuronName = "10" targetNeuronName = "17" weight = "18.021829959789347" />
    <synapse sourceNeuronName = "10" targetNeuronName = "18" weight = "17.146384795818012" />
    <synapse sourceNeuronName = "10" targetNeuronName = "19" weight = "10.557994797660267" />
    <synapse sourceNeuronName = "10" targetNeuronName = "20" weight = "0.7798774110512119" />
    <synapse sourceNeuronName = "10" targetNeuronName = "21" weight = "23.191223727292673" />
    <synapse sourceNeuronName = "10" targetNeuronName = "22" weight = "21.579919802156393" />
    <synapse sourceNeuronName = "10" targetNeuronName = "23" weight = "16.336306976183806" />
    <synapse sourceNeuronName = "10" targetNeuronName = "24" weight = "18.313768904994994" />
    <synapse sourceNeuronName = "10" targetNeuronName = "25" weight = "10.267461701583274" />
    <synapse sourceNeuronName = "10" targetNeuronName = "26" weight = "14.832056863706155" />
    <synapse sourceNeuronName = "10" targetNeuronName = "27" weight = "2.3790171882603786" />
    <synapse sourceNeuronName = "10" targetNeuronName = "28" weight = "23.31131551235366" />
    <synapse sourceNeuronName = "10" targetNeuronName = "29" weight = "-0.26599896664421907" />
    <synapse sourceNeuronName = "10" targetNeuronName = "30" weight = "21.826467548569955" />
    <synapse sourceNeuronName = "10" targetNeuronName = "31" weight = "12.572133762871749" />
    <synapse sourceNeuronName = "10" targetNeuronName = "32" weight = "6.256864932551554" />
    <synapse sourceNeuronName = "10" targetNeuronName = "33" weight = "12.000413352358846" />
    <synapse sourceNeuronName = "10" targetNeuronName = "34" weight = "3.207115083099609" />
    <synapse sourceNeuronName = "10" targetNeuronName = "35" weight = "15.226834345688992" />
    <synapse sourceNeuronName = "10" targetNeuronName = "36" weight = "13.73456409461842" />
    <synapse sourceNeuronName = "10" targetNeuronName = "37" weight = "6.269209292404373" />
    <synapse sourceNeuronName = "10" targetNeuronName = "38" weight = "24.45080351666063" />
    <synapse sourceNeuronName = "11" targetNeuronName = "13" weight = "2.190416339195995" />
    <synapse sourceNeuronName = "11" targetNeuronName = "14" weight = "22.512661843226002" />
    <synapse sourceNeuronName = "11" targetNeuronName = "15" weight = "0.018707489403704036" />
    <synapse sourceNeuronName = "11" targetNeuronName = "16" weight = "17.39050221107241" />
    <synapse sourceNeuronName = "11" targetNeuronName = "17" weight = "3.420102542323953" />
    <synapse sourceNeuronName = "11" targetNeuronName = "18" weight = "7.443999898042303" />
    <synapse sourceNeuronName = "11" targetNeuronName = "19" weight = "20.593851666483175" />
    <synapse sourceNeuronName = "11" targetNeuronName = "20" weight = "-0.7060508200074647" />
    <synapse sourceNeuronName = "11" targetNeuronName = "21" weight = "11.580465495862212" />
    <synapse sourceNeuronName = "11" targetNeuronName = "22" weight = "19.374796601303853" />
    <synapse sourceNeuronName = "11" targetNeuronName = "23" weight = "6.966979171641326" />
    <synapse sourceNeuronName = "11" targetNeuronName = "24" weight = "14.603049015223583" />
    <synapse sourceNeuronName = "11" targetNeuronName = "25" weight = "13.097606064719375" />
    <synapse sourceNeuronName = "11" targetNeuronName = "26" weight = "12.49000699100873" />
    <synapse sourceNeuronName = "11" targetNeuronName = "27" weight = "21.306372282011203" />
    <synapse sourceNeuronName = "11" targetNeuronName = "28" weight = "-0.5799424571665273" />
    <synapse sourceNeuronName = "11" targetNeuronName = "29" weight = "14.740311270420728" />
    <synapse sourceNeuronName = "11" targetNeuronName = "30" weight = "5.304345500440482" />
    <synapse sourceNeuronName = "11" targetNeuronName = "31" weight = "8.825882657800395" />
    <synapse sourceNeuronName = "11" targetNeuronName = "32" weight = "18.78522758006817" />
    <synapse sourceNeuronName = "11" targetNeuronName = "33" weight = "-0.6705791314191052" />
    <synapse sourceNeuronName = "11" targetNeuronName = "34" weight = "19.656523085323794" />
    <synapse sourceNeuronName = "11" targetNeuronName = "35" weight = "0.6431629494450126" />
    <synapse sourceNeuronName = "11" targetNeuronName = "36" weight = "22.7389011433232" />
    <synapse sourceNeuronName = "11" targetNeuronName = "37" weight = "15.85724803772581" />
    <synapse sourceNeuronName = "11" targetNeuronName = "38" weight = "22.757474640689967" />
    <synapse sourceNeuronName = "12" targetNeuronName = "13" weight = "-0.08332728369876152" />
    <synapse sourceNeuronName = "12" targetNeuronName = "14" weight = "0.5347214985287461" />
    <synapse sourceNeuronName = "12" targetNeuronName = "15" weight = "2.52120377587641" />
    <synapse sourceNeuronName = "12" targetNeuronName = "16" weight = "19.193625492618636" />
    <synapse sourceNeuronName = "12" targetNeuronName = "17" weight = "7.533547018700149" />
    <synapse sourceNeuronName = "12" targetNeuronName = "18" weight = "16.260691453788105" />
    <synapse sourceNeuronName = "12" targetNeuronName = "19" weight = "14.063545612900988" />
    <synapse sourceNeuronName = "12" targetNeuronName = "20" weight = "17.912937403651327" />
    <synapse sourceNeuronName = "12" targetNeuronName = "21" weight = "22.625086011964786" />
    <synapse sourceNeuronName = "12" targetNeuronName = "22" weight = "-0.2669898186122639" />
    <synapse sourceNeuronName = "12" targetNeuronName = "23" weight = "11.955651185924745" />
    <synapse sourceNeuronName = "12" targetNeuronName = "24" weight = "6.953246234980821" />
    <synapse sourceNeuronName = "12" targetNeuronName = "25" weight = "18.48778222687417" />
    <synapse sourceNeuronName = "12" targetNeuronName = "26" weight = "-0.3246958658947825" />
    <synapse sourceNeuronName = "12" targetNeuronName = "27" weight = "14.362494987479533" />
    <synapse sourceNeuronName = "12" targetNeuronName = "28" weight = "-0.2971973946712403" />
    <synapse sourceNeuronName = "12" targetNeuronName = "29" weight = "18.133867226961286" />
    <synapse sourceNeuronName = "12" targetNeuronName = "30" weight = "17.03550150800662" />
    <synapse sourceNeuronName = "12" targetNeuronName = "31" weight = "1.0713576484125817" />
    <synapse sourceNeuronName = "12" targetNeuronName = "32" weight = "6.237688270014619" />
    <synapse sourceNeuronName = "12" targetNeuronName = "33" weight = "9.761831606012144" />
    <synapse sourceNeuronName = "12" targetNeuronName = "34" weight = "9.46064765583853" />
    <synapse sourceNeuronName = "12" targetNeuronName = "35" weight = "18.89562718409446" />
    <synapse sourceNeuronName = "12" targetNeuronName = "36" weight = "22.987463574458474" />
    <synapse sourceNeuronName = "12" targetNeuronName = "37" weight = "16.045822089051164" />
    <synapse sourceNeuronName = "12" targetNeuronName = "38" weight = "14.858420220705137" />
</neuralNetwork>