<neuralNetwork>
    <neuron name = "0" type = "sensor" linkName = "Torso" />
    <neuron name = "1" type = "sensor" linkName = "Leg2" />
    <neuron name = "2" type = "sensor" linkName = "Leg3" />
    <neuron name = "3" type = "sensor" linkName = "Leg4" />
    <neuron name = "4" type = "sensor" linkName = "Leg5" />
    <neuron name = "5" type = "sensor" linkName = "Leg6" />
    <neuron name = "6" type = "sensor" linkName = "Leg9" />
    <neuron name = "7" type = "sensor" linkName = "Leg10" />
    <neuron name = "8" type = "sensor" linkName = "Leg11" />
    <neuron name = "9" type = "sensor" linkName = "Leg12" />
    <neuron name = "10" type = "sensor" linkName = "Leg13" />
    <neuron name = "11" type = "sensor" linkName = "Leg15" />
    <neuron name = "12" type = "sensor" linkName = "Leg16" />
    <neuron name = "13" type = "sensor" linkName = "Leg19" />
    <neuron name = "14" type = "sensor" linkName = "Leg22" />
    <neuron name = "15" type = "motor"  jointName = "Torso_Leg1" />
    <neuron name = "16" type = "motor"  jointName = "Leg1_Leg2" />
    <neuron name = "17" type = "motor"  jointName = "Leg1_Leg3" />
    <neuron name = "18" type = "motor"  jointName = "Leg3_Leg4" />
    <neuron name = "19" type = "motor"  jointName = "Leg4_Leg5" />
    <neuron name = "20" type = "motor"  jointName = "Leg2_Leg6" />
    <neuron name = "21" type = "motor"  jointName = "Leg6_Leg7" />
    <neuron name = "22" type = "motor"  jointName = "Leg3_Leg8" />
    <neuron name = "23" type = "motor"  jointName = "Leg7_Leg9" />
    <neuron name = "24" type = "motor"  jointName = "Leg5_Leg10" />
    <neuron name = "25" type = "motor"  jointName = "Leg2_Leg11" />
    <neuron name = "26" type = "motor"  jointName = "Leg7_Leg12" />
    <neuron name = "27" type = "motor"  jointName = "Leg9_Leg13" />
    <neuron name = "28" type = "motor"  jointName = "Torso_Leg14" />
    <neuron name = "29" type = "motor"  jointName = "Leg7_Leg15" />
    <neuron name = "30" type = "motor"  jointName = "Torso_Leg16" />
    <neuron name = "31" type = "motor"  jointName = "Leg5_Leg17" />
    <neuron name = "32" type = "motor"  jointName = "Leg13_Leg18" />
    <neuron name = "33" type = "motor"  jointName = "Leg5_Leg19" />
    <neuron name = "34" type = "motor"  jointName = "Leg14_Leg20" />
    <neuron name = "35" type = "motor"  jointName = "Leg15_Leg21" />
    <neuron name = "36" type = "motor"  jointName = "Leg12_Leg22" />
    <neuron name = "37" type = "motor"  jointName = "Leg4_Leg23" />
    <neuron name = "38" type = "motor"  jointName = "Leg11_Leg24" />
    <synapse sourceNeuronName = "0" targetNeuronName = "15" weight = "12.455685885278239" />
    <synapse sourceNeuronName = "0" targetNeuronName = "16" weight = "3.1194648684762045" />
    <synapse sourceNeuronName = "0" targetNeuronName = "17" weight = "11.812197658536142" />
    <synapse sourceNeuronName = "0" targetNeuronName = "18" weight = "8.558439403210494" />
    <synapse sourceNeuronName = "0" targetNeuronName = "19" weight = "1.981935171688094" />
    <synapse sourceNeuronName = "0" targetNeuronName = "20" weight = "13.582282549146385" />
    <synapse sourceNeuronName = "0" targetNeuronName = "21" weight = "10.994923307869517" />
    <synapse sourceNeuronName = "0" targetNeuronName = "22" weight = "6.40972620655366" />
    <synapse sourceNeuronName = "0" targetNeuronName = "23" weight = "4.259164034886621" />
    <synapse sourceNeuronName = "0" targetNeuronName = "24" weight = "8.385998002453828" />
    <synapse sourceNeuronName = "0" targetNeuronName = "25" weight = "14.48712369917673" />
    <synapse sourceNeuronName = "0" targetNeuronName = "26" weight = "3.2441397780010206" />
    <synapse sourceNeuronName = "0" targetNeuronName = "27" weight = "21.745162476105225" />
    <synapse sourceNeuronName = "0" targetNeuronName = "28" weight = "12.09558029041504" />
    <synapse sourceNeuronName = "0" targetNeuronName = "29" weight = "14.66480427225046" />
    <synapse sourceNeuronName = "0" targetNeuronName = "30" weight = "18.064537140831167" />
    <synapse sourceNeuronName = "0" targetNeuronName = "31" weight = "20.479337964527424" />
    <synapse sourceNeuronName = "0" targetNeuronName = "32" weight = "5.032310925285003" />
    <synapse sourceNeuronName = "0" targetNeuronName = "33" weight = "15.446649426165507" />
    <synapse sourceNeuronName = "0" targetNeuronName = "34" weight = "16.66631009843089" />
    <synapse sourceNeuronName = "0" targetNeuronName = "35" weight = "18.993379227234833" />
    <synapse sourceNeuronName = "0" targetNeuronName = "36" weight = "3.9888685121593" />
    <synapse sourceNeuronName = "0" targetNeuronName = "37" weight = "-0.774218671834694" />
    <synapse sourceNeuronName = "0" targetNeuronName = "38" weight = "17.706299744290376" />
    <synapse sourceNeuronName = "1" targetNeuronName = "15" weight = "11.626811508646526" />
    <synapse sourceNeuronName = "1" targetNeuronName = "16" weight = "4.3801637742934485" />
    <synapse sourceNeuronName = "1" targetNeuronName = "17" weight = "12.586473515144197" />
    <synapse sourceNeuronName = "1" targetNeuronName = "18" weight = "12.651533732406204" />
    <synapse sourceNeuronName = "1" targetNeuronName = "19" weight = "1.6120769181609633" />
    <synapse sourceNeuronName = "1" targetNeuronName = "20" weight = "10.532495547474767" />
    <synapse sourceNeuronName = "1" targetNeuronName = "21" weight = "15.143976749001027" />
    <synapse sourceNeuronName = "1" targetNeuronName = "22" weight = "-0.824519593530133" />
    <synapse sourceNeuronName = "1" targetNeuronName = "23" weight = "15.332942053329322" />
    <synapse sourceNeuronName = "1" targetNeuronName = "24" weight = "8.963613305455178" />
    <synapse sourceNeuronName = "1" targetNeuronName = "25" weight = "18.870052675832284" />
    <synapse sourceNeuronName = "1" targetNeuronName = "26" weight = "0.9691434719108774" />
    <synapse sourceNeuronName = "1" targetNeuronName = "27" weight = "20.81258671930802" />
    <synapse sourceNeuronName = "1" targetNeuronName = "28" weight = "19.51789029375471" />
    <synapse sourceNeuronName = "1" targetNeuronName = "29" weight = "22.074829186197512" />
    <synapse sourceNeuronName = "1" targetNeuronName = "30" weight = "5.419034448453773" />
    <synapse sourceNeuronName = "1" targetNeuronName = "31" weight = "9.511397129786708" />
    <synapse sourceNeuronName = "1" targetNeuronName = "32" weight = "5.206703298549653" />
    <synapse sourceNeuronName = "1" targetNeuronName = "33" weight = "14.395519795142842" />
    <synapse sourceNeuronName = "1" targetNeuronName = "34" weight = "4.419718919415787" />
    <synapse sourceNeuronName = "1" targetNeuronName = "35" weight = "6.648385908790281" />
    <synapse sourceNeuronName = "1" targetNeuronName = "36" weight = "15.121969023220757" />
    <synapse sourceNeuronName = "1" targetNeuronName = "37" weight = "4.6660279059926015" />
    <synapse sourceNeuronName = "1" targetNeuronName = "38" weight = "13.895946224402916" />
    <synapse sourceNeuronName = "2" targetNeuronName = "15" weight = "14.422495675951716" />
    <synapse sourceNeuronName = "2" targetNeuronName = "16" weight = "9.792227083696169" />
    <synapse sourceNeuronName = "2" targetNeuronName = "17" weight = "12.511313933183981" />
    <synapse sourceNeuronName = "2" targetNeuronName = "18" weight = "4.3207377742515" />
    <synapse sourceNeuronName = "2" targetNeuronName = "19" weight = "8.046395049188174" />
    <synapse sourceNeuronName = "2" targetNeuronName = "20" weight = "22.41033365358814" />
    <synapse sourceNeuronName = "2" targetNeuronName = "21" weight = "19.171377032755387" />
    <synapse sourceNeuronName = "2" targetNeuronName = "22" weight = "7.320918641702637" />
    <synapse sourceNeuronName = "2" targetNeuronName = "23" weight = "10.349940555797842" />
    <synapse sourceNeuronName = "2" targetNeuronName = "24" weight = "19.493311365523905" />
    <synapse sourceNeuronName = "2" targetNeuronName = "25" weight = "10.891154563353137" />
    <synapse sourceNeuronName = "2" targetNeuronName = "26" weight = "13.160030725620015" />
    <synapse sourceNeuronName = "2" targetNeuronName = "27" weight = "19.471234322598182" />
    <synapse sourceNeuronName = "2" targetNeuronName = "28" weight = "16.950871553341553" />
    <synapse sourceNeuronName = "2" targetNeuronName = "29" weight = "20.49181400381013" />
    <synapse sourceNeuronName = "2" targetNeuronName = "30" weight = "2.323227358998106" />
    <synapse sourceNeuronName = "2" targetNeuronName = "31" weight = "20.23486120032252" />
    <synapse sourceNeuronName = "2" targetNeuronName = "32" weight = "19.421041554073334" />
    <synapse sourceNeuronName = "2" targetNeuronName = "33" weight = "-0.009974958058673877" />
    <synapse sourceNeuronName = "2" targetNeuronName = "34" weight = "11.708966307942747" />
    <synapse sourceNeuronName = "2" targetNeuronName = "35" weight = "18.723760182399438" />
    <synapse sourceNeuronName = "2" targetNeuronName = "36" weight = "7.355535219630072" />
    <synapse sourceNeuronName = "2" targetNeuronName = "37" weight = "10.12055610010855" />
    <synapse sourceNeuronName = "2" targetNeuronName = "38" weight = "-0.7755924194238046" />
    <synapse sourceNeuronName = "3" targetNeuronName = "15" weight = "14.240374059712693" />
    <synapse sourceNeuronName = "3" targetNeuronName = "16" weight = "14.039883198898623" />
    <synapse sourceNeuronName = "3" targetNeuronName = "17" weight = "2.498317872605969" />
    <synapse sourceNeuronName = "3" targetNeuronName = "18" weight = "12.321789952270457" />
    <synapse sourceNeuronName = "3" targetNeuronName = "19" weight = "21.349776202160246" />
    <synapse sourceNeuronName = "3" targetNeuronName = "20" weight = "17.90046169132155" />
    <synapse sourceNeuronName = "3" targetNeuronName = "21" weight = "11.714007193000844" />
    <synapse sourceNeuronName = "3" targetNeuronName = "22" weight = "22.115488730830787" />
    <synapse sourceNeuronName = "3" targetNeuronName = "23" weight = "9.199783000656794" />
    <synapse sourceNeuronName = "3" targetNeuronName = "24" weight = "14.295880835928546" />
    <synapse sourceNeuronName = "3" targetNeuronName = "25" weight = "-0.38601141628169433" />
    <synapse sourceNeuronName = "3" targetNeuronName = "26" weight = "0.5855000402913708" />
    <synapse sourceNeuronName = "3" targetNeuronName = "27" weight = "22.399211185035192" />
    <synapse sourceNeuronName = "3" targetNeuronName = "28" weight = "17.588257443099273" />
    <synapse sourceNeuronName = "3" targetNeuronName = "29" weight = "14.27765708976369" />
    <synapse sourceNeuronName = "3" targetNeuronName = "30" weight = "12.414705500102697" />
    <synapse sourceNeuronName = "3" targetNeuronName = "31" weight = "8.934392190843317" />
    <synapse sourceNeuronName = "3" targetNeuronName = "32" weight = "22.707373345301853" />
    <synapse sourceNeuronName = "3" targetNeuronName = "33" weight = "12.792786721136013" />
    <synapse sourceNeuronName = "3" targetNeuronName = "34" weight = "4.192124161007527" />
    <synapse sourceNeuronName = "3" targetNeuronName = "35" weight = "-0.5340757783169634" />
    <synapse sourceNeuronName = "3" targetNeuronName = "36" weight = "16.954054580990437" />
    <synapse sourceNeuronName = "3" targetNeuronName = "37" weight = "13.401734126286222" />
    <synapse sourceNeuronName = "3" targetNeuronName = "38" weight = "13.95214002998995" />
    <synapse sourceNeuronName = "4" targetNeuronName = "15" weight = "3.316735494003071" />
    <synapse sourceNeuronName = "4" targetNeuronName = "16" weight = "6.098728873970277" />
    <synapse sourceNeuronName = "4" targetNeuronName = "17" weight = "4.867348107689042" />
    <synapse sourceNeuronName = "4" targetNeuronName = "18" weight = "12.198281019703991" />
    <synapse sourceNeuronName = "4" targetNeuronName = "19" weight = "-0.3251544219736413" />
    <synapse sourceNeuronName = "4" targetNeuronName = "20" weight = "22.363944901733372" />
    <synapse sourceNeuronName = "4" targetNeuronName = "21" weight = "19.520690571242127" />
    <synapse sourceNeuronName = "4" targetNeuronName = "22" weight = "22.430475359735286" />
    <synapse sourceNeuronName = "4" targetNeuronName = "23" weight = "8.640387520038907" />
    <synapse sourceNeuronName = "4" targetNeuronName = "24" weight = "14.291264635975224" />
    <synapse sourceNeuronName = "4" targetNeuronName = "25" weight = "17.797809166942983" />
    <synapse sourceNeuronName = "4" targetNeuronName = "26" weight = "12.296547617490617" />
    <synapse sourceNeuronName = "4" targetNeuronName = "27" weight = "8.222833616585795" />
    <synapse sourceNeuronName = "4" targetNeuronName = "28" weight = "15.636682762763087" />
    <synapse sourceNeuronName = "4" targetNeuronName = "29" weight = "15.764610174779907" />
    <synapse sourceNeuronName = "4" targetNeuronName = "30" weight = "16.297295202958807" />
    <synapse sourceNeuronName = "4" targetNeuronName = "31" weight = "2.293445852512564" />
    <synapse sourceNeuronName = "4" targetNeuronName = "32" weight = "21.460615406836876" />
    <synapse sourceNeuronName = "4" targetNeuronName = "33" weight = "17.685875504599828" />
    <synapse sourceNeuronName = "4" targetNeuronName = "34" weight = "10.258377166438235" />
    <synapse sourceNeuronName = "4" targetNeuronName = "35" weight = "15.892685445360073" />
    <synapse sourceNeuronName = "4" targetNeuronName = "36" weight = "12.14250066311411" />
    <synapse sourceNeuronName = "4" targetNeuronName = "37" weight = "0.38167221469833557" />
    <synapse sourceNeuronName = "4" targetNeuronName = "38" weight = "20.157200092376364" />
    <synapse sourceNeuronName = "5" targetNeuronName = "15" weight = "8.447650862591729" />
    <synapse sourceNeuronName = "5" targetNeuronName = "16" weight = "0.26601167093334155" />
    <synapse sourceNeuronName = "5" targetNeuronName = "17" weight = "5.13696124406019" />
    <synapse sourceNeuronName = "5" targetNeuronName = "18" weight = "20.098662951449196" />
    <synapse sourceNeuronName = "5" targetNeuronName = "19" weight = "19.658859616568417" />
    <synapse sourceNeuronName = "5" targetNeuronName = "20" weight = "14.74570944812158" />
    <synapse sourceNeuronName = "5" targetNeuronName = "21" weight = "5.7586577213160846" />
    <synapse sourceNeuronName = "5" targetNeuronName = "22" weight = "-0.6411125265281763" />
    <synapse sourceNeuronName = "5" targetNeuronName = "23" weight = "9.827140284617247" />
    <synapse sourceNeuronName = "5" targetNeuronName = "24" weight = "18.12978641087293" />
    <synapse sourceNeuronName = "5" targetNeuronName = "25" weight = "7.483462743923955" />
    <synapse sourceNeuronName = "5" targetNeuronName = "26" weight = "0.15331620421239212" />
    <synapse sourceNeuronName = "5" targetNeuronName = "27" weight = "13.583711667598308" />
    <synapse sourceNeuronName = "5" targetNeuronName = "28" weight = "1.0769700081456044" />
    <synapse sourceNeuronName = "5" targetNeuronName = "29" weight = "10.741243050817683" />
    <synapse sourceNeuronName = "5" targetNeuronName = "30" weight = "20.624067933730686" />
    <synapse sourceNeuronName = "5" targetNeuronName = "31" weight = "13.72703344540006" />
    <synapse sourceNeuronName = "5" targetNeuronName = "32" weight = "6.980000560710902" />
    <synapse sourceNeuronName = "5" targetNeuronName = "33" weight = "17.97403295352235" />
    <synapse sourceNeuronName = "5" targetNeuronName = "34" weight = "9.24030510385843" />
    <synapse sourceNeuronName = "5" targetNeuronName = "35" weight = "11.455895029672526" />
    <synapse sourceNeuronName = "5" targetNeuronName = "36" weight = "19.76913034078087" />
    <synapse sourceNeuronName = "5" targetNeuronName = "37" weight = "0.23987726084267091" />
    <synapse sourceNeuronName = "5" targetNeuronName = "38" weight = "18.90990122888814" />
    <synapse sourceNeuronName = "6" targetNeuronName = "15" weight = "11.369035017373449" />
    <synapse sourceNeuronName = "6" targetNeuronName = "16" weight = "5.506213719802677" />
    <synapse sourceNeuronName = "6" targetNeuronName = "17" weight = "14.071587758568286" />
    <synapse sourceNeuronName = "6" targetNeuronName = "18" weight = "17.69507926612494" />
    <synapse sourceNeuronName = "6" targetNeuronName = "19" weight = "4.251850338381976" />
    <synapse sourceNeuronName = "6" targetNeuronName = "20" weight = "1.5089894354072708" />
    <synapse sourceNeuronName = "6" targetNeuronName = "21" weight = "0.49852335711728113" />
    <synapse sourceNeuronName = "6" targetNeuronName = "22" weight = "13.964661446344191" />
    <synapse sourceNeuronName = "6" targetNeuronName = "23" weight = "22.761027650315132" />
    <synapse sourceNeuronName = "6" targetNeuronName = "24" weight = "12.308229187107038" />
    <synapse sourceNeuronName = "6" targetNeuronName = "25" weight = "22.122748794744073" />
    <synapse sourceNeuronName = "6" targetNeuronName = "26" weight = "3.9418972470174847" />
    <synapse sourceNeuronName = "6" targetNeuronName = "27" weight = "9.640783577467868" />
    <synapse sourceNeuronName = "6" targetNeuronName = "28" weight = "9.138670115904251" />
    <synapse sourceNeuronName = "6" targetNeuronName = "29" weight = "22.73422287236808" />
    <synapse sourceNeuronName = "6" targetNeuronName = "30" weight = "15.188185524758403" />
    <synapse sourceNeuronName = "6" targetNeuronName = "31" weight = "20.595315936912936" />
    <synapse sourceNeuronName = "6" targetNeuronName = "32" weight = "11.58849086071521" />
    <synapse sourceNeuronName = "6" targetNeuronName = "33" weight = "21.83841355505538" />
    <synapse sourceNeuronName = "6" targetNeuronName = "34" weight = "5.91505119174683" />
    <synapse sourceNeuronName = "6" targetNeuronName = "35" weight = "3.7553442619247885" />
    <synapse sourceNeuronName = "6" targetNeuronName = "36" weight = "16.165288889794624" />
    <synapse sourceNeuronName = "6" targetNeuronName = "37" weight = "0.926649084680637" />
    <synapse sourceNeuronName = "6" targetNeuronName = "38" weight = "10.32440892888853" />
    <synapse sourceNeuronName = "7" targetNeuronName = "15" weight = "2.070116000059582" />
    <synapse sourceNeuronName = "7" targetNeuronName = "16" weight = "8.712486267723518" />
    <synapse sourceNeuronName = "7" targetNeuronName = "17" weight = "1.083221738736344" />
    <synapse sourceNeuronName = "7" targetNeuronName = "18" weight = "12.615445260717593" />
    <synapse sourceNeuronName = "7" targetNeuronName = "19" weight = "14.925052612510715" />
    <synapse sourceNeuronName = "7" targetNeuronName = "20" weight = "14.576818080005868" />
    <synapse sourceNeuronName = "7" targetNeuronName = "21" weight = "10.712345333141858" />
    <synapse sourceNeuronName = "7" targetNeuronName = "22" weight = "7.938761567452566" />
    <synapse sourceNeuronName = "7" targetNeuronName = "23" weight = "6.015465236205817" />
    <synapse sourceNeuronName = "7" targetNeuronName = "24" weight = "-0.8361242371234443" />
    <synapse sourceNeuronName = "7" targetNeuronName = "25" weight = "0.6758273651316653" />
    <synapse sourceNeuronName = "7" targetNeuronName = "26" weight = "16.725417437956" />
    <synapse sourceNeuronName = "7" targetNeuronName = "27" weight = "-0.8034272519839298" />
    <synapse sourceNeuronName = "7" targetNeuronName = "28" weight = "10.48858936203274" />
    <synapse sourceNeuronName = "7" targetNeuronName = "29" weight = "4.773767211320505" />
    <synapse sourceNeuronName = "7" targetNeuronName = "30" weight = "10.292823234707349" />
    <synapse sourceNeuronName = "7" targetNeuronName = "31" weight = "8.66224240707842" />
    <synapse sourceNeuronName = "7" targetNeuronName = "32" weight = "13.044580861986319" />
    <synapse sourceNeuronName = "7" targetNeuronName = "33" weight = "6.361818364974323" />
    <synapse sourceNeuronName = "7" targetNeuronName = "34" weight = "15.589853497304958" />
    <synapse sourceNeuronName = "7" targetNeuronName = "35" weight = "6.051792628768045" />
    <synapse sourceNeuronName = "7" targetNeuronName = "36" weight = "5.910454823644473" />
    <synapse sourceNeuronName = "7" targetNeuronName = "37" weight = "10.957343975950291" />
    <synapse sourceNeuronName = "7" targetNeuronName = "38" weight = "15.337714114849728" />
    <synapse sourceNeuronName = "8" targetNeuronName = "15" weight = "1.199536909449531" />
    <synapse sourceNeuronName = "8" targetNeuronName = "16" weight = "2.671933891314299" />
    <synapse sourceNeuronName = "8" targetNeuronName = "17" weight = "8.27418593185497" />
    <synapse sourceNeuronName = "8" targetNeuronName = "18" weight = "8.928405190953885" />
    <synapse sourceNeuronName = "8" targetNeuronName = "19" weight = "16.046985364091707" />
    <synapse sourceNeuronName = "8" targetNeuronName = "20" weight = "9.639352112510695" />
    <synapse sourceNeuronName = "8" targetNeuronName = "21" weight = "0.8159825913213892" />
    <synapse sourceNeuronName = "8" targetNeuronName = "22" weight = "2.7056116455183625" />
    <synapse sourceNeuronName = "8" targetNeuronName = "23" weight = "13.13671553450147" />
    <synapse sourceNeuronName = "8" targetNeuronName = "24" weight = "4.020156283805765" />
    <synapse sourceNeuronName = "8" targetNeuronName = "25" weight = "6.015963837936225" />
    <synapse sourceNeuronName = "8" targetNeuronName = "26" weight = "11.78503410257284" />
    <synapse sourceNeuronName = "8" targetNeuronName = "27" weight = "2.6154311933960424" />
    <synapse sourceNeuronName = "8" targetNeuronName = "28" weight = "2.1393372982571774" />
    <synapse sourceNeuronName = "8" targetNeuronName = "29" weight = "5.0419555947089565" />
    <synapse sourceNeuronName = "8" targetNeuronName = "30" weight = "11.873863796631593" />
    <synapse sourceNeuronName = "8" targetNeuronName = "31" weight = "22.25875653025917" />
    <synapse sourceNeuronName = "8" targetNeuronName = "32" weight = "16.318113718721577" />
    <synapse sourceNeuronName = "8" targetNeuronName = "33" weight = "10.108516177473938" />
    <synapse sourceNeuronName = "8" targetNeuronName = "34" weight = "6.653366530395025" />
    <synapse sourceNeuronName = "8" targetNeuronName = "35" weight = "0.24674058145796263" />
    <synapse sourceNeuronName = "8" targetNeuronName = "36" weight = "0.38281684180828357" />
    <synapse sourceNeuronName = "8" targetNeuronName = "37" weight = "18.01330200830362" />
    <synapse sourceNeuronName = "8" targetNeuronName = "38" weight = "20.630168754285947" />
    <synapse sourceNeuronName = "9" targetNeuronName = "15" weight = "0.12288724299919451" />
    <synapse sourceNeuronName = "9" targetNeuronName = "16" weight = "7.0950416370425895" />
    <synapse sourceNeuronName = "9" targetNeuronName = "17" weight = "1.6198252192011333" />
    <synapse sourceNeuronName = "9" targetNeuronName = "18" weight = "17.66555140051574" />
    <synapse sourceNeuronName = "9" targetNeuronName = "19" weight = "7.256813287192815" />
    <synapse sourceNeuronName = "9" targetNeuronName = "20" weight = "17.72199919553582" />
    <synapse sourceNeuronName = "9" targetNeuronName = "21" weight = "13.286520436248429" />
    <synapse sourceNeuronName = "9" targetNeuronName = "22" weight = "8.427690355228528" />
    <synapse sourceNeuronName = "9" targetNeuronName = "23" weight = "6.294906659111693" />
    <synapse sourceNeuronName = "9" targetNeuronName = "24" weight = "19.062195691543565" />
    <synapse sourceNeuronName = "9" targetNeuronName = "25" weight = "18.007733066739313" />
    <synapse sourceNeuronName = "9" targetNeuronName = "26" weight = "5.4248267933808725" />
    <synapse sourceNeuronName = "9" targetNeuronName = "27" weight = "7.968789798509636" />
    <synapse sourceNeuronName = "9" targetNeuronName = "28" weight = "18.07963103392186" />
    <synapse sourceNeuronName = "9" targetNeuronName = "29" weight = "15.538197415942474" />
    <synapse sourceNeuronName = "9" targetNeuronName = "30" weight = "5.045445622465095" />
    <synapse sourceNeuronName = "9" targetNeuronName = "31" weight = "5.954841367445766" />
    <synapse sourceNeuronName = "9" targetNeuronName = "32" weight = "12.690506280457683" />
    <synapse sourceNeuronName = "9" targetNeuronName = "33" weight = "19.9660495799899" />
    <synapse sourceNeuronName = "9" targetNeuronName = "34" weight = "5.43956690393441" />
    <synapse sourceNeuronName = "9" targetNeuronName = "35" weight = "5.785342015261096" />
    <synapse sourceNeuronName = "9" targetNeuronName = "36" weight = "18.513433056686345" />
    <synapse sourceNeuronName = "9" targetNeuronName = "37" weight = "7.127901040814304" />
    <synapse sourceNeuronName = "9" targetNeuronName = "38" weight = "13.654196399715616" />
    <synapse sourceNeuronName = "10" targetNeuronName = "15" weight = "17.206088475357358" />
    <synapse sourceNeuronName = "10" targetNeuronName = "16" weight = "19.160664396544377" />
    <synapse sourceNeuronName = "10" targetNeuronName = "17" weight = "13.854407400727347" />
    <synapse sourceNeuronName = "10" targetNeuronName = "18" weight = "2.703475174635291" />
    <synapse sourceNeuronName = "10" targetNeuronName = "19" weight = "7.292695157848936" />
    <synapse sourceNeuronName = "10" targetNeuronName = "20" weight = "8.599858487789692" />
    <synapse sourceNeuronName = "10" targetNeuronName = "21" weight = "22.47776485009698" />
    <synapse sourceNeuronName = "10" targetNeuronName = "22" weight = "22.110459300163008" />
    <synapse sourceNeuronName = "10" targetNeuronName = "23" weight = "0.1673500953021918" />
    <synapse sourceNeuronName = "10" targetNeuronName = "24" weight = "20.84158385417219" />
    <synapse sourceNeuronName = "10" targetNeuronName = "25" weight = "10.49227351087385" />
    <synapse sourceNeuronName = "10" targetNeuronName = "26" weight = "10.351599831823094" />
    <synapse sourceNeuronName = "10" targetNeuronName = "27" weight = "6.072984034851509" />
    <synapse sourceNeuronName = "10" targetNeuronName = "28" weight = "18.022559684962008" />
    <synapse sourceNeuronName = "10" targetNeuronName = "29" weight = "4.860817051230001" />
    <synapse sourceNeuronName = "10" targetNeuronName = "30" weight = "13.472461860521742" />
    <synapse sourceNeuronName = "10" targetNeuronName = "31" weight = "7.605347491473019" />
    <synapse sourceNeuronName = "10" targetNeuronName = "32" weight = "22.143872732774184" />
    <synapse sourceNeuronName = "10" targetNeuronName = "33" weight = "1.2996623816774715" />
    <synapse sourceNeuronName = "10" targetNeuronName = "34" weight = "1.8621072813089263" />
    <synapse sourceNeuronName = "10" targetNeuronName = "35" weight = "7.55135041362615" />
    <synapse sourceNeuronName = "10" targetNeuronName = "36" weight = "-0.6478817837530659" />
    <synapse sourceNeuronName = "10" targetNeuronName = "37" weight = "21.292014937237845" />
    <synapse sourceNeuronName = "10" targetNeuronName = "38" weight = "1.7307276827593725" />
    <synapse sourceNeuronName = "11" targetNeuronName = "15" weight = "6.084295644775632" />
    <synapse sourceNeuronName = "11" targetNeuronName = "16" weight = "2.1714209487998666" />
    <synapse sourceNeuronName = "11" targetNeuronName = "17" weight = "5.630824260737885" />
    <synapse sourceNeuronName = "11" targetNeuronName = "18" weight = "16.24258235359379" />
    <synapse sourceNeuronName = "11" targetNeuronName = "19" weight = "12.200197682880892" />
    <synapse sourceNeuronName = "11" targetNeuronName = "20" weight = "2.733913501644702" />
    <synapse sourceNeuronName = "11" targetNeuronName = "21" weight = "5.745554285756029" />
    <synapse sourceNeuronName = "11" targetNeuronName = "22" weight = "13.1954421292426" />
    <synapse sourceNeuronName = "11" targetNeuronName = "23" weight = "1.8865026601003212" />
    <synapse sourceNeuronName = "11" targetNeuronName = "24" weight = "9.587478994741854" />
    <synapse sourceNeuronName = "11" targetNeuronName = "25" weight = "2.7021101213269985" />
    <synapse sourceNeuronName = "11" targetNeuronName = "26" weight = "10.068052197909786" />
    <synapse sourceNeuronName = "11" targetNeuronName = "27" weight = "18.503484522740308" />
    <synapse sourceNeuronName = "11" targetNeuronName = "28" weight = "21.858132720916224" />
    <synapse sourceNeuronName = "11" targetNeuronName = "29" weight = "1.5467619364548328" />
    <synapse sourceNeuronName = "11" targetNeuronName = "30" weight = "12.95101075078297" />
    <synapse sourceNeuronName = "11" targetNeuronName = "31" weight = "12.95672223453273" />
    <synapse sourceNeuronName = "11" targetNeuronName = "32" weight = "18.76820334466081" />
    <synapse sourceNeuronName = "11" targetNeuronName = "33" weight = "19.909260378455922" />
    <synapse sourceNeuronName = "11" targetNeuronName = "34" weight = "20.12905503297337" />
    <synapse sourceNeuronName = "11" targetNeuronName = "35" weight = "7.599134427398418" />
    <synapse sourceNeuronName = "11" targetNeuronName = "36" weight = "8.608563446694038" />
    <synapse sourceNeuronName = "11" targetNeuronName = "37" weight = "11.105357680733507" />
    <synapse sourceNeuronName = "11" targetNeuronName = "38" weight = "7.8419313920680835" />
    <synapse sourceNeuronName = "12" targetNeuronName = "15" weight = "6.034803726575241" />
    <synapse sourceNeuronName = "12" targetNeuronName = "16" weight = "5.194523726137343" />
    <synapse sourceNeuronName = "12" targetNeuronName = "17" weight = "21.213338128581587" />
    <synapse sourceNeuronName = "12" targetNeuronName = "18" weight = "22.621062033552388" />
    <synapse sourceNeuronName = "12" targetNeuronName = "19" weight = "3.9815451047861217" />
    <synapse sourceNeuronName = "12" targetNeuronName = "20" weight = "16.821514561410325" />
    <synapse sourceNeuronName = "12" targetNeuronName = "21" weight = "17.563557480452364" />
    <synapse sourceNeuronName = "12" targetNeuronName = "22" weight = "17.174046821422056" />
    <synapse sourceNeuronName = "12" targetNeuronName = "23" weight = "14.19478143432114" />
    <synapse sourceNeuronName = "12" targetNeuronName = "24" weight = "2.9000309246574076" />
    <synapse sourceNeuronName = "12" targetNeuronName = "25" weight = "20.677985071789017" />
    <synapse sourceNeuronName = "12" targetNeuronName = "26" weight = "14.350611770199396" />
    <synapse sourceNeuronName = "12" targetNeuronName = "27" weight = "3.3108043849127418" />
    <synapse sourceNeuronName = "12" targetNeuronName = "28" weight = "18.49192987699437" />
    <synapse sourceNeuronName = "12" targetNeuronName = "29" weight = "15.208440733838856" />
    <synapse sourceNeuronName = "12" targetNeuronName = "30" weight = "0.20533612940169288" />
    <synapse sourceNeuronName = "12" targetNeuronName = "31" weight = "18.405857424687948" />
    <synapse sourceNeuronName = "12" targetNeuronName = "32" weight = "8.272396859015114" />
    <synapse sourceNeuronName = "12" targetNeuronName = "33" weight = "7.613599232591213" />
    <synapse sourceNeuronName = "12" targetNeuronName = "34" weight = "14.156027803042257" />
    <synapse sourceNeuronName = "12" targetNeuronName = "35" weight = "15.820726701862355" />
    <synapse sourceNeuronName = "12" targetNeuronName = "36" weight = "5.17835580127971" />
    <synapse sourceNeuronName = "12" targetNeuronName = "37" weight = "8.956409687763244" />
    <synapse sourceNeuronName = "12" targetNeuronName = "38" weight = "-0.1116148229260352" />
    <synapse sourceNeuronName = "13" targetNeuronName = "15" weight = "10.809260151550228" />
    <synapse sourceNeuronName = "13" targetNeuronName = "16" weight = "21.79911862510372" />
    <synapse sourceNeuronName = "13" targetNeuronName = "17" weight = "11.152086073231914" />
    <synapse sourceNeuronName = "13" targetNeuronName = "18" weight = "5.758907634195665" />
    <synapse sourceNeuronName = "13" targetNeuronName = "19" weight = "1.8939039361244108" />
    <synapse sourceNeuronName = "13" targetNeuronName = "20" weight = "18.961451414175688" />
    <synapse sourceNeuronName = "13" targetNeuronName = "21" weight = "0.5068969259773208" />
    <synapse sourceNeuronName = "13" targetNeuronName = "22" weight = "1.0471725802483078" />
    <synapse sourceNeuronName = "13" targetNeuronName = "23" weight = "3.4208786070231447" />
    <synapse sourceNeuronName = "13" targetNeuronName = "24" weight = "17.800701523760065" />
    <synapse sourceNeuronName = "13" targetNeuronName = "25" weight = "9.033377410236055" />
    <synapse sourceNeuronName = "13" targetNeuronName = "26" weight = "7.620347049941579" />
    <synapse sourceNeuronName = "13" targetNeuronName = "27" weight = "16.14684956174703" />
    <synapse sourceNeuronName = "13" targetNeuronName = "28" weight = "15.50487759715622" />
    <synapse sourceNeuronName = "13" targetNeuronName = "29" weight = "3.6727114372808947" />
    <synapse sourceNeuronName = "13" targetNeuronName = "30" weight = "13.798434664482224" />
    <synapse sourceNeuronName = "13" targetNeuronName = "31" weight = "19.656715022632536" />
    <synapse sourceNeuronName = "13" targetNeuronName = "32" weight = "10.775573235000344" />
    <synapse sourceNeuronName = "13" targetNeuronName = "33" weight = "11.62652681295532" />
    <synapse sourceNeuronName = "13" targetNeuronName = "34" weight = "19.458933612456278" />
    <synapse sourceNeuronName = "13" targetNeuronName = "35" weight = "2.128264204994058" />
    <synapse sourceNeuronName = "13" targetNeuronName = "36" weight = "18.310347563450925" />
    <synapse sourceNeuronName = "13" targetNeuronName = "37" weight = "13.626895734464455" />
    <synapse sourceNeuronName = "13" targetNeuronName = "38" weight = "1.8619199688851307" />
    <synapse sourceNeuronName = "14" targetNeuronName = "15" weight = "22.925305511890883" />
    <synapse sourceNeuronName = "14" targetNeuronName = "16" weight = "11.016576001883635" />
    <synapse sourceNeuronName = "14" targetNeuronName = "17" weight = "14.831511758992594" />
    <synapse sourceNeuronName = "14" targetNeuronName = "18" weight = "19.963126061803443" />
    <synapse sourceNeuronName = "14" targetNeuronName = "19" weight = "5.850309152002011" />
    <synapse sourceNeuronName = "14" targetNeuronName = "20" weight = "18.602693688880755" />
    <synapse sourceNeuronName = "14" targetNeuronName = "21" weight = "19.762882607373143" />
    <synapse sourceNeuronName = "14" targetNeuronName = "22" weight = "22.805134555727125" />
    <synapse sourceNeuronName = "14" targetNeuronName = "23" weight = "11.92003773583127" />
    <synapse sourceNeuronName = "14" targetNeuronName = "24" weight = "21.391339252412404" />
    <synapse sourceNeuronName = "14" targetNeuronName = "25" weight = "17.713867500838322" />
    <synapse sourceNeuronName = "14" targetNeuronName = "26" weight = "21.563997834045136" />
    <synapse sourceNeuronName = "14" targetNeuronName = "27" weight = "10.695323447043098" />
    <synapse sourceNeuronName = "14" targetNeuronName = "28" weight = "21.189914969330346" />
    <synapse sourceNeuronName = "14" targetNeuronName = "29" weight = "16.5497993492942" />
    <synapse sourceNeuronName = "14" targetNeuronName = "30" weight = "1.837403634384951" />
    <synapse sourceNeuronName = "14" targetNeuronName = "31" weight = "5.841529302187801" />
    <synapse sourceNeuronName = "14" targetNeuronName = "32" weight = "21.349413686173733" />
    <synapse sourceNeuronName = "14" targetNeuronName = "33" weight = "12.5879369486045" />
    <synapse sourceNeuronName = "14" targetNeuronName = "34" weight = "5.0372863023455885" />
    <synapse sourceNeuronName = "14" targetNeuronName = "35" weight = "16.4750547072592" />
    <synapse sourceNeuronName = "14" targetNeuronName = "36" weight = "19.075113557415346" />
    <synapse sourceNeuronName = "14" targetNeuronName = "37" weight = "1.9035889874381722" />
    <synapse sourceNeuronName = "14" targetNeuronName = "38" weight = "0.6747575015960168" />
</neuralNetwork>