<neuralNetwork>
    <neuron name = "0" type = "sensor" linkName = "Torso" />
    <neuron name = "1" type = "sensor" linkName = "Leg4" />
    <neuron name = "2" type = "sensor" linkName = "Leg5" />
    <neuron name = "3" type = "sensor" linkName = "Leg7" />
    <neuron name = "4" type = "sensor" linkName = "Leg9" />
    <neuron name = "5" type = "sensor" linkName = "Leg10" />
    <neuron name = "6" type = "sensor" linkName = "Leg11" />
    <neuron name = "7" type = "sensor" linkName = "Leg15" />
    <neuron name = "8" type = "sensor" linkName = "Leg17" />
    <neuron name = "9" type = "sensor" linkName = "Leg20" />
    <neuron name = "10" type = "sensor" linkName = "Leg23" />
    <neuron name = "11" type = "sensor" linkName = "Leg25" />
    <neuron name = "12" type = "motor"  jointName = "Torso_Leg1" />
    <neuron name = "13" type = "motor"  jointName = "Torso_Leg2" />
    <neuron name = "14" type = "motor"  jointName = "Leg2_Leg3" />
    <neuron name = "15" type = "motor"  jointName = "Leg1_Leg4" />
    <neuron name = "16" type = "motor"  jointName = "Leg3_Leg5" />
    <neuron name = "17" type = "motor"  jointName = "Leg3_Leg6" />
    <neuron name = "18" type = "motor"  jointName = "Leg6_Leg7" />
    <neuron name = "19" type = "motor"  jointName = "Leg2_Leg8" />
    <neuron name = "20" type = "motor"  jointName = "Leg2_Leg9" />
    <neuron name = "21" type = "motor"  jointName = "Leg8_Leg10" />
    <neuron name = "22" type = "motor"  jointName = "Leg9_Leg11" />
    <neuron name = "23" type = "motor"  jointName = "Leg5_Leg12" />
    <neuron name = "24" type = "motor"  jointName = "Leg6_Leg13" />
    <neuron name = "25" type = "motor"  jointName = "Leg10_Leg14" />
    <neuron name = "26" type = "motor"  jointName = "Leg5_Leg15" />
    <neuron name = "27" type = "motor"  jointName = "Leg5_Leg16" />
    <neuron name = "28" type = "motor"  jointName = "Leg11_Leg17" />
    <neuron name = "29" type = "motor"  jointName = "Leg12_Leg18" />
    <neuron name = "30" type = "motor"  jointName = "Leg6_Leg19" />
    <neuron name = "31" type = "motor"  jointName = "Leg4_Leg20" />
    <neuron name = "32" type = "motor"  jointName = "Leg13_Leg21" />
    <neuron name = "33" type = "motor"  jointName = "Leg14_Leg22" />
    <neuron name = "34" type = "motor"  jointName = "Leg18_Leg23" />
    <neuron name = "35" type = "motor"  jointName = "Leg16_Leg24" />
    <neuron name = "36" type = "motor"  jointName = "Leg10_Leg25" />
    <neuron name = "37" type = "motor"  jointName = "Leg22_Leg26" />
    <synapse sourceNeuronName = "0" targetNeuronName = "12" weight = "7.287776141240272" />
    <synapse sourceNeuronName = "0" targetNeuronName = "13" weight = "4.004204914298534" />
    <synapse sourceNeuronName = "0" targetNeuronName = "14" weight = "1.7587450472300743" />
    <synapse sourceNeuronName = "0" targetNeuronName = "15" weight = "14.936384646647344" />
    <synapse sourceNeuronName = "0" targetNeuronName = "16" weight = "20.91890643538336" />
    <synapse sourceNeuronName = "0" targetNeuronName = "17" weight = "19.64101983732513" />
    <synapse sourceNeuronName = "0" targetNeuronName = "18" weight = "24.508325109635003" />
    <synapse sourceNeuronName = "0" targetNeuronName = "19" weight = "14.537545790657429" />
    <synapse sourceNeuronName = "0" targetNeuronName = "20" weight = "17.37820223914633" />
    <synapse sourceNeuronName = "0" targetNeuronName = "21" weight = "21.611767397043355" />
    <synapse sourceNeuronName = "0" targetNeuronName = "22" weight = "22.49272390458464" />
    <synapse sourceNeuronName = "0" targetNeuronName = "23" weight = "0.004069775932235009" />
    <synapse sourceNeuronName = "0" targetNeuronName = "24" weight = "0.8768108263166312" />
    <synapse sourceNeuronName = "0" targetNeuronName = "25" weight = "7.445435659314345" />
    <synapse sourceNeuronName = "0" targetNeuronName = "26" weight = "16.408194331998978" />
    <synapse sourceNeuronName = "0" targetNeuronName = "27" weight = "5.245707955193387" />
    <synapse sourceNeuronName = "0" targetNeuronName = "28" weight = "7.477204362883834" />
    <synapse sourceNeuronName = "0" targetNeuronName = "29" weight = "16.722616505561394" />
    <synapse sourceNeuronName = "0" targetNeuronName = "30" weight = "-0.08195839671533478" />
    <synapse sourceNeuronName = "0" targetNeuronName = "31" weight = "9.124913251215954" />
    <synapse sourceNeuronName = "0" targetNeuronName = "32" weight = "19.81087826961404" />
    <synapse sourceNeuronName = "0" targetNeuronName = "33" weight = "7.538204421307192" />
    <synapse sourceNeuronName = "0" targetNeuronName = "34" weight = "21.71051492517982" />
    <synapse sourceNeuronName = "0" targetNeuronName = "35" weight = "24.26949481472583" />
    <synapse sourceNeuronName = "0" targetNeuronName = "36" weight = "-0.5954150945782264" />
    <synapse sourceNeuronName = "0" targetNeuronName = "37" weight = "8.170453828685428" />
    <synapse sourceNeuronName = "1" targetNeuronName = "12" weight = "21.94815940497587" />
    <synapse sourceNeuronName = "1" targetNeuronName = "13" weight = "12.12563309559597" />
    <synapse sourceNeuronName = "1" targetNeuronName = "14" weight = "5.415462656553149" />
    <synapse sourceNeuronName = "1" targetNeuronName = "15" weight = "1.4901271222183556" />
    <synapse sourceNeuronName = "1" targetNeuronName = "16" weight = "20.370117888888227" />
    <synapse sourceNeuronName = "1" targetNeuronName = "17" weight = "23.243335113015213" />
    <synapse sourceNeuronName = "1" targetNeuronName = "18" weight = "24.417924902840376" />
    <synapse sourceNeuronName = "1" targetNeuronName = "19" weight = "21.810071969429423" />
    <synapse sourceNeuronName = "1" targetNeuronName = "20" weight = "6.710120825728111" />
    <synapse sourceNeuronName = "1" targetNeuronName = "21" weight = "12.533705591398338" />
    <synapse sourceNeuronName = "1" targetNeuronName = "22" weight = "20.689415118778758" />
    <synapse sourceNeuronName = "1" targetNeuronName = "23" weight = "12.829091199571165" />
    <synapse sourceNeuronName = "1" targetNeuronName = "24" weight = "17.650332294355103" />
    <synapse sourceNeuronName = "1" targetNeuronName = "25" weight = "23.417980109875415" />
    <synapse sourceNeuronName = "1" targetNeuronName = "26" weight = "6.8779331947432185" />
    <synapse sourceNeuronName = "1" targetNeuronName = "27" weight = "11.921766283799938" />
    <synapse sourceNeuronName = "1" targetNeuronName = "28" weight = "12.575703017458265" />
    <synapse sourceNeuronName = "1" targetNeuronName = "29" weight = "17.960663282102608" />
    <synapse sourceNeuronName = "1" targetNeuronName = "30" weight = "4.09845969159371" />
    <synapse sourceNeuronName = "1" targetNeuronName = "31" weight = "1.6062686443196519" />
    <synapse sourceNeuronName = "1" targetNeuronName = "32" weight = "14.538722075021022" />
    <synapse sourceNeuronName = "1" targetNeuronName = "33" weight = "8.033236559395593" />
    <synapse sourceNeuronName = "1" targetNeuronName = "34" weight = "19.640389073546256" />
    <synapse sourceNeuronName = "1" targetNeuronName = "35" weight = "24.86051179767778" />
    <synapse sourceNeuronName = "1" targetNeuronName = "36" weight = "10.85611275452812" />
    <synapse sourceNeuronName = "1" targetNeuronName = "37" weight = "9.290753768941832" />
    <synapse sourceNeuronName = "2" targetNeuronName = "12" weight = "21.610472115027214" />
    <synapse sourceNeuronName = "2" targetNeuronName = "13" weight = "9.094392192998818" />
    <synapse sourceNeuronName = "2" targetNeuronName = "14" weight = "22.95890135925677" />
    <synapse sourceNeuronName = "2" targetNeuronName = "15" weight = "5.580178597386782" />
    <synapse sourceNeuronName = "2" targetNeuronName = "16" weight = "3.443009035278255" />
    <synapse sourceNeuronName = "2" targetNeuronName = "17" weight = "22.1317684099164" />
    <synapse sourceNeuronName = "2" targetNeuronName = "18" weight = "6.360213687261604" />
    <synapse sourceNeuronName = "2" targetNeuronName = "19" weight = "7.711418061085078" />
    <synapse sourceNeuronName = "2" targetNeuronName = "20" weight = "2.536110759748899" />
    <synapse sourceNeuronName = "2" targetNeuronName = "21" weight = "0.6136165134242966" />
    <synapse sourceNeuronName = "2" targetNeuronName = "22" weight = "10.55035791806068" />
    <synapse sourceNeuronName = "2" targetNeuronName = "23" weight = "20.559508260331587" />
    <synapse sourceNeuronName = "2" targetNeuronName = "24" weight = "3.232469532637972" />
    <synapse sourceNeuronName = "2" targetNeuronName = "25" weight = "10.304241111624847" />
    <synapse sourceNeuronName = "2" targetNeuronName = "26" weight = "5.969490250922609" />
    <synapse sourceNeuronName = "2" targetNeuronName = "27" weight = "13.703877709697181" />
    <synapse sourceNeuronName = "2" targetNeuronName = "28" weight = "11.443267388707353" />
    <synapse sourceNeuronName = "2" targetNeuronName = "29" weight = "1.8966829220308048" />
    <synapse sourceNeuronName = "2" targetNeuronName = "30" weight = "24.828907109020477" />
    <synapse sourceNeuronName = "2" targetNeuronName = "31" weight = "6.289432585451538" />
    <synapse sourceNeuronName = "2" targetNeuronName = "32" weight = "11.075635915955889" />
    <synapse sourceNeuronName = "2" targetNeuronName = "33" weight = "5.916585593977619" />
    <synapse sourceNeuronName = "2" targetNeuronName = "34" weight = "5.001931904246226" />
    <synapse sourceNeuronName = "2" targetNeuronName = "35" weight = "9.289971651789768" />
    <synapse sourceNeuronName = "2" targetNeuronName = "36" weight = "12.647496354919646" />
    <synapse sourceNeuronName = "2" targetNeuronName = "37" weight = "11.877426945498483" />
    <synapse sourceNeuronName = "3" targetNeuronName = "12" weight = "10.227105753937414" />
    <synapse sourceNeuronName = "3" targetNeuronName = "13" weight = "9.20679818843817" />
    <synapse sourceNeuronName = "3" targetNeuronName = "14" weight = "1.7380615158546244" />
    <synapse sourceNeuronName = "3" targetNeuronName = "15" weight = "11.086443359193746" />
    <synapse sourceNeuronName = "3" targetNeuronName = "16" weight = "7.7165337924998525" />
    <synapse sourceNeuronName = "3" targetNeuronName = "17" weight = "0.5806549041670175" />
    <synapse sourceNeuronName = "3" targetNeuronName = "18" weight = "9.941618245182239" />
    <synapse sourceNeuronName = "3" targetNeuronName = "19" weight = "1.0083623031967006" />
    <synapse sourceNeuronName = "3" targetNeuronName = "20" weight = "10.41823178105058" />
    <synapse sourceNeuronName = "3" targetNeuronName = "21" weight = "15.470116379701516" />
    <synapse sourceNeuronName = "3" targetNeuronName = "22" weight = "9.42487268206352" />
    <synapse sourceNeuronName = "3" targetNeuronName = "23" weight = "21.41434245077218" />
    <synapse sourceNeuronName = "3" targetNeuronName = "24" weight = "9.86357484702213" />
    <synapse sourceNeuronName = "3" targetNeuronName = "25" weight = "-0.9323026021868781" />
    <synapse sourceNeuronName = "3" targetNeuronName = "26" weight = "14.643645804788761" />
    <synapse sourceNeuronName = "3" targetNeuronName = "27" weight = "2.0974855919565503" />
    <synapse sourceNeuronName = "3" targetNeuronName = "28" weight = "0.24780475149635706" />
    <synapse sourceNeuronName = "3" targetNeuronName = "29" weight = "11.176340215673394" />
    <synapse sourceNeuronName = "3" targetNeuronName = "30" weight = "0.6989397697683295" />
    <synapse sourceNeuronName = "3" targetNeuronName = "31" weight = "7.384781107314817" />
    <synapse sourceNeuronName = "3" targetNeuronName = "32" weight = "9.800726560597958" />
    <synapse sourceNeuronName = "3" targetNeuronName = "33" weight = "24.97936037782066" />
    <synapse sourceNeuronName = "3" targetNeuronName = "34" weight = "0.18281208032314455" />
    <synapse sourceNeuronName = "3" targetNeuronName = "35" weight = "3.5751317241332963" />
    <synapse sourceNeuronName = "3" targetNeuronName = "36" weight = "13.113585156262335" />
    <synapse sourceNeuronName = "3" targetNeuronName = "37" weight = "24.520013729539457" />
    <synapse sourceNeuronName = "4" targetNeuronName = "12" weight = "18.747189025491686" />
    <synapse sourceNeuronName = "4" targetNeuronName = "13" weight = "18.96498741768174" />
    <synapse sourceNeuronName = "4" targetNeuronName = "14" weight = "8.527979966020446" />
    <synapse sourceNeuronName = "4" targetNeuronName = "15" weight = "23.558201772540965" />
    <synapse sourceNeuronName = "4" targetNeuronName = "16" weight = "22.723669941396423" />
    <synapse sourceNeuronName = "4" targetNeuronName = "17" weight = "24.344783483921848" />
    <synapse sourceNeuronName = "4" targetNeuronName = "18" weight = "3.8024281218610785" />
    <synapse sourceNeuronName = "4" targetNeuronName = "19" weight = "8.846964934223745" />
    <synapse sourceNeuronName = "4" targetNeuronName = "20" weight = "1.3551775742180605" />
    <synapse sourceNeuronName = "4" targetNeuronName = "21" weight = "23.950968836182234" />
    <synapse sourceNeuronName = "4" targetNeuronName = "22" weight = "11.320362730793782" />
    <synapse sourceNeuronName = "4" targetNeuronName = "23" weight = "7.596670435919226" />
    <synapse sourceNeuronName = "4" targetNeuronName = "24" weight = "20.913833300779455" />
    <synapse sourceNeuronName = "4" targetNeuronName = "25" weight = "0.042669116784847194" />
    <synapse sourceNeuronName = "4" targetNeuronName = "26" weight = "23.53743919023926" />
    <synapse sourceNeuronName = "4" targetNeuronName = "27" weight = "3.893963778358925" />
    <synapse sourceNeuronName = "4" targetNeuronName = "28" weight = "9.736459696268867" />
    <synapse sourceNeuronName = "4" targetNeuronName = "29" weight = "15.044816299004761" />
    <synapse sourceNeuronName = "4" targetNeuronName = "30" weight = "12.508770173672097" />
    <synapse sourceNeuronName = "4" targetNeuronName = "31" weight = "18.50842292388506" />
    <synapse sourceNeuronName = "4" targetNeuronName = "32" weight = "-0.07836623322050928" />
    <synapse sourceNeuronName = "4" targetNeuronName = "33" weight = "9.328280680750336" />
    <synapse sourceNeuronName = "4" targetNeuronName = "34" weight = "14.955098625167489" />
    <synapse sourceNeuronName = "4" targetNeuronName = "35" weight = "1.543221347992358" />
    <synapse sourceNeuronName = "4" targetNeuronName = "36" weight = "9.183267180277484" />
    <synapse sourceNeuronName = "4" targetNeuronName = "37" weight = "10.691220014304278" />
    <synapse sourceNeuronName = "5" targetNeuronName = "12" weight = "10.036744769193163" />
    <synapse sourceNeuronName = "5" targetNeuronName = "13" weight = "4.619980024694149" />
    <synapse sourceNeuronName = "5" targetNeuronName = "14" weight = "19.155802831909728" />
    <synapse sourceNeuronName = "5" targetNeuronName = "15" weight = "23.51117709061377" />
    <synapse sourceNeuronName = "5" targetNeuronName = "16" weight = "12.516215101317485" />
    <synapse sourceNeuronName = "5" targetNeuronName = "17" weight = "22.893317080696992" />
    <synapse sourceNeuronName = "5" targetNeuronName = "18" weight = "-0.8364475393399757" />
    <synapse sourceNeuronName = "5" targetNeuronName = "19" weight = "14.777457816926688" />
    <synapse sourceNeuronName = "5" targetNeuronName = "20" weight = "20.513758025653498" />
    <synapse sourceNeuronName = "5" targetNeuronName = "21" weight = "9.217019455182031" />
    <synapse sourceNeuronName = "5" targetNeuronName = "22" weight = "10.085641733347629" />
    <synapse sourceNeuronName = "5" targetNeuronName = "23" weight = "11.423732467760424" />
    <synapse sourceNeuronName = "5" targetNeuronName = "24" weight = "8.418169060952433" />
    <synapse sourceNeuronName = "5" targetNeuronName = "25" weight = "11.308786780532499" />
    <synapse sourceNeuronName = "5" targetNeuronName = "26" weight = "8.069763160870346" />
    <synapse sourceNeuronName = "5" targetNeuronName = "27" weight = "24.178515559310473" />
    <synapse sourceNeuronName = "5" targetNeuronName = "28" weight = "24.808500695701447" />
    <synapse sourceNeuronName = "5" targetNeuronName = "29" weight = "13.964532528932658" />
    <synapse sourceNeuronName = "5" targetNeuronName = "30" weight = "18.43635707434419" />
    <synapse sourceNeuronName = "5" targetNeuronName = "31" weight = "21.221879923581447" />
    <synapse sourceNeuronName = "5" targetNeuronName = "32" weight = "0.3955899336742392" />
    <synapse sourceNeuronName = "5" targetNeuronName = "33" weight = "1.1657453279066816" />
    <synapse sourceNeuronName = "5" targetNeuronName = "34" weight = "23.848821803660524" />
    <synapse sourceNeuronName = "5" targetNeuronName = "35" weight = "7.418375964510599" />
    <synapse sourceNeuronName = "5" targetNeuronName = "36" weight = "9.518539154908398" />
    <synapse sourceNeuronName = "5" targetNeuronName = "37" weight = "16.29215264834907" />
    <synapse sourceNeuronName = "6" targetNeuronName = "12" weight = "4.18018880908576" />
    <synapse sourceNeuronName = "6" targetNeuronName = "13" weight = "7.003847164753266" />
    <synapse sourceNeuronName = "6" targetNeuronName = "14" weight = "12.154490139048166" />
    <synapse sourceNeuronName = "6" targetNeuronName = "15" weight = "21.341727952856168" />
    <synapse sourceNeuronName = "6" targetNeuronName = "16" weight = "1.0835007610370195" />
    <synapse sourceNeuronName = "6" targetNeuronName = "17" weight = "24.69468973134498" />
    <synapse sourceNeuronName = "6" targetNeuronName = "18" weight = "20.682883890094367" />
    <synapse sourceNeuronName = "6" targetNeuronName = "19" weight = "6.786877107112506" />
    <synapse sourceNeuronName = "6" targetNeuronName = "20" weight = "1.2078762432129402" />
    <synapse sourceNeuronName = "6" targetNeuronName = "21" weight = "17.190872608378598" />
    <synapse sourceNeuronName = "6" targetNeuronName = "22" weight = "7.072043456169736" />
    <synapse sourceNeuronName = "6" targetNeuronName = "23" weight = "23.36181929813736" />
    <synapse sourceNeuronName = "6" targetNeuronName = "24" weight = "11.599759626631238" />
    <synapse sourceNeuronName = "6" targetNeuronName = "25" weight = "8.261790452015774" />
    <synapse sourceNeuronName = "6" targetNeuronName = "26" weight = "4.1266991435795575" />
    <synapse sourceNeuronName = "6" targetNeuronName = "27" weight = "13.13040608301555" />
    <synapse sourceNeuronName = "6" targetNeuronName = "28" weight = "6.713366391467726" />
    <synapse sourceNeuronName = "6" targetNeuronName = "29" weight = "4.722886469453468" />
    <synapse sourceNeuronName = "6" targetNeuronName = "30" weight = "22.593708073674634" />
    <synapse sourceNeuronName = "6" targetNeuronName = "31" weight = "6.489212706197697" />
    <synapse sourceNeuronName = "6" targetNeuronName = "32" weight = "21.08521753489586" />
    <synapse sourceNeuronName = "6" targetNeuronName = "33" weight = "15.561778609865758" />
    <synapse sourceNeuronName = "6" targetNeuronName = "34" weight = "5.468580179692466" />
    <synapse sourceNeuronName = "6" targetNeuronName = "35" weight = "24.570687165015773" />
    <synapse sourceNeuronName = "6" targetNeuronName = "36" weight = "16.805302374023537" />
    <synapse sourceNeuronName = "6" targetNeuronName = "37" weight = "14.06435429988345" />
    <synapse sourceNeuronName = "7" targetNeuronName = "12" weight = "22.52657609588842" />
    <synapse sourceNeuronName = "7" targetNeuronName = "13" weight = "16.733080824626207" />
    <synapse sourceNeuronName = "7" targetNeuronName = "14" weight = "8.366307276991634" />
    <synapse sourceNeuronName = "7" targetNeuronName = "15" weight = "20.174512102750203" />
    <synapse sourceNeuronName = "7" targetNeuronName = "16" weight = "7.11446499184663" />
    <synapse sourceNeuronName = "7" targetNeuronName = "17" weight = "20.201263587145377" />
    <synapse sourceNeuronName = "7" targetNeuronName = "18" weight = "11.337535352402607" />
    <synapse sourceNeuronName = "7" targetNeuronName = "19" weight = "8.723401398970704" />
    <synapse sourceNeuronName = "7" targetNeuronName = "20" weight = "16.177871125501895" />
    <synapse sourceNeuronName = "7" targetNeuronName = "21" weight = "8.02124964038649" />
    <synapse sourceNeuronName = "7" targetNeuronName = "22" weight = "13.12439926765755" />
    <synapse sourceNeuronName = "7" targetNeuronName = "23" weight = "2.7799581338633526" />
    <synapse sourceNeuronName = "7" targetNeuronName = "24" weight = "17.620830802503832" />
    <synapse sourceNeuronName = "7" targetNeuronName = "25" weight = "15.983308235041545" />
    <synapse sourceNeuronName = "7" targetNeuronName = "26" weight = "8.825324079687514" />
    <synapse sourceNeuronName = "7" targetNeuronName = "27" weight = "22.85188956036169" />
    <synapse sourceNeuronName = "7" targetNeuronName = "28" weight = "3.0771252677391994" />
    <synapse sourceNeuronName = "7" targetNeuronName = "29" weight = "17.15789664518646" />
    <synapse sourceNeuronName = "7" targetNeuronName = "30" weight = "24.34238691815029" />
    <synapse sourceNeuronName = "7" targetNeuronName = "31" weight = "0.7333790057649685" />
    <synapse sourceNeuronName = "7" targetNeuronName = "32" weight = "7.459475463814899" />
    <synapse sourceNeuronName = "7" targetNeuronName = "33" weight = "0.17575576192895603" />
    <synapse sourceNeuronName = "7" targetNeuronName = "34" weight = "24.38054697706751" />
    <synapse sourceNeuronName = "7" targetNeuronName = "35" weight = "18.70060492731922" />
    <synapse sourceNeuronName = "7" targetNeuronName = "36" weight = "24.808148580329306" />
    <synapse sourceNeuronName = "7" targetNeuronName = "37" weight = "19.719283148424914" />
    <synapse sourceNeuronName = "8" targetNeuronName = "12" weight = "3.1309224951790107" />
    <synapse sourceNeuronName = "8" targetNeuronName = "13" weight = "2.24127091977018" />
    <synapse sourceNeuronName = "8" targetNeuronName = "14" weight = "11.075528138610808" />
    <synapse sourceNeuronName = "8" targetNeuronName = "15" weight = "0.2209214637533634" />
    <synapse sourceNeuronName = "8" targetNeuronName = "16" weight = "20.29487866565832" />
    <synapse sourceNeuronName = "8" targetNeuronName = "17" weight = "4.911460848110196" />
    <synapse sourceNeuronName = "8" targetNeuronName = "18" weight = "21.341185107296955" />
    <synapse sourceNeuronName = "8" targetNeuronName = "19" weight = "7.885447008846706" />
    <synapse sourceNeuronName = "8" targetNeuronName = "20" weight = "12.960032719850561" />
    <synapse sourceNeuronName = "8" targetNeuronName = "21" weight = "15.558823369533314" />
    <synapse sourceNeuronName = "8" targetNeuronName = "22" weight = "6.821317808144919" />
    <synapse sourceNeuronName = "8" targetNeuronName = "23" weight = "17.459725007932942" />
    <synapse sourceNeuronName = "8" targetNeuronName = "24" weight = "-0.7403667635994744" />
    <synapse sourceNeuronName = "8" targetNeuronName = "25" weight = "17.262611596292587" />
    <synapse sourceNeuronName = "8" targetNeuronName = "26" weight = "22.542299437446744" />
    <synapse sourceNeuronName = "8" targetNeuronName = "27" weight = "10.099982059624352" />
    <synapse sourceNeuronName = "8" targetNeuronName = "28" weight = "18.052019506463747" />
    <synapse sourceNeuronName = "8" targetNeuronName = "29" weight = "17.716317632600752" />
    <synapse sourceNeuronName = "8" targetNeuronName = "30" weight = "23.807499427019984" />
    <synapse sourceNeuronName = "8" targetNeuronName = "31" weight = "22.332990455285497" />
    <synapse sourceNeuronName = "8" targetNeuronName = "32" weight = "9.60421165082077" />
    <synapse sourceNeuronName = "8" targetNeuronName = "33" weight = "10.639127719842184" />
    <synapse sourceNeuronName = "8" targetNeuronName = "34" weight = "2.6175234324442065" />
    <synapse sourceNeuronName = "8" targetNeuronName = "35" weight = "12.914013256322045" />
    <synapse sourceNeuronName = "8" targetNeuronName = "36" weight = "5.042073862722743" />
    <synapse sourceNeuronName = "8" targetNeuronName = "37" weight = "8.277675917794314" />
    <synapse sourceNeuronName = "9" targetNeuronName = "12" weight = "17.783317642420016" />
    <synapse sourceNeuronName = "9" targetNeuronName = "13" weight = "5.6354375305463575" />
    <synapse sourceNeuronName = "9" targetNeuronName = "14" weight = "20.12170162642876" />
    <synapse sourceNeuronName = "9" targetNeuronName = "15" weight = "16.96627601749728" />
    <synapse sourceNeuronName = "9" targetNeuronName = "16" weight = "1.965583408079012" />
    <synapse sourceNeuronName = "9" targetNeuronName = "17" weight = "18.70935606419336" />
    <synapse sourceNeuronName = "9" targetNeuronName = "18" weight = "12.256528567252584" />
    <synapse sourceNeuronName = "9" targetNeuronName = "19" weight = "16.108222816603643" />
    <synapse sourceNeuronName = "9" targetNeuronName = "20" weight = "1.31943673760744" />
    <synapse sourceNeuronName = "9" targetNeuronName = "21" weight = "23.133733288075273" />
    <synapse sourceNeuronName = "9" targetNeuronName = "22" weight = "9.753033376096605" />
    <synapse sourceNeuronName = "9" targetNeuronName = "23" weight = "18.78300418470688" />
    <synapse sourceNeuronName = "9" targetNeuronName = "24" weight = "17.908277955270357" />
    <synapse sourceNeuronName = "9" targetNeuronName = "25" weight = "10.343118104034174" />
    <synapse sourceNeuronName = "9" targetNeuronName = "26" weight = "11.149671304774046" />
    <synapse sourceNeuronName = "9" targetNeuronName = "27" weight = "9.46785404737864" />
    <synapse sourceNeuronName = "9" targetNeuronName = "28" weight = "16.88605866050716" />
    <synapse sourceNeuronName = "9" targetNeuronName = "29" weight = "12.771412876899019" />
    <synapse sourceNeuronName = "9" targetNeuronName = "30" weight = "24.060700185943332" />
    <synapse sourceNeuronName = "9" targetNeuronName = "31" weight = "3.407571733279" />
    <synapse sourceNeuronName = "9" targetNeuronName = "32" weight = "2.314972912388453" />
    <synapse sourceNeuronName = "9" targetNeuronName = "33" weight = "4.816467604789717" />
    <synapse sourceNeuronName = "9" targetNeuronName = "34" weight = "15.830733996424964" />
    <synapse sourceNeuronName = "9" targetNeuronName = "35" weight = "18.688593854089877" />
    <synapse sourceNeuronName = "9" targetNeuronName = "36" weight = "10.950646730666824" />
    <synapse sourceNeuronName = "9" targetNeuronName = "37" weight = "18.08096779486382" />
    <synapse sourceNeuronName = "10" targetNeuronName = "12" weight = "14.859174707100856" />
    <synapse sourceNeuronName = "10" targetNeuronName = "13" weight = "4.368347177852162" />
    <synapse sourceNeuronName = "10" targetNeuronName = "14" weight = "14.077202997741939" />
    <synapse sourceNeuronName = "10" targetNeuronName = "15" weight = "3.559810233194394" />
    <synapse sourceNeuronName = "10" targetNeuronName = "16" weight = "22.429137863158395" />
    <synapse sourceNeuronName = "10" targetNeuronName = "17" weight = "-0.4348932106915935" />
    <synapse sourceNeuronName = "10" targetNeuronName = "18" weight = "7.020174530748193" />
    <synapse sourceNeuronName = "10" targetNeuronName = "19" weight = "23.153077713259414" />
    <synapse sourceNeuronName = "10" targetNeuronName = "20" weight = "7.238555730228828" />
    <synapse sourceNeuronName = "10" targetNeuronName = "21" weight = "24.169697606624517" />
    <synapse sourceNeuronName = "10" targetNeuronName = "22" weight = "21.55138320150445" />
    <synapse sourceNeuronName = "10" targetNeuronName = "23" weight = "0.37615753580004196" />
    <synapse sourceNeuronName = "10" targetNeuronName = "24" weight = "23.523132257202565" />
    <synapse sourceNeuronName = "10" targetNeuronName = "25" weight = "19.360339479478075" />
    <synapse sourceNeuronName = "10" targetNeuronName = "26" weight = "17.86287438605438" />
    <synapse sourceNeuronName = "10" targetNeuronName = "27" weight = "8.007939206708391" />
    <synapse sourceNeuronName = "10" targetNeuronName = "28" weight = "14.138926193504755" />
    <synapse sourceNeuronName = "10" targetNeuronName = "29" weight = "13.405319922366472" />
    <synapse sourceNeuronName = "10" targetNeuronName = "30" weight = "11.30668803860708" />
    <synapse sourceNeuronName = "10" targetNeuronName = "31" weight = "19.197350611306273" />
    <synapse sourceNeuronName = "10" targetNeuronName = "32" weight = "13.504065494558844" />
    <synapse sourceNeuronName = "10" targetNeuronName = "33" weight = "14.241227983543023" />
    <synapse sourceNeuronName = "10" targetNeuronName = "34" weight = "4.6710469444594676" />
    <synapse sourceNeuronName = "10" targetNeuronName = "35" weight = "4.786380961384854" />
    <synapse sourceNeuronName = "10" targetNeuronName = "36" weight = "18.990532623895206" />
    <synapse sourceNeuronName = "10" targetNeuronName = "37" weight = "8.486246117376094" />
    <synapse sourceNeuronName = "11" targetNeuronName = "12" weight = "24.731350074104316" />
    <synapse sourceNeuronName = "11" targetNeuronName = "13" weight = "20.71967730243278" />
    <synapse sourceNeuronName = "11" targetNeuronName = "14" weight = "10.331111330547841" />
    <synapse sourceNeuronName = "11" targetNeuronName = "15" weight = "2.4958403051237084" />
    <synapse sourceNeuronName = "11" targetNeuronName = "16" weight = "19.869018884652466" />
    <synapse sourceNeuronName = "11" targetNeuronName = "17" weight = "16.023695788216703" />
    <synapse sourceNeuronName = "11" targetNeuronName = "18" weight = "8.324522470188521" />
    <synapse sourceNeuronName = "11" targetNeuronName = "19" weight = "0.1135861353626264" />
    <synapse sourceNeuronName = "11" targetNeuronName = "20" weight = "15.407895289250106" />
    <synapse sourceNeuronName = "11" targetNeuronName = "21" weight = "15.97430942131749" />
    <synapse sourceNeuronName = "11" targetNeuronName = "22" weight = "7.308266134565196" />
    <synapse sourceNeuronName = "11" targetNeuronName = "23" weight = "1.6780267543649092" />
    <synapse sourceNeuronName = "11" targetNeuronName = "24" weight = "5.959352491183897" />
    <synapse sourceNeuronName = "11" targetNeuronName = "25" weight = "7.5822639898668065" />
    <synapse sourceNeuronName = "11" targetNeuronName = "26" weight = "19.649005522793413" />
    <synapse sourceNeuronName = "11" targetNeuronName = "27" weight = "23.341453921626357" />
    <synapse sourceNeuronName = "11" targetNeuronName = "28" weight = "12.190921350828319" />
    <synapse sourceNeuronName = "11" targetNeuronName = "29" weight = "20.867302370210957" />
    <synapse sourceNeuronName = "11" targetNeuronName = "30" weight = "12.780173149655115" />
    <synapse sourceNeuronName = "11" targetNeuronName = "31" weight = "12.944652590341164" />
    <synapse sourceNeuronName = "11" targetNeuronName = "32" weight = "11.623764684529315" />
    <synapse sourceNeuronName = "11" targetNeuronName = "33" weight = "21.798767459880647" />
    <synapse sourceNeuronName = "11" targetNeuronName = "34" weight = "21.364169730162423" />
    <synapse sourceNeuronName = "11" targetNeuronName = "35" weight = "7.307910368196069" />
    <synapse sourceNeuronName = "11" targetNeuronName = "36" weight = "23.629846958224807" />
    <synapse sourceNeuronName = "11" targetNeuronName = "37" weight = "10.266788113605342" />
</neuralNetwork>