<neuralNetwork>
    <neuron name = "0" type = "sensor" linkName = "Torso" />
    <neuron name = "1" type = "sensor" linkName = "Leg1" />
    <neuron name = "2" type = "sensor" linkName = "Leg2" />
    <neuron name = "3" type = "sensor" linkName = "Leg3" />
    <neuron name = "4" type = "sensor" linkName = "Leg6" />
    <neuron name = "5" type = "sensor" linkName = "Leg7" />
    <neuron name = "6" type = "sensor" linkName = "Leg8" />
    <neuron name = "7" type = "sensor" linkName = "Leg10" />
    <neuron name = "8" type = "sensor" linkName = "Leg12" />
    <neuron name = "9" type = "sensor" linkName = "Leg14" />
    <neuron name = "10" type = "sensor" linkName = "Leg15" />
    <neuron name = "11" type = "sensor" linkName = "Leg16" />
    <neuron name = "12" type = "sensor" linkName = "Leg17" />
    <neuron name = "13" type = "sensor" linkName = "Leg18" />
    <neuron name = "14" type = "sensor" linkName = "Leg19" />
    <neuron name = "15" type = "sensor" linkName = "Leg20" />
    <neuron name = "16" type = "sensor" linkName = "Leg21" />
    <neuron name = "17" type = "sensor" linkName = "Leg22" />
    <neuron name = "18" type = "sensor" linkName = "Leg24" />
    <neuron name = "19" type = "sensor" linkName = "Leg25" />
    <neuron name = "20" type = "motor"  jointName = "Torso_Leg1" />
    <neuron name = "21" type = "motor"  jointName = "Torso_Leg2" />
    <neuron name = "22" type = "motor"  jointName = "Leg2_Leg3" />
    <neuron name = "23" type = "motor"  jointName = "Torso_Leg4" />
    <neuron name = "24" type = "motor"  jointName = "Leg4_Leg5" />
    <neuron name = "25" type = "motor"  jointName = "Leg5_Leg6" />
    <neuron name = "26" type = "motor"  jointName = "Leg2_Leg7" />
    <neuron name = "27" type = "motor"  jointName = "Leg1_Leg8" />
    <neuron name = "28" type = "motor"  jointName = "Leg6_Leg9" />
    <neuron name = "29" type = "motor"  jointName = "Leg8_Leg10" />
    <neuron name = "30" type = "motor"  jointName = "Leg9_Leg11" />
    <neuron name = "31" type = "motor"  jointName = "Leg6_Leg12" />
    <neuron name = "32" type = "motor"  jointName = "Leg5_Leg13" />
    <neuron name = "33" type = "motor"  jointName = "Leg11_Leg14" />
    <neuron name = "34" type = "motor"  jointName = "Leg9_Leg15" />
    <neuron name = "35" type = "motor"  jointName = "Leg3_Leg16" />
    <neuron name = "36" type = "motor"  jointName = "Leg1_Leg17" />
    <neuron name = "37" type = "motor"  jointName = "Leg13_Leg18" />
    <neuron name = "38" type = "motor"  jointName = "Leg7_Leg19" />
    <neuron name = "39" type = "motor"  jointName = "Leg4_Leg20" />
    <neuron name = "40" type = "motor"  jointName = "Leg17_Leg21" />
    <neuron name = "41" type = "motor"  jointName = "Leg14_Leg22" />
    <neuron name = "42" type = "motor"  jointName = "Leg7_Leg23" />
    <neuron name = "43" type = "motor"  jointName = "Leg18_Leg24" />
    <neuron name = "44" type = "motor"  jointName = "Leg23_Leg25" />
    <neuron name = "45" type = "motor"  jointName = "Leg15_Leg26" />
    <synapse sourceNeuronName = "0" targetNeuronName = "20" weight = "2.4881061424032236" />
    <synapse sourceNeuronName = "0" targetNeuronName = "21" weight = "15.325518080101684" />
    <synapse sourceNeuronName = "0" targetNeuronName = "22" weight = "20.069613302448506" />
    <synapse sourceNeuronName = "0" targetNeuronName = "23" weight = "2.7011676523452146" />
    <synapse sourceNeuronName = "0" targetNeuronName = "24" weight = "1.1282076567205026" />
    <synapse sourceNeuronName = "0" targetNeuronName = "25" weight = "14.361991665793331" />
    <synapse sourceNeuronName = "0" targetNeuronName = "26" weight = "23.668650107949812" />
    <synapse sourceNeuronName = "0" targetNeuronName = "27" weight = "16.406358644276484" />
    <synapse sourceNeuronName = "0" targetNeuronName = "28" weight = "21.632663737515998" />
    <synapse sourceNeuronName = "0" targetNeuronName = "29" weight = "24.63803565476847" />
    <synapse sourceNeuronName = "0" targetNeuronName = "30" weight = "5.71928773338464" />
    <synapse sourceNeuronName = "0" targetNeuronName = "31" weight = "17.603743526284493" />
    <synapse sourceNeuronName = "0" targetNeuronName = "32" weight = "11.601196083143451" />
    <synapse sourceNeuronName = "0" targetNeuronName = "33" weight = "22.207675719602378" />
    <synapse sourceNeuronName = "0" targetNeuronName = "34" weight = "10.511335835709293" />
    <synapse sourceNeuronName = "0" targetNeuronName = "35" weight = "13.499340442883366" />
    <synapse sourceNeuronName = "0" targetNeuronName = "36" weight = "10.20749773856584" />
    <synapse sourceNeuronName = "0" targetNeuronName = "37" weight = "9.777729016745978" />
    <synapse sourceNeuronName = "0" targetNeuronName = "38" weight = "18.682610758876784" />
    <synapse sourceNeuronName = "0" targetNeuronName = "39" weight = "14.163496272845245" />
    <synapse sourceNeuronName = "0" targetNeuronName = "40" weight = "4.869428105092233" />
    <synapse sourceNeuronName = "0" targetNeuronName = "41" weight = "15.790752307305137" />
    <synapse sourceNeuronName = "0" targetNeuronName = "42" weight = "15.925076691922186" />
    <synapse sourceNeuronName = "0" targetNeuronName = "43" weight = "0.26244544712036055" />
    <synapse sourceNeuronName = "0" targetNeuronName = "44" weight = "24.85940618138546" />
    <synapse sourceNeuronName = "0" targetNeuronName = "45" weight = "12.927922739074292" />
    <synapse sourceNeuronName = "1" targetNeuronName = "20" weight = "19.93107928122966" />
    <synapse sourceNeuronName = "1" targetNeuronName = "21" weight = "17.770653800877156" />
    <synapse sourceNeuronName = "1" targetNeuronName = "22" weight = "21.30900969464319" />
    <synapse sourceNeuronName = "1" targetNeuronName = "23" weight = "15.037211066468988" />
    <synapse sourceNeuronName = "1" targetNeuronName = "24" weight = "-0.30096779383871697" />
    <synapse sourceNeuronName = "1" targetNeuronName = "25" weight = "16.542360745995417" />
    <synapse sourceNeuronName = "1" targetNeuronName = "26" weight = "14.925888708838409" />
    <synapse sourceNeuronName = "1" targetNeuronName = "27" weight = "0.22252403633165252" />
    <synapse sourceNeuronName = "1" targetNeuronName = "28" weight = "20.783676146411437" />
    <synapse sourceNeuronName = "1" targetNeuronName = "29" weight = "24.2276463027122" />
    <synapse sourceNeuronName = "1" targetNeuronName = "30" weight = "18.59438999442055" />
    <synapse sourceNeuronName = "1" targetNeuronName = "31" weight = "4.735912698906777" />
    <synapse sourceNeuronName = "1" targetNeuronName = "32" weight = "1.5521853507225565" />
    <synapse sourceNeuronName = "1" targetNeuronName = "33" weight = "5.280843529851739" />
    <synapse sourceNeuronName = "1" targetNeuronName = "34" weight = "0.17849183018976844" />
    <synapse sourceNeuronName = "1" targetNeuronName = "35" weight = "9.055175241781885" />
    <synapse sourceNeuronName = "1" targetNeuronName = "36" weight = "1.3300000498585183" />
    <synapse sourceNeuronName = "1" targetNeuronName = "37" weight = "19.14123716766109" />
    <synapse sourceNeuronName = "1" targetNeuronName = "38" weight = "5.32738667856508" />
    <synapse sourceNeuronName = "1" targetNeuronName = "39" weight = "12.322365923035179" />
    <synapse sourceNeuronName = "1" targetNeuronName = "40" weight = "21.974408285064925" />
    <synapse sourceNeuronName = "1" targetNeuronName = "41" weight = "23.09628966167823" />
    <synapse sourceNeuronName = "1" targetNeuronName = "42" weight = "16.63410414490294" />
    <synapse sourceNeuronName = "1" targetNeuronName = "43" weight = "12.820077723122774" />
    <synapse sourceNeuronName = "1" targetNeuronName = "44" weight = "9.123756619574078" />
    <synapse sourceNeuronName = "1" targetNeuronName = "45" weight = "23.006741307160894" />
    <synapse sourceNeuronName = "2" targetNeuronName = "20" weight = "16.27225287375535" />
    <synapse sourceNeuronName = "2" targetNeuronName = "21" weight = "8.736783666515752" />
    <synapse sourceNeuronName = "2" targetNeuronName = "22" weight = "3.215831852451603" />
    <synapse sourceNeuronName = "2" targetNeuronName = "23" weight = "13.298801851306878" />
    <synapse sourceNeuronName = "2" targetNeuronName = "24" weight = "9.176238106230588" />
    <synapse sourceNeuronName = "2" targetNeuronName = "25" weight = "2.0744373477013363" />
    <synapse sourceNeuronName = "2" targetNeuronName = "26" weight = "7.386579937223594" />
    <synapse sourceNeuronName = "2" targetNeuronName = "27" weight = "11.255608695728318" />
    <synapse sourceNeuronName = "2" targetNeuronName = "28" weight = "7.549349373853026" />
    <synapse sourceNeuronName = "2" targetNeuronName = "29" weight = "23.432470054030208" />
    <synapse sourceNeuronName = "2" targetNeuronName = "30" weight = "16.811839188609657" />
    <synapse sourceNeuronName = "2" targetNeuronName = "31" weight = "24.011297738691322" />
    <synapse sourceNeuronName = "2" targetNeuronName = "32" weight = "12.166493281544588" />
    <synapse sourceNeuronName = "2" targetNeuronName = "33" weight = "2.5666819637713836" />
    <synapse sourceNeuronName = "2" targetNeuronName = "34" weight = "2.934104381113493" />
    <synapse sourceNeuronName = "2" targetNeuronName = "35" weight = "13.836436949641554" />
    <synapse sourceNeuronName = "2" targetNeuronName = "36" weight = "23.293365786158887" />
    <synapse sourceNeuronName = "2" targetNeuronName = "37" weight = "13.272778042411142" />
    <synapse sourceNeuronName = "2" targetNeuronName = "38" weight = "8.639022702627315" />
    <synapse sourceNeuronName = "2" targetNeuronName = "39" weight = "4.458618003654662" />
    <synapse sourceNeuronName = "2" targetNeuronName = "40" weight = "22.577615186584786" />
    <synapse sourceNeuronName = "2" targetNeuronName = "41" weight = "5.309033221906803" />
    <synapse sourceNeuronName = "2" targetNeuronName = "42" weight = "2.3589210231510256" />
    <synapse sourceNeuronName = "2" targetNeuronName = "43" weight = "14.281838155812158" />
    <synapse sourceNeuronName = "2" targetNeuronName = "44" weight = "23.20701497444064" />
    <synapse sourceNeuronName = "2" targetNeuronName = "45" weight = "3.7379808510618187" />
    <synapse sourceNeuronName = "3" targetNeuronName = "20" weight = "13.062032602398265" />
    <synapse sourceNeuronName = "3" targetNeuronName = "21" weight = "23.707038833342274" />
    <synapse sourceNeuronName = "3" targetNeuronName = "22" weight = "6.703194233633559" />
    <synapse sourceNeuronName = "3" targetNeuronName = "23" weight = "16.239193963330706" />
    <synapse sourceNeuronName = "3" targetNeuronName = "24" weight = "2.2251998884249637" />
    <synapse sourceNeuronName = "3" targetNeuronName = "25" weight = "20.730594389404274" />
    <synapse sourceNeuronName = "3" targetNeuronName = "26" weight = "20.2448503202481" />
    <synapse sourceNeuronName = "3" targetNeuronName = "27" weight = "18.911684885980886" />
    <synapse sourceNeuronName = "3" targetNeuronName = "28" weight = "2.62103530325839" />
    <synapse sourceNeuronName = "3" targetNeuronName = "29" weight = "9.108644585415972" />
    <synapse sourceNeuronName = "3" targetNeuronName = "30" weight = "17.708604206935416" />
    <synapse sourceNeuronName = "3" targetNeuronName = "31" weight = "14.70769779159515" />
    <synapse sourceNeuronName = "3" targetNeuronName = "32" weight = "18.93255667216033" />
    <synapse sourceNeuronName = "3" targetNeuronName = "33" weight = "4.442668124692509" />
    <synapse sourceNeuronName = "3" targetNeuronName = "34" weight = "11.203351496432946" />
    <synapse sourceNeuronName = "3" targetNeuronName = "35" weight = "16.595994948138184" />
    <synapse sourceNeuronName = "3" targetNeuronName = "36" weight = "7.0498272732532765" />
    <synapse sourceNeuronName = "3" targetNeuronName = "37" weight = "23.81019520290153" />
    <synapse sourceNeuronName = "3" targetNeuronName = "38" weight = "12.093219847602793" />
    <synapse sourceNeuronName = "3" targetNeuronName = "39" weight = "23.008632986752016" />
    <synapse sourceNeuronName = "3" targetNeuronName = "40" weight = "8.736154422460473" />
    <synapse sourceNeuronName = "3" targetNeuronName = "41" weight = "14.328060210440881" />
    <synapse sourceNeuronName = "3" targetNeuronName = "42" weight = "2.0499726408641763" />
    <synapse sourceNeuronName = "3" targetNeuronName = "43" weight = "11.47976195291209" />
    <synapse sourceNeuronName = "3" targetNeuronName = "44" weight = "13.404599676841196" />
    <synapse sourceNeuronName = "3" targetNeuronName = "45" weight = "24.902856549001477" />
    <synapse sourceNeuronName = "4" targetNeuronName = "20" weight = "18.833064327017325" />
    <synapse sourceNeuronName = "4" targetNeuronName = "21" weight = "17.546268913405132" />
    <synapse sourceNeuronName = "4" targetNeuronName = "22" weight = "20.387781409592527" />
    <synapse sourceNeuronName = "4" targetNeuronName = "23" weight = "15.076606009069533" />
    <synapse sourceNeuronName = "4" targetNeuronName = "24" weight = "15.477905409548939" />
    <synapse sourceNeuronName = "4" targetNeuronName = "25" weight = "-0.7557744495669565" />
    <synapse sourceNeuronName = "4" targetNeuronName = "26" weight = "19.667918436203024" />
    <synapse sourceNeuronName = "4" targetNeuronName = "27" weight = "13.870785652016455" />
    <synapse sourceNeuronName = "4" targetNeuronName = "28" weight = "23.214028607265536" />
    <synapse sourceNeuronName = "4" targetNeuronName = "29" weight = "-0.5671513562754402" />
    <synapse sourceNeuronName = "4" targetNeuronName = "30" weight = "7.805429855714356" />
    <synapse sourceNeuronName = "4" targetNeuronName = "31" weight = "13.416570323761608" />
    <synapse sourceNeuronName = "4" targetNeuronName = "32" weight = "13.802624392872751" />
    <synapse sourceNeuronName = "4" targetNeuronName = "33" weight = "19.683394466144694" />
    <synapse sourceNeuronName = "4" targetNeuronName = "34" weight = "8.54678717847395" />
    <synapse sourceNeuronName = "4" targetNeuronName = "35" weight = "13.834026828051723" />
    <synapse sourceNeuronName = "4" targetNeuronName = "36" weight = "8.518551503996546" />
    <synapse sourceNeuronName = "4" targetNeuronName = "37" weight = "2.1753061617214122" />
    <synapse sourceNeuronName = "4" targetNeuronName = "38" weight = "16.008456167999004" />
    <synapse sourceNeuronName = "4" targetNeuronName = "39" weight = "9.46591958994622" />
    <synapse sourceNeuronName = "4" targetNeuronName = "40" weight = "4.045463824576715" />
    <synapse sourceNeuronName = "4" targetNeuronName = "41" weight = "17.559476357029475" />
    <synapse sourceNeuronName = "4" targetNeuronName = "42" weight = "24.007350009803606" />
    <synapse sourceNeuronName = "4" targetNeuronName = "43" weight = "7.831591303547656" />
    <synapse sourceNeuronName = "4" targetNeuronName = "44" weight = "0.8067403815668905" />
    <synapse sourceNeuronName = "4" targetNeuronName = "45" weight = "19.604703016859496" />
    <synapse sourceNeuronName = "5" targetNeuronName = "20" weight = "9.232996656824627" />
    <synapse sourceNeuronName = "5" targetNeuronName = "21" weight = "9.005428911034333" />
    <synapse sourceNeuronName = "5" targetNeuronName = "22" weight = "20.441085895482175" />
    <synapse sourceNeuronName = "5" targetNeuronName = "23" weight = "4.448873202246461" />
    <synapse sourceNeuronName = "5" targetNeuronName = "24" weight = "22.38999592262131" />
    <synapse sourceNeuronName = "5" targetNeuronName = "25" weight = "12.108179487512889" />
    <synapse sourceNeuronName = "5" targetNeuronName = "26" weight = "5.473386069785314" />
    <synapse sourceNeuronName = "5" targetNeuronName = "27" weight = "19.468725864294633" />
    <synapse sourceNeuronName = "5" targetNeuronName = "28" weight = "0.2808554544959654" />
    <synapse sourceNeuronName = "5" targetNeuronName = "29" weight = "19.549279331396143" />
    <synapse sourceNeuronName = "5" targetNeuronName = "30" weight = "22.16684902400522" />
    <synapse sourceNeuronName = "5" targetNeuronName = "31" weight = "1.4690518559071037" />
    <synapse sourceNeuronName = "5" targetNeuronName = "32" weight = "4.4820220812594" />
    <synapse sourceNeuronName = "5" targetNeuronName = "33" weight = "12.713624167659827" />
    <synapse sourceNeuronName = "5" targetNeuronName = "34" weight = "16.252037621422243" />
    <synapse sourceNeuronName = "5" targetNeuronName = "35" weight = "23.420436880834764" />
    <synapse sourceNeuronName = "5" targetNeuronName = "36" weight = "-0.7297060485744458" />
    <synapse sourceNeuronName = "5" targetNeuronName = "37" weight = "19.288532197127168" />
    <synapse sourceNeuronName = "5" targetNeuronName = "38" weight = "19.48831736448387" />
    <synapse sourceNeuronName = "5" targetNeuronName = "39" weight = "12.802564853921568" />
    <synapse sourceNeuronName = "5" targetNeuronName = "40" weight = "23.964753194294747" />
    <synapse sourceNeuronName = "5" targetNeuronName = "41" weight = "8.28028885471378" />
    <synapse sourceNeuronName = "5" targetNeuronName = "42" weight = "8.509473054969398" />
    <synapse sourceNeuronName = "5" targetNeuronName = "43" weight = "17.75657095092221" />
    <synapse sourceNeuronName = "5" targetNeuronName = "44" weight = "16.58803895953791" />
    <synapse sourceNeuronName = "5" targetNeuronName = "45" weight = "24.46334257769747" />
    <synapse sourceNeuronName = "6" targetNeuronName = "20" weight = "17.745216808209594" />
    <synapse sourceNeuronName = "6" targetNeuronName = "21" weight = "4.089050208378985" />
    <synapse sourceNeuronName = "6" targetNeuronName = "22" weight = "16.143006597448153" />
    <synapse sourceNeuronName = "6" targetNeuronName = "23" weight = "13.332742732510804" />
    <synapse sourceNeuronName = "6" targetNeuronName = "24" weight = "5.234300768603171" />
    <synapse sourceNeuronName = "6" targetNeuronName = "25" weight = "9.03060064201222" />
    <synapse sourceNeuronName = "6" targetNeuronName = "26" weight = "5.945120385713958" />
    <synapse sourceNeuronName = "6" targetNeuronName = "27" weight = "7.620402250939726" />
    <synapse sourceNeuronName = "6" targetNeuronName = "28" weight = "11.756026632949236" />
    <synapse sourceNeuronName = "6" targetNeuronName = "29" weight = "14.629243221201866" />
    <synapse sourceNeuronName = "6" targetNeuronName = "30" weight = "0.6788597013568012" />
    <synapse sourceNeuronName = "6" targetNeuronName = "31" weight = "7.25100654589537" />
    <synapse sourceNeuronName = "6" targetNeuronName = "32" weight = "17.79923347567768" />
    <synapse sourceNeuronName = "6" targetNeuronName = "33" weight = "22.115174394101118" />
    <synapse sourceNeuronName = "6" targetNeuronName = "34" weight = "17.13721153996313" />
    <synapse sourceNeuronName = "6" targetNeuronName = "35" weight = "13.685108924241728" />
    <synapse sourceNeuronName = "6" targetNeuronName = "36" weight = "12.280685990943194" />
    <synapse sourceNeuronName = "6" targetNeuronName = "37" weight = "-0.7784529947467178" />
    <synapse sourceNeuronName = "6" targetNeuronName = "38" weight = "6.853300175511519" />
    <synapse sourceNeuronName = "6" targetNeuronName = "39" weight = "1.9610037751051097" />
    <synapse sourceNeuronName = "6" targetNeuronName = "40" weight = "0.7164538661538644" />
    <synapse sourceNeuronName = "6" targetNeuronName = "41" weight = "11.055384328088817" />
    <synapse sourceNeuronName = "6" targetNeuronName = "42" weight = "2.536206520594275" />
    <synapse sourceNeuronName = "6" targetNeuronName = "43" weight = "-0.1214028791974191" />
    <synapse sourceNeuronName = "6" targetNeuronName = "44" weight = "4.297952743193798" />
    <synapse sourceNeuronName = "6" targetNeuronName = "45" weight = "3.4324378326087306" />
    <synapse sourceNeuronName = "7" targetNeuronName = "20" weight = "8.929653828155752" />
    <synapse sourceNeuronName = "7" targetNeuronName = "21" weight = "3.6664447368321724" />
    <synapse sourceNeuronName = "7" targetNeuronName = "22" weight = "6.066382420354297" />
    <synapse sourceNeuronName = "7" targetNeuronName = "23" weight = "16.062134344390977" />
    <synapse sourceNeuronName = "7" targetNeuronName = "24" weight = "15.27070403869999" />
    <synapse sourceNeuronName = "7" targetNeuronName = "25" weight = "5.566174677868297" />
    <synapse sourceNeuronName = "7" targetNeuronName = "26" weight = "7.777381405054699" />
    <synapse sourceNeuronName = "7" targetNeuronName = "27" weight = "22.470940204972706" />
    <synapse sourceNeuronName = "7" targetNeuronName = "28" weight = "15.844042438588755" />
    <synapse sourceNeuronName = "7" targetNeuronName = "29" weight = "2.3548816174019116" />
    <synapse sourceNeuronName = "7" targetNeuronName = "30" weight = "19.70462088284857" />
    <synapse sourceNeuronName = "7" targetNeuronName = "31" weight = "5.354246872824907" />
    <synapse sourceNeuronName = "7" targetNeuronName = "32" weight = "6.563041622804352" />
    <synapse sourceNeuronName = "7" targetNeuronName = "33" weight = "21.947560502528003" />
    <synapse sourceNeuronName = "7" targetNeuronName = "34" weight = "22.08428624642251" />
    <synapse sourceNeuronName = "7" targetNeuronName = "35" weight = "8.861343249857644" />
    <synapse sourceNeuronName = "7" targetNeuronName = "36" weight = "4.607515395536286" />
    <synapse sourceNeuronName = "7" targetNeuronName = "37" weight = "15.926408545965078" />
    <synapse sourceNeuronName = "7" targetNeuronName = "38" weight = "15.464973206454012" />
    <synapse sourceNeuronName = "7" targetNeuronName = "39" weight = "22.408686420923015" />
    <synapse sourceNeuronName = "7" targetNeuronName = "40" weight = "11.422186711505596" />
    <synapse sourceNeuronName = "7" targetNeuronName = "41" weight = "8.196784821911143" />
    <synapse sourceNeuronName = "7" targetNeuronName = "42" weight = "21.504790719303408" />
    <synapse sourceNeuronName = "7" targetNeuronName = "43" weight = "1.0168059847414934" />
    <synapse sourceNeuronName = "7" targetNeuronName = "44" weight = "11.51138152623834" />
    <synapse sourceNeuronName = "7" targetNeuronName = "45" weight = "19.938338665764892" />
    <synapse sourceNeuronName = "8" targetNeuronName = "20" weight = "12.66038656143521" />
    <synapse sourceNeuronName = "8" targetNeuronName = "21" weight = "14.035157422625032" />
    <synapse sourceNeuronName = "8" targetNeuronName = "22" weight = "7.8100649955103165" />
    <synapse sourceNeuronName = "8" targetNeuronName = "23" weight = "8.190611126342988" />
    <synapse sourceNeuronName = "8" targetNeuronName = "24" weight = "18.536204606660093" />
    <synapse sourceNeuronName = "8" targetNeuronName = "25" weight = "19.02099687862448" />
    <synapse sourceNeuronName = "8" targetNeuronName = "26" weight = "12.591376166382632" />
    <synapse sourceNeuronName = "8" targetNeuronName = "27" weight = "16.99347078401505" />
    <synapse sourceNeuronName = "8" targetNeuronName = "28" weight = "4.291330742866264" />
    <synapse sourceNeuronName = "8" targetNeuronName = "29" weight = "15.45296121725244" />
    <synapse sourceNeuronName = "8" targetNeuronName = "30" weight = "7.724182299707225" />
    <synapse sourceNeuronName = "8" targetNeuronName = "31" weight = "17.24589688332187" />
    <synapse sourceNeuronName = "8" targetNeuronName = "32" weight = "19.139968090530758" />
    <synapse sourceNeuronName = "8" targetNeuronName = "33" weight = "1.9795296617065166" />
    <synapse sourceNeuronName = "8" targetNeuronName = "34" weight = "24.544541118838143" />
    <synapse sourceNeuronName = "8" targetNeuronName = "35" weight = "12.135691237642789" />
    <synapse sourceNeuronName = "8" targetNeuronName = "36" weight = "5.625331815416302" />
    <synapse sourceNeuronName = "8" targetNeuronName = "37" weight = "24.95154839216437" />
    <synapse sourceNeuronName = "8" targetNeuronName = "38" weight = "16.639189222544758" />
    <synapse sourceNeuronName = "8" targetNeuronName = "39" weight = "6.265629429586877" />
    <synapse sourceNeuronName = "8" targetNeuronName = "40" weight = "17.33987510631605" />
    <synapse sourceNeuronName = "8" targetNeuronName = "41" weight = "11.659107625311293" />
    <synapse sourceNeuronName = "8" targetNeuronName = "42" weight = "23.23992802985688" />
    <synapse sourceNeuronName = "8" targetNeuronName = "43" weight = "1.5203806107549953" />
    <synapse sourceNeuronName = "8" targetNeuronName = "44" weight = "18.081844741056432" />
    <synapse sourceNeuronName = "8" targetNeuronName = "45" weight = "6.701357221348383" />
    <synapse sourceNeuronName = "9" targetNeuronName = "20" weight = "16.972363181853225" />
    <synapse sourceNeuronName = "9" targetNeuronName = "21" weight = "-0.10433978137736455" />
    <synapse sourceNeuronName = "9" targetNeuronName = "22" weight = "7.703337220267143" />
    <synapse sourceNeuronName = "9" targetNeuronName = "23" weight = "23.48041900280304" />
    <synapse sourceNeuronName = "9" targetNeuronName = "24" weight = "13.324156492872513" />
    <synapse sourceNeuronName = "9" targetNeuronName = "25" weight = "16.711628367656417" />
    <synapse sourceNeuronName = "9" targetNeuronName = "26" weight = "-0.6268630344303863" />
    <synapse sourceNeuronName = "9" targetNeuronName = "27" weight = "-0.6345557489082629" />
    <synapse sourceNeuronName = "9" targetNeuronName = "28" weight = "4.6796182070687165" />
    <synapse sourceNeuronName = "9" targetNeuronName = "29" weight = "21.55976246395852" />
    <synapse sourceNeuronName = "9" targetNeuronName = "30" weight = "12.314951162675191" />
    <synapse sourceNeuronName = "9" targetNeuronName = "31" weight = "21.44998048655416" />
    <synapse sourceNeuronName = "9" targetNeuronName = "32" weight = "11.849658850168755" />
    <synapse sourceNeuronName = "9" targetNeuronName = "33" weight = "9.170637462167376" />
    <synapse sourceNeuronName = "9" targetNeuronName = "34" weight = "22.65887331754682" />
    <synapse sourceNeuronName = "9" targetNeuronName = "35" weight = "17.175190482253143" />
    <synapse sourceNeuronName = "9" targetNeuronName = "36" weight = "13.34871500811132" />
    <synapse sourceNeuronName = "9" targetNeuronName = "37" weight = "11.922882570507763" />
    <synapse sourceNeuronName = "9" targetNeuronName = "38" weight = "15.231814741202381" />
    <synapse sourceNeuronName = "9" targetNeuronName = "39" weight = "24.30507177132405" />
    <synapse sourceNeuronName = "9" targetNeuronName = "40" weight = "21.272167636742402" />
    <synapse sourceNeuronName = "9" targetNeuronName = "41" weight = "9.032168212340512" />
    <synapse sourceNeuronName = "9" targetNeuronName = "42" weight = "14.07352812124565" />
    <synapse sourceNeuronName = "9" targetNeuronName = "43" weight = "3.3004030981973687" />
    <synapse sourceNeuronName = "9" targetNeuronName = "44" weight = "19.711152663544127" />
    <synapse sourceNeuronName = "9" targetNeuronName = "45" weight = "12.00765209867405" />
    <synapse sourceNeuronName = "10" targetNeuronName = "20" weight = "9.244411517699511" />
    <synapse sourceNeuronName = "10" targetNeuronName = "21" weight = "17.652017545465434" />
    <synapse sourceNeuronName = "10" targetNeuronName = "22" weight = "21.043959033742" />
    <synapse sourceNeuronName = "10" targetNeuronName = "23" weight = "21.682273838118363" />
    <synapse sourceNeuronName = "10" targetNeuronName = "24" weight = "1.6827178622200156" />
    <synapse sourceNeuronName = "10" targetNeuronName = "25" weight = "15.197896643653586" />
    <synapse sourceNeuronName = "10" targetNeuronName = "26" weight = "17.96293297678079" />
    <synapse sourceNeuronName = "10" targetNeuronName = "27" weight = "16.925848640278257" />
    <synapse sourceNeuronName = "10" targetNeuronName = "28" weight = "5.493205747236527" />
    <synapse sourceNeuronName = "10" targetNeuronName = "29" weight = "24.194334531522447" />
    <synapse sourceNeuronName = "10" targetNeuronName = "30" weight = "14.37508247477909" />
    <synapse sourceNeuronName = "10" targetNeuronName = "31" weight = "0.9718208838691336" />
    <synapse sourceNeuronName = "10" targetNeuronName = "32" weight = "16.16354714715592" />
    <synapse sourceNeuronName = "10" targetNeuronName = "33" weight = "7.7610806787221485" />
    <synapse sourceNeuronName = "10" targetNeuronName = "34" weight = "1.968433869483892" />
    <synapse sourceNeuronName = "10" targetNeuronName = "35" weight = "5.976893107449659" />
    <synapse sourceNeuronName = "10" targetNeuronName = "36" weight = "20.188916600510236" />
    <synapse sourceNeuronName = "10" targetNeuronName = "37" weight = "1.7149032934891952" />
    <synapse sourceNeuronName = "10" targetNeuronName = "38" weight = "2.151903592374695" />
    <synapse sourceNeuronName = "10" targetNeuronName = "39" weight = "6.750483664285762" />
    <synapse sourceNeuronName = "10" targetNeuronName = "40" weight = "10.01954783450838" />
    <synapse sourceNeuronName = "10" targetNeuronName = "41" weight = "8.401422209884352" />
    <synapse sourceNeuronName = "10" targetNeuronName = "42" weight = "23.167523556714286" />
    <synapse sourceNeuronName = "10" targetNeuronName = "43" weight = "14.553222990681553" />
    <synapse sourceNeuronName = "10" targetNeuronName = "44" weight = "3.909221407226858" />
    <synapse sourceNeuronName = "10" targetNeuronName = "45" weight = "24.28246360530129" />
    <synapse sourceNeuronName = "11" targetNeuronName = "20" weight = "18.512801098227275" />
    <synapse sourceNeuronName = "11" targetNeuronName = "21" weight = "-0.7229541469552334" />
    <synapse sourceNeuronName = "11" targetNeuronName = "22" weight = "14.829577197282257" />
    <synapse sourceNeuronName = "11" targetNeuronName = "23" weight = "13.236064809972525" />
    <synapse sourceNeuronName = "11" targetNeuronName = "24" weight = "21.971741151726384" />
    <synapse sourceNeuronName = "11" targetNeuronName = "25" weight = "5.605609318304789" />
    <synapse sourceNeuronName = "11" targetNeuronName = "26" weight = "17.020481536422853" />
    <synapse sourceNeuronName = "11" targetNeuronName = "27" weight = "7.202605925464699" />
    <synapse sourceNeuronName = "11" targetNeuronName = "28" weight = "16.295872934542317" />
    <synapse sourceNeuronName = "11" targetNeuronName = "29" weight = "15.984904380503671" />
    <synapse sourceNeuronName = "11" targetNeuronName = "30" weight = "18.149353756668333" />
    <synapse sourceNeuronName = "11" targetNeuronName = "31" weight = "10.613403103802774" />
    <synapse sourceNeuronName = "11" targetNeuronName = "32" weight = "9.795630913595494" />
    <synapse sourceNeuronName = "11" targetNeuronName = "33" weight = "10.643646612634894" />
    <synapse sourceNeuronName = "11" targetNeuronName = "34" weight = "19.797635566032753" />
    <synapse sourceNeuronName = "11" targetNeuronName = "35" weight = "-0.7577490048679627" />
    <synapse sourceNeuronName = "11" targetNeuronName = "36" weight = "10.872151446466349" />
    <synapse sourceNeuronName = "11" targetNeuronName = "37" weight = "11.416736278269521" />
    <synapse sourceNeuronName = "11" targetNeuronName = "38" weight = "13.028991239466738" />
    <synapse sourceNeuronName = "11" targetNeuronName = "39" weight = "15.05981594726748" />
    <synapse sourceNeuronName = "11" targetNeuronName = "40" weight = "7.394582598998323" />
    <synapse sourceNeuronName = "11" targetNeuronName = "41" weight = "8.9217366671223" />
    <synapse sourceNeuronName = "11" targetNeuronName = "42" weight = "-0.9830399108645316" />
    <synapse sourceNeuronName = "11" targetNeuronName = "43" weight = "17.646902499526455" />
    <synapse sourceNeuronName = "11" targetNeuronName = "44" weight = "15.478183063872546" />
    <synapse sourceNeuronName = "11" targetNeuronName = "45" weight = "6.314161733687397" />
    <synapse sourceNeuronName = "12" targetNeuronName = "20" weight = "22.187454174586115" />
    <synapse sourceNeuronName = "12" targetNeuronName = "21" weight = "15.336310050467443" />
    <synapse sourceNeuronName = "12" targetNeuronName = "22" weight = "12.479969780768783" />
    <synapse sourceNeuronName = "12" targetNeuronName = "23" weight = "21.455270726493815" />
    <synapse sourceNeuronName = "12" targetNeuronName = "24" weight = "19.79553072223376" />
    <synapse sourceNeuronName = "12" targetNeuronName = "25" weight = "11.60460373345916" />
    <synapse sourceNeuronName = "12" targetNeuronName = "26" weight = "21.56540370224345" />
    <synapse sourceNeuronName = "12" targetNeuronName = "27" weight = "12.534877691222565" />
    <synapse sourceNeuronName = "12" targetNeuronName = "28" weight = "0.3390905275018423" />
    <synapse sourceNeuronName = "12" targetNeuronName = "29" weight = "20.81350424073747" />
    <synapse sourceNeuronName = "12" targetNeuronName = "30" weight = "0.9673632225117734" />
    <synapse sourceNeuronName = "12" targetNeuronName = "31" weight = "12.183200627709532" />
    <synapse sourceNeuronName = "12" targetNeuronName = "32" weight = "10.964223446059368" />
    <synapse sourceNeuronName = "12" targetNeuronName = "33" weight = "20.639947293196993" />
    <synapse sourceNeuronName = "12" targetNeuronName = "34" weight = "2.503022217368872" />
    <synapse sourceNeuronName = "12" targetNeuronName = "35" weight = "17.718039265837312" />
    <synapse sourceNeuronName = "12" targetNeuronName = "36" weight = "11.365791916143092" />
    <synapse sourceNeuronName = "12" targetNeuronName = "37" weight = "12.981981286379282" />
    <synapse sourceNeuronName = "12" targetNeuronName = "38" weight = "20.82581012455573" />
    <synapse sourceNeuronName = "12" targetNeuronName = "39" weight = "17.51517263663016" />
    <synapse sourceNeuronName = "12" targetNeuronName = "40" weight = "7.170334952580292" />
    <synapse sourceNeuronName = "12" targetNeuronName = "41" weight = "20.454122691487388" />
    <synapse sourceNeuronName = "12" targetNeuronName = "42" weight = "16.94394476950224" />
    <synapse sourceNeuronName = "12" targetNeuronName = "43" weight = "8.888987482093784" />
    <synapse sourceNeuronName = "12" targetNeuronName = "44" weight = "15.50970029953233" />
    <synapse sourceNeuronName = "12" targetNeuronName = "45" weight = "21.063922637971785" />
    <synapse sourceNeuronName = "13" targetNeuronName = "20" weight = "20.89719838508526" />
    <synapse sourceNeuronName = "13" targetNeuronName = "21" weight = "10.811778787341494" />
    <synapse sourceNeuronName = "13" targetNeuronName = "22" weight = "1.3232226160630458" />
    <synapse sourceNeuronName = "13" targetNeuronName = "23" weight = "8.233612078035815" />
    <synapse sourceNeuronName = "13" targetNeuronName = "24" weight = "10.517508095731717" />
    <synapse sourceNeuronName = "13" targetNeuronName = "25" weight = "18.038310593051047" />
    <synapse sourceNeuronName = "13" targetNeuronName = "26" weight = "7.755982431778278" />
    <synapse sourceNeuronName = "13" targetNeuronName = "27" weight = "7.655456787571055" />
    <synapse sourceNeuronName = "13" targetNeuronName = "28" weight = "4.570253418991569" />
    <synapse sourceNeuronName = "13" targetNeuronName = "29" weight = "22.799323171468245" />
    <synapse sourceNeuronName = "13" targetNeuronName = "30" weight = "13.892024581227519" />
    <synapse sourceNeuronName = "13" targetNeuronName = "31" weight = "0.21713917690178786" />
    <synapse sourceNeuronName = "13" targetNeuronName = "32" weight = "24.836887818568176" />
    <synapse sourceNeuronName = "13" targetNeuronName = "33" weight = "6.352803613281075" />
    <synapse sourceNeuronName = "13" targetNeuronName = "34" weight = "2.427490120626204" />
    <synapse sourceNeuronName = "13" targetNeuronName = "35" weight = "20.49538253059319" />
    <synapse sourceNeuronName = "13" targetNeuronName = "36" weight = "21.82940864231778" />
    <synapse sourceNeuronName = "13" targetNeuronName = "37" weight = "5.674357771935743" />
    <synapse sourceNeuronName = "13" targetNeuronName = "38" weight = "6.139473124969134" />
    <synapse sourceNeuronName = "13" targetNeuronName = "39" weight = "22.174699021405704" />
    <synapse sourceNeuronName = "13" targetNeuronName = "40" weight = "11.832965323499113" />
    <synapse sourceNeuronName = "13" targetNeuronName = "41" weight = "13.046208844410863" />
    <synapse sourceNeuronName = "13" targetNeuronName = "42" weight = "21.92039884277061" />
    <synapse sourceNeuronName = "13" targetNeuronName = "43" weight = "5.281306914308368" />
    <synapse sourceNeuronName = "13" targetNeuronName = "44" weight = "5.067766761762318" />
    <synapse sourceNeuronName = "13" targetNeuronName = "45" weight = "14.991795036064678" />
    <synapse sourceNeuronName = "14" targetNeuronName = "20" weight = "15.980124406777296" />
    <synapse sourceNeuronName = "14" targetNeuronName = "21" weight = "23.363020839850698" />
    <synapse sourceNeuronName = "14" targetNeuronName = "22" weight = "6.615732533172772" />
    <synapse sourceNeuronName = "14" targetNeuronName = "23" weight = "9.233434411500863" />
    <synapse sourceNeuronName = "14" targetNeuronName = "24" weight = "3.95549762584837" />
    <synapse sourceNeuronName = "14" targetNeuronName = "25" weight = "23.448387134969565" />
    <synapse sourceNeuronName = "14" targetNeuronName = "26" weight = "19.21751572538002" />
    <synapse sourceNeuronName = "14" targetNeuronName = "27" weight = "16.652896270537216" />
    <synapse sourceNeuronName = "14" targetNeuronName = "28" weight = "2.563951897680516" />
    <synapse sourceNeuronName = "14" targetNeuronName = "29" weight = "7.960703395806618" />
    <synapse sourceNeuronName = "14" targetNeuronName = "30" weight = "1.622310419591078" />
    <synapse sourceNeuronName = "14" targetNeuronName = "31" weight = "21.003471732047473" />
    <synapse sourceNeuronName = "14" targetNeuronName = "32" weight = "15.578087188469677" />
    <synapse sourceNeuronName = "14" targetNeuronName = "33" weight = "0.34335751652843904" />
    <synapse sourceNeuronName = "14" targetNeuronName = "34" weight = "14.783037440175724" />
    <synapse sourceNeuronName = "14" targetNeuronName = "35" weight = "2.3634120789027753" />
    <synapse sourceNeuronName = "14" targetNeuronName = "36" weight = "15.538545357175106" />
    <synapse sourceNeuronName = "14" targetNeuronName = "37" weight = "9.401286525408992" />
    <synapse sourceNeuronName = "14" targetNeuronName = "38" weight = "5.721680245392092" />
    <synapse sourceNeuronName = "14" targetNeuronName = "39" weight = "8.91817051351833" />
    <synapse sourceNeuronName = "14" targetNeuronName = "40" weight = "-0.15526423815675372" />
    <synapse sourceNeuronName = "14" targetNeuronName = "41" weight = "-0.18065319229133903" />
    <synapse sourceNeuronName = "14" targetNeuronName = "42" weight = "20.475019572189314" />
    <synapse sourceNeuronName = "14" targetNeuronName = "43" weight = "14.221333450013638" />
    <synapse sourceNeuronName = "14" targetNeuronName = "44" weight = "12.385434340692516" />
    <synapse sourceNeuronName = "14" targetNeuronName = "45" weight = "23.6307915304311" />
    <synapse sourceNeuronName = "15" targetNeuronName = "20" weight = "21.970511201873972" />
    <synapse sourceNeuronName = "15" targetNeuronName = "21" weight = "0.3500985427962613" />
    <synapse sourceNeuronName = "15" targetNeuronName = "22" weight = "22.52429873579703" />
    <synapse sourceNeuronName = "15" targetNeuronName = "23" weight = "20.422685338581957" />
    <synapse sourceNeuronName = "15" targetNeuronName = "24" weight = "-0.6224223367429746" />
    <synapse sourceNeuronName = "15" targetNeuronName = "25" weight = "0.0640998163034685" />
    <synapse sourceNeuronName = "15" targetNeuronName = "26" weight = "13.74870815561977" />
    <synapse sourceNeuronName = "15" targetNeuronName = "27" weight = "22.34074234706581" />
    <synapse sourceNeuronName = "15" targetNeuronName = "28" weight = "24.707276196828758" />
    <synapse sourceNeuronName = "15" targetNeuronName = "29" weight = "14.759446081366532" />
    <synapse sourceNeuronName = "15" targetNeuronName = "30" weight = "4.495161304464283" />
    <synapse sourceNeuronName = "15" targetNeuronName = "31" weight = "3.8169700368198756" />
    <synapse sourceNeuronName = "15" targetNeuronName = "32" weight = "13.927335076911" />
    <synapse sourceNeuronName = "15" targetNeuronName = "33" weight = "16.544936468480913" />
    <synapse sourceNeuronName = "15" targetNeuronName = "34" weight = "21.005669619685087" />
    <synapse sourceNeuronName = "15" targetNeuronName = "35" weight = "3.279591871775141" />
    <synapse sourceNeuronName = "15" targetNeuronName = "36" weight = "21.546819884265865" />
    <synapse sourceNeuronName = "15" targetNeuronName = "37" weight = "24.326210176092" />
    <synapse sourceNeuronName = "15" targetNeuronName = "38" weight = "6.061741598026383" />
    <synapse sourceNeuronName = "15" targetNeuronName = "39" weight = "16.57796202394285" />
    <synapse sourceNeuronName = "15" targetNeuronName = "40" weight = "15.701078915349317" />
    <synapse sourceNeuronName = "15" targetNeuronName = "41" weight = "13.297725977720347" />
    <synapse sourceNeuronName = "15" targetNeuronName = "42" weight = "14.462666349878237" />
    <synapse sourceNeuronName = "15" targetNeuronName = "43" weight = "9.94558013226317" />
    <synapse sourceNeuronName = "15" targetNeuronName = "44" weight = "16.447960747736925" />
    <synapse sourceNeuronName = "15" targetNeuronName = "45" weight = "9.280276031215438" />
    <synapse sourceNeuronName = "16" targetNeuronName = "20" weight = "14.73878649088689" />
    <synapse sourceNeuronName = "16" targetNeuronName = "21" weight = "2.012477747059637" />
    <synapse sourceNeuronName = "16" targetNeuronName = "22" weight = "13.393302169023409" />
    <synapse sourceNeuronName = "16" targetNeuronName = "23" weight = "4.253835541927224" />
    <synapse sourceNeuronName = "16" targetNeuronName = "24" weight = "0.6400193047645242" />
    <synapse sourceNeuronName = "16" targetNeuronName = "25" weight = "3.2141129599063127" />
    <synapse sourceNeuronName = "16" targetNeuronName = "26" weight = "20.810839878233406" />
    <synapse sourceNeuronName = "16" targetNeuronName = "27" weight = "22.070876036211903" />
    <synapse sourceNeuronName = "16" targetNeuronName = "28" weight = "23.824993909027235" />
    <synapse sourceNeuronName = "16" targetNeuronName = "29" weight = "14.619773753351712" />
    <synapse sourceNeuronName = "16" targetNeuronName = "30" weight = "11.348975677923608" />
    <synapse sourceNeuronName = "16" targetNeuronName = "31" weight = "12.535161895142062" />
    <synapse sourceNeuronName = "16" targetNeuronName = "32" weight = "2.3656616110926914" />
    <synapse sourceNeuronName = "16" targetNeuronName = "33" weight = "19.689312395276318" />
    <synapse sourceNeuronName = "16" targetNeuronName = "34" weight = "10.007961664009567" />
    <synapse sourceNeuronName = "16" targetNeuronName = "35" weight = "11.376918196966615" />
    <synapse sourceNeuronName = "16" targetNeuronName = "36" weight = "-0.735010653666045" />
    <synapse sourceNeuronName = "16" targetNeuronName = "37" weight = "0.340386854384529" />
    <synapse sourceNeuronName = "16" targetNeuronName = "38" weight = "22.578710560958452" />
    <synapse sourceNeuronName = "16" targetNeuronName = "39" weight = "23.21803405755355" />
    <synapse sourceNeuronName = "16" targetNeuronName = "40" weight = "3.5623779602442056" />
    <synapse sourceNeuronName = "16" targetNeuronName = "41" weight = "15.863352502143858" />
    <synapse sourceNeuronName = "16" targetNeuronName = "42" weight = "2.6666965640396816" />
    <synapse sourceNeuronName = "16" targetNeuronName = "43" weight = "23.32142856115138" />
    <synapse sourceNeuronName = "16" targetNeuronName = "44" weight = "18.108161516232403" />
    <synapse sourceNeuronName = "16" targetNeuronName = "45" weight = "4.311288286063949" />
    <synapse sourceNeuronName = "17" targetNeuronName = "20" weight = "1.1776372393621335" />
    <synapse sourceNeuronName = "17" targetNeuronName = "21" weight = "17.490838061239803" />
    <synapse sourceNeuronName = "17" targetNeuronName = "22" weight = "5.453707337550519" />
    <synapse sourceNeuronName = "17" targetNeuronName = "23" weight = "14.219758393213024" />
    <synapse sourceNeuronName = "17" targetNeuronName = "24" weight = "-0.258577526723927" />
    <synapse sourceNeuronName = "17" targetNeuronName = "25" weight = "0.4398862206238665" />
    <synapse sourceNeuronName = "17" targetNeuronName = "26" weight = "10.428489685538892" />
    <synapse sourceNeuronName = "17" targetNeuronName = "27" weight = "13.937323591481974" />
    <synapse sourceNeuronName = "17" targetNeuronName = "28" weight = "14.412713541825468" />
    <synapse sourceNeuronName = "17" targetNeuronName = "29" weight = "15.161181065668917" />
    <synapse sourceNeuronName = "17" targetNeuronName = "30" weight = "4.912911996264648" />
    <synapse sourceNeuronName = "17" targetNeuronName = "31" weight = "1.6045318543508333" />
    <synapse sourceNeuronName = "17" targetNeuronName = "32" weight = "-0.6555865632296287" />
    <synapse sourceNeuronName = "17" targetNeuronName = "33" weight = "6.3655815346456315" />
    <synapse sourceNeuronName = "17" targetNeuronName = "34" weight = "3.6116055453933145" />
    <synapse sourceNeuronName = "17" targetNeuronName = "35" weight = "11.824765037182074" />
    <synapse sourceNeuronName = "17" targetNeuronName = "36" weight = "10.986557019893901" />
    <synapse sourceNeuronName = "17" targetNeuronName = "37" weight = "10.52815353129605" />
    <synapse sourceNeuronName = "17" targetNeuronName = "38" weight = "7.913430646770172" />
    <synapse sourceNeuronName = "17" targetNeuronName = "39" weight = "23.4748482831203" />
    <synapse sourceNeuronName = "17" targetNeuronName = "40" weight = "15.424790258384409" />
    <synapse sourceNeuronName = "17" targetNeuronName = "41" weight = "16.051427604404413" />
    <synapse sourceNeuronName = "17" targetNeuronName = "42" weight = "20.126355548503525" />
    <synapse sourceNeuronName = "17" targetNeuronName = "43" weight = "23.637194869315117" />
    <synapse sourceNeuronName = "17" targetNeuronName = "44" weight = "19.627854618507236" />
    <synapse sourceNeuronName = "17" targetNeuronName = "45" weight = "22.252426886536465" />
    <synapse sourceNeuronName = "18" targetNeuronName = "20" weight = "5.109452358611047" />
    <synapse sourceNeuronName = "18" targetNeuronName = "21" weight = "23.131517038125335" />
    <synapse sourceNeuronName = "18" targetNeuronName = "22" weight = "11.612730020685303" />
    <synapse sourceNeuronName = "18" targetNeuronName = "23" weight = "13.103479934723834" />
    <synapse sourceNeuronName = "18" targetNeuronName = "24" weight = "3.551120414559673" />
    <synapse sourceNeuronName = "18" targetNeuronName = "25" weight = "6.839777978330984" />
    <synapse sourceNeuronName = "18" targetNeuronName = "26" weight = "24.962226490133844" />
    <synapse sourceNeuronName = "18" targetNeuronName = "27" weight = "11.506090626484198" />
    <synapse sourceNeuronName = "18" targetNeuronName = "28" weight = "24.925642243565154" />
    <synapse sourceNeuronName = "18" targetNeuronName = "29" weight = "1.0433057212515289" />
    <synapse sourceNeuronName = "18" targetNeuronName = "30" weight = "-0.820512683081791" />
    <synapse sourceNeuronName = "18" targetNeuronName = "31" weight = "8.397894623273507" />
    <synapse sourceNeuronName = "18" targetNeuronName = "32" weight = "23.21830051294057" />
    <synapse sourceNeuronName = "18" targetNeuronName = "33" weight = "4.7262911991781476" />
    <synapse sourceNeuronName = "18" targetNeuronName = "34" weight = "1.0870049991435318" />
    <synapse sourceNeuronName = "18" targetNeuronName = "35" weight = "-0.6891564257676477" />
    <synapse sourceNeuronName = "18" targetNeuronName = "36" weight = "16.6546071994385" />
    <synapse sourceNeuronName = "18" targetNeuronName = "37" weight = "19.96465992250964" />
    <synapse sourceNeuronName = "18" targetNeuronName = "38" weight = "3.507894566901504" />
    <synapse sourceNeuronName = "18" targetNeuronName = "39" weight = "15.369095095291662" />
    <synapse sourceNeuronName = "18" targetNeuronName = "40" weight = "7.848103271479005" />
    <synapse sourceNeuronName = "18" targetNeuronName = "41" weight = "4.637698513912229" />
    <synapse sourceNeuronName = "18" targetNeuronName = "42" weight = "10.961277460194385" />
    <synapse sourceNeuronName = "18" targetNeuronName = "43" weight = "6.03166466229045" />
    <synapse sourceNeuronName = "18" targetNeuronName = "44" weight = "3.3102125767248847" />
    <synapse sourceNeuronName = "18" targetNeuronName = "45" weight = "23.052511963630867" />
    <synapse sourceNeuronName = "19" targetNeuronName = "20" weight = "-0.40722680007340983" />
    <synapse sourceNeuronName = "19" targetNeuronName = "21" weight = "17.12854462964392" />
    <synapse sourceNeuronName = "19" targetNeuronName = "22" weight = "21.362188224443976" />
    <synapse sourceNeuronName = "19" targetNeuronName = "23" weight = "12.138912146004206" />
    <synapse sourceNeuronName = "19" targetNeuronName = "24" weight = "7.080820678977464" />
    <synapse sourceNeuronName = "19" targetNeuronName = "25" weight = "4.509623513897641" />
    <synapse sourceNeuronName = "19" targetNeuronName = "26" weight = "12.794041652445728" />
    <synapse sourceNeuronName = "19" targetNeuronName = "27" weight = "21.86793618039299" />
    <synapse sourceNeuronName = "19" targetNeuronName = "28" weight = "6.383754077501944" />
    <synapse sourceNeuronName = "19" targetNeuronName = "29" weight = "17.612284640395153" />
    <synapse sourceNeuronName = "19" targetNeuronName = "30" weight = "13.346251674254988" />
    <synapse sourceNeuronName = "19" targetNeuronName = "31" weight = "6.927221996013332" />
    <synapse sourceNeuronName = "19" targetNeuronName = "32" weight = "5.601069589471444" />
    <synapse sourceNeuronName = "19" targetNeuronName = "33" weight = "8.07115728495896" />
    <synapse sourceNeuronName = "19" targetNeuronName = "34" weight = "5.804506795041348" />
    <synapse sourceNeuronName = "19" targetNeuronName = "35" weight = "8.040684793271533" />
    <synapse sourceNeuronName = "19" targetNeuronName = "36" weight = "21.544978808278586" />
    <synapse sourceNeuronName = "19" targetNeuronName = "37" weight = "14.969594481987727" />
    <synapse sourceNeuronName = "19" targetNeuronName = "38" weight = "5.190861097446672" />
    <synapse sourceNeuronName = "19" targetNeuronName = "39" weight = "23.513437821755655" />
    <synapse sourceNeuronName = "19" targetNeuronName = "40" weight = "24.356660929144365" />
    <synapse sourceNeuronName = "19" targetNeuronName = "41" weight = "23.705657085126802" />
    <synapse sourceNeuronName = "19" targetNeuronName = "42" weight = "14.302272215959468" />
    <synapse sourceNeuronName = "19" targetNeuronName = "43" weight = "4.139932359326334" />
    <synapse sourceNeuronName = "19" targetNeuronName = "44" weight = "16.861736302605692" />
    <synapse sourceNeuronName = "19" targetNeuronName = "45" weight = "22.814829030098853" />
</neuralNetwork>