<neuralNetwork>
    <neuron name = "0" type = "sensor" linkName = "Torso" />
    <neuron name = "1" type = "sensor" linkName = "Leg1" />
    <neuron name = "2" type = "sensor" linkName = "Leg2" />
    <neuron name = "3" type = "sensor" linkName = "Leg3" />
    <neuron name = "4" type = "sensor" linkName = "Leg5" />
    <neuron name = "5" type = "sensor" linkName = "Leg7" />
    <neuron name = "6" type = "sensor" linkName = "Leg11" />
    <neuron name = "7" type = "sensor" linkName = "Leg15" />
    <neuron name = "8" type = "sensor" linkName = "Leg19" />
    <neuron name = "9" type = "sensor" linkName = "Leg20" />
    <neuron name = "10" type = "sensor" linkName = "Leg24" />
    <neuron name = "11" type = "sensor" linkName = "Leg25" />
    <neuron name = "12" type = "sensor" linkName = "Leg27" />
    <neuron name = "13" type = "motor"  jointName = "Torso_Leg1" />
    <neuron name = "14" type = "motor"  jointName = "Leg1_Leg2" />
    <neuron name = "15" type = "motor"  jointName = "Torso_Leg3" />
    <neuron name = "16" type = "motor"  jointName = "Leg3_Leg4" />
    <neuron name = "17" type = "motor"  jointName = "Leg4_Leg5" />
    <neuron name = "18" type = "motor"  jointName = "Leg5_Leg6" />
    <neuron name = "19" type = "motor"  jointName = "Leg5_Leg7" />
    <neuron name = "20" type = "motor"  jointName = "Leg6_Leg8" />
    <neuron name = "21" type = "motor"  jointName = "Leg4_Leg9" />
    <neuron name = "22" type = "motor"  jointName = "Leg2_Leg10" />
    <neuron name = "23" type = "motor"  jointName = "Leg1_Leg11" />
    <neuron name = "24" type = "motor"  jointName = "Leg7_Leg12" />
    <neuron name = "25" type = "motor"  jointName = "Leg4_Leg13" />
    <neuron name = "26" type = "motor"  jointName = "Leg11_Leg14" />
    <neuron name = "27" type = "motor"  jointName = "Leg12_Leg15" />
    <neuron name = "28" type = "motor"  jointName = "Leg13_Leg16" />
    <neuron name = "29" type = "motor"  jointName = "Leg8_Leg17" />
    <neuron name = "30" type = "motor"  jointName = "Torso_Leg18" />
    <neuron name = "31" type = "motor"  jointName = "Leg16_Leg19" />
    <neuron name = "32" type = "motor"  jointName = "Leg7_Leg20" />
    <neuron name = "33" type = "motor"  jointName = "Leg10_Leg21" />
    <neuron name = "34" type = "motor"  jointName = "Leg2_Leg22" />
    <neuron name = "35" type = "motor"  jointName = "Leg15_Leg23" />
    <neuron name = "36" type = "motor"  jointName = "Leg18_Leg24" />
    <neuron name = "37" type = "motor"  jointName = "Leg24_Leg25" />
    <neuron name = "38" type = "motor"  jointName = "Leg12_Leg26" />
    <neuron name = "39" type = "motor"  jointName = "Leg9_Leg27" />
    <synapse sourceNeuronName = "0" targetNeuronName = "13" weight = "15.333580181151941" />
    <synapse sourceNeuronName = "0" targetNeuronName = "14" weight = "12.881185964595625" />
    <synapse sourceNeuronName = "0" targetNeuronName = "15" weight = "3.498378981766421" />
    <synapse sourceNeuronName = "0" targetNeuronName = "16" weight = "5.8940392301084366" />
    <synapse sourceNeuronName = "0" targetNeuronName = "17" weight = "22.268905321923732" />
    <synapse sourceNeuronName = "0" targetNeuronName = "18" weight = "4.0940578312105576" />
    <synapse sourceNeuronName = "0" targetNeuronName = "19" weight = "23.98546906187867" />
    <synapse sourceNeuronName = "0" targetNeuronName = "20" weight = "22.38850266563783" />
    <synapse sourceNeuronName = "0" targetNeuronName = "21" weight = "23.64512876581061" />
    <synapse sourceNeuronName = "0" targetNeuronName = "22" weight = "11.07152852002733" />
    <synapse sourceNeuronName = "0" targetNeuronName = "23" weight = "3.391436631755589" />
    <synapse sourceNeuronName = "0" targetNeuronName = "24" weight = "17.705043155907635" />
    <synapse sourceNeuronName = "0" targetNeuronName = "25" weight = "2.201468370388312" />
    <synapse sourceNeuronName = "0" targetNeuronName = "26" weight = "18.9636610984203" />
    <synapse sourceNeuronName = "0" targetNeuronName = "27" weight = "14.536368421027655" />
    <synapse sourceNeuronName = "0" targetNeuronName = "28" weight = "9.042466277989522" />
    <synapse sourceNeuronName = "0" targetNeuronName = "29" weight = "12.532692645985124" />
    <synapse sourceNeuronName = "0" targetNeuronName = "30" weight = "15.984693971270381" />
    <synapse sourceNeuronName = "0" targetNeuronName = "31" weight = "22.591285602271743" />
    <synapse sourceNeuronName = "0" targetNeuronName = "32" weight = "16.036345435802332" />
    <synapse sourceNeuronName = "0" targetNeuronName = "33" weight = "1.6743747117999397" />
    <synapse sourceNeuronName = "0" targetNeuronName = "34" weight = "17.817668531591135" />
    <synapse sourceNeuronName = "0" targetNeuronName = "35" weight = "2.712630499451234" />
    <synapse sourceNeuronName = "0" targetNeuronName = "36" weight = "5.217699411951062" />
    <synapse sourceNeuronName = "0" targetNeuronName = "37" weight = "25.975663790306225" />
    <synapse sourceNeuronName = "0" targetNeuronName = "38" weight = "3.0165292821055107" />
    <synapse sourceNeuronName = "0" targetNeuronName = "39" weight = "8.329112167373008" />
    <synapse sourceNeuronName = "1" targetNeuronName = "13" weight = "25.16119458404666" />
    <synapse sourceNeuronName = "1" targetNeuronName = "14" weight = "9.554721124144622" />
    <synapse sourceNeuronName = "1" targetNeuronName = "15" weight = "19.976156890077196" />
    <synapse sourceNeuronName = "1" targetNeuronName = "16" weight = "22.76008374102355" />
    <synapse sourceNeuronName = "1" targetNeuronName = "17" weight = "18.0218879748433" />
    <synapse sourceNeuronName = "1" targetNeuronName = "18" weight = "13.926212030033975" />
    <synapse sourceNeuronName = "1" targetNeuronName = "19" weight = "15.40842837278657" />
    <synapse sourceNeuronName = "1" targetNeuronName = "20" weight = "13.962187590893084" />
    <synapse sourceNeuronName = "1" targetNeuronName = "21" weight = "8.338877979950828" />
    <synapse sourceNeuronName = "1" targetNeuronName = "22" weight = "2.784804248793354" />
    <synapse sourceNeuronName = "1" targetNeuronName = "23" weight = "13.423464784701673" />
    <synapse sourceNeuronName = "1" targetNeuronName = "24" weight = "6.565077141155112" />
    <synapse sourceNeuronName = "1" targetNeuronName = "25" weight = "10.420741267692502" />
    <synapse sourceNeuronName = "1" targetNeuronName = "26" weight = "21.776598858579476" />
    <synapse sourceNeuronName = "1" targetNeuronName = "27" weight = "23.114875459740183" />
    <synapse sourceNeuronName = "1" targetNeuronName = "28" weight = "4.730406403804183" />
    <synapse sourceNeuronName = "1" targetNeuronName = "29" weight = "10.42006487939969" />
    <synapse sourceNeuronName = "1" targetNeuronName = "30" weight = "23.175894265047276" />
    <synapse sourceNeuronName = "1" targetNeuronName = "31" weight = "4.464117458181869" />
    <synapse sourceNeuronName = "1" targetNeuronName = "32" weight = "17.12837128795774" />
    <synapse sourceNeuronName = "1" targetNeuronName = "33" weight = "19.994237290447494" />
    <synapse sourceNeuronName = "1" targetNeuronName = "34" weight = "17.094491032832657" />
    <synapse sourceNeuronName = "1" targetNeuronName = "35" weight = "0.15658943455506913" />
    <synapse sourceNeuronName = "1" targetNeuronName = "36" weight = "21.57343268096111" />
    <synapse sourceNeuronName = "1" targetNeuronName = "37" weight = "15.136452907551156" />
    <synapse sourceNeuronName = "1" targetNeuronName = "38" weight = "24.88633645654005" />
    <synapse sourceNeuronName = "1" targetNeuronName = "39" weight = "23.634631249605093" />
    <synapse sourceNeuronName = "2" targetNeuronName = "13" weight = "8.316414467259275" />
    <synapse sourceNeuronName = "2" targetNeuronName = "14" weight = "11.936412711696622" />
    <synapse sourceNeuronName = "2" targetNeuronName = "15" weight = "25.248858503071933" />
    <synapse sourceNeuronName = "2" targetNeuronName = "16" weight = "22.002381613864674" />
    <synapse sourceNeuronName = "2" targetNeuronName = "17" weight = "8.377969793964615" />
    <synapse sourceNeuronName = "2" targetNeuronName = "18" weight = "19.38038684723857" />
    <synapse sourceNeuronName = "2" targetNeuronName = "19" weight = "6.210288560834029" />
    <synapse sourceNeuronName = "2" targetNeuronName = "20" weight = "5.410128650106799" />
    <synapse sourceNeuronName = "2" targetNeuronName = "21" weight = "1.975542089361249" />
    <synapse sourceNeuronName = "2" targetNeuronName = "22" weight = "-0.5603085991944167" />
    <synapse sourceNeuronName = "2" targetNeuronName = "23" weight = "24.964543067099402" />
    <synapse sourceNeuronName = "2" targetNeuronName = "24" weight = "10.143343573013679" />
    <synapse sourceNeuronName = "2" targetNeuronName = "25" weight = "13.832897819050137" />
    <synapse sourceNeuronName = "2" targetNeuronName = "26" weight = "6.645247831355128" />
    <synapse sourceNeuronName = "2" targetNeuronName = "27" weight = "16.14974418945007" />
    <synapse sourceNeuronName = "2" targetNeuronName = "28" weight = "0.8485436963144575" />
    <synapse sourceNeuronName = "2" targetNeuronName = "29" weight = "16.175079907067342" />
    <synapse sourceNeuronName = "2" targetNeuronName = "30" weight = "1.4611247650361219" />
    <synapse sourceNeuronName = "2" targetNeuronName = "31" weight = "15.979651798842841" />
    <synapse sourceNeuronName = "2" targetNeuronName = "32" weight = "18.928257823590855" />
    <synapse sourceNeuronName = "2" targetNeuronName = "33" weight = "5.742871533996711" />
    <synapse sourceNeuronName = "2" targetNeuronName = "34" weight = "20.150998225335538" />
    <synapse sourceNeuronName = "2" targetNeuronName = "35" weight = "22.924586409333894" />
    <synapse sourceNeuronName = "2" targetNeuronName = "36" weight = "7.04030772100325" />
    <synapse sourceNeuronName = "2" targetNeuronName = "37" weight = "6.6032601327931095" />
    <synapse sourceNeuronName = "2" targetNeuronName = "38" weight = "11.603686837804329" />
    <synapse sourceNeuronName = "2" targetNeuronName = "39" weight = "14.178946437367724" />
    <synapse sourceNeuronName = "3" targetNeuronName = "13" weight = "-0.2082056358983636" />
    <synapse sourceNeuronName = "3" targetNeuronName = "14" weight = "11.181304227672145" />
    <synapse sourceNeuronName = "3" targetNeuronName = "15" weight = "3.7245447997178207" />
    <synapse sourceNeuronName = "3" targetNeuronName = "16" weight = "17.66675003292465" />
    <synapse sourceNeuronName = "3" targetNeuronName = "17" weight = "-0.31249987415373204" />
    <synapse sourceNeuronName = "3" targetNeuronName = "18" weight = "10.993264390964093" />
    <synapse sourceNeuronName = "3" targetNeuronName = "19" weight = "13.908986355670221" />
    <synapse sourceNeuronName = "3" targetNeuronName = "20" weight = "24.347416185293984" />
    <synapse sourceNeuronName = "3" targetNeuronName = "21" weight = "22.374925078865022" />
    <synapse sourceNeuronName = "3" targetNeuronName = "22" weight = "17.261762988986465" />
    <synapse sourceNeuronName = "3" targetNeuronName = "23" weight = "-0.22176356290146737" />
    <synapse sourceNeuronName = "3" targetNeuronName = "24" weight = "12.171852247519649" />
    <synapse sourceNeuronName = "3" targetNeuronName = "25" weight = "11.408543971019153" />
    <synapse sourceNeuronName = "3" targetNeuronName = "26" weight = "6.6380525547935205" />
    <synapse sourceNeuronName = "3" targetNeuronName = "27" weight = "9.735840306711152" />
    <synapse sourceNeuronName = "3" targetNeuronName = "28" weight = "24.625665607814728" />
    <synapse sourceNeuronName = "3" targetNeuronName = "29" weight = "15.800270981207152" />
    <synapse sourceNeuronName = "3" targetNeuronName = "30" weight = "21.866260965988925" />
    <synapse sourceNeuronName = "3" targetNeuronName = "31" weight = "-0.8964331779961402" />
    <synapse sourceNeuronName = "3" targetNeuronName = "32" weight = "16.588114800409056" />
    <synapse sourceNeuronName = "3" targetNeuronName = "33" weight = "3.1014888049927842" />
    <synapse sourceNeuronName = "3" targetNeuronName = "34" weight = "22.02877164548182" />
    <synapse sourceNeuronName = "3" targetNeuronName = "35" weight = "3.9838327605372728" />
    <synapse sourceNeuronName = "3" targetNeuronName = "36" weight = "16.99256672280375" />
    <synapse sourceNeuronName = "3" targetNeuronName = "37" weight = "23.99668395164556" />
    <synapse sourceNeuronName = "3" targetNeuronName = "38" weight = "1.3378918528839376" />
    <synapse sourceNeuronName = "3" targetNeuronName = "39" weight = "19.529832892308576" />
    <synapse sourceNeuronName = "4" targetNeuronName = "13" weight = "6.8212324801653255" />
    <synapse sourceNeuronName = "4" targetNeuronName = "14" weight = "13.860857898380713" />
    <synapse sourceNeuronName = "4" targetNeuronName = "15" weight = "9.037934377222687" />
    <synapse sourceNeuronName = "4" targetNeuronName = "16" weight = "17.63080482590078" />
    <synapse sourceNeuronName = "4" targetNeuronName = "17" weight = "24.52592393507707" />
    <synapse sourceNeuronName = "4" targetNeuronName = "18" weight = "14.513429470176039" />
    <synapse sourceNeuronName = "4" targetNeuronName = "19" weight = "11.636921568228262" />
    <synapse sourceNeuronName = "4" targetNeuronName = "20" weight = "-0.1534276763443726" />
    <synapse sourceNeuronName = "4" targetNeuronName = "21" weight = "18.369866831687396" />
    <synapse sourceNeuronName = "4" targetNeuronName = "22" weight = "11.446976490803662" />
    <synapse sourceNeuronName = "4" targetNeuronName = "23" weight = "5.847577304531426" />
    <synapse sourceNeuronName = "4" targetNeuronName = "24" weight = "16.885445555002054" />
    <synapse sourceNeuronName = "4" targetNeuronName = "25" weight = "2.357979641338177" />
    <synapse sourceNeuronName = "4" targetNeuronName = "26" weight = "9.381871306240567" />
    <synapse sourceNeuronName = "4" targetNeuronName = "27" weight = "19.64980387558536" />
    <synapse sourceNeuronName = "4" targetNeuronName = "28" weight = "0.7485914106554841" />
    <synapse sourceNeuronName = "4" targetNeuronName = "29" weight = "17.48777962262598" />
    <synapse sourceNeuronName = "4" targetNeuronName = "30" weight = "14.09387476041672" />
    <synapse sourceNeuronName = "4" targetNeuronName = "31" weight = "17.966100300061715" />
    <synapse sourceNeuronName = "4" targetNeuronName = "32" weight = "0.02858277269248033" />
    <synapse sourceNeuronName = "4" targetNeuronName = "33" weight = "16.91929808434161" />
    <synapse sourceNeuronName = "4" targetNeuronName = "34" weight = "8.348202040015622" />
    <synapse sourceNeuronName = "4" targetNeuronName = "35" weight = "10.207854022075107" />
    <synapse sourceNeuronName = "4" targetNeuronName = "36" weight = "17.488523594397822" />
    <synapse sourceNeuronName = "4" targetNeuronName = "37" weight = "12.965880702360646" />
    <synapse sourceNeuronName = "4" targetNeuronName = "38" weight = "9.267546898917159" />
    <synapse sourceNeuronName = "4" targetNeuronName = "39" weight = "5.452439869327728" />
    <synapse sourceNeuronName = "5" targetNeuronName = "13" weight = "20.066108592391725" />
    <synapse sourceNeuronName = "5" targetNeuronName = "14" weight = "23.854854195392086" />
    <synapse sourceNeuronName = "5" targetNeuronName = "15" weight = "7.076675852279106" />
    <synapse sourceNeuronName = "5" targetNeuronName = "16" weight = "0.7738942191249618" />
    <synapse sourceNeuronName = "5" targetNeuronName = "17" weight = "14.69702532426244" />
    <synapse sourceNeuronName = "5" targetNeuronName = "18" weight = "6.744890484850161" />
    <synapse sourceNeuronName = "5" targetNeuronName = "19" weight = "17.13240173965466" />
    <synapse sourceNeuronName = "5" targetNeuronName = "20" weight = "10.011905073908359" />
    <synapse sourceNeuronName = "5" targetNeuronName = "21" weight = "3.3022065025826732" />
    <synapse sourceNeuronName = "5" targetNeuronName = "22" weight = "-0.76144863486744" />
    <synapse sourceNeuronName = "5" targetNeuronName = "23" weight = "17.38453471326711" />
    <synapse sourceNeuronName = "5" targetNeuronName = "24" weight = "4.663676430775825" />
    <synapse sourceNeuronName = "5" targetNeuronName = "25" weight = "15.177491765502754" />
    <synapse sourceNeuronName = "5" targetNeuronName = "26" weight = "24.368607661690774" />
    <synapse sourceNeuronName = "5" targetNeuronName = "27" weight = "16.185156606341415" />
    <synapse sourceNeuronName = "5" targetNeuronName = "28" weight = "25.43493977490615" />
    <synapse sourceNeuronName = "5" targetNeuronName = "29" weight = "21.825477373655236" />
    <synapse sourceNeuronName = "5" targetNeuronName = "30" weight = "13.751631942047485" />
    <synapse sourceNeuronName = "5" targetNeuronName = "31" weight = "21.098134230698093" />
    <synapse sourceNeuronName = "5" targetNeuronName = "32" weight = "15.736383303149612" />
    <synapse sourceNeuronName = "5" targetNeuronName = "33" weight = "25.349121458184154" />
    <synapse sourceNeuronName = "5" targetNeuronName = "34" weight = "1.5981371644531563" />
    <synapse sourceNeuronName = "5" targetNeuronName = "35" weight = "3.0253241133947357" />
    <synapse sourceNeuronName = "5" targetNeuronName = "36" weight = "16.087763702726726" />
    <synapse sourceNeuronName = "5" targetNeuronName = "37" weight = "4.432403019555682" />
    <synapse sourceNeuronName = "5" targetNeuronName = "38" weight = "25.030644601628918" />
    <synapse sourceNeuronName = "5" targetNeuronName = "39" weight = "1.3480198760590953" />
    <synapse sourceNeuronName = "6" targetNeuronName = "13" weight = "16.996034031841454" />
    <synapse sourceNeuronName = "6" targetNeuronName = "14" weight = "19.98832536451315" />
    <synapse sourceNeuronName = "6" targetNeuronName = "15" weight = "5.2136569888105715" />
    <synapse sourceNeuronName = "6" targetNeuronName = "16" weight = "14.803964521877234" />
    <synapse sourceNeuronName = "6" targetNeuronName = "17" weight = "17.40318561166999" />
    <synapse sourceNeuronName = "6" targetNeuronName = "18" weight = "22.576974982724014" />
    <synapse sourceNeuronName = "6" targetNeuronName = "19" weight = "4.843480300428082" />
    <synapse sourceNeuronName = "6" targetNeuronName = "20" weight = "7.90780181032731" />
    <synapse sourceNeuronName = "6" targetNeuronName = "21" weight = "2.718973322620757" />
    <synapse sourceNeuronName = "6" targetNeuronName = "22" weight = "-0.4797475523731578" />
    <synapse sourceNeuronName = "6" targetNeuronName = "23" weight = "10.488222020664569" />
    <synapse sourceNeuronName = "6" targetNeuronName = "24" weight = "8.861289892872316" />
    <synapse sourceNeuronName = "6" targetNeuronName = "25" weight = "3.5932081165937717" />
    <synapse sourceNeuronName = "6" targetNeuronName = "26" weight = "-0.8766410698465406" />
    <synapse sourceNeuronName = "6" targetNeuronName = "27" weight = "23.23881223716687" />
    <synapse sourceNeuronName = "6" targetNeuronName = "28" weight = "2.7270210761144007" />
    <synapse sourceNeuronName = "6" targetNeuronName = "29" weight = "2.3689131469146867" />
    <synapse sourceNeuronName = "6" targetNeuronName = "30" weight = "23.238952329678025" />
    <synapse sourceNeuronName = "6" targetNeuronName = "31" weight = "13.38978004671491" />
    <synapse sourceNeuronName = "6" targetNeuronName = "32" weight = "15.990388395925493" />
    <synapse sourceNeuronName = "6" targetNeuronName = "33" weight = "-0.364488536570161" />
    <synapse sourceNeuronName = "6" targetNeuronName = "34" weight = "17.864285640243533" />
    <synapse sourceNeuronName = "6" targetNeuronName = "35" weight = "20.77835407769025" />
    <synapse sourceNeuronName = "6" targetNeuronName = "36" weight = "14.522576601336276" />
    <synapse sourceNeuronName = "6" targetNeuronName = "37" weight = "6.5732453278743534" />
    <synapse sourceNeuronName = "6" targetNeuronName = "38" weight = "19.771258938552094" />
    <synapse sourceNeuronName = "6" targetNeuronName = "39" weight = "6.756180462910641" />
    <synapse sourceNeuronName = "7" targetNeuronName = "13" weight = "15.037694466116228" />
    <synapse sourceNeuronName = "7" targetNeuronName = "14" weight = "14.846499916780294" />
    <synapse sourceNeuronName = "7" targetNeuronName = "15" weight = "11.451063546997894" />
    <synapse sourceNeuronName = "7" targetNeuronName = "16" weight = "3.434532134095142" />
    <synapse sourceNeuronName = "7" targetNeuronName = "17" weight = "25.295179499624563" />
    <synapse sourceNeuronName = "7" targetNeuronName = "18" weight = "15.687162412796479" />
    <synapse sourceNeuronName = "7" targetNeuronName = "19" weight = "2.034946937053331" />
    <synapse sourceNeuronName = "7" targetNeuronName = "20" weight = "19.29331722016132" />
    <synapse sourceNeuronName = "7" targetNeuronName = "21" weight = "4.842044116636749" />
    <synapse sourceNeuronName = "7" targetNeuronName = "22" weight = "9.24740781962438" />
    <synapse sourceNeuronName = "7" targetNeuronName = "23" weight = "16.04408847218947" />
    <synapse sourceNeuronName = "7" targetNeuronName = "24" weight = "13.384842914234763" />
    <synapse sourceNeuronName = "7" targetNeuronName = "25" weight = "13.28346350492869" />
    <synapse sourceNeuronName = "7" targetNeuronName = "26" weight = "4.932760139626264" />
    <synapse sourceNeuronName = "7" targetNeuronName = "27" weight = "24.060578991643382" />
    <synapse sourceNeuronName = "7" targetNeuronName = "28" weight = "20.826794396034952" />
    <synapse sourceNeuronName = "7" targetNeuronName = "29" weight = "1.8750653969570514" />
    <synapse sourceNeuronName = "7" targetNeuronName = "30" weight = "21.339648407739933" />
    <synapse sourceNeuronName = "7" targetNeuronName = "31" weight = "7.213533189415642" />
    <synapse sourceNeuronName = "7" targetNeuronName = "32" weight = "5.8105363302195805" />
    <synapse sourceNeuronName = "7" targetNeuronName = "33" weight = "4.644277589615911" />
    <synapse sourceNeuronName = "7" targetNeuronName = "34" weight = "16.084619133331596" />
    <synapse sourceNeuronName = "7" targetNeuronName = "35" weight = "22.65681399261361" />
    <synapse sourceNeuronName = "7" targetNeuronName = "36" weight = "0.1417242080648362" />
    <synapse sourceNeuronName = "7" targetNeuronName = "37" weight = "8.13186099149727" />
    <synapse sourceNeuronName = "7" targetNeuronName = "38" weight = "5.21524635587103" />
    <synapse sourceNeuronName = "7" targetNeuronName = "39" weight = "20.00654690172252" />
    <synapse sourceNeuronName = "8" targetNeuronName = "13" weight = "24.04893053849534" />
    <synapse sourceNeuronName = "8" targetNeuronName = "14" weight = "22.320891047175486" />
    <synapse sourceNeuronName = "8" targetNeuronName = "15" weight = "6.838735972131565" />
    <synapse sourceNeuronName = "8" targetNeuronName = "16" weight = "7.621148207378834" />
    <synapse sourceNeuronName = "8" targetNeuronName = "17" weight = "0.782918010744855" />
    <synapse sourceNeuronName = "8" targetNeuronName = "18" weight = "24.88958826731497" />
    <synapse sourceNeuronName = "8" targetNeuronName = "19" weight = "18.00647130927966" />
    <synapse sourceNeuronName = "8" targetNeuronName = "20" weight = "4.397358888823765" />
    <synapse sourceNeuronName = "8" targetNeuronName = "21" weight = "18.915610278572053" />
    <synapse sourceNeuronName = "8" targetNeuronName = "22" weight = "19.389450944697842" />
    <synapse sourceNeuronName = "8" targetNeuronName = "23" weight = "13.060482694605156" />
    <synapse sourceNeuronName = "8" targetNeuronName = "24" weight = "1.28860873593803" />
    <synapse sourceNeuronName = "8" targetNeuronName = "25" weight = "16.671213095743028" />
    <synapse sourceNeuronName = "8" targetNeuronName = "26" weight = "1.062011849995697" />
    <synapse sourceNeuronName = "8" targetNeuronName = "27" weight = "4.683039513846879" />
    <synapse sourceNeuronName = "8" targetNeuronName = "28" weight = "3.6521709694120625" />
    <synapse sourceNeuronName = "8" targetNeuronName = "29" weight = "18.28771065316208" />
    <synapse sourceNeuronName = "8" targetNeuronName = "30" weight = "15.271224338444515" />
    <synapse sourceNeuronName = "8" targetNeuronName = "31" weight = "13.675283996254334" />
    <synapse sourceNeuronName = "8" targetNeuronName = "32" weight = "18.840539543658153" />
    <synapse sourceNeuronName = "8" targetNeuronName = "33" weight = "17.312181760739534" />
    <synapse sourceNeuronName = "8" targetNeuronName = "34" weight = "13.521434215621213" />
    <synapse sourceNeuronName = "8" targetNeuronName = "35" weight = "15.89454140699453" />
    <synapse sourceNeuronName = "8" targetNeuronName = "36" weight = "6.558196548464604" />
    <synapse sourceNeuronName = "8" targetNeuronName = "37" weight = "-0.003262822636644347" />
    <synapse sourceNeuronName = "8" targetNeuronName = "38" weight = "4.047833759273755" />
    <synapse sourceNeuronName = "8" targetNeuronName = "39" weight = "21.049454106742505" />
    <synapse sourceNeuronName = "9" targetNeuronName = "13" weight = "12.872555052015311" />
    <synapse sourceNeuronName = "9" targetNeuronName = "14" weight = "25.926971935452137" />
    <synapse sourceNeuronName = "9" targetNeuronName = "15" weight = "9.318260022956038" />
    <synapse sourceNeuronName = "9" targetNeuronName = "16" weight = "6.547094547856942" />
    <synapse sourceNeuronName = "9" targetNeuronName = "17" weight = "3.4511365025985894" />
    <synapse sourceNeuronName = "9" targetNeuronName = "18" weight = "12.838876128121358" />
    <synapse sourceNeuronName = "9" targetNeuronName = "19" weight = "16.054487205762534" />
    <synapse sourceNeuronName = "9" targetNeuronName = "20" weight = "23.465745992513586" />
    <synapse sourceNeuronName = "9" targetNeuronName = "21" weight = "11.085552441531037" />
    <synapse sourceNeuronName = "9" targetNeuronName = "22" weight = "15.355463505215631" />
    <synapse sourceNeuronName = "9" targetNeuronName = "23" weight = "4.12225346673272" />
    <synapse sourceNeuronName = "9" targetNeuronName = "24" weight = "19.394660596654877" />
    <synapse sourceNeuronName = "9" targetNeuronName = "25" weight = "0.5288159534891352" />
    <synapse sourceNeuronName = "9" targetNeuronName = "26" weight = "2.88553528876529" />
    <synapse sourceNeuronName = "9" targetNeuronName = "27" weight = "11.059166822690253" />
    <synapse sourceNeuronName = "9" targetNeuronName = "28" weight = "10.265359454792083" />
    <synapse sourceNeuronName = "9" targetNeuronName = "29" weight = "18.936505623863646" />
    <synapse sourceNeuronName = "9" targetNeuronName = "30" weight = "8.421748302425906" />
    <synapse sourceNeuronName = "9" targetNeuronName = "31" weight = "5.865802921508761" />
    <synapse sourceNeuronName = "9" targetNeuronName = "32" weight = "10.50892181856275" />
    <synapse sourceNeuronName = "9" targetNeuronName = "33" weight = "14.656204926449911" />
    <synapse sourceNeuronName = "9" targetNeuronName = "34" weight = "21.549541919859347" />
    <synapse sourceNeuronName = "9" targetNeuronName = "35" weight = "3.606029656920719" />
    <synapse sourceNeuronName = "9" targetNeuronName = "36" weight = "9.724077834522088" />
    <synapse sourceNeuronName = "9" targetNeuronName = "37" weight = "16.55333631470293" />
    <synapse sourceNeuronName = "9" targetNeuronName = "38" weight = "22.20023370590157" />
    <synapse sourceNeuronName = "9" targetNeuronName = "39" weight = "20.32895938620376" />
    <synapse sourceNeuronName = "10" targetNeuronName = "13" weight = "18.431045893767198" />
    <synapse sourceNeuronName = "10" targetNeuronName = "14" weight = "20.417271844373598" />
    <synapse sourceNeuronName = "10" targetNeuronName = "15" weight = "21.07969423229359" />
    <synapse sourceNeuronName = "10" targetNeuronName = "16" weight = "20.104245503273148" />
    <synapse sourceNeuronName = "10" targetNeuronName = "17" weight = "11.980177342416923" />
    <synapse sourceNeuronName = "10" targetNeuronName = "18" weight = "15.778268370120909" />
    <synapse sourceNeuronName = "10" targetNeuronName = "19" weight = "13.720681738195129" />
    <synapse sourceNeuronName = "10" targetNeuronName = "20" weight = "20.428018629487813" />
    <synapse sourceNeuronName = "10" targetNeuronName = "21" weight = "13.258640019840808" />
    <synapse sourceNeuronName = "10" targetNeuronName = "22" weight = "13.339709225643398" />
    <synapse sourceNeuronName = "10" targetNeuronName = "23" weight = "18.10061397522861" />
    <synapse sourceNeuronName = "10" targetNeuronName = "24" weight = "7.021467783197137" />
    <synapse sourceNeuronName = "10" targetNeuronName = "25" weight = "24.832432873345553" />
    <synapse sourceNeuronName = "10" targetNeuronName = "26" weight = "19.05319320976825" />
    <synapse sourceNeuronName = "10" targetNeuronName = "27" weight = "7.192025957606017" />
    <synapse sourceNeuronName = "10" targetNeuronName = "28" weight = "8.209532031910607" />
    <synapse sourceNeuronName = "10" targetNeuronName = "29" weight = "14.262674497371302" />
    <synapse sourceNeuronName = "10" targetNeuronName = "30" weight = "16.4327424734491" />
    <synapse sourceNeuronName = "10" targetNeuronName = "31" weight = "6.772388173120773" />
    <synapse sourceNeuronName = "10" targetNeuronName = "32" weight = "13.672625484831865" />
    <synapse sourceNeuronName = "10" targetNeuronName = "33" weight = "11.512967710256891" />
    <synapse sourceNeuronName = "10" targetNeuronName = "34" weight = "16.178956525671314" />
    <synapse sourceNeuronName = "10" targetNeuronName = "35" weight = "24.377476706799825" />
    <synapse sourceNeuronName = "10" targetNeuronName = "36" weight = "15.17946250089511" />
    <synapse sourceNeuronName = "10" targetNeuronName = "37" weight = "12.810656053371359" />
    <synapse sourceNeuronName = "10" targetNeuronName = "38" weight = "15.900223508678614" />
    <synapse sourceNeuronName = "10" targetNeuronName = "39" weight = "3.371771595176863" />
    <synapse sourceNeuronName = "11" targetNeuronName = "13" weight = "22.431170394284386" />
    <synapse sourceNeuronName = "11" targetNeuronName = "14" weight = "19.789534631958205" />
    <synapse sourceNeuronName = "11" targetNeuronName = "15" weight = "24.6096603525017" />
    <synapse sourceNeuronName = "11" targetNeuronName = "16" weight = "17.494335199533054" />
    <synapse sourceNeuronName = "11" targetNeuronName = "17" weight = "15.175687066313444" />
    <synapse sourceNeuronName = "11" targetNeuronName = "18" weight = "-0.15263366784028276" />
    <synapse sourceNeuronName = "11" targetNeuronName = "19" weight = "13.09105737798593" />
    <synapse sourceNeuronName = "11" targetNeuronName = "20" weight = "13.103022527232019" />
    <synapse sourceNeuronName = "11" targetNeuronName = "21" weight = "10.311680152626774" />
    <synapse sourceNeuronName = "11" targetNeuronName = "22" weight = "4.666234709347648" />
    <synapse sourceNeuronName = "11" targetNeuronName = "23" weight = "21.71652302909959" />
    <synapse sourceNeuronName = "11" targetNeuronName = "24" weight = "12.293579283438032" />
    <synapse sourceNeuronName = "11" targetNeuronName = "25" weight = "16.161888457394692" />
    <synapse sourceNeuronName = "11" targetNeuronName = "26" weight = "9.197559443586899" />
    <synapse sourceNeuronName = "11" targetNeuronName = "27" weight = "14.352637183873247" />
    <synapse sourceNeuronName = "11" targetNeuronName = "28" weight = "4.813052924207848" />
    <synapse sourceNeuronName = "11" targetNeuronName = "29" weight = "25.346153228900587" />
    <synapse sourceNeuronName = "11" targetNeuronName = "30" weight = "14.507119392577211" />
    <synapse sourceNeuronName = "11" targetNeuronName = "31" weight = "8.547229846422647" />
    <synapse sourceNeuronName = "11" targetNeuronName = "32" weight = "23.99998651388207" />
    <synapse sourceNeuronName = "11" targetNeuronName = "33" weight = "8.68529413440691" />
    <synapse sourceNeuronName = "11" targetNeuronName = "34" weight = "1.884872470911235" />
    <synapse sourceNeuronName = "11" targetNeuronName = "35" weight = "23.772661877876782" />
    <synapse sourceNeuronName = "11" targetNeuronName = "36" weight = "7.924853106377068" />
    <synapse sourceNeuronName = "11" targetNeuronName = "37" weight = "12.609689679134984" />
    <synapse sourceNeuronName = "11" targetNeuronName = "38" weight = "3.544927013451722" />
    <synapse sourceNeuronName = "11" targetNeuronName = "39" weight = "9.377238931441022" />
    <synapse sourceNeuronName = "12" targetNeuronName = "13" weight = "21.826521521908454" />
    <synapse sourceNeuronName = "12" targetNeuronName = "14" weight = "18.473451710792403" />
    <synapse sourceNeuronName = "12" targetNeuronName = "15" weight = "13.912844051085997" />
    <synapse sourceNeuronName = "12" targetNeuronName = "16" weight = "12.334146165347539" />
    <synapse sourceNeuronName = "12" targetNeuronName = "17" weight = "2.6408881002669653" />
    <synapse sourceNeuronName = "12" targetNeuronName = "18" weight = "12.004066899496161" />
    <synapse sourceNeuronName = "12" targetNeuronName = "19" weight = "14.227981209284128" />
    <synapse sourceNeuronName = "12" targetNeuronName = "20" weight = "10.804249053341001" />
    <synapse sourceNeuronName = "12" targetNeuronName = "21" weight = "3.5044191276856456" />
    <synapse sourceNeuronName = "12" targetNeuronName = "22" weight = "8.555099161405193" />
    <synapse sourceNeuronName = "12" targetNeuronName = "23" weight = "1.843160360349879" />
    <synapse sourceNeuronName = "12" targetNeuronName = "24" weight = "8.277388284684562" />
    <synapse sourceNeuronName = "12" targetNeuronName = "25" weight = "5.169444225415479" />
    <synapse sourceNeuronName = "12" targetNeuronName = "26" weight = "12.231120519086447" />
    <synapse sourceNeuronName = "12" targetNeuronName = "27" weight = "2.2507468018902794" />
    <synapse sourceNeuronName = "12" targetNeuronName = "28" weight = "14.476330609651257" />
    <synapse sourceNeuronName = "12" targetNeuronName = "29" weight = "19.37002270326326" />
    <synapse sourceNeuronName = "12" targetNeuronName = "30" weight = "0.8103344978707872" />
    <synapse sourceNeuronName = "12" targetNeuronName = "31" weight = "0.395271462122484" />
    <synapse sourceNeuronName = "12" targetNeuronName = "32" weight = "4.281314659540443" />
    <synapse sourceNeuronName = "12" targetNeuronName = "33" weight = "19.427315680696044" />
    <synapse sourceNeuronName = "12" targetNeuronName = "34" weight = "12.886310676268975" />
    <synapse sourceNeuronName = "12" targetNeuronName = "35" weight = "20.81920870566958" />
    <synapse sourceNeuronName = "12" targetNeuronName = "36" weight = "11.879386898210216" />
    <synapse sourceNeuronName = "12" targetNeuronName = "37" weight = "20.658169364359395" />
    <synapse sourceNeuronName = "12" targetNeuronName = "38" weight = "10.9097937342921" />
    <synapse sourceNeuronName = "12" targetNeuronName = "39" weight = "21.600832753056036" />
</neuralNetwork>