<neuralNetwork>
    <neuron name = "0" type = "sensor" linkName = "Torso" />
    <neuron name = "1" type = "sensor" linkName = "Leg1" />
    <neuron name = "2" type = "sensor" linkName = "Leg2" />
    <neuron name = "3" type = "sensor" linkName = "Leg3" />
    <neuron name = "4" type = "sensor" linkName = "Leg4" />
    <neuron name = "5" type = "sensor" linkName = "Leg7" />
    <neuron name = "6" type = "sensor" linkName = "Leg10" />
    <neuron name = "7" type = "sensor" linkName = "Leg14" />
    <neuron name = "8" type = "sensor" linkName = "Leg15" />
    <neuron name = "9" type = "sensor" linkName = "Leg16" />
    <neuron name = "10" type = "sensor" linkName = "Leg17" />
    <neuron name = "11" type = "sensor" linkName = "Leg19" />
    <neuron name = "12" type = "sensor" linkName = "Leg20" />
    <neuron name = "13" type = "sensor" linkName = "Leg22" />
    <neuron name = "14" type = "sensor" linkName = "Leg23" />
    <neuron name = "15" type = "sensor" linkName = "Leg26" />
    <neuron name = "16" type = "sensor" linkName = "Leg27" />
    <neuron name = "17" type = "sensor" linkName = "Leg28" />
    <neuron name = "18" type = "motor"  jointName = "Torso_Leg1" />
    <neuron name = "19" type = "motor"  jointName = "Leg1_Leg2" />
    <neuron name = "20" type = "motor"  jointName = "Leg2_Leg3" />
    <neuron name = "21" type = "motor"  jointName = "Leg3_Leg4" />
    <neuron name = "22" type = "motor"  jointName = "Leg4_Leg5" />
    <neuron name = "23" type = "motor"  jointName = "Leg4_Leg6" />
    <neuron name = "24" type = "motor"  jointName = "Leg5_Leg7" />
    <neuron name = "25" type = "motor"  jointName = "Torso_Leg8" />
    <neuron name = "26" type = "motor"  jointName = "Leg2_Leg9" />
    <neuron name = "27" type = "motor"  jointName = "Leg8_Leg10" />
    <neuron name = "28" type = "motor"  jointName = "Torso_Leg11" />
    <neuron name = "29" type = "motor"  jointName = "Leg10_Leg12" />
    <neuron name = "30" type = "motor"  jointName = "Leg10_Leg13" />
    <neuron name = "31" type = "motor"  jointName = "Leg9_Leg14" />
    <neuron name = "32" type = "motor"  jointName = "Leg6_Leg15" />
    <neuron name = "33" type = "motor"  jointName = "Leg11_Leg16" />
    <neuron name = "34" type = "motor"  jointName = "Leg11_Leg17" />
    <neuron name = "35" type = "motor"  jointName = "Leg17_Leg18" />
    <neuron name = "36" type = "motor"  jointName = "Leg9_Leg19" />
    <neuron name = "37" type = "motor"  jointName = "Leg5_Leg20" />
    <neuron name = "38" type = "motor"  jointName = "Leg14_Leg21" />
    <neuron name = "39" type = "motor"  jointName = "Leg14_Leg22" />
    <neuron name = "40" type = "motor"  jointName = "Leg12_Leg23" />
    <neuron name = "41" type = "motor"  jointName = "Leg2_Leg24" />
    <neuron name = "42" type = "motor"  jointName = "Leg24_Leg25" />
    <neuron name = "43" type = "motor"  jointName = "Leg18_Leg26" />
    <neuron name = "44" type = "motor"  jointName = "Leg16_Leg27" />
    <neuron name = "45" type = "motor"  jointName = "Leg8_Leg28" />
    <neuron name = "46" type = "motor"  jointName = "Leg27_Leg29" />
    <synapse sourceNeuronName = "0" targetNeuronName = "18" weight = "7.631613865935956" />
    <synapse sourceNeuronName = "0" targetNeuronName = "19" weight = "13.680175509506785" />
    <synapse sourceNeuronName = "0" targetNeuronName = "20" weight = "18.244946492057615" />
    <synapse sourceNeuronName = "0" targetNeuronName = "21" weight = "26.007613168527897" />
    <synapse sourceNeuronName = "0" targetNeuronName = "22" weight = "23.194578395891426" />
    <synapse sourceNeuronName = "0" targetNeuronName = "23" weight = "12.219812084043603" />
    <synapse sourceNeuronName = "0" targetNeuronName = "24" weight = "22.85258450580586" />
    <synapse sourceNeuronName = "0" targetNeuronName = "25" weight = "22.55914747165194" />
    <synapse sourceNeuronName = "0" targetNeuronName = "26" weight = "17.879984327073213" />
    <synapse sourceNeuronName = "0" targetNeuronName = "27" weight = "12.471828017682009" />
    <synapse sourceNeuronName = "0" targetNeuronName = "28" weight = "21.267337861317685" />
    <synapse sourceNeuronName = "0" targetNeuronName = "29" weight = "1.3374236971384854" />
    <synapse sourceNeuronName = "0" targetNeuronName = "30" weight = "3.2104406116857342" />
    <synapse sourceNeuronName = "0" targetNeuronName = "31" weight = "2.679518202488062" />
    <synapse sourceNeuronName = "0" targetNeuronName = "32" weight = "9.711141193471715" />
    <synapse sourceNeuronName = "0" targetNeuronName = "33" weight = "3.29786748100031" />
    <synapse sourceNeuronName = "0" targetNeuronName = "34" weight = "24.156441803557087" />
    <synapse sourceNeuronName = "0" targetNeuronName = "35" weight = "25.104205274806702" />
    <synapse sourceNeuronName = "0" targetNeuronName = "36" weight = "14.47991054895368" />
    <synapse sourceNeuronName = "0" targetNeuronName = "37" weight = "27.680304782537803" />
    <synapse sourceNeuronName = "0" targetNeuronName = "38" weight = "27.804025056102486" />
    <synapse sourceNeuronName = "0" targetNeuronName = "39" weight = "-0.47146955558549253" />
    <synapse sourceNeuronName = "0" targetNeuronName = "40" weight = "8.050865261614291" />
    <synapse sourceNeuronName = "0" targetNeuronName = "41" weight = "21.31526871047849" />
    <synapse sourceNeuronName = "0" targetNeuronName = "42" weight = "19.201793825039758" />
    <synapse sourceNeuronName = "0" targetNeuronName = "43" weight = "5.6784260598701914" />
    <synapse sourceNeuronName = "0" targetNeuronName = "44" weight = "9.323302780846056" />
    <synapse sourceNeuronName = "0" targetNeuronName = "45" weight = "21.53328383507278" />
    <synapse sourceNeuronName = "0" targetNeuronName = "46" weight = "24.092554774422467" />
    <synapse sourceNeuronName = "1" targetNeuronName = "18" weight = "25.161947977744376" />
    <synapse sourceNeuronName = "1" targetNeuronName = "19" weight = "13.310629503013875" />
    <synapse sourceNeuronName = "1" targetNeuronName = "20" weight = "22.985518227760547" />
    <synapse sourceNeuronName = "1" targetNeuronName = "21" weight = "1.8948128189722224" />
    <synapse sourceNeuronName = "1" targetNeuronName = "22" weight = "20.9899285858279" />
    <synapse sourceNeuronName = "1" targetNeuronName = "23" weight = "0.5599784229608753" />
    <synapse sourceNeuronName = "1" targetNeuronName = "24" weight = "15.311189300141915" />
    <synapse sourceNeuronName = "1" targetNeuronName = "25" weight = "4.338383390819759" />
    <synapse sourceNeuronName = "1" targetNeuronName = "26" weight = "22.818496800656618" />
    <synapse sourceNeuronName = "1" targetNeuronName = "27" weight = "7.4023556890333975" />
    <synapse sourceNeuronName = "1" targetNeuronName = "28" weight = "14.866915856020093" />
    <synapse sourceNeuronName = "1" targetNeuronName = "29" weight = "26.82740800607563" />
    <synapse sourceNeuronName = "1" targetNeuronName = "30" weight = "27.245797670183855" />
    <synapse sourceNeuronName = "1" targetNeuronName = "31" weight = "9.837226342227543" />
    <synapse sourceNeuronName = "1" targetNeuronName = "32" weight = "15.092191596899212" />
    <synapse sourceNeuronName = "1" targetNeuronName = "33" weight = "6.428068902223743" />
    <synapse sourceNeuronName = "1" targetNeuronName = "34" weight = "3.1912218791892597" />
    <synapse sourceNeuronName = "1" targetNeuronName = "35" weight = "-0.5923311763140007" />
    <synapse sourceNeuronName = "1" targetNeuronName = "36" weight = "13.904076213187551" />
    <synapse sourceNeuronName = "1" targetNeuronName = "37" weight = "24.553114488292994" />
    <synapse sourceNeuronName = "1" targetNeuronName = "38" weight = "9.77741757884961" />
    <synapse sourceNeuronName = "1" targetNeuronName = "39" weight = "11.731583187307653" />
    <synapse sourceNeuronName = "1" targetNeuronName = "40" weight = "10.879016696564037" />
    <synapse sourceNeuronName = "1" targetNeuronName = "41" weight = "13.197213688398135" />
    <synapse sourceNeuronName = "1" targetNeuronName = "42" weight = "21.11704956418595" />
    <synapse sourceNeuronName = "1" targetNeuronName = "43" weight = "19.607815749219903" />
    <synapse sourceNeuronName = "1" targetNeuronName = "44" weight = "19.69260529130637" />
    <synapse sourceNeuronName = "1" targetNeuronName = "45" weight = "12.083156461822407" />
    <synapse sourceNeuronName = "1" targetNeuronName = "46" weight = "1.976952786621732" />
    <synapse sourceNeuronName = "2" targetNeuronName = "18" weight = "18.094219589888866" />
    <synapse sourceNeuronName = "2" targetNeuronName = "19" weight = "2.102878513975242" />
    <synapse sourceNeuronName = "2" targetNeuronName = "20" weight = "16.90548144596004" />
    <synapse sourceNeuronName = "2" targetNeuronName = "21" weight = "19.107261247261036" />
    <synapse sourceNeuronName = "2" targetNeuronName = "22" weight = "9.681755921688307" />
    <synapse sourceNeuronName = "2" targetNeuronName = "23" weight = "5.418412539071073" />
    <synapse sourceNeuronName = "2" targetNeuronName = "24" weight = "12.110026432597715" />
    <synapse sourceNeuronName = "2" targetNeuronName = "25" weight = "1.901257956215665" />
    <synapse sourceNeuronName = "2" targetNeuronName = "26" weight = "1.1479444108142047" />
    <synapse sourceNeuronName = "2" targetNeuronName = "27" weight = "6.009740281616197" />
    <synapse sourceNeuronName = "2" targetNeuronName = "28" weight = "13.624764814877654" />
    <synapse sourceNeuronName = "2" targetNeuronName = "29" weight = "23.564137085384896" />
    <synapse sourceNeuronName = "2" targetNeuronName = "30" weight = "4.802460710292258" />
    <synapse sourceNeuronName = "2" targetNeuronName = "31" weight = "18.47535470877068" />
    <synapse sourceNeuronName = "2" targetNeuronName = "32" weight = "4.371847382077357" />
    <synapse sourceNeuronName = "2" targetNeuronName = "33" weight = "2.32426762687572" />
    <synapse sourceNeuronName = "2" targetNeuronName = "34" weight = "14.025273837360006" />
    <synapse sourceNeuronName = "2" targetNeuronName = "35" weight = "6.094833851871339" />
    <synapse sourceNeuronName = "2" targetNeuronName = "36" weight = "11.616300708069199" />
    <synapse sourceNeuronName = "2" targetNeuronName = "37" weight = "12.03972080861782" />
    <synapse sourceNeuronName = "2" targetNeuronName = "38" weight = "5.411469327658718" />
    <synapse sourceNeuronName = "2" targetNeuronName = "39" weight = "9.731487357532314" />
    <synapse sourceNeuronName = "2" targetNeuronName = "40" weight = "1.9643539198407516" />
    <synapse sourceNeuronName = "2" targetNeuronName = "41" weight = "10.797099706192673" />
    <synapse sourceNeuronName = "2" targetNeuronName = "42" weight = "6.3550376678183085" />
    <synapse sourceNeuronName = "2" targetNeuronName = "43" weight = "12.797154184336588" />
    <synapse sourceNeuronName = "2" targetNeuronName = "44" weight = "0.05778936700588311" />
    <synapse sourceNeuronName = "2" targetNeuronName = "45" weight = "4.6032404240000275" />
    <synapse sourceNeuronName = "2" targetNeuronName = "46" weight = "21.018326354892118" />
    <synapse sourceNeuronName = "3" targetNeuronName = "18" weight = "8.341888290268777" />
    <synapse sourceNeuronName = "3" targetNeuronName = "19" weight = "9.207582805276019" />
    <synapse sourceNeuronName = "3" targetNeuronName = "20" weight = "11.438489680319591" />
    <synapse sourceNeuronName = "3" targetNeuronName = "21" weight = "22.82509556008278" />
    <synapse sourceNeuronName = "3" targetNeuronName = "22" weight = "2.821621817313387" />
    <synapse sourceNeuronName = "3" targetNeuronName = "23" weight = "19.441135338993696" />
    <synapse sourceNeuronName = "3" targetNeuronName = "24" weight = "8.466697490251224" />
    <synapse sourceNeuronName = "3" targetNeuronName = "25" weight = "24.752838552198973" />
    <synapse sourceNeuronName = "3" targetNeuronName = "26" weight = "4.528997604426444" />
    <synapse sourceNeuronName = "3" targetNeuronName = "27" weight = "25.529122899289572" />
    <synapse sourceNeuronName = "3" targetNeuronName = "28" weight = "2.7385359283166935" />
    <synapse sourceNeuronName = "3" targetNeuronName = "29" weight = "20.884548564398653" />
    <synapse sourceNeuronName = "3" targetNeuronName = "30" weight = "18.236633220070164" />
    <synapse sourceNeuronName = "3" targetNeuronName = "31" weight = "24.320995761272023" />
    <synapse sourceNeuronName = "3" targetNeuronName = "32" weight = "8.211354572403224" />
    <synapse sourceNeuronName = "3" targetNeuronName = "33" weight = "19.163929525238803" />
    <synapse sourceNeuronName = "3" targetNeuronName = "34" weight = "7.213210046819633" />
    <synapse sourceNeuronName = "3" targetNeuronName = "35" weight = "21.786456244476685" />
    <synapse sourceNeuronName = "3" targetNeuronName = "36" weight = "20.665133558720438" />
    <synapse sourceNeuronName = "3" targetNeuronName = "37" weight = "7.359717451194763" />
    <synapse sourceNeuronName = "3" targetNeuronName = "38" weight = "24.761331469835305" />
    <synapse sourceNeuronName = "3" targetNeuronName = "39" weight = "11.93289479193977" />
    <synapse sourceNeuronName = "3" targetNeuronName = "40" weight = "27.221626525020348" />
    <synapse sourceNeuronName = "3" targetNeuronName = "41" weight = "25.30243826708923" />
    <synapse sourceNeuronName = "3" targetNeuronName = "42" weight = "15.456329314848272" />
    <synapse sourceNeuronName = "3" targetNeuronName = "43" weight = "23.85597903140368" />
    <synapse sourceNeuronName = "3" targetNeuronName = "44" weight = "1.6817873940750019" />
    <synapse sourceNeuronName = "3" targetNeuronName = "45" weight = "11.044813658604667" />
    <synapse sourceNeuronName = "3" targetNeuronName = "46" weight = "25.279465326463832" />
    <synapse sourceNeuronName = "4" targetNeuronName = "18" weight = "9.284011804539828" />
    <synapse sourceNeuronName = "4" targetNeuronName = "19" weight = "17.40248118485229" />
    <synapse sourceNeuronName = "4" targetNeuronName = "20" weight = "5.022437396804683" />
    <synapse sourceNeuronName = "4" targetNeuronName = "21" weight = "12.961116863012847" />
    <synapse sourceNeuronName = "4" targetNeuronName = "22" weight = "16.6711547877117" />
    <synapse sourceNeuronName = "4" targetNeuronName = "23" weight = "9.658365258803236" />
    <synapse sourceNeuronName = "4" targetNeuronName = "24" weight = "11.588170651887344" />
    <synapse sourceNeuronName = "4" targetNeuronName = "25" weight = "7.239342864903138" />
    <synapse sourceNeuronName = "4" targetNeuronName = "26" weight = "26.18260166754956" />
    <synapse sourceNeuronName = "4" targetNeuronName = "27" weight = "19.942247742846238" />
    <synapse sourceNeuronName = "4" targetNeuronName = "28" weight = "-0.049368414128146854" />
    <synapse sourceNeuronName = "4" targetNeuronName = "29" weight = "1.9664267022949113" />
    <synapse sourceNeuronName = "4" targetNeuronName = "30" weight = "5.466117641699532" />
    <synapse sourceNeuronName = "4" targetNeuronName = "31" weight = "-0.29389643285285894" />
    <synapse sourceNeuronName = "4" targetNeuronName = "32" weight = "-0.05048682158615192" />
    <synapse sourceNeuronName = "4" targetNeuronName = "33" weight = "10.467819265477733" />
    <synapse sourceNeuronName = "4" targetNeuronName = "34" weight = "22.617213217939344" />
    <synapse sourceNeuronName = "4" targetNeuronName = "35" weight = "21.263659818179462" />
    <synapse sourceNeuronName = "4" targetNeuronName = "36" weight = "-0.198594810873579" />
    <synapse sourceNeuronName = "4" targetNeuronName = "37" weight = "5.502310262674129" />
    <synapse sourceNeuronName = "4" targetNeuronName = "38" weight = "18.669768504506653" />
    <synapse sourceNeuronName = "4" targetNeuronName = "39" weight = "1.5616267194973235" />
    <synapse sourceNeuronName = "4" targetNeuronName = "40" weight = "27.20665305776199" />
    <synapse sourceNeuronName = "4" targetNeuronName = "41" weight = "0.5901583497513312" />
    <synapse sourceNeuronName = "4" targetNeuronName = "42" weight = "8.099261470330761" />
    <synapse sourceNeuronName = "4" targetNeuronName = "43" weight = "7.666654075402851" />
    <synapse sourceNeuronName = "4" targetNeuronName = "44" weight = "16.592856103531282" />
    <synapse sourceNeuronName = "4" targetNeuronName = "45" weight = "3.211553068356457" />
    <synapse sourceNeuronName = "4" targetNeuronName = "46" weight = "26.690511971493045" />
    <synapse sourceNeuronName = "5" targetNeuronName = "18" weight = "5.959854637441973" />
    <synapse sourceNeuronName = "5" targetNeuronName = "19" weight = "9.266606850236997" />
    <synapse sourceNeuronName = "5" targetNeuronName = "20" weight = "17.254987648765344" />
    <synapse sourceNeuronName = "5" targetNeuronName = "21" weight = "26.595008747920886" />
    <synapse sourceNeuronName = "5" targetNeuronName = "22" weight = "20.270878370371992" />
    <synapse sourceNeuronName = "5" targetNeuronName = "23" weight = "5.164201798438789" />
    <synapse sourceNeuronName = "5" targetNeuronName = "24" weight = "0.5266315735554483" />
    <synapse sourceNeuronName = "5" targetNeuronName = "25" weight = "-0.9218906910743884" />
    <synapse sourceNeuronName = "5" targetNeuronName = "26" weight = "2.2343351985854123" />
    <synapse sourceNeuronName = "5" targetNeuronName = "27" weight = "12.461372919927477" />
    <synapse sourceNeuronName = "5" targetNeuronName = "28" weight = "9.352223437669961" />
    <synapse sourceNeuronName = "5" targetNeuronName = "29" weight = "17.19421722820252" />
    <synapse sourceNeuronName = "5" targetNeuronName = "30" weight = "10.279312626890068" />
    <synapse sourceNeuronName = "5" targetNeuronName = "31" weight = "12.700190001696235" />
    <synapse sourceNeuronName = "5" targetNeuronName = "32" weight = "2.9692182080885283" />
    <synapse sourceNeuronName = "5" targetNeuronName = "33" weight = "1.7053467084236567" />
    <synapse sourceNeuronName = "5" targetNeuronName = "34" weight = "27.11665388652541" />
    <synapse sourceNeuronName = "5" targetNeuronName = "35" weight = "4.937187420503818" />
    <synapse sourceNeuronName = "5" targetNeuronName = "36" weight = "9.708900557616245" />
    <synapse sourceNeuronName = "5" targetNeuronName = "37" weight = "18.57042019978497" />
    <synapse sourceNeuronName = "5" targetNeuronName = "38" weight = "16.54525134274972" />
    <synapse sourceNeuronName = "5" targetNeuronName = "39" weight = "10.365765848363633" />
    <synapse sourceNeuronName = "5" targetNeuronName = "40" weight = "16.1931261804033" />
    <synapse sourceNeuronName = "5" targetNeuronName = "41" weight = "9.746381283247018" />
    <synapse sourceNeuronName = "5" targetNeuronName = "42" weight = "4.004272965331332" />
    <synapse sourceNeuronName = "5" targetNeuronName = "43" weight = "21.001147395428823" />
    <synapse sourceNeuronName = "5" targetNeuronName = "44" weight = "9.22585598858598" />
    <synapse sourceNeuronName = "5" targetNeuronName = "45" weight = "14.76654721639777" />
    <synapse sourceNeuronName = "5" targetNeuronName = "46" weight = "18.32129926273997" />
    <synapse sourceNeuronName = "6" targetNeuronName = "18" weight = "0.7211985607417828" />
    <synapse sourceNeuronName = "6" targetNeuronName = "19" weight = "11.94287397542771" />
    <synapse sourceNeuronName = "6" targetNeuronName = "20" weight = "-0.03525758975917914" />
    <synapse sourceNeuronName = "6" targetNeuronName = "21" weight = "9.874641280717919" />
    <synapse sourceNeuronName = "6" targetNeuronName = "22" weight = "16.92018859532032" />
    <synapse sourceNeuronName = "6" targetNeuronName = "23" weight = "9.450114715114594" />
    <synapse sourceNeuronName = "6" targetNeuronName = "24" weight = "7.476875344762526" />
    <synapse sourceNeuronName = "6" targetNeuronName = "25" weight = "14.592232683361258" />
    <synapse sourceNeuronName = "6" targetNeuronName = "26" weight = "25.798975669167184" />
    <synapse sourceNeuronName = "6" targetNeuronName = "27" weight = "7.004503659044353" />
    <synapse sourceNeuronName = "6" targetNeuronName = "28" weight = "21.97026084228402" />
    <synapse sourceNeuronName = "6" targetNeuronName = "29" weight = "16.15130023666106" />
    <synapse sourceNeuronName = "6" targetNeuronName = "30" weight = "20.66356462404167" />
    <synapse sourceNeuronName = "6" targetNeuronName = "31" weight = "21.19903639606447" />
    <synapse sourceNeuronName = "6" targetNeuronName = "32" weight = "2.011092903592734" />
    <synapse sourceNeuronName = "6" targetNeuronName = "33" weight = "19.735863708672433" />
    <synapse sourceNeuronName = "6" targetNeuronName = "34" weight = "15.181038415104354" />
    <synapse sourceNeuronName = "6" targetNeuronName = "35" weight = "26.490097428354876" />
    <synapse sourceNeuronName = "6" targetNeuronName = "36" weight = "14.48189603880185" />
    <synapse sourceNeuronName = "6" targetNeuronName = "37" weight = "22.88963484122227" />
    <synapse sourceNeuronName = "6" targetNeuronName = "38" weight = "26.504776052830145" />
    <synapse sourceNeuronName = "6" targetNeuronName = "39" weight = "13.013882563614574" />
    <synapse sourceNeuronName = "6" targetNeuronName = "40" weight = "14.15182523190621" />
    <synapse sourceNeuronName = "6" targetNeuronName = "41" weight = "9.894616145906916" />
    <synapse sourceNeuronName = "6" targetNeuronName = "42" weight = "23.0331972396147" />
    <synapse sourceNeuronName = "6" targetNeuronName = "43" weight = "0.641375909257095" />
    <synapse sourceNeuronName = "6" targetNeuronName = "44" weight = "14.62405818342436" />
    <synapse sourceNeuronName = "6" targetNeuronName = "45" weight = "19.94025357129429" />
    <synapse sourceNeuronName = "6" targetNeuronName = "46" weight = "12.814393849419242" />
    <synapse sourceNeuronName = "7" targetNeuronName = "18" weight = "24.14195180518489" />
    <synapse sourceNeuronName = "7" targetNeuronName = "19" weight = "5.868990594012747" />
    <synapse sourceNeuronName = "7" targetNeuronName = "20" weight = "9.916571330703622" />
    <synapse sourceNeuronName = "7" targetNeuronName = "21" weight = "12.379894640162428" />
    <synapse sourceNeuronName = "7" targetNeuronName = "22" weight = "24.155842686233072" />
    <synapse sourceNeuronName = "7" targetNeuronName = "23" weight = "8.108330247636026" />
    <synapse sourceNeuronName = "7" targetNeuronName = "24" weight = "3.336265468678266" />
    <synapse sourceNeuronName = "7" targetNeuronName = "25" weight = "14.41626707552361" />
    <synapse sourceNeuronName = "7" targetNeuronName = "26" weight = "6.478033907573141" />
    <synapse sourceNeuronName = "7" targetNeuronName = "27" weight = "16.58327508270172" />
    <synapse sourceNeuronName = "7" targetNeuronName = "28" weight = "14.373683835080028" />
    <synapse sourceNeuronName = "7" targetNeuronName = "29" weight = "-0.6727055420060029" />
    <synapse sourceNeuronName = "7" targetNeuronName = "30" weight = "14.825399284667727" />
    <synapse sourceNeuronName = "7" targetNeuronName = "31" weight = "24.598386077593243" />
    <synapse sourceNeuronName = "7" targetNeuronName = "32" weight = "26.29536069611032" />
    <synapse sourceNeuronName = "7" targetNeuronName = "33" weight = "16.61539452022619" />
    <synapse sourceNeuronName = "7" targetNeuronName = "34" weight = "20.863667622674594" />
    <synapse sourceNeuronName = "7" targetNeuronName = "35" weight = "13.242746885687506" />
    <synapse sourceNeuronName = "7" targetNeuronName = "36" weight = "18.30446404914361" />
    <synapse sourceNeuronName = "7" targetNeuronName = "37" weight = "12.451104863772251" />
    <synapse sourceNeuronName = "7" targetNeuronName = "38" weight = "17.876375701160992" />
    <synapse sourceNeuronName = "7" targetNeuronName = "39" weight = "22.24477306360759" />
    <synapse sourceNeuronName = "7" targetNeuronName = "40" weight = "21.061343850688726" />
    <synapse sourceNeuronName = "7" targetNeuronName = "41" weight = "22.749297383689377" />
    <synapse sourceNeuronName = "7" targetNeuronName = "42" weight = "13.653015564462704" />
    <synapse sourceNeuronName = "7" targetNeuronName = "43" weight = "12.75895530509496" />
    <synapse sourceNeuronName = "7" targetNeuronName = "44" weight = "0.5636651711369787" />
    <synapse sourceNeuronName = "7" targetNeuronName = "45" weight = "5.785024152478928" />
    <synapse sourceNeuronName = "7" targetNeuronName = "46" weight = "26.095796525006804" />
    <synapse sourceNeuronName = "8" targetNeuronName = "18" weight = "1.3355598302726355" />
    <synapse sourceNeuronName = "8" targetNeuronName = "19" weight = "6.853551591003098" />
    <synapse sourceNeuronName = "8" targetNeuronName = "20" weight = "4.11756518413759" />
    <synapse sourceNeuronName = "8" targetNeuronName = "21" weight = "22.720014133337635" />
    <synapse sourceNeuronName = "8" targetNeuronName = "22" weight = "-0.9797763820740133" />
    <synapse sourceNeuronName = "8" targetNeuronName = "23" weight = "21.71185205453464" />
    <synapse sourceNeuronName = "8" targetNeuronName = "24" weight = "14.141511629834648" />
    <synapse sourceNeuronName = "8" targetNeuronName = "25" weight = "16.669971131850254" />
    <synapse sourceNeuronName = "8" targetNeuronName = "26" weight = "1.8164683433835216" />
    <synapse sourceNeuronName = "8" targetNeuronName = "27" weight = "6.996561965893681" />
    <synapse sourceNeuronName = "8" targetNeuronName = "28" weight = "11.382540019014163" />
    <synapse sourceNeuronName = "8" targetNeuronName = "29" weight = "18.21030888270245" />
    <synapse sourceNeuronName = "8" targetNeuronName = "30" weight = "15.18356285971679" />
    <synapse sourceNeuronName = "8" targetNeuronName = "31" weight = "14.816312617775113" />
    <synapse sourceNeuronName = "8" targetNeuronName = "32" weight = "-0.08368399667627291" />
    <synapse sourceNeuronName = "8" targetNeuronName = "33" weight = "7.137223864592345" />
    <synapse sourceNeuronName = "8" targetNeuronName = "34" weight = "27.358896733920904" />
    <synapse sourceNeuronName = "8" targetNeuronName = "35" weight = "27.781204119940522" />
    <synapse sourceNeuronName = "8" targetNeuronName = "36" weight = "9.673534262126923" />
    <synapse sourceNeuronName = "8" targetNeuronName = "37" weight = "23.12237489167838" />
    <synapse sourceNeuronName = "8" targetNeuronName = "38" weight = "4.049945027930641" />
    <synapse sourceNeuronName = "8" targetNeuronName = "39" weight = "14.774386759746235" />
    <synapse sourceNeuronName = "8" targetNeuronName = "40" weight = "16.754626465547464" />
    <synapse sourceNeuronName = "8" targetNeuronName = "41" weight = "18.400590681133632" />
    <synapse sourceNeuronName = "8" targetNeuronName = "42" weight = "4.485022947908203" />
    <synapse sourceNeuronName = "8" targetNeuronName = "43" weight = "10.835408667683417" />
    <synapse sourceNeuronName = "8" targetNeuronName = "44" weight = "22.404271895030618" />
    <synapse sourceNeuronName = "8" targetNeuronName = "45" weight = "25.586785066150657" />
    <synapse sourceNeuronName = "8" targetNeuronName = "46" weight = "7.649193339113021" />
    <synapse sourceNeuronName = "9" targetNeuronName = "18" weight = "20.202842101393355" />
    <synapse sourceNeuronName = "9" targetNeuronName = "19" weight = "7.882088294237759" />
    <synapse sourceNeuronName = "9" targetNeuronName = "20" weight = "12.386711170871164" />
    <synapse sourceNeuronName = "9" targetNeuronName = "21" weight = "24.303334173658932" />
    <synapse sourceNeuronName = "9" targetNeuronName = "22" weight = "12.812563119600583" />
    <synapse sourceNeuronName = "9" targetNeuronName = "23" weight = "4.185791917964018" />
    <synapse sourceNeuronName = "9" targetNeuronName = "24" weight = "9.297385297622956" />
    <synapse sourceNeuronName = "9" targetNeuronName = "25" weight = "27.315800916896894" />
    <synapse sourceNeuronName = "9" targetNeuronName = "26" weight = "5.4766587484057405" />
    <synapse sourceNeuronName = "9" targetNeuronName = "27" weight = "8.888798365906204" />
    <synapse sourceNeuronName = "9" targetNeuronName = "28" weight = "2.1316973272891455" />
    <synapse sourceNeuronName = "9" targetNeuronName = "29" weight = "-0.7011023872091275" />
    <synapse sourceNeuronName = "9" targetNeuronName = "30" weight = "20.551212748308302" />
    <synapse sourceNeuronName = "9" targetNeuronName = "31" weight = "4.2524822220121505" />
    <synapse sourceNeuronName = "9" targetNeuronName = "32" weight = "8.385902058165575" />
    <synapse sourceNeuronName = "9" targetNeuronName = "33" weight = "11.00271739734426" />
    <synapse sourceNeuronName = "9" targetNeuronName = "34" weight = "13.43933834265433" />
    <synapse sourceNeuronName = "9" targetNeuronName = "35" weight = "23.97735815801881" />
    <synapse sourceNeuronName = "9" targetNeuronName = "36" weight = "25.481120793451637" />
    <synapse sourceNeuronName = "9" targetNeuronName = "37" weight = "14.601351847361105" />
    <synapse sourceNeuronName = "9" targetNeuronName = "38" weight = "8.1849449567043" />
    <synapse sourceNeuronName = "9" targetNeuronName = "39" weight = "8.040855747504326" />
    <synapse sourceNeuronName = "9" targetNeuronName = "40" weight = "20.216210261058517" />
    <synapse sourceNeuronName = "9" targetNeuronName = "41" weight = "15.149051867607309" />
    <synapse sourceNeuronName = "9" targetNeuronName = "42" weight = "11.5091512387751" />
    <synapse sourceNeuronName = "9" targetNeuronName = "43" weight = "25.145233672890967" />
    <synapse sourceNeuronName = "9" targetNeuronName = "44" weight = "1.5214512682466577" />
    <synapse sourceNeuronName = "9" targetNeuronName = "45" weight = "12.500862136690854" />
    <synapse sourceNeuronName = "9" targetNeuronName = "46" weight = "26.82894217295961" />
    <synapse sourceNeuronName = "10" targetNeuronName = "18" weight = "22.800029674023488" />
    <synapse sourceNeuronName = "10" targetNeuronName = "19" weight = "15.496595232391854" />
    <synapse sourceNeuronName = "10" targetNeuronName = "20" weight = "5.775948256660487" />
    <synapse sourceNeuronName = "10" targetNeuronName = "21" weight = "9.638338261488652" />
    <synapse sourceNeuronName = "10" targetNeuronName = "22" weight = "8.406540764283314" />
    <synapse sourceNeuronName = "10" targetNeuronName = "23" weight = "7.724720350755078" />
    <synapse sourceNeuronName = "10" targetNeuronName = "24" weight = "22.913142945122562" />
    <synapse sourceNeuronName = "10" targetNeuronName = "25" weight = "25.71422650448237" />
    <synapse sourceNeuronName = "10" targetNeuronName = "26" weight = "13.005646929071851" />
    <synapse sourceNeuronName = "10" targetNeuronName = "27" weight = "12.799431031749778" />
    <synapse sourceNeuronName = "10" targetNeuronName = "28" weight = "26.218780764011072" />
    <synapse sourceNeuronName = "10" targetNeuronName = "29" weight = "27.78350169278736" />
    <synapse sourceNeuronName = "10" targetNeuronName = "30" weight = "4.3536934618849115" />
    <synapse sourceNeuronName = "10" targetNeuronName = "31" weight = "1.9400069869432475" />
    <synapse sourceNeuronName = "10" targetNeuronName = "32" weight = "18.151231242777385" />
    <synapse sourceNeuronName = "10" targetNeuronName = "33" weight = "6.792296635991697" />
    <synapse sourceNeuronName = "10" targetNeuronName = "34" weight = "3.3314111007261635" />
    <synapse sourceNeuronName = "10" targetNeuronName = "35" weight = "-0.5105937693776145" />
    <synapse sourceNeuronName = "10" targetNeuronName = "36" weight = "10.453986883134531" />
    <synapse sourceNeuronName = "10" targetNeuronName = "37" weight = "13.220731613631223" />
    <synapse sourceNeuronName = "10" targetNeuronName = "38" weight = "17.075361925010778" />
    <synapse sourceNeuronName = "10" targetNeuronName = "39" weight = "9.98404488937195" />
    <synapse sourceNeuronName = "10" targetNeuronName = "40" weight = "2.722636337737586" />
    <synapse sourceNeuronName = "10" targetNeuronName = "41" weight = "5.910781217730937" />
    <synapse sourceNeuronName = "10" targetNeuronName = "42" weight = "13.099936500426223" />
    <synapse sourceNeuronName = "10" targetNeuronName = "43" weight = "20.062990900809954" />
    <synapse sourceNeuronName = "10" targetNeuronName = "44" weight = "26.417065220833816" />
    <synapse sourceNeuronName = "10" targetNeuronName = "45" weight = "17.07018901082707" />
    <synapse sourceNeuronName = "10" targetNeuronName = "46" weight = "8.450288325253384" />
    <synapse sourceNeuronName = "11" targetNeuronName = "18" weight = "14.694722556185916" />
    <synapse sourceNeuronName = "11" targetNeuronName = "19" weight = "-0.8893238196973359" />
    <synapse sourceNeuronName = "11" targetNeuronName = "20" weight = "8.394072968556614" />
    <synapse sourceNeuronName = "11" targetNeuronName = "21" weight = "27.071168591744037" />
    <synapse sourceNeuronName = "11" targetNeuronName = "22" weight = "12.43898563309409" />
    <synapse sourceNeuronName = "11" targetNeuronName = "23" weight = "10.311840376469313" />
    <synapse sourceNeuronName = "11" targetNeuronName = "24" weight = "1.2972366084931126" />
    <synapse sourceNeuronName = "11" targetNeuronName = "25" weight = "17.22617947885836" />
    <synapse sourceNeuronName = "11" targetNeuronName = "26" weight = "4.105957165822083" />
    <synapse sourceNeuronName = "11" targetNeuronName = "27" weight = "-0.7801796722746881" />
    <synapse sourceNeuronName = "11" targetNeuronName = "28" weight = "13.22353881019993" />
    <synapse sourceNeuronName = "11" targetNeuronName = "29" weight = "10.508943585002807" />
    <synapse sourceNeuronName = "11" targetNeuronName = "30" weight = "16.691536652119527" />
    <synapse sourceNeuronName = "11" targetNeuronName = "31" weight = "13.21420995922474" />
    <synapse sourceNeuronName = "11" targetNeuronName = "32" weight = "13.369631082753214" />
    <synapse sourceNeuronName = "11" targetNeuronName = "33" weight = "6.593831246530522" />
    <synapse sourceNeuronName = "11" targetNeuronName = "34" weight = "6.405774870367392" />
    <synapse sourceNeuronName = "11" targetNeuronName = "35" weight = "17.02539353502274" />
    <synapse sourceNeuronName = "11" targetNeuronName = "36" weight = "27.736163433450876" />
    <synapse sourceNeuronName = "11" targetNeuronName = "37" weight = "1.4206482389509882" />
    <synapse sourceNeuronName = "11" targetNeuronName = "38" weight = "26.681781385640786" />
    <synapse sourceNeuronName = "11" targetNeuronName = "39" weight = "2.0036401993111097" />
    <synapse sourceNeuronName = "11" targetNeuronName = "40" weight = "13.391672067181778" />
    <synapse sourceNeuronName = "11" targetNeuronName = "41" weight = "14.20532170291783" />
    <synapse sourceNeuronName = "11" targetNeuronName = "42" weight = "16.71130367870484" />
    <synapse sourceNeuronName = "11" targetNeuronName = "43" weight = "4.985869757412561" />
    <synapse sourceNeuronName = "11" targetNeuronName = "44" weight = "10.01194467097801" />
    <synapse sourceNeuronName = "11" targetNeuronName = "45" weight = "-0.8997694944993212" />
    <synapse sourceNeuronName = "11" targetNeuronName = "46" weight = "19.143113916749616" />
    <synapse sourceNeuronName = "12" targetNeuronName = "18" weight = "6.369172588592029" />
    <synapse sourceNeuronName = "12" targetNeuronName = "19" weight = "4.3384817572641" />
    <synapse sourceNeuronName = "12" targetNeuronName = "20" weight = "25.76103106510275" />
    <synapse sourceNeuronName = "12" targetNeuronName = "21" weight = "18.263530452160943" />
    <synapse sourceNeuronName = "12" targetNeuronName = "22" weight = "-0.8368883076350543" />
    <synapse sourceNeuronName = "12" targetNeuronName = "23" weight = "10.033837182934388" />
    <synapse sourceNeuronName = "12" targetNeuronName = "24" weight = "1.6175244584984316" />
    <synapse sourceNeuronName = "12" targetNeuronName = "25" weight = "27.00062018268472" />
    <synapse sourceNeuronName = "12" targetNeuronName = "26" weight = "1.8663704001013732" />
    <synapse sourceNeuronName = "12" targetNeuronName = "27" weight = "3.805116726201782" />
    <synapse sourceNeuronName = "12" targetNeuronName = "28" weight = "14.325719711882337" />
    <synapse sourceNeuronName = "12" targetNeuronName = "29" weight = "18.450593803754316" />
    <synapse sourceNeuronName = "12" targetNeuronName = "30" weight = "13.261891042153849" />
    <synapse sourceNeuronName = "12" targetNeuronName = "31" weight = "5.652525599751202" />
    <synapse sourceNeuronName = "12" targetNeuronName = "32" weight = "21.208646094924077" />
    <synapse sourceNeuronName = "12" targetNeuronName = "33" weight = "14.057591160261948" />
    <synapse sourceNeuronName = "12" targetNeuronName = "34" weight = "19.72471907557923" />
    <synapse sourceNeuronName = "12" targetNeuronName = "35" weight = "4.8272916689434755" />
    <synapse sourceNeuronName = "12" targetNeuronName = "36" weight = "17.22553166948444" />
    <synapse sourceNeuronName = "12" targetNeuronName = "37" weight = "12.87498664450023" />
    <synapse sourceNeuronName = "12" targetNeuronName = "38" weight = "17.23915930179981" />
    <synapse sourceNeuronName = "12" targetNeuronName = "39" weight = "7.977026537190888" />
    <synapse sourceNeuronName = "12" targetNeuronName = "40" weight = "19.50170073262859" />
    <synapse sourceNeuronName = "12" targetNeuronName = "41" weight = "15.549366732613223" />
    <synapse sourceNeuronName = "12" targetNeuronName = "42" weight = "14.845832569702416" />
    <synapse sourceNeuronName = "12" targetNeuronName = "43" weight = "14.4409478779287" />
    <synapse sourceNeuronName = "12" targetNeuronName = "44" weight = "14.275567953370535" />
    <synapse sourceNeuronName = "12" targetNeuronName = "45" weight = "13.425934178371028" />
    <synapse sourceNeuronName = "12" targetNeuronName = "46" weight = "13.885630961937583" />
    <synapse sourceNeuronName = "13" targetNeuronName = "18" weight = "6.033074199682603" />
    <synapse sourceNeuronName = "13" targetNeuronName = "19" weight = "11.319103211687182" />
    <synapse sourceNeuronName = "13" targetNeuronName = "20" weight = "-0.049707093621776055" />
    <synapse sourceNeuronName = "13" targetNeuronName = "21" weight = "26.891662614088915" />
    <synapse sourceNeuronName = "13" targetNeuronName = "22" weight = "18.125449967939854" />
    <synapse sourceNeuronName = "13" targetNeuronName = "23" weight = "25.228314512906746" />
    <synapse sourceNeuronName = "13" targetNeuronName = "24" weight = "4.965168200830889" />
    <synapse sourceNeuronName = "13" targetNeuronName = "25" weight = "10.175062048389577" />
    <synapse sourceNeuronName = "13" targetNeuronName = "26" weight = "15.376892708795317" />
    <synapse sourceNeuronName = "13" targetNeuronName = "27" weight = "27.09714350881551" />
    <synapse sourceNeuronName = "13" targetNeuronName = "28" weight = "27.230024084996675" />
    <synapse sourceNeuronName = "13" targetNeuronName = "29" weight = "6.6701831003591625" />
    <synapse sourceNeuronName = "13" targetNeuronName = "30" weight = "1.245165443129598" />
    <synapse sourceNeuronName = "13" targetNeuronName = "31" weight = "-0.5132724737242951" />
    <synapse sourceNeuronName = "13" targetNeuronName = "32" weight = "21.152226512976867" />
    <synapse sourceNeuronName = "13" targetNeuronName = "33" weight = "14.991806869074246" />
    <synapse sourceNeuronName = "13" targetNeuronName = "34" weight = "12.890104561167853" />
    <synapse sourceNeuronName = "13" targetNeuronName = "35" weight = "4.787891060917637" />
    <synapse sourceNeuronName = "13" targetNeuronName = "36" weight = "20.088406876679397" />
    <synapse sourceNeuronName = "13" targetNeuronName = "37" weight = "16.717838272796616" />
    <synapse sourceNeuronName = "13" targetNeuronName = "38" weight = "17.852230051192986" />
    <synapse sourceNeuronName = "13" targetNeuronName = "39" weight = "7.314563255792834" />
    <synapse sourceNeuronName = "13" targetNeuronName = "40" weight = "24.567693541738013" />
    <synapse sourceNeuronName = "13" targetNeuronName = "41" weight = "20.281084166000106" />
    <synapse sourceNeuronName = "13" targetNeuronName = "42" weight = "1.010873492620251" />
    <synapse sourceNeuronName = "13" targetNeuronName = "43" weight = "17.38012568818654" />
    <synapse sourceNeuronName = "13" targetNeuronName = "44" weight = "-0.6045392075508037" />
    <synapse sourceNeuronName = "13" targetNeuronName = "45" weight = "17.84273638939084" />
    <synapse sourceNeuronName = "13" targetNeuronName = "46" weight = "12.331968006971419" />
    <synapse sourceNeuronName = "14" targetNeuronName = "18" weight = "3.5389912353154394" />
    <synapse sourceNeuronName = "14" targetNeuronName = "19" weight = "7.205330095545563" />
    <synapse sourceNeuronName = "14" targetNeuronName = "20" weight = "14.866737913176967" />
    <synapse sourceNeuronName = "14" targetNeuronName = "21" weight = "22.825338009625217" />
    <synapse sourceNeuronName = "14" targetNeuronName = "22" weight = "13.209530644928837" />
    <synapse sourceNeuronName = "14" targetNeuronName = "23" weight = "8.75505188041069" />
    <synapse sourceNeuronName = "14" targetNeuronName = "24" weight = "18.296032258566093" />
    <synapse sourceNeuronName = "14" targetNeuronName = "25" weight = "14.43017090795215" />
    <synapse sourceNeuronName = "14" targetNeuronName = "26" weight = "2.3199880736427785" />
    <synapse sourceNeuronName = "14" targetNeuronName = "27" weight = "17.94172833123172" />
    <synapse sourceNeuronName = "14" targetNeuronName = "28" weight = "14.165781595621906" />
    <synapse sourceNeuronName = "14" targetNeuronName = "29" weight = "1.4867605819233858" />
    <synapse sourceNeuronName = "14" targetNeuronName = "30" weight = "18.02219340198896" />
    <synapse sourceNeuronName = "14" targetNeuronName = "31" weight = "7.189211787090718" />
    <synapse sourceNeuronName = "14" targetNeuronName = "32" weight = "12.13317856204402" />
    <synapse sourceNeuronName = "14" targetNeuronName = "33" weight = "0.7583613792029955" />
    <synapse sourceNeuronName = "14" targetNeuronName = "34" weight = "22.01639792209421" />
    <synapse sourceNeuronName = "14" targetNeuronName = "35" weight = "5.7348900093929345" />
    <synapse sourceNeuronName = "14" targetNeuronName = "36" weight = "15.858065785301559" />
    <synapse sourceNeuronName = "14" targetNeuronName = "37" weight = "7.7577994267091075" />
    <synapse sourceNeuronName = "14" targetNeuronName = "38" weight = "19.20563683933311" />
    <synapse sourceNeuronName = "14" targetNeuronName = "39" weight = "22.230849363837358" />
    <synapse sourceNeuronName = "14" targetNeuronName = "40" weight = "8.775080290116705" />
    <synapse sourceNeuronName = "14" targetNeuronName = "41" weight = "19.431663698100788" />
    <synapse sourceNeuronName = "14" targetNeuronName = "42" weight = "22.172732372222306" />
    <synapse sourceNeuronName = "14" targetNeuronName = "43" weight = "18.650661465134423" />
    <synapse sourceNeuronName = "14" targetNeuronName = "44" weight = "15.24380876550308" />
    <synapse sourceNeuronName = "14" targetNeuronName = "45" weight = "17.759298449224698" />
    <synapse sourceNeuronName = "14" targetNeuronName = "46" weight = "20.718463198022413" />
    <synapse sourceNeuronName = "15" targetNeuronName = "18" weight = "2.422450515215081" />
    <synapse sourceNeuronName = "15" targetNeuronName = "19" weight = "21.335249518582494" />
    <synapse sourceNeuronName = "15" targetNeuronName = "20" weight = "7.937418824213195" />
    <synapse sourceNeuronName = "15" targetNeuronName = "21" weight = "2.3068442551420585" />
    <synapse sourceNeuronName = "15" targetNeuronName = "22" weight = "3.097470516996874" />
    <synapse sourceNeuronName = "15" targetNeuronName = "23" weight = "8.403854618072417" />
    <synapse sourceNeuronName = "15" targetNeuronName = "24" weight = "0.1567331732856152" />
    <synapse sourceNeuronName = "15" targetNeuronName = "25" weight = "7.634052581556167" />
    <synapse sourceNeuronName = "15" targetNeuronName = "26" weight = "2.829720145772008" />
    <synapse sourceNeuronName = "15" targetNeuronName = "27" weight = "8.092449376185236" />
    <synapse sourceNeuronName = "15" targetNeuronName = "28" weight = "13.698534074161264" />
    <synapse sourceNeuronName = "15" targetNeuronName = "29" weight = "5.197694158246556" />
    <synapse sourceNeuronName = "15" targetNeuronName = "30" weight = "22.971784443767593" />
    <synapse sourceNeuronName = "15" targetNeuronName = "31" weight = "26.039246460944916" />
    <synapse sourceNeuronName = "15" targetNeuronName = "32" weight = "24.847905018126426" />
    <synapse sourceNeuronName = "15" targetNeuronName = "33" weight = "22.47563249980518" />
    <synapse sourceNeuronName = "15" targetNeuronName = "34" weight = "16.898485363586833" />
    <synapse sourceNeuronName = "15" targetNeuronName = "35" weight = "12.334511116158197" />
    <synapse sourceNeuronName = "15" targetNeuronName = "36" weight = "16.982309140541975" />
    <synapse sourceNeuronName = "15" targetNeuronName = "37" weight = "22.050079093703236" />
    <synapse sourceNeuronName = "15" targetNeuronName = "38" weight = "-0.5912437453145397" />
    <synapse sourceNeuronName = "15" targetNeuronName = "39" weight = "22.227359132734314" />
    <synapse sourceNeuronName = "15" targetNeuronName = "40" weight = "2.94943413862131" />
    <synapse sourceNeuronName = "15" targetNeuronName = "41" weight = "10.923767791652175" />
    <synapse sourceNeuronName = "15" targetNeuronName = "42" weight = "13.06613288218416" />
    <synapse sourceNeuronName = "15" targetNeuronName = "43" weight = "9.900447765325675" />
    <synapse sourceNeuronName = "15" targetNeuronName = "44" weight = "-0.1454326079489502" />
    <synapse sourceNeuronName = "15" targetNeuronName = "45" weight = "23.319893676853173" />
    <synapse sourceNeuronName = "15" targetNeuronName = "46" weight = "15.35210800617978" />
    <synapse sourceNeuronName = "16" targetNeuronName = "18" weight = "7.387913713648999" />
    <synapse sourceNeuronName = "16" targetNeuronName = "19" weight = "19.195717780281864" />
    <synapse sourceNeuronName = "16" targetNeuronName = "20" weight = "26.218080350502767" />
    <synapse sourceNeuronName = "16" targetNeuronName = "21" weight = "4.170129946404812" />
    <synapse sourceNeuronName = "16" targetNeuronName = "22" weight = "-0.9941037986077788" />
    <synapse sourceNeuronName = "16" targetNeuronName = "23" weight = "27.04412748418605" />
    <synapse sourceNeuronName = "16" targetNeuronName = "24" weight = "5.801230381630985" />
    <synapse sourceNeuronName = "16" targetNeuronName = "25" weight = "3.8873083634383576" />
    <synapse sourceNeuronName = "16" targetNeuronName = "26" weight = "5.616233777240279" />
    <synapse sourceNeuronName = "16" targetNeuronName = "27" weight = "8.640098039894266" />
    <synapse sourceNeuronName = "16" targetNeuronName = "28" weight = "27.832732445519987" />
    <synapse sourceNeuronName = "16" targetNeuronName = "29" weight = "14.378576889947645" />
    <synapse sourceNeuronName = "16" targetNeuronName = "30" weight = "27.457949494973814" />
    <synapse sourceNeuronName = "16" targetNeuronName = "31" weight = "19.820452744858606" />
    <synapse sourceNeuronName = "16" targetNeuronName = "32" weight = "2.91021808754275" />
    <synapse sourceNeuronName = "16" targetNeuronName = "33" weight = "1.4930809585645939" />
    <synapse sourceNeuronName = "16" targetNeuronName = "34" weight = "10.714988242039537" />
    <synapse sourceNeuronName = "16" targetNeuronName = "35" weight = "20.988289096859937" />
    <synapse sourceNeuronName = "16" targetNeuronName = "36" weight = "11.321397944463888" />
    <synapse sourceNeuronName = "16" targetNeuronName = "37" weight = "6.489378408636183" />
    <synapse sourceNeuronName = "16" targetNeuronName = "38" weight = "13.41867207913505" />
    <synapse sourceNeuronName = "16" targetNeuronName = "39" weight = "15.174508638994244" />
    <synapse sourceNeuronName = "16" targetNeuronName = "40" weight = "17.014206045676747" />
    <synapse sourceNeuronName = "16" targetNeuronName = "41" weight = "21.688866447108307" />
    <synapse sourceNeuronName = "16" targetNeuronName = "42" weight = "25.573798819513414" />
    <synapse sourceNeuronName = "16" targetNeuronName = "43" weight = "20.591555586074545" />
    <synapse sourceNeuronName = "16" targetNeuronName = "44" weight = "2.6221558666407403" />
    <synapse sourceNeuronName = "16" targetNeuronName = "45" weight = "2.728223069851302" />
    <synapse sourceNeuronName = "16" targetNeuronName = "46" weight = "23.54792254289045" />
    <synapse sourceNeuronName = "17" targetNeuronName = "18" weight = "26.8480241395405" />
    <synapse sourceNeuronName = "17" targetNeuronName = "19" weight = "11.74430902127031" />
    <synapse sourceNeuronName = "17" targetNeuronName = "20" weight = "19.21401733291088" />
    <synapse sourceNeuronName = "17" targetNeuronName = "21" weight = "5.983356249171155" />
    <synapse sourceNeuronName = "17" targetNeuronName = "22" weight = "1.978818329660672" />
    <synapse sourceNeuronName = "17" targetNeuronName = "23" weight = "21.45187371935168" />
    <synapse sourceNeuronName = "17" targetNeuronName = "24" weight = "-0.5169703437395973" />
    <synapse sourceNeuronName = "17" targetNeuronName = "25" weight = "19.008164059482493" />
    <synapse sourceNeuronName = "17" targetNeuronName = "26" weight = "9.596773388690053" />
    <synapse sourceNeuronName = "17" targetNeuronName = "27" weight = "4.190304116356528" />
    <synapse sourceNeuronName = "17" targetNeuronName = "28" weight = "19.061844075381252" />
    <synapse sourceNeuronName = "17" targetNeuronName = "29" weight = "16.450634712349718" />
    <synapse sourceNeuronName = "17" targetNeuronName = "30" weight = "15.121737445587119" />
    <synapse sourceNeuronName = "17" targetNeuronName = "31" weight = "6.045090183298869" />
    <synapse sourceNeuronName = "17" targetNeuronName = "32" weight = "5.429524783056149" />
    <synapse sourceNeuronName = "17" targetNeuronName = "33" weight = "18.914117395382693" />
    <synapse sourceNeuronName = "17" targetNeuronName = "34" weight = "24.630629201859737" />
    <synapse sourceNeuronName = "17" targetNeuronName = "35" weight = "19.74991468296971" />
    <synapse sourceNeuronName = "17" targetNeuronName = "36" weight = "15.55923650216419" />
    <synapse sourceNeuronName = "17" targetNeuronName = "37" weight = "24.73966868006322" />
    <synapse sourceNeuronName = "17" targetNeuronName = "38" weight = "27.219265839233515" />
    <synapse sourceNeuronName = "17" targetNeuronName = "39" weight = "22.624469724134777" />
    <synapse sourceNeuronName = "17" targetNeuronName = "40" weight = "21.295510513988432" />
    <synapse sourceNeuronName = "17" targetNeuronName = "41" weight = "22.86318989957297" />
    <synapse sourceNeuronName = "17" targetNeuronName = "42" weight = "5.319169114305182" />
    <synapse sourceNeuronName = "17" targetNeuronName = "43" weight = "7.8475297705887375" />
    <synapse sourceNeuronName = "17" targetNeuronName = "44" weight = "27.111913750434464" />
    <synapse sourceNeuronName = "17" targetNeuronName = "45" weight = "11.232618381052974" />
    <synapse sourceNeuronName = "17" targetNeuronName = "46" weight = "25.791672507008386" />
</neuralNetwork>