<neuralNetwork>
    <neuron name = "0" type = "sensor" linkName = "Torso" />
    <neuron name = "1" type = "sensor" linkName = "Leg3" />
    <neuron name = "2" type = "sensor" linkName = "Leg4" />
    <neuron name = "3" type = "sensor" linkName = "Leg7" />
    <neuron name = "4" type = "sensor" linkName = "Leg9" />
    <neuron name = "5" type = "sensor" linkName = "Leg10" />
    <neuron name = "6" type = "sensor" linkName = "Leg11" />
    <neuron name = "7" type = "sensor" linkName = "Leg12" />
    <neuron name = "8" type = "sensor" linkName = "Leg13" />
    <neuron name = "9" type = "sensor" linkName = "Leg14" />
    <neuron name = "10" type = "sensor" linkName = "Leg15" />
    <neuron name = "11" type = "sensor" linkName = "Leg16" />
    <neuron name = "12" type = "sensor" linkName = "Leg18" />
    <neuron name = "13" type = "sensor" linkName = "Leg19" />
    <neuron name = "14" type = "sensor" linkName = "Leg20" />
    <neuron name = "15" type = "sensor" linkName = "Leg22" />
    <neuron name = "16" type = "sensor" linkName = "Leg23" />
    <neuron name = "17" type = "sensor" linkName = "Leg24" />
    <neuron name = "18" type = "sensor" linkName = "Leg25" />
    <neuron name = "19" type = "motor"  jointName = "Torso_Leg1" />
    <neuron name = "20" type = "motor"  jointName = "Leg1_Leg2" />
    <neuron name = "21" type = "motor"  jointName = "Leg1_Leg3" />
    <neuron name = "22" type = "motor"  jointName = "Leg3_Leg4" />
    <neuron name = "23" type = "motor"  jointName = "Leg2_Leg5" />
    <neuron name = "24" type = "motor"  jointName = "Torso_Leg6" />
    <neuron name = "25" type = "motor"  jointName = "Leg6_Leg7" />
    <neuron name = "26" type = "motor"  jointName = "Leg4_Leg8" />
    <neuron name = "27" type = "motor"  jointName = "Leg6_Leg9" />
    <neuron name = "28" type = "motor"  jointName = "Leg5_Leg10" />
    <neuron name = "29" type = "motor"  jointName = "Leg5_Leg11" />
    <neuron name = "30" type = "motor"  jointName = "Leg11_Leg12" />
    <neuron name = "31" type = "motor"  jointName = "Leg3_Leg13" />
    <neuron name = "32" type = "motor"  jointName = "Leg9_Leg14" />
    <neuron name = "33" type = "motor"  jointName = "Leg12_Leg15" />
    <neuron name = "34" type = "motor"  jointName = "Leg14_Leg16" />
    <neuron name = "35" type = "motor"  jointName = "Leg15_Leg17" />
    <neuron name = "36" type = "motor"  jointName = "Leg9_Leg18" />
    <neuron name = "37" type = "motor"  jointName = "Leg17_Leg19" />
    <neuron name = "38" type = "motor"  jointName = "Leg10_Leg20" />
    <neuron name = "39" type = "motor"  jointName = "Leg19_Leg21" />
    <neuron name = "40" type = "motor"  jointName = "Leg15_Leg22" />
    <neuron name = "41" type = "motor"  jointName = "Leg13_Leg23" />
    <neuron name = "42" type = "motor"  jointName = "Leg11_Leg24" />
    <neuron name = "43" type = "motor"  jointName = "Leg7_Leg25" />
    <neuron name = "44" type = "motor"  jointName = "Leg24_Leg26" />
    <neuron name = "45" type = "motor"  jointName = "Leg4_Leg27" />
    <synapse sourceNeuronName = "0" targetNeuronName = "19" weight = "15.85017188689756" />
    <synapse sourceNeuronName = "0" targetNeuronName = "20" weight = "17.215378675497956" />
    <synapse sourceNeuronName = "0" targetNeuronName = "21" weight = "18.945094836090075" />
    <synapse sourceNeuronName = "0" targetNeuronName = "22" weight = "2.7100874615240835" />
    <synapse sourceNeuronName = "0" targetNeuronName = "23" weight = "18.264721809449796" />
    <synapse sourceNeuronName = "0" targetNeuronName = "24" weight = "17.808349388505974" />
    <synapse sourceNeuronName = "0" targetNeuronName = "25" weight = "13.438206240655125" />
    <synapse sourceNeuronName = "0" targetNeuronName = "26" weight = "9.272794603358975" />
    <synapse sourceNeuronName = "0" targetNeuronName = "27" weight = "4.627092524945601" />
    <synapse sourceNeuronName = "0" targetNeuronName = "28" weight = "21.806813017860435" />
    <synapse sourceNeuronName = "0" targetNeuronName = "29" weight = "21.173588239910536" />
    <synapse sourceNeuronName = "0" targetNeuronName = "30" weight = "23.83873598418503" />
    <synapse sourceNeuronName = "0" targetNeuronName = "31" weight = "6.602613563908806" />
    <synapse sourceNeuronName = "0" targetNeuronName = "32" weight = "7.558438703258469" />
    <synapse sourceNeuronName = "0" targetNeuronName = "33" weight = "17.45083951036355" />
    <synapse sourceNeuronName = "0" targetNeuronName = "34" weight = "1.0395788059816473" />
    <synapse sourceNeuronName = "0" targetNeuronName = "35" weight = "24.758380341537844" />
    <synapse sourceNeuronName = "0" targetNeuronName = "36" weight = "23.40920309444455" />
    <synapse sourceNeuronName = "0" targetNeuronName = "37" weight = "11.10288367259872" />
    <synapse sourceNeuronName = "0" targetNeuronName = "38" weight = "2.441526512571985" />
    <synapse sourceNeuronName = "0" targetNeuronName = "39" weight = "1.241913341613051" />
    <synapse sourceNeuronName = "0" targetNeuronName = "40" weight = "22.446390347791805" />
    <synapse sourceNeuronName = "0" targetNeuronName = "41" weight = "13.543028805674457" />
    <synapse sourceNeuronName = "0" targetNeuronName = "42" weight = "7.314661647007425" />
    <synapse sourceNeuronName = "0" targetNeuronName = "43" weight = "7.106877974367221" />
    <synapse sourceNeuronName = "0" targetNeuronName = "44" weight = "7.175945305038111" />
    <synapse sourceNeuronName = "0" targetNeuronName = "45" weight = "5.678142134251166" />
    <synapse sourceNeuronName = "1" targetNeuronName = "19" weight = "21.972292372014635" />
    <synapse sourceNeuronName = "1" targetNeuronName = "20" weight = "18.12310168613404" />
    <synapse sourceNeuronName = "1" targetNeuronName = "21" weight = "11.043858200416109" />
    <synapse sourceNeuronName = "1" targetNeuronName = "22" weight = "6.289603669256078" />
    <synapse sourceNeuronName = "1" targetNeuronName = "23" weight = "9.249532621393366" />
    <synapse sourceNeuronName = "1" targetNeuronName = "24" weight = "23.988143567471436" />
    <synapse sourceNeuronName = "1" targetNeuronName = "25" weight = "21.20130677050994" />
    <synapse sourceNeuronName = "1" targetNeuronName = "26" weight = "23.72436131767693" />
    <synapse sourceNeuronName = "1" targetNeuronName = "27" weight = "4.8076725750685" />
    <synapse sourceNeuronName = "1" targetNeuronName = "28" weight = "13.79397778007591" />
    <synapse sourceNeuronName = "1" targetNeuronName = "29" weight = "24.315186420220144" />
    <synapse sourceNeuronName = "1" targetNeuronName = "30" weight = "5.2420901967988325" />
    <synapse sourceNeuronName = "1" targetNeuronName = "31" weight = "6.226934367166031" />
    <synapse sourceNeuronName = "1" targetNeuronName = "32" weight = "14.852504393380212" />
    <synapse sourceNeuronName = "1" targetNeuronName = "33" weight = "7.370452916653843" />
    <synapse sourceNeuronName = "1" targetNeuronName = "34" weight = "-0.20086885688738898" />
    <synapse sourceNeuronName = "1" targetNeuronName = "35" weight = "15.1576207254036" />
    <synapse sourceNeuronName = "1" targetNeuronName = "36" weight = "17.8459677980588" />
    <synapse sourceNeuronName = "1" targetNeuronName = "37" weight = "11.362694915766658" />
    <synapse sourceNeuronName = "1" targetNeuronName = "38" weight = "7.253984484952248" />
    <synapse sourceNeuronName = "1" targetNeuronName = "39" weight = "12.363241641176014" />
    <synapse sourceNeuronName = "1" targetNeuronName = "40" weight = "14.910184234191421" />
    <synapse sourceNeuronName = "1" targetNeuronName = "41" weight = "21.961699288509088" />
    <synapse sourceNeuronName = "1" targetNeuronName = "42" weight = "15.802977529484593" />
    <synapse sourceNeuronName = "1" targetNeuronName = "43" weight = "17.101160843070268" />
    <synapse sourceNeuronName = "1" targetNeuronName = "44" weight = "24.63648295357251" />
    <synapse sourceNeuronName = "1" targetNeuronName = "45" weight = "9.46710738800698" />
    <synapse sourceNeuronName = "2" targetNeuronName = "19" weight = "20.24614526379128" />
    <synapse sourceNeuronName = "2" targetNeuronName = "20" weight = "13.656161792708184" />
    <synapse sourceNeuronName = "2" targetNeuronName = "21" weight = "3.982709555564261" />
    <synapse sourceNeuronName = "2" targetNeuronName = "22" weight = "13.5986835149575" />
    <synapse sourceNeuronName = "2" targetNeuronName = "23" weight = "6.8375533384315315" />
    <synapse sourceNeuronName = "2" targetNeuronName = "24" weight = "9.65291051444733" />
    <synapse sourceNeuronName = "2" targetNeuronName = "25" weight = "9.678345467700844" />
    <synapse sourceNeuronName = "2" targetNeuronName = "26" weight = "8.775193613397132" />
    <synapse sourceNeuronName = "2" targetNeuronName = "27" weight = "13.073965099688738" />
    <synapse sourceNeuronName = "2" targetNeuronName = "28" weight = "6.825534586648175" />
    <synapse sourceNeuronName = "2" targetNeuronName = "29" weight = "10.686668162385978" />
    <synapse sourceNeuronName = "2" targetNeuronName = "30" weight = "22.8236770716552" />
    <synapse sourceNeuronName = "2" targetNeuronName = "31" weight = "0.5858636169283924" />
    <synapse sourceNeuronName = "2" targetNeuronName = "32" weight = "15.202873435739129" />
    <synapse sourceNeuronName = "2" targetNeuronName = "33" weight = "10.494206313192082" />
    <synapse sourceNeuronName = "2" targetNeuronName = "34" weight = "13.51767797803457" />
    <synapse sourceNeuronName = "2" targetNeuronName = "35" weight = "10.88475887718988" />
    <synapse sourceNeuronName = "2" targetNeuronName = "36" weight = "8.803551719311017" />
    <synapse sourceNeuronName = "2" targetNeuronName = "37" weight = "21.64360591938767" />
    <synapse sourceNeuronName = "2" targetNeuronName = "38" weight = "7.593499456685324" />
    <synapse sourceNeuronName = "2" targetNeuronName = "39" weight = "22.57648188875197" />
    <synapse sourceNeuronName = "2" targetNeuronName = "40" weight = "9.166281726711274" />
    <synapse sourceNeuronName = "2" targetNeuronName = "41" weight = "23.99903143747305" />
    <synapse sourceNeuronName = "2" targetNeuronName = "42" weight = "14.700255754865411" />
    <synapse sourceNeuronName = "2" targetNeuronName = "43" weight = "1.2745668090789057" />
    <synapse sourceNeuronName = "2" targetNeuronName = "44" weight = "14.247506287317215" />
    <synapse sourceNeuronName = "2" targetNeuronName = "45" weight = "2.8746420507585597" />
    <synapse sourceNeuronName = "3" targetNeuronName = "19" weight = "9.284649906136877" />
    <synapse sourceNeuronName = "3" targetNeuronName = "20" weight = "7.321933443015043" />
    <synapse sourceNeuronName = "3" targetNeuronName = "21" weight = "0.3475780520852918" />
    <synapse sourceNeuronName = "3" targetNeuronName = "22" weight = "16.240211625461964" />
    <synapse sourceNeuronName = "3" targetNeuronName = "23" weight = "14.243758191532583" />
    <synapse sourceNeuronName = "3" targetNeuronName = "24" weight = "21.58585070983865" />
    <synapse sourceNeuronName = "3" targetNeuronName = "25" weight = "6.7592099170445" />
    <synapse sourceNeuronName = "3" targetNeuronName = "26" weight = "16.116370601510823" />
    <synapse sourceNeuronName = "3" targetNeuronName = "27" weight = "17.69352175954585" />
    <synapse sourceNeuronName = "3" targetNeuronName = "28" weight = "16.572652248029286" />
    <synapse sourceNeuronName = "3" targetNeuronName = "29" weight = "14.972481677841897" />
    <synapse sourceNeuronName = "3" targetNeuronName = "30" weight = "17.017242027624217" />
    <synapse sourceNeuronName = "3" targetNeuronName = "31" weight = "3.886554099909076" />
    <synapse sourceNeuronName = "3" targetNeuronName = "32" weight = "13.781955542535917" />
    <synapse sourceNeuronName = "3" targetNeuronName = "33" weight = "21.44750186059508" />
    <synapse sourceNeuronName = "3" targetNeuronName = "34" weight = "23.70202521879552" />
    <synapse sourceNeuronName = "3" targetNeuronName = "35" weight = "0.8539955200912206" />
    <synapse sourceNeuronName = "3" targetNeuronName = "36" weight = "-0.3895468094718969" />
    <synapse sourceNeuronName = "3" targetNeuronName = "37" weight = "17.731314587261085" />
    <synapse sourceNeuronName = "3" targetNeuronName = "38" weight = "3.280521089658346" />
    <synapse sourceNeuronName = "3" targetNeuronName = "39" weight = "16.158880819272724" />
    <synapse sourceNeuronName = "3" targetNeuronName = "40" weight = "21.517204543128532" />
    <synapse sourceNeuronName = "3" targetNeuronName = "41" weight = "23.883423664592467" />
    <synapse sourceNeuronName = "3" targetNeuronName = "42" weight = "23.589952490788225" />
    <synapse sourceNeuronName = "3" targetNeuronName = "43" weight = "19.24845130328331" />
    <synapse sourceNeuronName = "3" targetNeuronName = "44" weight = "2.1907983874303145" />
    <synapse sourceNeuronName = "3" targetNeuronName = "45" weight = "4.599984361641511" />
    <synapse sourceNeuronName = "4" targetNeuronName = "19" weight = "23.43434423570519" />
    <synapse sourceNeuronName = "4" targetNeuronName = "20" weight = "12.985302891289951" />
    <synapse sourceNeuronName = "4" targetNeuronName = "21" weight = "18.793850976394417" />
    <synapse sourceNeuronName = "4" targetNeuronName = "22" weight = "0.0027970731536235416" />
    <synapse sourceNeuronName = "4" targetNeuronName = "23" weight = "13.024422765777262" />
    <synapse sourceNeuronName = "4" targetNeuronName = "24" weight = "18.583343488454815" />
    <synapse sourceNeuronName = "4" targetNeuronName = "25" weight = "13.325440835706134" />
    <synapse sourceNeuronName = "4" targetNeuronName = "26" weight = "19.932449382295484" />
    <synapse sourceNeuronName = "4" targetNeuronName = "27" weight = "10.670696793552745" />
    <synapse sourceNeuronName = "4" targetNeuronName = "28" weight = "11.687682791271198" />
    <synapse sourceNeuronName = "4" targetNeuronName = "29" weight = "12.1292521872801" />
    <synapse sourceNeuronName = "4" targetNeuronName = "30" weight = "8.860029139165572" />
    <synapse sourceNeuronName = "4" targetNeuronName = "31" weight = "7.209102346675985" />
    <synapse sourceNeuronName = "4" targetNeuronName = "32" weight = "3.8221958767028594" />
    <synapse sourceNeuronName = "4" targetNeuronName = "33" weight = "18.550413380688187" />
    <synapse sourceNeuronName = "4" targetNeuronName = "34" weight = "22.86781655251947" />
    <synapse sourceNeuronName = "4" targetNeuronName = "35" weight = "1.9254234971772992" />
    <synapse sourceNeuronName = "4" targetNeuronName = "36" weight = "7.127629935478701" />
    <synapse sourceNeuronName = "4" targetNeuronName = "37" weight = "5.822670126893502" />
    <synapse sourceNeuronName = "4" targetNeuronName = "38" weight = "9.422929126217012" />
    <synapse sourceNeuronName = "4" targetNeuronName = "39" weight = "18.70443916976825" />
    <synapse sourceNeuronName = "4" targetNeuronName = "40" weight = "6.08981466547698" />
    <synapse sourceNeuronName = "4" targetNeuronName = "41" weight = "15.21939224757466" />
    <synapse sourceNeuronName = "4" targetNeuronName = "42" weight = "25.29686963461321" />
    <synapse sourceNeuronName = "4" targetNeuronName = "43" weight = "16.90549809693622" />
    <synapse sourceNeuronName = "4" targetNeuronName = "44" weight = "1.2246692231324898" />
    <synapse sourceNeuronName = "4" targetNeuronName = "45" weight = "25.833558093351748" />
    <synapse sourceNeuronName = "5" targetNeuronName = "19" weight = "11.211020125489348" />
    <synapse sourceNeuronName = "5" targetNeuronName = "20" weight = "7.8459990336678835" />
    <synapse sourceNeuronName = "5" targetNeuronName = "21" weight = "16.144266883913822" />
    <synapse sourceNeuronName = "5" targetNeuronName = "22" weight = "3.190188907587034" />
    <synapse sourceNeuronName = "5" targetNeuronName = "23" weight = "11.288567777830323" />
    <synapse sourceNeuronName = "5" targetNeuronName = "24" weight = "13.866200910972521" />
    <synapse sourceNeuronName = "5" targetNeuronName = "25" weight = "12.404022276962282" />
    <synapse sourceNeuronName = "5" targetNeuronName = "26" weight = "23.650894210369724" />
    <synapse sourceNeuronName = "5" targetNeuronName = "27" weight = "16.490202873048357" />
    <synapse sourceNeuronName = "5" targetNeuronName = "28" weight = "19.27762571798969" />
    <synapse sourceNeuronName = "5" targetNeuronName = "29" weight = "16.610831035894087" />
    <synapse sourceNeuronName = "5" targetNeuronName = "30" weight = "25.147580180265955" />
    <synapse sourceNeuronName = "5" targetNeuronName = "31" weight = "19.15878835565022" />
    <synapse sourceNeuronName = "5" targetNeuronName = "32" weight = "7.257029037041766" />
    <synapse sourceNeuronName = "5" targetNeuronName = "33" weight = "25.124026242201143" />
    <synapse sourceNeuronName = "5" targetNeuronName = "34" weight = "8.048229378576668" />
    <synapse sourceNeuronName = "5" targetNeuronName = "35" weight = "2.421874320036579" />
    <synapse sourceNeuronName = "5" targetNeuronName = "36" weight = "24.308500039205903" />
    <synapse sourceNeuronName = "5" targetNeuronName = "37" weight = "20.391433707574347" />
    <synapse sourceNeuronName = "5" targetNeuronName = "38" weight = "21.92044013490211" />
    <synapse sourceNeuronName = "5" targetNeuronName = "39" weight = "18.367353186087055" />
    <synapse sourceNeuronName = "5" targetNeuronName = "40" weight = "20.609655650696475" />
    <synapse sourceNeuronName = "5" targetNeuronName = "41" weight = "23.119543658181616" />
    <synapse sourceNeuronName = "5" targetNeuronName = "42" weight = "14.59022571157193" />
    <synapse sourceNeuronName = "5" targetNeuronName = "43" weight = "13.480307796950653" />
    <synapse sourceNeuronName = "5" targetNeuronName = "44" weight = "2.553374125961549" />
    <synapse sourceNeuronName = "5" targetNeuronName = "45" weight = "11.423364766217244" />
    <synapse sourceNeuronName = "6" targetNeuronName = "19" weight = "22.968791442419864" />
    <synapse sourceNeuronName = "6" targetNeuronName = "20" weight = "9.126480161211864" />
    <synapse sourceNeuronName = "6" targetNeuronName = "21" weight = "3.426302222600489" />
    <synapse sourceNeuronName = "6" targetNeuronName = "22" weight = "10.389117354308567" />
    <synapse sourceNeuronName = "6" targetNeuronName = "23" weight = "21.580103830328" />
    <synapse sourceNeuronName = "6" targetNeuronName = "24" weight = "17.14376702849599" />
    <synapse sourceNeuronName = "6" targetNeuronName = "25" weight = "19.387621502170557" />
    <synapse sourceNeuronName = "6" targetNeuronName = "26" weight = "22.67948531343904" />
    <synapse sourceNeuronName = "6" targetNeuronName = "27" weight = "19.628710349241175" />
    <synapse sourceNeuronName = "6" targetNeuronName = "28" weight = "0.03518171491633604" />
    <synapse sourceNeuronName = "6" targetNeuronName = "29" weight = "7.19082275795054" />
    <synapse sourceNeuronName = "6" targetNeuronName = "30" weight = "16.40132757086536" />
    <synapse sourceNeuronName = "6" targetNeuronName = "31" weight = "8.641749137027787" />
    <synapse sourceNeuronName = "6" targetNeuronName = "32" weight = "14.579227241724379" />
    <synapse sourceNeuronName = "6" targetNeuronName = "33" weight = "0.5623950706522889" />
    <synapse sourceNeuronName = "6" targetNeuronName = "34" weight = "-0.15847276169833657" />
    <synapse sourceNeuronName = "6" targetNeuronName = "35" weight = "7.000020386000385" />
    <synapse sourceNeuronName = "6" targetNeuronName = "36" weight = "24.46959376053192" />
    <synapse sourceNeuronName = "6" targetNeuronName = "37" weight = "12.658898010494612" />
    <synapse sourceNeuronName = "6" targetNeuronName = "38" weight = "24.765276434384276" />
    <synapse sourceNeuronName = "6" targetNeuronName = "39" weight = "22.6042264934944" />
    <synapse sourceNeuronName = "6" targetNeuronName = "40" weight = "21.904510704103792" />
    <synapse sourceNeuronName = "6" targetNeuronName = "41" weight = "16.022549968016058" />
    <synapse sourceNeuronName = "6" targetNeuronName = "42" weight = "5.158345010260282" />
    <synapse sourceNeuronName = "6" targetNeuronName = "43" weight = "20.22638925584304" />
    <synapse sourceNeuronName = "6" targetNeuronName = "44" weight = "24.601812308777316" />
    <synapse sourceNeuronName = "6" targetNeuronName = "45" weight = "22.84462250706575" />
    <synapse sourceNeuronName = "7" targetNeuronName = "19" weight = "11.490992693540141" />
    <synapse sourceNeuronName = "7" targetNeuronName = "20" weight = "0.5354175248789339" />
    <synapse sourceNeuronName = "7" targetNeuronName = "21" weight = "8.181046920250749" />
    <synapse sourceNeuronName = "7" targetNeuronName = "22" weight = "16.74543715401901" />
    <synapse sourceNeuronName = "7" targetNeuronName = "23" weight = "25.78559869431951" />
    <synapse sourceNeuronName = "7" targetNeuronName = "24" weight = "7.241690867858306" />
    <synapse sourceNeuronName = "7" targetNeuronName = "25" weight = "10.289409198054043" />
    <synapse sourceNeuronName = "7" targetNeuronName = "26" weight = "12.512673286671994" />
    <synapse sourceNeuronName = "7" targetNeuronName = "27" weight = "11.65918827206093" />
    <synapse sourceNeuronName = "7" targetNeuronName = "28" weight = "0.36369798535643794" />
    <synapse sourceNeuronName = "7" targetNeuronName = "29" weight = "16.34894383930404" />
    <synapse sourceNeuronName = "7" targetNeuronName = "30" weight = "10.661984405837217" />
    <synapse sourceNeuronName = "7" targetNeuronName = "31" weight = "25.798022594401193" />
    <synapse sourceNeuronName = "7" targetNeuronName = "32" weight = "2.1551068116415033" />
    <synapse sourceNeuronName = "7" targetNeuronName = "33" weight = "22.095237159201005" />
    <synapse sourceNeuronName = "7" targetNeuronName = "34" weight = "20.312402581435492" />
    <synapse sourceNeuronName = "7" targetNeuronName = "35" weight = "23.249834856545817" />
    <synapse sourceNeuronName = "7" targetNeuronName = "36" weight = "15.702989586608158" />
    <synapse sourceNeuronName = "7" targetNeuronName = "37" weight = "18.324880462181813" />
    <synapse sourceNeuronName = "7" targetNeuronName = "38" weight = "5.107078072665827" />
    <synapse sourceNeuronName = "7" targetNeuronName = "39" weight = "6.859712714812944" />
    <synapse sourceNeuronName = "7" targetNeuronName = "40" weight = "7.276665797226107" />
    <synapse sourceNeuronName = "7" targetNeuronName = "41" weight = "20.218108140698913" />
    <synapse sourceNeuronName = "7" targetNeuronName = "42" weight = "21.80536964999706" />
    <synapse sourceNeuronName = "7" targetNeuronName = "43" weight = "8.66369087424886" />
    <synapse sourceNeuronName = "7" targetNeuronName = "44" weight = "25.50958105829055" />
    <synapse sourceNeuronName = "7" targetNeuronName = "45" weight = "13.84865552541737" />
    <synapse sourceNeuronName = "8" targetNeuronName = "19" weight = "21.247063502819927" />
    <synapse sourceNeuronName = "8" targetNeuronName = "20" weight = "10.984267040219153" />
    <synapse sourceNeuronName = "8" targetNeuronName = "21" weight = "6.990436750888139" />
    <synapse sourceNeuronName = "8" targetNeuronName = "22" weight = "16.108357531344435" />
    <synapse sourceNeuronName = "8" targetNeuronName = "23" weight = "0.9790630289655509" />
    <synapse sourceNeuronName = "8" targetNeuronName = "24" weight = "5.029637628393184" />
    <synapse sourceNeuronName = "8" targetNeuronName = "25" weight = "0.1912824223856906" />
    <synapse sourceNeuronName = "8" targetNeuronName = "26" weight = "21.61854612453534" />
    <synapse sourceNeuronName = "8" targetNeuronName = "27" weight = "18.507826158705345" />
    <synapse sourceNeuronName = "8" targetNeuronName = "28" weight = "12.434981262194269" />
    <synapse sourceNeuronName = "8" targetNeuronName = "29" weight = "9.756519854411506" />
    <synapse sourceNeuronName = "8" targetNeuronName = "30" weight = "22.63754620053546" />
    <synapse sourceNeuronName = "8" targetNeuronName = "31" weight = "6.445737164586128" />
    <synapse sourceNeuronName = "8" targetNeuronName = "32" weight = "15.584332549975354" />
    <synapse sourceNeuronName = "8" targetNeuronName = "33" weight = "1.6841027715598638" />
    <synapse sourceNeuronName = "8" targetNeuronName = "34" weight = "21.60232192396719" />
    <synapse sourceNeuronName = "8" targetNeuronName = "35" weight = "23.98026748599299" />
    <synapse sourceNeuronName = "8" targetNeuronName = "36" weight = "4.42563570833852" />
    <synapse sourceNeuronName = "8" targetNeuronName = "37" weight = "-0.8363555918484853" />
    <synapse sourceNeuronName = "8" targetNeuronName = "38" weight = "11.034302873114584" />
    <synapse sourceNeuronName = "8" targetNeuronName = "39" weight = "13.708512331100765" />
    <synapse sourceNeuronName = "8" targetNeuronName = "40" weight = "20.91871712489923" />
    <synapse sourceNeuronName = "8" targetNeuronName = "41" weight = "18.255083653417596" />
    <synapse sourceNeuronName = "8" targetNeuronName = "42" weight = "17.90082018914415" />
    <synapse sourceNeuronName = "8" targetNeuronName = "43" weight = "18.136053144078506" />
    <synapse sourceNeuronName = "8" targetNeuronName = "44" weight = "18.247465278456122" />
    <synapse sourceNeuronName = "8" targetNeuronName = "45" weight = "17.51092194459685" />
    <synapse sourceNeuronName = "9" targetNeuronName = "19" weight = "22.7678912555397" />
    <synapse sourceNeuronName = "9" targetNeuronName = "20" weight = "10.62677321192586" />
    <synapse sourceNeuronName = "9" targetNeuronName = "21" weight = "16.717914848292732" />
    <synapse sourceNeuronName = "9" targetNeuronName = "22" weight = "22.770959703001232" />
    <synapse sourceNeuronName = "9" targetNeuronName = "23" weight = "9.191187019200909" />
    <synapse sourceNeuronName = "9" targetNeuronName = "24" weight = "11.595488369804421" />
    <synapse sourceNeuronName = "9" targetNeuronName = "25" weight = "0.2870300045540255" />
    <synapse sourceNeuronName = "9" targetNeuronName = "26" weight = "13.597416914497785" />
    <synapse sourceNeuronName = "9" targetNeuronName = "27" weight = "2.1339246275162704" />
    <synapse sourceNeuronName = "9" targetNeuronName = "28" weight = "24.51349476340758" />
    <synapse sourceNeuronName = "9" targetNeuronName = "29" weight = "9.404035332565723" />
    <synapse sourceNeuronName = "9" targetNeuronName = "30" weight = "2.024116641370574" />
    <synapse sourceNeuronName = "9" targetNeuronName = "31" weight = "14.359711906328474" />
    <synapse sourceNeuronName = "9" targetNeuronName = "32" weight = "18.472648073414085" />
    <synapse sourceNeuronName = "9" targetNeuronName = "33" weight = "25.413405906401277" />
    <synapse sourceNeuronName = "9" targetNeuronName = "34" weight = "10.678997573323892" />
    <synapse sourceNeuronName = "9" targetNeuronName = "35" weight = "6.428800573119138" />
    <synapse sourceNeuronName = "9" targetNeuronName = "36" weight = "11.405042887012563" />
    <synapse sourceNeuronName = "9" targetNeuronName = "37" weight = "8.682248850913842" />
    <synapse sourceNeuronName = "9" targetNeuronName = "38" weight = "20.484635989494482" />
    <synapse sourceNeuronName = "9" targetNeuronName = "39" weight = "17.47649481482742" />
    <synapse sourceNeuronName = "9" targetNeuronName = "40" weight = "13.04534395155046" />
    <synapse sourceNeuronName = "9" targetNeuronName = "41" weight = "8.949928367551827" />
    <synapse sourceNeuronName = "9" targetNeuronName = "42" weight = "25.111104261760996" />
    <synapse sourceNeuronName = "9" targetNeuronName = "43" weight = "10.265650345266549" />
    <synapse sourceNeuronName = "9" targetNeuronName = "44" weight = "2.3532046641720297" />
    <synapse sourceNeuronName = "9" targetNeuronName = "45" weight = "0.1882772473498231" />
    <synapse sourceNeuronName = "10" targetNeuronName = "19" weight = "17.333920460125288" />
    <synapse sourceNeuronName = "10" targetNeuronName = "20" weight = "17.381545205873135" />
    <synapse sourceNeuronName = "10" targetNeuronName = "21" weight = "19.327890963210013" />
    <synapse sourceNeuronName = "10" targetNeuronName = "22" weight = "1.1145298430463009" />
    <synapse sourceNeuronName = "10" targetNeuronName = "23" weight = "18.017852819467652" />
    <synapse sourceNeuronName = "10" targetNeuronName = "24" weight = "11.678507122794219" />
    <synapse sourceNeuronName = "10" targetNeuronName = "25" weight = "20.78258412093709" />
    <synapse sourceNeuronName = "10" targetNeuronName = "26" weight = "17.761987477280655" />
    <synapse sourceNeuronName = "10" targetNeuronName = "27" weight = "16.403870272599832" />
    <synapse sourceNeuronName = "10" targetNeuronName = "28" weight = "18.152027376353622" />
    <synapse sourceNeuronName = "10" targetNeuronName = "29" weight = "25.472671195011717" />
    <synapse sourceNeuronName = "10" targetNeuronName = "30" weight = "17.37292690481087" />
    <synapse sourceNeuronName = "10" targetNeuronName = "31" weight = "-0.4556482124640947" />
    <synapse sourceNeuronName = "10" targetNeuronName = "32" weight = "17.298921681220882" />
    <synapse sourceNeuronName = "10" targetNeuronName = "33" weight = "21.573956815389383" />
    <synapse sourceNeuronName = "10" targetNeuronName = "34" weight = "17.078331488120106" />
    <synapse sourceNeuronName = "10" targetNeuronName = "35" weight = "24.733592403921094" />
    <synapse sourceNeuronName = "10" targetNeuronName = "36" weight = "4.197151856660119" />
    <synapse sourceNeuronName = "10" targetNeuronName = "37" weight = "14.594742607098025" />
    <synapse sourceNeuronName = "10" targetNeuronName = "38" weight = "18.82087372376188" />
    <synapse sourceNeuronName = "10" targetNeuronName = "39" weight = "7.830421708829169" />
    <synapse sourceNeuronName = "10" targetNeuronName = "40" weight = "3.6019909132622443" />
    <synapse sourceNeuronName = "10" targetNeuronName = "41" weight = "5.485605922707226" />
    <synapse sourceNeuronName = "10" targetNeuronName = "42" weight = "8.05307653930562" />
    <synapse sourceNeuronName = "10" targetNeuronName = "43" weight = "-0.6697227169827883" />
    <synapse sourceNeuronName = "10" targetNeuronName = "44" weight = "16.50378292230934" />
    <synapse sourceNeuronName = "10" targetNeuronName = "45" weight = "5.845454667929995" />
    <synapse sourceNeuronName = "11" targetNeuronName = "19" weight = "8.325355123265519" />
    <synapse sourceNeuronName = "11" targetNeuronName = "20" weight = "25.61938401754671" />
    <synapse sourceNeuronName = "11" targetNeuronName = "21" weight = "12.656149627492614" />
    <synapse sourceNeuronName = "11" targetNeuronName = "22" weight = "25.889205610560854" />
    <synapse sourceNeuronName = "11" targetNeuronName = "23" weight = "22.980961897687248" />
    <synapse sourceNeuronName = "11" targetNeuronName = "24" weight = "3.5993794011498057" />
    <synapse sourceNeuronName = "11" targetNeuronName = "25" weight = "0.11044419576242692" />
    <synapse sourceNeuronName = "11" targetNeuronName = "26" weight = "25.808228527230565" />
    <synapse sourceNeuronName = "11" targetNeuronName = "27" weight = "10.499003745583858" />
    <synapse sourceNeuronName = "11" targetNeuronName = "28" weight = "3.8150563897807395" />
    <synapse sourceNeuronName = "11" targetNeuronName = "29" weight = "6.030184195796436" />
    <synapse sourceNeuronName = "11" targetNeuronName = "30" weight = "15.717809060107644" />
    <synapse sourceNeuronName = "11" targetNeuronName = "31" weight = "1.5537936917270478" />
    <synapse sourceNeuronName = "11" targetNeuronName = "32" weight = "11.570545638249422" />
    <synapse sourceNeuronName = "11" targetNeuronName = "33" weight = "21.334591114078332" />
    <synapse sourceNeuronName = "11" targetNeuronName = "34" weight = "18.21989133595862" />
    <synapse sourceNeuronName = "11" targetNeuronName = "35" weight = "16.762558328646218" />
    <synapse sourceNeuronName = "11" targetNeuronName = "36" weight = "2.24458386032835" />
    <synapse sourceNeuronName = "11" targetNeuronName = "37" weight = "5.289831463189913" />
    <synapse sourceNeuronName = "11" targetNeuronName = "38" weight = "2.0587986530061864" />
    <synapse sourceNeuronName = "11" targetNeuronName = "39" weight = "13.844872887877056" />
    <synapse sourceNeuronName = "11" targetNeuronName = "40" weight = "20.860157923988094" />
    <synapse sourceNeuronName = "11" targetNeuronName = "41" weight = "24.323763786688467" />
    <synapse sourceNeuronName = "11" targetNeuronName = "42" weight = "14.226922115558294" />
    <synapse sourceNeuronName = "11" targetNeuronName = "43" weight = "12.16795297472903" />
    <synapse sourceNeuronName = "11" targetNeuronName = "44" weight = "24.08110682118627" />
    <synapse sourceNeuronName = "11" targetNeuronName = "45" weight = "3.8021465830616563" />
    <synapse sourceNeuronName = "12" targetNeuronName = "19" weight = "24.742156236811315" />
    <synapse sourceNeuronName = "12" targetNeuronName = "20" weight = "8.4014996834057" />
    <synapse sourceNeuronName = "12" targetNeuronName = "21" weight = "15.451369105216141" />
    <synapse sourceNeuronName = "12" targetNeuronName = "22" weight = "10.899123358708124" />
    <synapse sourceNeuronName = "12" targetNeuronName = "23" weight = "16.980510777636322" />
    <synapse sourceNeuronName = "12" targetNeuronName = "24" weight = "19.056320957818063" />
    <synapse sourceNeuronName = "12" targetNeuronName = "25" weight = "23.78691348278747" />
    <synapse sourceNeuronName = "12" targetNeuronName = "26" weight = "13.414505754055735" />
    <synapse sourceNeuronName = "12" targetNeuronName = "27" weight = "23.879575075155007" />
    <synapse sourceNeuronName = "12" targetNeuronName = "28" weight = "0.3694915657119462" />
    <synapse sourceNeuronName = "12" targetNeuronName = "29" weight = "20.793824769130822" />
    <synapse sourceNeuronName = "12" targetNeuronName = "30" weight = "4.70603441272751" />
    <synapse sourceNeuronName = "12" targetNeuronName = "31" weight = "17.410039824304395" />
    <synapse sourceNeuronName = "12" targetNeuronName = "32" weight = "11.811007946790397" />
    <synapse sourceNeuronName = "12" targetNeuronName = "33" weight = "16.885875321219373" />
    <synapse sourceNeuronName = "12" targetNeuronName = "34" weight = "18.25742400869731" />
    <synapse sourceNeuronName = "12" targetNeuronName = "35" weight = "18.256028460096015" />
    <synapse sourceNeuronName = "12" targetNeuronName = "36" weight = "15.47869171974311" />
    <synapse sourceNeuronName = "12" targetNeuronName = "37" weight = "4.403077351696101" />
    <synapse sourceNeuronName = "12" targetNeuronName = "38" weight = "2.8852453506120437" />
    <synapse sourceNeuronName = "12" targetNeuronName = "39" weight = "10.838408135337033" />
    <synapse sourceNeuronName = "12" targetNeuronName = "40" weight = "25.28187326547048" />
    <synapse sourceNeuronName = "12" targetNeuronName = "41" weight = "19.29529247237612" />
    <synapse sourceNeuronName = "12" targetNeuronName = "42" weight = "2.3618805609133835" />
    <synapse sourceNeuronName = "12" targetNeuronName = "43" weight = "20.927244911663387" />
    <synapse sourceNeuronName = "12" targetNeuronName = "44" weight = "23.764947748445227" />
    <synapse sourceNeuronName = "12" targetNeuronName = "45" weight = "12.70442932074682" />
    <synapse sourceNeuronName = "13" targetNeuronName = "19" weight = "11.811835545469691" />
    <synapse sourceNeuronName = "13" targetNeuronName = "20" weight = "5.600643412995086" />
    <synapse sourceNeuronName = "13" targetNeuronName = "21" weight = "3.0595651133081843" />
    <synapse sourceNeuronName = "13" targetNeuronName = "22" weight = "14.662395775486937" />
    <synapse sourceNeuronName = "13" targetNeuronName = "23" weight = "21.355425251686626" />
    <synapse sourceNeuronName = "13" targetNeuronName = "24" weight = "14.668431718525595" />
    <synapse sourceNeuronName = "13" targetNeuronName = "25" weight = "19.812733819277007" />
    <synapse sourceNeuronName = "13" targetNeuronName = "26" weight = "8.573201294546756" />
    <synapse sourceNeuronName = "13" targetNeuronName = "27" weight = "17.54751799118945" />
    <synapse sourceNeuronName = "13" targetNeuronName = "28" weight = "11.732395528831697" />
    <synapse sourceNeuronName = "13" targetNeuronName = "29" weight = "10.497354544130031" />
    <synapse sourceNeuronName = "13" targetNeuronName = "30" weight = "25.053809448955832" />
    <synapse sourceNeuronName = "13" targetNeuronName = "31" weight = "21.478753103275643" />
    <synapse sourceNeuronName = "13" targetNeuronName = "32" weight = "17.7902279806046" />
    <synapse sourceNeuronName = "13" targetNeuronName = "33" weight = "3.2759724804399832" />
    <synapse sourceNeuronName = "13" targetNeuronName = "34" weight = "7.5730869675945165" />
    <synapse sourceNeuronName = "13" targetNeuronName = "35" weight = "22.253334223597573" />
    <synapse sourceNeuronName = "13" targetNeuronName = "36" weight = "11.078416136880598" />
    <synapse sourceNeuronName = "13" targetNeuronName = "37" weight = "2.228418278392941" />
    <synapse sourceNeuronName = "13" targetNeuronName = "38" weight = "15.450118020226913" />
    <synapse sourceNeuronName = "13" targetNeuronName = "39" weight = "21.63560664026476" />
    <synapse sourceNeuronName = "13" targetNeuronName = "40" weight = "20.938110803812673" />
    <synapse sourceNeuronName = "13" targetNeuronName = "41" weight = "14.605461150591436" />
    <synapse sourceNeuronName = "13" targetNeuronName = "42" weight = "6.135303417110709" />
    <synapse sourceNeuronName = "13" targetNeuronName = "43" weight = "1.5647556019587374" />
    <synapse sourceNeuronName = "13" targetNeuronName = "44" weight = "1.1918659410037447" />
    <synapse sourceNeuronName = "13" targetNeuronName = "45" weight = "3.3551623085323072" />
    <synapse sourceNeuronName = "14" targetNeuronName = "19" weight = "16.140649645860385" />
    <synapse sourceNeuronName = "14" targetNeuronName = "20" weight = "0.1800712406780165" />
    <synapse sourceNeuronName = "14" targetNeuronName = "21" weight = "18.191144696932064" />
    <synapse sourceNeuronName = "14" targetNeuronName = "22" weight = "23.64916443615498" />
    <synapse sourceNeuronName = "14" targetNeuronName = "23" weight = "14.904305078228028" />
    <synapse sourceNeuronName = "14" targetNeuronName = "24" weight = "4.33849850414633" />
    <synapse sourceNeuronName = "14" targetNeuronName = "25" weight = "-0.8387194376690018" />
    <synapse sourceNeuronName = "14" targetNeuronName = "26" weight = "19.225250953192454" />
    <synapse sourceNeuronName = "14" targetNeuronName = "27" weight = "2.955941119154417" />
    <synapse sourceNeuronName = "14" targetNeuronName = "28" weight = "1.8682938813261742" />
    <synapse sourceNeuronName = "14" targetNeuronName = "29" weight = "4.393839408488971" />
    <synapse sourceNeuronName = "14" targetNeuronName = "30" weight = "19.622621526204718" />
    <synapse sourceNeuronName = "14" targetNeuronName = "31" weight = "5.444841157826673" />
    <synapse sourceNeuronName = "14" targetNeuronName = "32" weight = "22.812898672742662" />
    <synapse sourceNeuronName = "14" targetNeuronName = "33" weight = "23.278379914503482" />
    <synapse sourceNeuronName = "14" targetNeuronName = "34" weight = "17.20513632780544" />
    <synapse sourceNeuronName = "14" targetNeuronName = "35" weight = "3.0362188576127984" />
    <synapse sourceNeuronName = "14" targetNeuronName = "36" weight = "4.90089459765932" />
    <synapse sourceNeuronName = "14" targetNeuronName = "37" weight = "8.283000512766744" />
    <synapse sourceNeuronName = "14" targetNeuronName = "38" weight = "6.300506907435787" />
    <synapse sourceNeuronName = "14" targetNeuronName = "39" weight = "15.18495588660899" />
    <synapse sourceNeuronName = "14" targetNeuronName = "40" weight = "14.809971620717272" />
    <synapse sourceNeuronName = "14" targetNeuronName = "41" weight = "4.979664393562197" />
    <synapse sourceNeuronName = "14" targetNeuronName = "42" weight = "9.782991825762588" />
    <synapse sourceNeuronName = "14" targetNeuronName = "43" weight = "12.185739565844953" />
    <synapse sourceNeuronName = "14" targetNeuronName = "44" weight = "6.967819532256231" />
    <synapse sourceNeuronName = "14" targetNeuronName = "45" weight = "23.046073938256185" />
    <synapse sourceNeuronName = "15" targetNeuronName = "19" weight = "3.0708870323896615" />
    <synapse sourceNeuronName = "15" targetNeuronName = "20" weight = "18.28566890883874" />
    <synapse sourceNeuronName = "15" targetNeuronName = "21" weight = "20.057648734388305" />
    <synapse sourceNeuronName = "15" targetNeuronName = "22" weight = "25.800663678080507" />
    <synapse sourceNeuronName = "15" targetNeuronName = "23" weight = "16.040067097757888" />
    <synapse sourceNeuronName = "15" targetNeuronName = "24" weight = "7.302121358280301" />
    <synapse sourceNeuronName = "15" targetNeuronName = "25" weight = "22.852011326340648" />
    <synapse sourceNeuronName = "15" targetNeuronName = "26" weight = "10.522598413830154" />
    <synapse sourceNeuronName = "15" targetNeuronName = "27" weight = "5.539134948307973" />
    <synapse sourceNeuronName = "15" targetNeuronName = "28" weight = "19.57332960568071" />
    <synapse sourceNeuronName = "15" targetNeuronName = "29" weight = "19.17527897309254" />
    <synapse sourceNeuronName = "15" targetNeuronName = "30" weight = "25.538904140209045" />
    <synapse sourceNeuronName = "15" targetNeuronName = "31" weight = "5.316251533898797" />
    <synapse sourceNeuronName = "15" targetNeuronName = "32" weight = "24.48147544471342" />
    <synapse sourceNeuronName = "15" targetNeuronName = "33" weight = "20.110715925137363" />
    <synapse sourceNeuronName = "15" targetNeuronName = "34" weight = "5.850509134763714" />
    <synapse sourceNeuronName = "15" targetNeuronName = "35" weight = "9.525981450508914" />
    <synapse sourceNeuronName = "15" targetNeuronName = "36" weight = "9.399931692439388" />
    <synapse sourceNeuronName = "15" targetNeuronName = "37" weight = "21.41903838315055" />
    <synapse sourceNeuronName = "15" targetNeuronName = "38" weight = "12.356829611651365" />
    <synapse sourceNeuronName = "15" targetNeuronName = "39" weight = "22.849163398123867" />
    <synapse sourceNeuronName = "15" targetNeuronName = "40" weight = "15.395332396333615" />
    <synapse sourceNeuronName = "15" targetNeuronName = "41" weight = "23.951276021026352" />
    <synapse sourceNeuronName = "15" targetNeuronName = "42" weight = "11.125829613252344" />
    <synapse sourceNeuronName = "15" targetNeuronName = "43" weight = "14.927279785677158" />
    <synapse sourceNeuronName = "15" targetNeuronName = "44" weight = "16.631194582686824" />
    <synapse sourceNeuronName = "15" targetNeuronName = "45" weight = "22.58758620107409" />
    <synapse sourceNeuronName = "16" targetNeuronName = "19" weight = "13.919191960746545" />
    <synapse sourceNeuronName = "16" targetNeuronName = "20" weight = "3.7854221420875644" />
    <synapse sourceNeuronName = "16" targetNeuronName = "21" weight = "17.33486317961625" />
    <synapse sourceNeuronName = "16" targetNeuronName = "22" weight = "16.774793210622295" />
    <synapse sourceNeuronName = "16" targetNeuronName = "23" weight = "16.472638258087347" />
    <synapse sourceNeuronName = "16" targetNeuronName = "24" weight = "21.011317443852953" />
    <synapse sourceNeuronName = "16" targetNeuronName = "25" weight = "5.857091207803478" />
    <synapse sourceNeuronName = "16" targetNeuronName = "26" weight = "7.628274296197391" />
    <synapse sourceNeuronName = "16" targetNeuronName = "27" weight = "12.246817920051994" />
    <synapse sourceNeuronName = "16" targetNeuronName = "28" weight = "7.001269525672832" />
    <synapse sourceNeuronName = "16" targetNeuronName = "29" weight = "20.400408923117915" />
    <synapse sourceNeuronName = "16" targetNeuronName = "30" weight = "2.348636816476746" />
    <synapse sourceNeuronName = "16" targetNeuronName = "31" weight = "3.219048294547166" />
    <synapse sourceNeuronName = "16" targetNeuronName = "32" weight = "24.886097086391782" />
    <synapse sourceNeuronName = "16" targetNeuronName = "33" weight = "17.056087000213527" />
    <synapse sourceNeuronName = "16" targetNeuronName = "34" weight = "6.399056951549264" />
    <synapse sourceNeuronName = "16" targetNeuronName = "35" weight = "15.974535236270068" />
    <synapse sourceNeuronName = "16" targetNeuronName = "36" weight = "24.80652053902929" />
    <synapse sourceNeuronName = "16" targetNeuronName = "37" weight = "5.78499611420379" />
    <synapse sourceNeuronName = "16" targetNeuronName = "38" weight = "21.546461423235378" />
    <synapse sourceNeuronName = "16" targetNeuronName = "39" weight = "14.63050367697906" />
    <synapse sourceNeuronName = "16" targetNeuronName = "40" weight = "0.30127065926093555" />
    <synapse sourceNeuronName = "16" targetNeuronName = "41" weight = "3.4755225815984456" />
    <synapse sourceNeuronName = "16" targetNeuronName = "42" weight = "19.965830011556985" />
    <synapse sourceNeuronName = "16" targetNeuronName = "43" weight = "25.345090113367288" />
    <synapse sourceNeuronName = "16" targetNeuronName = "44" weight = "1.6492892049109953" />
    <synapse sourceNeuronName = "16" targetNeuronName = "45" weight = "18.404008523751337" />
    <synapse sourceNeuronName = "17" targetNeuronName = "19" weight = "8.171070503509153" />
    <synapse sourceNeuronName = "17" targetNeuronName = "20" weight = "0.808907286281566" />
    <synapse sourceNeuronName = "17" targetNeuronName = "21" weight = "1.182113797091597" />
    <synapse sourceNeuronName = "17" targetNeuronName = "22" weight = "21.792640791594483" />
    <synapse sourceNeuronName = "17" targetNeuronName = "23" weight = "20.431669844909024" />
    <synapse sourceNeuronName = "17" targetNeuronName = "24" weight = "1.6636132792278469" />
    <synapse sourceNeuronName = "17" targetNeuronName = "25" weight = "18.022570145121886" />
    <synapse sourceNeuronName = "17" targetNeuronName = "26" weight = "14.158014697135881" />
    <synapse sourceNeuronName = "17" targetNeuronName = "27" weight = "17.0019213801422" />
    <synapse sourceNeuronName = "17" targetNeuronName = "28" weight = "25.38398126858454" />
    <synapse sourceNeuronName = "17" targetNeuronName = "29" weight = "17.231336891916342" />
    <synapse sourceNeuronName = "17" targetNeuronName = "30" weight = "10.680212406452588" />
    <synapse sourceNeuronName = "17" targetNeuronName = "31" weight = "3.505584222246503" />
    <synapse sourceNeuronName = "17" targetNeuronName = "32" weight = "12.396681638435409" />
    <synapse sourceNeuronName = "17" targetNeuronName = "33" weight = "17.257122763150015" />
    <synapse sourceNeuronName = "17" targetNeuronName = "34" weight = "9.086700400563892" />
    <synapse sourceNeuronName = "17" targetNeuronName = "35" weight = "17.413457731698593" />
    <synapse sourceNeuronName = "17" targetNeuronName = "36" weight = "24.686233768918406" />
    <synapse sourceNeuronName = "17" targetNeuronName = "37" weight = "12.008361287284718" />
    <synapse sourceNeuronName = "17" targetNeuronName = "38" weight = "20.528533936562543" />
    <synapse sourceNeuronName = "17" targetNeuronName = "39" weight = "11.94626718330084" />
    <synapse sourceNeuronName = "17" targetNeuronName = "40" weight = "7.277456246454486" />
    <synapse sourceNeuronName = "17" targetNeuronName = "41" weight = "25.58943192521307" />
    <synapse sourceNeuronName = "17" targetNeuronName = "42" weight = "18.57781601151409" />
    <synapse sourceNeuronName = "17" targetNeuronName = "43" weight = "12.468451842563281" />
    <synapse sourceNeuronName = "17" targetNeuronName = "44" weight = "0.20824845727465235" />
    <synapse sourceNeuronName = "17" targetNeuronName = "45" weight = "18.842912285147495" />
    <synapse sourceNeuronName = "18" targetNeuronName = "19" weight = "3.2653593853262946" />
    <synapse sourceNeuronName = "18" targetNeuronName = "20" weight = "1.1643712041068537" />
    <synapse sourceNeuronName = "18" targetNeuronName = "21" weight = "17.679809095552848" />
    <synapse sourceNeuronName = "18" targetNeuronName = "22" weight = "0.8335373723232364" />
    <synapse sourceNeuronName = "18" targetNeuronName = "23" weight = "25.408915096460383" />
    <synapse sourceNeuronName = "18" targetNeuronName = "24" weight = "19.340721108129173" />
    <synapse sourceNeuronName = "18" targetNeuronName = "25" weight = "13.032991849699814" />
    <synapse sourceNeuronName = "18" targetNeuronName = "26" weight = "-0.9639926044715353" />
    <synapse sourceNeuronName = "18" targetNeuronName = "27" weight = "18.941071988430107" />
    <synapse sourceNeuronName = "18" targetNeuronName = "28" weight = "7.156359636697715" />
    <synapse sourceNeuronName = "18" targetNeuronName = "29" weight = "24.096196810256846" />
    <synapse sourceNeuronName = "18" targetNeuronName = "30" weight = "14.259578727535322" />
    <synapse sourceNeuronName = "18" targetNeuronName = "31" weight = "-0.13465830514304267" />
    <synapse sourceNeuronName = "18" targetNeuronName = "32" weight = "19.908400651478924" />
    <synapse sourceNeuronName = "18" targetNeuronName = "33" weight = "6.666885199713025" />
    <synapse sourceNeuronName = "18" targetNeuronName = "34" weight = "20.915145120377602" />
    <synapse sourceNeuronName = "18" targetNeuronName = "35" weight = "0.9155121394597223" />
    <synapse sourceNeuronName = "18" targetNeuronName = "36" weight = "15.350054349864475" />
    <synapse sourceNeuronName = "18" targetNeuronName = "37" weight = "22.43827512349957" />
    <synapse sourceNeuronName = "18" targetNeuronName = "38" weight = "11.694170673860077" />
    <synapse sourceNeuronName = "18" targetNeuronName = "39" weight = "8.335327664792574" />
    <synapse sourceNeuronName = "18" targetNeuronName = "40" weight = "-0.981505659641753" />
    <synapse sourceNeuronName = "18" targetNeuronName = "41" weight = "10.135757693258949" />
    <synapse sourceNeuronName = "18" targetNeuronName = "42" weight = "-0.1106738777216979" />
    <synapse sourceNeuronName = "18" targetNeuronName = "43" weight = "7.787006047676037" />
    <synapse sourceNeuronName = "18" targetNeuronName = "44" weight = "16.204963798251857" />
    <synapse sourceNeuronName = "18" targetNeuronName = "45" weight = "25.528977476826448" />
</neuralNetwork>