<neuralNetwork>
    <neuron name = "0" type = "sensor" linkName = "Torso" />
    <neuron name = "1" type = "sensor" linkName = "Leg2" />
    <neuron name = "2" type = "sensor" linkName = "Leg6" />
    <neuron name = "3" type = "sensor" linkName = "Leg10" />
    <neuron name = "4" type = "sensor" linkName = "Leg11" />
    <neuron name = "5" type = "sensor" linkName = "Leg12" />
    <neuron name = "6" type = "sensor" linkName = "Leg14" />
    <neuron name = "7" type = "sensor" linkName = "Leg16" />
    <neuron name = "8" type = "sensor" linkName = "Leg17" />
    <neuron name = "9" type = "sensor" linkName = "Leg21" />
    <neuron name = "10" type = "sensor" linkName = "Leg24" />
    <neuron name = "11" type = "sensor" linkName = "Leg25" />
    <neuron name = "12" type = "sensor" linkName = "Leg26" />
    <neuron name = "13" type = "motor"  jointName = "Torso_Leg1" />
    <neuron name = "14" type = "motor"  jointName = "Torso_Leg2" />
    <neuron name = "15" type = "motor"  jointName = "Leg2_Leg3" />
    <neuron name = "16" type = "motor"  jointName = "Leg3_Leg4" />
    <neuron name = "17" type = "motor"  jointName = "Leg1_Leg5" />
    <neuron name = "18" type = "motor"  jointName = "Leg2_Leg6" />
    <neuron name = "19" type = "motor"  jointName = "Leg4_Leg7" />
    <neuron name = "20" type = "motor"  jointName = "Leg6_Leg8" />
    <neuron name = "21" type = "motor"  jointName = "Leg1_Leg9" />
    <neuron name = "22" type = "motor"  jointName = "Leg4_Leg10" />
    <neuron name = "23" type = "motor"  jointName = "Leg3_Leg11" />
    <neuron name = "24" type = "motor"  jointName = "Leg10_Leg12" />
    <neuron name = "25" type = "motor"  jointName = "Leg8_Leg13" />
    <neuron name = "26" type = "motor"  jointName = "Leg6_Leg14" />
    <neuron name = "27" type = "motor"  jointName = "Torso_Leg15" />
    <neuron name = "28" type = "motor"  jointName = "Leg13_Leg16" />
    <neuron name = "29" type = "motor"  jointName = "Leg14_Leg17" />
    <neuron name = "30" type = "motor"  jointName = "Leg5_Leg18" />
    <neuron name = "31" type = "motor"  jointName = "Leg17_Leg19" />
    <neuron name = "32" type = "motor"  jointName = "Leg16_Leg20" />
    <neuron name = "33" type = "motor"  jointName = "Leg6_Leg21" />
    <neuron name = "34" type = "motor"  jointName = "Leg9_Leg22" />
    <neuron name = "35" type = "motor"  jointName = "Leg13_Leg23" />
    <neuron name = "36" type = "motor"  jointName = "Leg17_Leg24" />
    <neuron name = "37" type = "motor"  jointName = "Leg8_Leg25" />
    <neuron name = "38" type = "motor"  jointName = "Leg12_Leg26" />
    <synapse sourceNeuronName = "0" targetNeuronName = "13" weight = "14.50294490910894" />
    <synapse sourceNeuronName = "0" targetNeuronName = "14" weight = "20.955300003369246" />
    <synapse sourceNeuronName = "0" targetNeuronName = "15" weight = "14.665355339617866" />
    <synapse sourceNeuronName = "0" targetNeuronName = "16" weight = "0.3563919560169555" />
    <synapse sourceNeuronName = "0" targetNeuronName = "17" weight = "8.085166932943833" />
    <synapse sourceNeuronName = "0" targetNeuronName = "18" weight = "0.7278438500355122" />
    <synapse sourceNeuronName = "0" targetNeuronName = "19" weight = "8.654574252895513" />
    <synapse sourceNeuronName = "0" targetNeuronName = "20" weight = "21.83006274827901" />
    <synapse sourceNeuronName = "0" targetNeuronName = "21" weight = "-0.18714629187730725" />
    <synapse sourceNeuronName = "0" targetNeuronName = "22" weight = "2.1066483962783664" />
    <synapse sourceNeuronName = "0" targetNeuronName = "23" weight = "13.52779315239677" />
    <synapse sourceNeuronName = "0" targetNeuronName = "24" weight = "21.102972483865237" />
    <synapse sourceNeuronName = "0" targetNeuronName = "25" weight = "14.699152104341366" />
    <synapse sourceNeuronName = "0" targetNeuronName = "26" weight = "16.324683636356077" />
    <synapse sourceNeuronName = "0" targetNeuronName = "27" weight = "23.36643402187422" />
    <synapse sourceNeuronName = "0" targetNeuronName = "28" weight = "7.549542437319257" />
    <synapse sourceNeuronName = "0" targetNeuronName = "29" weight = "-0.9884954248047868" />
    <synapse sourceNeuronName = "0" targetNeuronName = "30" weight = "13.81846843059038" />
    <synapse sourceNeuronName = "0" targetNeuronName = "31" weight = "22.923532331641574" />
    <synapse sourceNeuronName = "0" targetNeuronName = "32" weight = "22.972281462297246" />
    <synapse sourceNeuronName = "0" targetNeuronName = "33" weight = "5.019079729476836" />
    <synapse sourceNeuronName = "0" targetNeuronName = "34" weight = "20.60359978170443" />
    <synapse sourceNeuronName = "0" targetNeuronName = "35" weight = "3.0410081725196214" />
    <synapse sourceNeuronName = "0" targetNeuronName = "36" weight = "11.889396857657324" />
    <synapse sourceNeuronName = "0" targetNeuronName = "37" weight = "-0.11256710975122775" />
    <synapse sourceNeuronName = "0" targetNeuronName = "38" weight = "1.9182289889057893" />
    <synapse sourceNeuronName = "1" targetNeuronName = "13" weight = "13.169078552321757" />
    <synapse sourceNeuronName = "1" targetNeuronName = "14" weight = "21.819143066750296" />
    <synapse sourceNeuronName = "1" targetNeuronName = "15" weight = "19.849112625824052" />
    <synapse sourceNeuronName = "1" targetNeuronName = "16" weight = "17.53534696152319" />
    <synapse sourceNeuronName = "1" targetNeuronName = "17" weight = "9.793422116356306" />
    <synapse sourceNeuronName = "1" targetNeuronName = "18" weight = "1.0111719851812069" />
    <synapse sourceNeuronName = "1" targetNeuronName = "19" weight = "11.822479409285762" />
    <synapse sourceNeuronName = "1" targetNeuronName = "20" weight = "9.670347159980333" />
    <synapse sourceNeuronName = "1" targetNeuronName = "21" weight = "5.060614463387601" />
    <synapse sourceNeuronName = "1" targetNeuronName = "22" weight = "5.797022694729574" />
    <synapse sourceNeuronName = "1" targetNeuronName = "23" weight = "11.46283045955046" />
    <synapse sourceNeuronName = "1" targetNeuronName = "24" weight = "24.609363658158337" />
    <synapse sourceNeuronName = "1" targetNeuronName = "25" weight = "17.989948909353167" />
    <synapse sourceNeuronName = "1" targetNeuronName = "26" weight = "19.701971975610363" />
    <synapse sourceNeuronName = "1" targetNeuronName = "27" weight = "6.557930463463276" />
    <synapse sourceNeuronName = "1" targetNeuronName = "28" weight = "7.204931397938866" />
    <synapse sourceNeuronName = "1" targetNeuronName = "29" weight = "6.324989432020608" />
    <synapse sourceNeuronName = "1" targetNeuronName = "30" weight = "5.241390198072904" />
    <synapse sourceNeuronName = "1" targetNeuronName = "31" weight = "5.946137903604767" />
    <synapse sourceNeuronName = "1" targetNeuronName = "32" weight = "0.6019823586330448" />
    <synapse sourceNeuronName = "1" targetNeuronName = "33" weight = "1.7824359395286247" />
    <synapse sourceNeuronName = "1" targetNeuronName = "34" weight = "9.102513245984001" />
    <synapse sourceNeuronName = "1" targetNeuronName = "35" weight = "7.26706288600446" />
    <synapse sourceNeuronName = "1" targetNeuronName = "36" weight = "22.68950808790963" />
    <synapse sourceNeuronName = "1" targetNeuronName = "37" weight = "24.01713776991014" />
    <synapse sourceNeuronName = "1" targetNeuronName = "38" weight = "11.740400398028315" />
    <synapse sourceNeuronName = "2" targetNeuronName = "13" weight = "0.8153043102972612" />
    <synapse sourceNeuronName = "2" targetNeuronName = "14" weight = "1.8466654822131083" />
    <synapse sourceNeuronName = "2" targetNeuronName = "15" weight = "4.7683899072589675" />
    <synapse sourceNeuronName = "2" targetNeuronName = "16" weight = "10.278012938696929" />
    <synapse sourceNeuronName = "2" targetNeuronName = "17" weight = "20.07250307520646" />
    <synapse sourceNeuronName = "2" targetNeuronName = "18" weight = "23.744190273104493" />
    <synapse sourceNeuronName = "2" targetNeuronName = "19" weight = "1.6700912119216205" />
    <synapse sourceNeuronName = "2" targetNeuronName = "20" weight = "7.199816874584833" />
    <synapse sourceNeuronName = "2" targetNeuronName = "21" weight = "-0.8249478279363887" />
    <synapse sourceNeuronName = "2" targetNeuronName = "22" weight = "6.94197607626856" />
    <synapse sourceNeuronName = "2" targetNeuronName = "23" weight = "22.894187796816155" />
    <synapse sourceNeuronName = "2" targetNeuronName = "24" weight = "1.4025941738278114" />
    <synapse sourceNeuronName = "2" targetNeuronName = "25" weight = "14.875316639414505" />
    <synapse sourceNeuronName = "2" targetNeuronName = "26" weight = "21.582546683062827" />
    <synapse sourceNeuronName = "2" targetNeuronName = "27" weight = "13.558856584020132" />
    <synapse sourceNeuronName = "2" targetNeuronName = "28" weight = "8.749971765795102" />
    <synapse sourceNeuronName = "2" targetNeuronName = "29" weight = "9.846197844107131" />
    <synapse sourceNeuronName = "2" targetNeuronName = "30" weight = "-0.8377211995891063" />
    <synapse sourceNeuronName = "2" targetNeuronName = "31" weight = "8.151039516363571" />
    <synapse sourceNeuronName = "2" targetNeuronName = "32" weight = "19.3608952735327" />
    <synapse sourceNeuronName = "2" targetNeuronName = "33" weight = "21.69469198926502" />
    <synapse sourceNeuronName = "2" targetNeuronName = "34" weight = "10.527917565715152" />
    <synapse sourceNeuronName = "2" targetNeuronName = "35" weight = "21.615251555303065" />
    <synapse sourceNeuronName = "2" targetNeuronName = "36" weight = "15.92905978720043" />
    <synapse sourceNeuronName = "2" targetNeuronName = "37" weight = "1.2798883710478597" />
    <synapse sourceNeuronName = "2" targetNeuronName = "38" weight = "19.556544054452765" />
    <synapse sourceNeuronName = "3" targetNeuronName = "13" weight = "10.507165425829633" />
    <synapse sourceNeuronName = "3" targetNeuronName = "14" weight = "8.380587955701793" />
    <synapse sourceNeuronName = "3" targetNeuronName = "15" weight = "23.88765424898979" />
    <synapse sourceNeuronName = "3" targetNeuronName = "16" weight = "6.477822012727199" />
    <synapse sourceNeuronName = "3" targetNeuronName = "17" weight = "17.938127768037926" />
    <synapse sourceNeuronName = "3" targetNeuronName = "18" weight = "12.208636845491945" />
    <synapse sourceNeuronName = "3" targetNeuronName = "19" weight = "3.923076386845329" />
    <synapse sourceNeuronName = "3" targetNeuronName = "20" weight = "12.85640127693967" />
    <synapse sourceNeuronName = "3" targetNeuronName = "21" weight = "6.443958179017535" />
    <synapse sourceNeuronName = "3" targetNeuronName = "22" weight = "3.9111448287846002" />
    <synapse sourceNeuronName = "3" targetNeuronName = "23" weight = "19.36506898260415" />
    <synapse sourceNeuronName = "3" targetNeuronName = "24" weight = "9.107762843485585" />
    <synapse sourceNeuronName = "3" targetNeuronName = "25" weight = "-0.8221027702874226" />
    <synapse sourceNeuronName = "3" targetNeuronName = "26" weight = "21.569704468761987" />
    <synapse sourceNeuronName = "3" targetNeuronName = "27" weight = "3.507730225654515" />
    <synapse sourceNeuronName = "3" targetNeuronName = "28" weight = "14.253822818451527" />
    <synapse sourceNeuronName = "3" targetNeuronName = "29" weight = "1.0059589642601723" />
    <synapse sourceNeuronName = "3" targetNeuronName = "30" weight = "3.81526361770319" />
    <synapse sourceNeuronName = "3" targetNeuronName = "31" weight = "1.7384220025173311" />
    <synapse sourceNeuronName = "3" targetNeuronName = "32" weight = "10.58715131136295" />
    <synapse sourceNeuronName = "3" targetNeuronName = "33" weight = "15.763289887977265" />
    <synapse sourceNeuronName = "3" targetNeuronName = "34" weight = "14.230794604420188" />
    <synapse sourceNeuronName = "3" targetNeuronName = "35" weight = "2.566512312405648" />
    <synapse sourceNeuronName = "3" targetNeuronName = "36" weight = "-0.5795068202108344" />
    <synapse sourceNeuronName = "3" targetNeuronName = "37" weight = "17.31180229616253" />
    <synapse sourceNeuronName = "3" targetNeuronName = "38" weight = "19.971073543216598" />
    <synapse sourceNeuronName = "4" targetNeuronName = "13" weight = "20.97891623556738" />
    <synapse sourceNeuronName = "4" targetNeuronName = "14" weight = "8.818524893464266" />
    <synapse sourceNeuronName = "4" targetNeuronName = "15" weight = "10.08882057083913" />
    <synapse sourceNeuronName = "4" targetNeuronName = "16" weight = "24.07281293709768" />
    <synapse sourceNeuronName = "4" targetNeuronName = "17" weight = "14.057829863804477" />
    <synapse sourceNeuronName = "4" targetNeuronName = "18" weight = "13.561982989381898" />
    <synapse sourceNeuronName = "4" targetNeuronName = "19" weight = "0.5312473583676758" />
    <synapse sourceNeuronName = "4" targetNeuronName = "20" weight = "-0.7151101507849" />
    <synapse sourceNeuronName = "4" targetNeuronName = "21" weight = "15.283122161124773" />
    <synapse sourceNeuronName = "4" targetNeuronName = "22" weight = "4.132076840871239" />
    <synapse sourceNeuronName = "4" targetNeuronName = "23" weight = "6.10711948485509" />
    <synapse sourceNeuronName = "4" targetNeuronName = "24" weight = "9.982585155976542" />
    <synapse sourceNeuronName = "4" targetNeuronName = "25" weight = "10.675600571138872" />
    <synapse sourceNeuronName = "4" targetNeuronName = "26" weight = "19.471089591023617" />
    <synapse sourceNeuronName = "4" targetNeuronName = "27" weight = "20.185054416589544" />
    <synapse sourceNeuronName = "4" targetNeuronName = "28" weight = "-0.5332151602205564" />
    <synapse sourceNeuronName = "4" targetNeuronName = "29" weight = "10.182683033381764" />
    <synapse sourceNeuronName = "4" targetNeuronName = "30" weight = "24.126094838370925" />
    <synapse sourceNeuronName = "4" targetNeuronName = "31" weight = "0.31354902247225414" />
    <synapse sourceNeuronName = "4" targetNeuronName = "32" weight = "10.173150455390024" />
    <synapse sourceNeuronName = "4" targetNeuronName = "33" weight = "14.649590364263076" />
    <synapse sourceNeuronName = "4" targetNeuronName = "34" weight = "1.693868312371059" />
    <synapse sourceNeuronName = "4" targetNeuronName = "35" weight = "20.925102179264552" />
    <synapse sourceNeuronName = "4" targetNeuronName = "36" weight = "11.884142095968112" />
    <synapse sourceNeuronName = "4" targetNeuronName = "37" weight = "24.874267513924217" />
    <synapse sourceNeuronName = "4" targetNeuronName = "38" weight = "5.360994232522951" />
    <synapse sourceNeuronName = "5" targetNeuronName = "13" weight = "5.074155262769307" />
    <synapse sourceNeuronName = "5" targetNeuronName = "14" weight = "14.472416646632189" />
    <synapse sourceNeuronName = "5" targetNeuronName = "15" weight = "18.150552044110906" />
    <synapse sourceNeuronName = "5" targetNeuronName = "16" weight = "-0.7016094365556875" />
    <synapse sourceNeuronName = "5" targetNeuronName = "17" weight = "9.539160568997133" />
    <synapse sourceNeuronName = "5" targetNeuronName = "18" weight = "17.911366803240366" />
    <synapse sourceNeuronName = "5" targetNeuronName = "19" weight = "14.220812255231547" />
    <synapse sourceNeuronName = "5" targetNeuronName = "20" weight = "9.806787359393129" />
    <synapse sourceNeuronName = "5" targetNeuronName = "21" weight = "15.177179326658504" />
    <synapse sourceNeuronName = "5" targetNeuronName = "22" weight = "9.13221193346754" />
    <synapse sourceNeuronName = "5" targetNeuronName = "23" weight = "18.106733620989854" />
    <synapse sourceNeuronName = "5" targetNeuronName = "24" weight = "19.81831102354003" />
    <synapse sourceNeuronName = "5" targetNeuronName = "25" weight = "12.017104737962873" />
    <synapse sourceNeuronName = "5" targetNeuronName = "26" weight = "11.587820842647863" />
    <synapse sourceNeuronName = "5" targetNeuronName = "27" weight = "10.059200281677724" />
    <synapse sourceNeuronName = "5" targetNeuronName = "28" weight = "2.1921454252411126" />
    <synapse sourceNeuronName = "5" targetNeuronName = "29" weight = "9.83986807491248" />
    <synapse sourceNeuronName = "5" targetNeuronName = "30" weight = "18.800597027229095" />
    <synapse sourceNeuronName = "5" targetNeuronName = "31" weight = "17.892511484854655" />
    <synapse sourceNeuronName = "5" targetNeuronName = "32" weight = "21.33389073124962" />
    <synapse sourceNeuronName = "5" targetNeuronName = "33" weight = "21.22313118154899" />
    <synapse sourceNeuronName = "5" targetNeuronName = "34" weight = "11.396034900392904" />
    <synapse sourceNeuronName = "5" targetNeuronName = "35" weight = "9.735836165451355" />
    <synapse sourceNeuronName = "5" targetNeuronName = "36" weight = "9.407875447601885" />
    <synapse sourceNeuronName = "5" targetNeuronName = "37" weight = "5.972426367877269" />
    <synapse sourceNeuronName = "5" targetNeuronName = "38" weight = "18.223561538805104" />
    <synapse sourceNeuronName = "6" targetNeuronName = "13" weight = "12.16625838249311" />
    <synapse sourceNeuronName = "6" targetNeuronName = "14" weight = "11.525425712619487" />
    <synapse sourceNeuronName = "6" targetNeuronName = "15" weight = "2.8422903735440492" />
    <synapse sourceNeuronName = "6" targetNeuronName = "16" weight = "10.14017063286704" />
    <synapse sourceNeuronName = "6" targetNeuronName = "17" weight = "-0.5908640398406539" />
    <synapse sourceNeuronName = "6" targetNeuronName = "18" weight = "14.485848379449813" />
    <synapse sourceNeuronName = "6" targetNeuronName = "19" weight = "1.3455975345347273" />
    <synapse sourceNeuronName = "6" targetNeuronName = "20" weight = "8.55586062273499" />
    <synapse sourceNeuronName = "6" targetNeuronName = "21" weight = "17.706919093687898" />
    <synapse sourceNeuronName = "6" targetNeuronName = "22" weight = "10.753423040960772" />
    <synapse sourceNeuronName = "6" targetNeuronName = "23" weight = "19.53874920242388" />
    <synapse sourceNeuronName = "6" targetNeuronName = "24" weight = "16.054311797495455" />
    <synapse sourceNeuronName = "6" targetNeuronName = "25" weight = "5.430015266147262" />
    <synapse sourceNeuronName = "6" targetNeuronName = "26" weight = "2.9328077620503636" />
    <synapse sourceNeuronName = "6" targetNeuronName = "27" weight = "3.9488014554827133" />
    <synapse sourceNeuronName = "6" targetNeuronName = "28" weight = "14.634128435381898" />
    <synapse sourceNeuronName = "6" targetNeuronName = "29" weight = "21.42042092726031" />
    <synapse sourceNeuronName = "6" targetNeuronName = "30" weight = "-0.6365228957013382" />
    <synapse sourceNeuronName = "6" targetNeuronName = "31" weight = "0.7050415258432856" />
    <synapse sourceNeuronName = "6" targetNeuronName = "32" weight = "15.917545080032717" />
    <synapse sourceNeuronName = "6" targetNeuronName = "33" weight = "1.477793168875869" />
    <synapse sourceNeuronName = "6" targetNeuronName = "34" weight = "20.349782706160227" />
    <synapse sourceNeuronName = "6" targetNeuronName = "35" weight = "11.206714101812366" />
    <synapse sourceNeuronName = "6" targetNeuronName = "36" weight = "6.660602381841691" />
    <synapse sourceNeuronName = "6" targetNeuronName = "37" weight = "14.574242869683276" />
    <synapse sourceNeuronName = "6" targetNeuronName = "38" weight = "20.065793733802593" />
    <synapse sourceNeuronName = "7" targetNeuronName = "13" weight = "4.426135187528637" />
    <synapse sourceNeuronName = "7" targetNeuronName = "14" weight = "19.546898494298127" />
    <synapse sourceNeuronName = "7" targetNeuronName = "15" weight = "4.72763058861374" />
    <synapse sourceNeuronName = "7" targetNeuronName = "16" weight = "7.99846136138024" />
    <synapse sourceNeuronName = "7" targetNeuronName = "17" weight = "24.875605655723938" />
    <synapse sourceNeuronName = "7" targetNeuronName = "18" weight = "9.729378554080316" />
    <synapse sourceNeuronName = "7" targetNeuronName = "19" weight = "14.75766120263556" />
    <synapse sourceNeuronName = "7" targetNeuronName = "20" weight = "8.373649594779563" />
    <synapse sourceNeuronName = "7" targetNeuronName = "21" weight = "22.67991894990911" />
    <synapse sourceNeuronName = "7" targetNeuronName = "22" weight = "19.329069634737102" />
    <synapse sourceNeuronName = "7" targetNeuronName = "23" weight = "24.475739620691645" />
    <synapse sourceNeuronName = "7" targetNeuronName = "24" weight = "7.632273871590856" />
    <synapse sourceNeuronName = "7" targetNeuronName = "25" weight = "17.801935767723315" />
    <synapse sourceNeuronName = "7" targetNeuronName = "26" weight = "3.4761586446713695" />
    <synapse sourceNeuronName = "7" targetNeuronName = "27" weight = "12.63837057832695" />
    <synapse sourceNeuronName = "7" targetNeuronName = "28" weight = "15.095973989036487" />
    <synapse sourceNeuronName = "7" targetNeuronName = "29" weight = "16.702319883360154" />
    <synapse sourceNeuronName = "7" targetNeuronName = "30" weight = "23.256786459656" />
    <synapse sourceNeuronName = "7" targetNeuronName = "31" weight = "13.79157830540123" />
    <synapse sourceNeuronName = "7" targetNeuronName = "32" weight = "4.181816079165591" />
    <synapse sourceNeuronName = "7" targetNeuronName = "33" weight = "21.37216872768368" />
    <synapse sourceNeuronName = "7" targetNeuronName = "34" weight = "-0.47242337281343305" />
    <synapse sourceNeuronName = "7" targetNeuronName = "35" weight = "0.007966869678299515" />
    <synapse sourceNeuronName = "7" targetNeuronName = "36" weight = "16.97690814188339" />
    <synapse sourceNeuronName = "7" targetNeuronName = "37" weight = "4.124114788755792" />
    <synapse sourceNeuronName = "7" targetNeuronName = "38" weight = "23.743705766407004" />
    <synapse sourceNeuronName = "8" targetNeuronName = "13" weight = "-0.8337597542128501" />
    <synapse sourceNeuronName = "8" targetNeuronName = "14" weight = "24.64140740570732" />
    <synapse sourceNeuronName = "8" targetNeuronName = "15" weight = "-0.861076877930645" />
    <synapse sourceNeuronName = "8" targetNeuronName = "16" weight = "14.683976451897806" />
    <synapse sourceNeuronName = "8" targetNeuronName = "17" weight = "19.359247014052855" />
    <synapse sourceNeuronName = "8" targetNeuronName = "18" weight = "14.975792382136664" />
    <synapse sourceNeuronName = "8" targetNeuronName = "19" weight = "7.633884426315278" />
    <synapse sourceNeuronName = "8" targetNeuronName = "20" weight = "5.5221279687129705" />
    <synapse sourceNeuronName = "8" targetNeuronName = "21" weight = "16.759509691338764" />
    <synapse sourceNeuronName = "8" targetNeuronName = "22" weight = "10.023567294407274" />
    <synapse sourceNeuronName = "8" targetNeuronName = "23" weight = "8.20566571209423" />
    <synapse sourceNeuronName = "8" targetNeuronName = "24" weight = "18.116631338235077" />
    <synapse sourceNeuronName = "8" targetNeuronName = "25" weight = "0.16761417255561684" />
    <synapse sourceNeuronName = "8" targetNeuronName = "26" weight = "6.890166834552728" />
    <synapse sourceNeuronName = "8" targetNeuronName = "27" weight = "0.5278896180476387" />
    <synapse sourceNeuronName = "8" targetNeuronName = "28" weight = "21.59163997079924" />
    <synapse sourceNeuronName = "8" targetNeuronName = "29" weight = "13.495904905798348" />
    <synapse sourceNeuronName = "8" targetNeuronName = "30" weight = "10.005769087666154" />
    <synapse sourceNeuronName = "8" targetNeuronName = "31" weight = "24.648278154350464" />
    <synapse sourceNeuronName = "8" targetNeuronName = "32" weight = "-0.6248336947036996" />
    <synapse sourceNeuronName = "8" targetNeuronName = "33" weight = "10.282288363434908" />
    <synapse sourceNeuronName = "8" targetNeuronName = "34" weight = "21.424393019694765" />
    <synapse sourceNeuronName = "8" targetNeuronName = "35" weight = "0.8223915847200414" />
    <synapse sourceNeuronName = "8" targetNeuronName = "36" weight = "11.665014607706613" />
    <synapse sourceNeuronName = "8" targetNeuronName = "37" weight = "9.930504989970649" />
    <synapse sourceNeuronName = "8" targetNeuronName = "38" weight = "22.171765732685433" />
    <synapse sourceNeuronName = "9" targetNeuronName = "13" weight = "16.666381849139587" />
    <synapse sourceNeuronName = "9" targetNeuronName = "14" weight = "15.845627624322187" />
    <synapse sourceNeuronName = "9" targetNeuronName = "15" weight = "2.197013144400816" />
    <synapse sourceNeuronName = "9" targetNeuronName = "16" weight = "22.932069296496376" />
    <synapse sourceNeuronName = "9" targetNeuronName = "17" weight = "19.186220392088984" />
    <synapse sourceNeuronName = "9" targetNeuronName = "18" weight = "17.73849438942448" />
    <synapse sourceNeuronName = "9" targetNeuronName = "19" weight = "7.956738329170475" />
    <synapse sourceNeuronName = "9" targetNeuronName = "20" weight = "3.0226521901148296" />
    <synapse sourceNeuronName = "9" targetNeuronName = "21" weight = "3.427757465487815" />
    <synapse sourceNeuronName = "9" targetNeuronName = "22" weight = "10.404286824701671" />
    <synapse sourceNeuronName = "9" targetNeuronName = "23" weight = "16.991042329663205" />
    <synapse sourceNeuronName = "9" targetNeuronName = "24" weight = "15.99066035381357" />
    <synapse sourceNeuronName = "9" targetNeuronName = "25" weight = "24.42299434345695" />
    <synapse sourceNeuronName = "9" targetNeuronName = "26" weight = "17.444963456732506" />
    <synapse sourceNeuronName = "9" targetNeuronName = "27" weight = "23.362555977025092" />
    <synapse sourceNeuronName = "9" targetNeuronName = "28" weight = "14.511405766327888" />
    <synapse sourceNeuronName = "9" targetNeuronName = "29" weight = "19.888299617534667" />
    <synapse sourceNeuronName = "9" targetNeuronName = "30" weight = "4.499784526936447" />
    <synapse sourceNeuronName = "9" targetNeuronName = "31" weight = "-0.39708328755083167" />
    <synapse sourceNeuronName = "9" targetNeuronName = "32" weight = "4.051725694867587" />
    <synapse sourceNeuronName = "9" targetNeuronName = "33" weight = "12.959712892928142" />
    <synapse sourceNeuronName = "9" targetNeuronName = "34" weight = "6.498241707049596" />
    <synapse sourceNeuronName = "9" targetNeuronName = "35" weight = "8.042789188237625" />
    <synapse sourceNeuronName = "9" targetNeuronName = "36" weight = "0.8755225314250648" />
    <synapse sourceNeuronName = "9" targetNeuronName = "37" weight = "16.11189426326528" />
    <synapse sourceNeuronName = "9" targetNeuronName = "38" weight = "20.354726885579684" />
    <synapse sourceNeuronName = "10" targetNeuronName = "13" weight = "20.262750290693653" />
    <synapse sourceNeuronName = "10" targetNeuronName = "14" weight = "18.073367493081022" />
    <synapse sourceNeuronName = "10" targetNeuronName = "15" weight = "9.936951087288298" />
    <synapse sourceNeuronName = "10" targetNeuronName = "16" weight = "7.921284033675345" />
    <synapse sourceNeuronName = "10" targetNeuronName = "17" weight = "0.8576619449156206" />
    <synapse sourceNeuronName = "10" targetNeuronName = "18" weight = "1.1387332068606995" />
    <synapse sourceNeuronName = "10" targetNeuronName = "19" weight = "11.66942538569527" />
    <synapse sourceNeuronName = "10" targetNeuronName = "20" weight = "20.76226018133032" />
    <synapse sourceNeuronName = "10" targetNeuronName = "21" weight = "16.47020807741423" />
    <synapse sourceNeuronName = "10" targetNeuronName = "22" weight = "23.045507784517373" />
    <synapse sourceNeuronName = "10" targetNeuronName = "23" weight = "16.84514328438601" />
    <synapse sourceNeuronName = "10" targetNeuronName = "24" weight = "0.9743375622659414" />
    <synapse sourceNeuronName = "10" targetNeuronName = "25" weight = "21.512648197767295" />
    <synapse sourceNeuronName = "10" targetNeuronName = "26" weight = "4.328028860370988" />
    <synapse sourceNeuronName = "10" targetNeuronName = "27" weight = "2.7341798470527436" />
    <synapse sourceNeuronName = "10" targetNeuronName = "28" weight = "13.571728566626838" />
    <synapse sourceNeuronName = "10" targetNeuronName = "29" weight = "9.555115069383797" />
    <synapse sourceNeuronName = "10" targetNeuronName = "30" weight = "4.156018442959985" />
    <synapse sourceNeuronName = "10" targetNeuronName = "31" weight = "3.424982756912101" />
    <synapse sourceNeuronName = "10" targetNeuronName = "32" weight = "10.436030419848521" />
    <synapse sourceNeuronName = "10" targetNeuronName = "33" weight = "8.27975049458982" />
    <synapse sourceNeuronName = "10" targetNeuronName = "34" weight = "22.22507853005254" />
    <synapse sourceNeuronName = "10" targetNeuronName = "35" weight = "20.80545821572841" />
    <synapse sourceNeuronName = "10" targetNeuronName = "36" weight = "3.2072659446450658" />
    <synapse sourceNeuronName = "10" targetNeuronName = "37" weight = "3.80140617785876" />
    <synapse sourceNeuronName = "10" targetNeuronName = "38" weight = "21.754350045224736" />
    <synapse sourceNeuronName = "11" targetNeuronName = "13" weight = "8.978053587614781" />
    <synapse sourceNeuronName = "11" targetNeuronName = "14" weight = "22.577992336274388" />
    <synapse sourceNeuronName = "11" targetNeuronName = "15" weight = "8.600755632828228" />
    <synapse sourceNeuronName = "11" targetNeuronName = "16" weight = "3.0176029644186277" />
    <synapse sourceNeuronName = "11" targetNeuronName = "17" weight = "18.774716229166923" />
    <synapse sourceNeuronName = "11" targetNeuronName = "18" weight = "6.061085567092009" />
    <synapse sourceNeuronName = "11" targetNeuronName = "19" weight = "5.502569330545082" />
    <synapse sourceNeuronName = "11" targetNeuronName = "20" weight = "14.673135548217568" />
    <synapse sourceNeuronName = "11" targetNeuronName = "21" weight = "0.6067506750034961" />
    <synapse sourceNeuronName = "11" targetNeuronName = "22" weight = "10.304836910340109" />
    <synapse sourceNeuronName = "11" targetNeuronName = "23" weight = "24.791737220943435" />
    <synapse sourceNeuronName = "11" targetNeuronName = "24" weight = "22.409112621749752" />
    <synapse sourceNeuronName = "11" targetNeuronName = "25" weight = "1.8925404867874822" />
    <synapse sourceNeuronName = "11" targetNeuronName = "26" weight = "11.365363584112522" />
    <synapse sourceNeuronName = "11" targetNeuronName = "27" weight = "17.466851921744045" />
    <synapse sourceNeuronName = "11" targetNeuronName = "28" weight = "7.887286785448184" />
    <synapse sourceNeuronName = "11" targetNeuronName = "29" weight = "7.983635755209436" />
    <synapse sourceNeuronName = "11" targetNeuronName = "30" weight = "22.660312817258816" />
    <synapse sourceNeuronName = "11" targetNeuronName = "31" weight = "10.27978654686917" />
    <synapse sourceNeuronName = "11" targetNeuronName = "32" weight = "11.319006026186274" />
    <synapse sourceNeuronName = "11" targetNeuronName = "33" weight = "20.494616949567558" />
    <synapse sourceNeuronName = "11" targetNeuronName = "34" weight = "23.138901731801525" />
    <synapse sourceNeuronName = "11" targetNeuronName = "35" weight = "3.62250037542095" />
    <synapse sourceNeuronName = "11" targetNeuronName = "36" weight = "1.0859969942853414" />
    <synapse sourceNeuronName = "11" targetNeuronName = "37" weight = "11.243764949444344" />
    <synapse sourceNeuronName = "11" targetNeuronName = "38" weight = "3.0931307217302386" />
    <synapse sourceNeuronName = "12" targetNeuronName = "13" weight = "4.844650668272136" />
    <synapse sourceNeuronName = "12" targetNeuronName = "14" weight = "2.7438357802309583" />
    <synapse sourceNeuronName = "12" targetNeuronName = "15" weight = "2.2101798220806286" />
    <synapse sourceNeuronName = "12" targetNeuronName = "16" weight = "4.347018918558314" />
    <synapse sourceNeuronName = "12" targetNeuronName = "17" weight = "23.856043091563787" />
    <synapse sourceNeuronName = "12" targetNeuronName = "18" weight = "9.765717351396171" />
    <synapse sourceNeuronName = "12" targetNeuronName = "19" weight = "18.988183810126372" />
    <synapse sourceNeuronName = "12" targetNeuronName = "20" weight = "8.052517866923386" />
    <synapse sourceNeuronName = "12" targetNeuronName = "21" weight = "15.42297780562464" />
    <synapse sourceNeuronName = "12" targetNeuronName = "22" weight = "-0.31388500969853483" />
    <synapse sourceNeuronName = "12" targetNeuronName = "23" weight = "20.564641080398612" />
    <synapse sourceNeuronName = "12" targetNeuronName = "24" weight = "1.7031066583221923" />
    <synapse sourceNeuronName = "12" targetNeuronName = "25" weight = "14.25783411426093" />
    <synapse sourceNeuronName = "12" targetNeuronName = "26" weight = "21.01300240868797" />
    <synapse sourceNeuronName = "12" targetNeuronName = "27" weight = "14.095107233194598" />
    <synapse sourceNeuronName = "12" targetNeuronName = "28" weight = "18.304192395369792" />
    <synapse sourceNeuronName = "12" targetNeuronName = "29" weight = "14.461131247400488" />
    <synapse sourceNeuronName = "12" targetNeuronName = "30" weight = "0.7155926006143292" />
    <synapse sourceNeuronName = "12" targetNeuronName = "31" weight = "18.09445501610291" />
    <synapse sourceNeuronName = "12" targetNeuronName = "32" weight = "2.287786884837198" />
    <synapse sourceNeuronName = "12" targetNeuronName = "33" weight = "7.306290528819549" />
    <synapse sourceNeuronName = "12" targetNeuronName = "34" weight = "15.196378814952517" />
    <synapse sourceNeuronName = "12" targetNeuronName = "35" weight = "16.00224858227196" />
    <synapse sourceNeuronName = "12" targetNeuronName = "36" weight = "20.142627012836094" />
    <synapse sourceNeuronName = "12" targetNeuronName = "37" weight = "5.4875399934233355" />
    <synapse sourceNeuronName = "12" targetNeuronName = "38" weight = "5.738597375389654" />
</neuralNetwork>