<neuralNetwork>
    <neuron name = "0" type = "sensor" linkName = "Torso" />
    <neuron name = "1" type = "sensor" linkName = "Leg1" />
    <neuron name = "2" type = "sensor" linkName = "Leg8" />
    <neuron name = "3" type = "sensor" linkName = "Leg15" />
    <neuron name = "4" type = "sensor" linkName = "Leg17" />
    <neuron name = "5" type = "sensor" linkName = "Leg18" />
    <neuron name = "6" type = "sensor" linkName = "Leg19" />
    <neuron name = "7" type = "sensor" linkName = "Leg23" />
    <neuron name = "8" type = "sensor" linkName = "Leg26" />
    <neuron name = "9" type = "sensor" linkName = "Leg28" />
    <neuron name = "10" type = "motor"  jointName = "Torso_Leg1" />
    <neuron name = "11" type = "motor"  jointName = "Leg1_Leg2" />
    <neuron name = "12" type = "motor"  jointName = "Leg1_Leg3" />
    <neuron name = "13" type = "motor"  jointName = "Leg1_Leg4" />
    <neuron name = "14" type = "motor"  jointName = "Leg3_Leg5" />
    <neuron name = "15" type = "motor"  jointName = "Torso_Leg6" />
    <neuron name = "16" type = "motor"  jointName = "Leg3_Leg7" />
    <neuron name = "17" type = "motor"  jointName = "Leg4_Leg8" />
    <neuron name = "18" type = "motor"  jointName = "Leg6_Leg9" />
    <neuron name = "19" type = "motor"  jointName = "Leg2_Leg10" />
    <neuron name = "20" type = "motor"  jointName = "Leg5_Leg11" />
    <neuron name = "21" type = "motor"  jointName = "Leg11_Leg12" />
    <neuron name = "22" type = "motor"  jointName = "Leg11_Leg13" />
    <neuron name = "23" type = "motor"  jointName = "Leg9_Leg14" />
    <neuron name = "24" type = "motor"  jointName = "Leg14_Leg15" />
    <neuron name = "25" type = "motor"  jointName = "Leg8_Leg16" />
    <neuron name = "26" type = "motor"  jointName = "Leg9_Leg17" />
    <neuron name = "27" type = "motor"  jointName = "Leg17_Leg18" />
    <neuron name = "28" type = "motor"  jointName = "Leg6_Leg19" />
    <neuron name = "29" type = "motor"  jointName = "Leg7_Leg20" />
    <neuron name = "30" type = "motor"  jointName = "Leg13_Leg21" />
    <neuron name = "31" type = "motor"  jointName = "Leg12_Leg22" />
    <neuron name = "32" type = "motor"  jointName = "Leg18_Leg23" />
    <neuron name = "33" type = "motor"  jointName = "Leg15_Leg24" />
    <neuron name = "34" type = "motor"  jointName = "Leg14_Leg25" />
    <neuron name = "35" type = "motor"  jointName = "Leg21_Leg26" />
    <neuron name = "36" type = "motor"  jointName = "Leg16_Leg27" />
    <neuron name = "37" type = "motor"  jointName = "Leg12_Leg28" />
    <synapse sourceNeuronName = "0" targetNeuronName = "10" weight = "26.68499198970609" />
    <synapse sourceNeuronName = "0" targetNeuronName = "11" weight = "4.885408718849669" />
    <synapse sourceNeuronName = "0" targetNeuronName = "12" weight = "-0.32554878914167684" />
    <synapse sourceNeuronName = "0" targetNeuronName = "13" weight = "6.693610748190368" />
    <synapse sourceNeuronName = "0" targetNeuronName = "14" weight = "12.044613787588144" />
    <synapse sourceNeuronName = "0" targetNeuronName = "15" weight = "15.724007259135902" />
    <synapse sourceNeuronName = "0" targetNeuronName = "16" weight = "5.840413815508846" />
    <synapse sourceNeuronName = "0" targetNeuronName = "17" weight = "22.508129335450562" />
    <synapse sourceNeuronName = "0" targetNeuronName = "18" weight = "3.3162746367695775" />
    <synapse sourceNeuronName = "0" targetNeuronName = "19" weight = "20.979014080935272" />
    <synapse sourceNeuronName = "0" targetNeuronName = "20" weight = "20.053189787901875" />
    <synapse sourceNeuronName = "0" targetNeuronName = "21" weight = "13.911664666065887" />
    <synapse sourceNeuronName = "0" targetNeuronName = "22" weight = "23.136300051301056" />
    <synapse sourceNeuronName = "0" targetNeuronName = "23" weight = "15.085062900175025" />
    <synapse sourceNeuronName = "0" targetNeuronName = "24" weight = "16.77636055590966" />
    <synapse sourceNeuronName = "0" targetNeuronName = "25" weight = "17.138249590521283" />
    <synapse sourceNeuronName = "0" targetNeuronName = "26" weight = "26.450129193954847" />
    <synapse sourceNeuronName = "0" targetNeuronName = "27" weight = "18.374770650030747" />
    <synapse sourceNeuronName = "0" targetNeuronName = "28" weight = "9.623514180005259" />
    <synapse sourceNeuronName = "0" targetNeuronName = "29" weight = "25.230949206528027" />
    <synapse sourceNeuronName = "0" targetNeuronName = "30" weight = "2.943505350852363" />
    <synapse sourceNeuronName = "0" targetNeuronName = "31" weight = "4.796141318328518" />
    <synapse sourceNeuronName = "0" targetNeuronName = "32" weight = "4.400820357327175" />
    <synapse sourceNeuronName = "0" targetNeuronName = "33" weight = "3.9477868841500543" />
    <synapse sourceNeuronName = "0" targetNeuronName = "34" weight = "4.596866850092251" />
    <synapse sourceNeuronName = "0" targetNeuronName = "35" weight = "3.3628727218985563" />
    <synapse sourceNeuronName = "0" targetNeuronName = "36" weight = "0.9190101283427197" />
    <synapse sourceNeuronName = "0" targetNeuronName = "37" weight = "5.524438932481124" />
    <synapse sourceNeuronName = "1" targetNeuronName = "10" weight = "12.634822342312361" />
    <synapse sourceNeuronName = "1" targetNeuronName = "11" weight = "0.8048203934710796" />
    <synapse sourceNeuronName = "1" targetNeuronName = "12" weight = "4.326957852007573" />
    <synapse sourceNeuronName = "1" targetNeuronName = "13" weight = "20.998864304982344" />
    <synapse sourceNeuronName = "1" targetNeuronName = "14" weight = "22.789610411558666" />
    <synapse sourceNeuronName = "1" targetNeuronName = "15" weight = "22.121638738477277" />
    <synapse sourceNeuronName = "1" targetNeuronName = "16" weight = "9.841953655999081" />
    <synapse sourceNeuronName = "1" targetNeuronName = "17" weight = "23.390456819091263" />
    <synapse sourceNeuronName = "1" targetNeuronName = "18" weight = "3.7676711649264423" />
    <synapse sourceNeuronName = "1" targetNeuronName = "19" weight = "26.652690202974277" />
    <synapse sourceNeuronName = "1" targetNeuronName = "20" weight = "25.428338264848016" />
    <synapse sourceNeuronName = "1" targetNeuronName = "21" weight = "8.34609223747174" />
    <synapse sourceNeuronName = "1" targetNeuronName = "22" weight = "9.13867667472782" />
    <synapse sourceNeuronName = "1" targetNeuronName = "23" weight = "20.158836916093307" />
    <synapse sourceNeuronName = "1" targetNeuronName = "24" weight = "20.24178301766436" />
    <synapse sourceNeuronName = "1" targetNeuronName = "25" weight = "11.56639426831871" />
    <synapse sourceNeuronName = "1" targetNeuronName = "26" weight = "24.33581688019577" />
    <synapse sourceNeuronName = "1" targetNeuronName = "27" weight = "3.920173476078623" />
    <synapse sourceNeuronName = "1" targetNeuronName = "28" weight = "23.23556466806854" />
    <synapse sourceNeuronName = "1" targetNeuronName = "29" weight = "4.7884321491800845" />
    <synapse sourceNeuronName = "1" targetNeuronName = "30" weight = "17.511471956100912" />
    <synapse sourceNeuronName = "1" targetNeuronName = "31" weight = "16.80127213320203" />
    <synapse sourceNeuronName = "1" targetNeuronName = "32" weight = "5.414288557783568" />
    <synapse sourceNeuronName = "1" targetNeuronName = "33" weight = "11.89848347575705" />
    <synapse sourceNeuronName = "1" targetNeuronName = "34" weight = "7.740764470888227" />
    <synapse sourceNeuronName = "1" targetNeuronName = "35" weight = "16.972293950019967" />
    <synapse sourceNeuronName = "1" targetNeuronName = "36" weight = "17.108525196751074" />
    <synapse sourceNeuronName = "1" targetNeuronName = "37" weight = "2.522088320843488" />
    <synapse sourceNeuronName = "2" targetNeuronName = "10" weight = "18.840978655808975" />
    <synapse sourceNeuronName = "2" targetNeuronName = "11" weight = "1.4830598116633444" />
    <synapse sourceNeuronName = "2" targetNeuronName = "12" weight = "22.05402134549213" />
    <synapse sourceNeuronName = "2" targetNeuronName = "13" weight = "8.026794204890905" />
    <synapse sourceNeuronName = "2" targetNeuronName = "14" weight = "14.550142026222233" />
    <synapse sourceNeuronName = "2" targetNeuronName = "15" weight = "21.975719952069277" />
    <synapse sourceNeuronName = "2" targetNeuronName = "16" weight = "15.650432134380857" />
    <synapse sourceNeuronName = "2" targetNeuronName = "17" weight = "-0.4666888654412076" />
    <synapse sourceNeuronName = "2" targetNeuronName = "18" weight = "25.09378272499883" />
    <synapse sourceNeuronName = "2" targetNeuronName = "19" weight = "11.43230810158443" />
    <synapse sourceNeuronName = "2" targetNeuronName = "20" weight = "4.949170879273137" />
    <synapse sourceNeuronName = "2" targetNeuronName = "21" weight = "2.3062176228527744" />
    <synapse sourceNeuronName = "2" targetNeuronName = "22" weight = "3.3125500045430156" />
    <synapse sourceNeuronName = "2" targetNeuronName = "23" weight = "26.54634592652962" />
    <synapse sourceNeuronName = "2" targetNeuronName = "24" weight = "16.726899049516625" />
    <synapse sourceNeuronName = "2" targetNeuronName = "25" weight = "0.9214587512532195" />
    <synapse sourceNeuronName = "2" targetNeuronName = "26" weight = "21.380056703475102" />
    <synapse sourceNeuronName = "2" targetNeuronName = "27" weight = "15.018601518051227" />
    <synapse sourceNeuronName = "2" targetNeuronName = "28" weight = "17.99288098821706" />
    <synapse sourceNeuronName = "2" targetNeuronName = "29" weight = "16.556536219397323" />
    <synapse sourceNeuronName = "2" targetNeuronName = "30" weight = "15.862868498879259" />
    <synapse sourceNeuronName = "2" targetNeuronName = "31" weight = "24.991361482468726" />
    <synapse sourceNeuronName = "2" targetNeuronName = "32" weight = "8.11820319127601" />
    <synapse sourceNeuronName = "2" targetNeuronName = "33" weight = "1.2204649454750465" />
    <synapse sourceNeuronName = "2" targetNeuronName = "34" weight = "1.4298361081788737" />
    <synapse sourceNeuronName = "2" targetNeuronName = "35" weight = "26.092539035133402" />
    <synapse sourceNeuronName = "2" targetNeuronName = "36" weight = "24.450276514308324" />
    <synapse sourceNeuronName = "2" targetNeuronName = "37" weight = "22.265524028175626" />
    <synapse sourceNeuronName = "3" targetNeuronName = "10" weight = "7.109143988963343" />
    <synapse sourceNeuronName = "3" targetNeuronName = "11" weight = "14.807247708435131" />
    <synapse sourceNeuronName = "3" targetNeuronName = "12" weight = "4.139564007520752" />
    <synapse sourceNeuronName = "3" targetNeuronName = "13" weight = "11.079031354523737" />
    <synapse sourceNeuronName = "3" targetNeuronName = "14" weight = "15.791356113542768" />
    <synapse sourceNeuronName = "3" targetNeuronName = "15" weight = "24.3931949825347" />
    <synapse sourceNeuronName = "3" targetNeuronName = "16" weight = "12.769732059699473" />
    <synapse sourceNeuronName = "3" targetNeuronName = "17" weight = "3.580429659678593" />
    <synapse sourceNeuronName = "3" targetNeuronName = "18" weight = "10.140284712962846" />
    <synapse sourceNeuronName = "3" targetNeuronName = "19" weight = "8.21850064353214" />
    <synapse sourceNeuronName = "3" targetNeuronName = "20" weight = "26.746416343526377" />
    <synapse sourceNeuronName = "3" targetNeuronName = "21" weight = "10.325057643396082" />
    <synapse sourceNeuronName = "3" targetNeuronName = "22" weight = "21.09753611363605" />
    <synapse sourceNeuronName = "3" targetNeuronName = "23" weight = "20.27712212872135" />
    <synapse sourceNeuronName = "3" targetNeuronName = "24" weight = "4.93712177111455" />
    <synapse sourceNeuronName = "3" targetNeuronName = "25" weight = "15.199915408286923" />
    <synapse sourceNeuronName = "3" targetNeuronName = "26" weight = "0.12312289099368634" />
    <synapse sourceNeuronName = "3" targetNeuronName = "27" weight = "1.922103846158925" />
    <synapse sourceNeuronName = "3" targetNeuronName = "28" weight = "16.943483840737876" />
    <synapse sourceNeuronName = "3" targetNeuronName = "29" weight = "9.884194575233524" />
    <synapse sourceNeuronName = "3" targetNeuronName = "30" weight = "8.53704670664174" />
    <synapse sourceNeuronName = "3" targetNeuronName = "31" weight = "5.9054273845494265" />
    <synapse sourceNeuronName = "3" targetNeuronName = "32" weight = "20.93902364634095" />
    <synapse sourceNeuronName = "3" targetNeuronName = "33" weight = "-0.29944955538965967" />
    <synapse sourceNeuronName = "3" targetNeuronName = "34" weight = "2.8727675846930074" />
    <synapse sourceNeuronName = "3" targetNeuronName = "35" weight = "22.335629766471552" />
    <synapse sourceNeuronName = "3" targetNeuronName = "36" weight = "-0.9874147521233501" />
    <synapse sourceNeuronName = "3" targetNeuronName = "37" weight = "-0.04700769508610092" />
    <synapse sourceNeuronName = "4" targetNeuronName = "10" weight = "5.36370713870648" />
    <synapse sourceNeuronName = "4" targetNeuronName = "11" weight = "6.771808362554124" />
    <synapse sourceNeuronName = "4" targetNeuronName = "12" weight = "3.267801730791806" />
    <synapse sourceNeuronName = "4" targetNeuronName = "13" weight = "2.0794373697655484" />
    <synapse sourceNeuronName = "4" targetNeuronName = "14" weight = "2.3045156020576005" />
    <synapse sourceNeuronName = "4" targetNeuronName = "15" weight = "3.3174863111980954" />
    <synapse sourceNeuronName = "4" targetNeuronName = "16" weight = "5.642673836000095" />
    <synapse sourceNeuronName = "4" targetNeuronName = "17" weight = "24.611351447899008" />
    <synapse sourceNeuronName = "4" targetNeuronName = "18" weight = "18.123481175881338" />
    <synapse sourceNeuronName = "4" targetNeuronName = "19" weight = "24.01236841046782" />
    <synapse sourceNeuronName = "4" targetNeuronName = "20" weight = "11.116403646352145" />
    <synapse sourceNeuronName = "4" targetNeuronName = "21" weight = "23.580362207147655" />
    <synapse sourceNeuronName = "4" targetNeuronName = "22" weight = "9.967905768734472" />
    <synapse sourceNeuronName = "4" targetNeuronName = "23" weight = "24.90511249717966" />
    <synapse sourceNeuronName = "4" targetNeuronName = "24" weight = "26.807033030681676" />
    <synapse sourceNeuronName = "4" targetNeuronName = "25" weight = "25.785244367883312" />
    <synapse sourceNeuronName = "4" targetNeuronName = "26" weight = "25.391977873749298" />
    <synapse sourceNeuronName = "4" targetNeuronName = "27" weight = "26.623350298649548" />
    <synapse sourceNeuronName = "4" targetNeuronName = "28" weight = "23.55996530693152" />
    <synapse sourceNeuronName = "4" targetNeuronName = "29" weight = "1.758861404528703" />
    <synapse sourceNeuronName = "4" targetNeuronName = "30" weight = "4.477890647507174" />
    <synapse sourceNeuronName = "4" targetNeuronName = "31" weight = "14.060982538532164" />
    <synapse sourceNeuronName = "4" targetNeuronName = "32" weight = "5.457040263412703" />
    <synapse sourceNeuronName = "4" targetNeuronName = "33" weight = "13.14991732864057" />
    <synapse sourceNeuronName = "4" targetNeuronName = "34" weight = "24.927514519509817" />
    <synapse sourceNeuronName = "4" targetNeuronName = "35" weight = "9.227923720490391" />
    <synapse sourceNeuronName = "4" targetNeuronName = "36" weight = "12.187507104914598" />
    <synapse sourceNeuronName = "4" targetNeuronName = "37" weight = "3.1053720957955138" />
    <synapse sourceNeuronName = "5" targetNeuronName = "10" weight = "4.9522321063764085" />
    <synapse sourceNeuronName = "5" targetNeuronName = "11" weight = "24.844956825049056" />
    <synapse sourceNeuronName = "5" targetNeuronName = "12" weight = "10.028754088562355" />
    <synapse sourceNeuronName = "5" targetNeuronName = "13" weight = "19.713185447639646" />
    <synapse sourceNeuronName = "5" targetNeuronName = "14" weight = "-0.806791528854125" />
    <synapse sourceNeuronName = "5" targetNeuronName = "15" weight = "1.0236299215670503" />
    <synapse sourceNeuronName = "5" targetNeuronName = "16" weight = "16.246686308537885" />
    <synapse sourceNeuronName = "5" targetNeuronName = "17" weight = "6.230094620207541" />
    <synapse sourceNeuronName = "5" targetNeuronName = "18" weight = "24.74176585276057" />
    <synapse sourceNeuronName = "5" targetNeuronName = "19" weight = "1.324921780932161" />
    <synapse sourceNeuronName = "5" targetNeuronName = "20" weight = "21.18638327026878" />
    <synapse sourceNeuronName = "5" targetNeuronName = "21" weight = "3.0543527320655706" />
    <synapse sourceNeuronName = "5" targetNeuronName = "22" weight = "22.769127085269197" />
    <synapse sourceNeuronName = "5" targetNeuronName = "23" weight = "3.435231979605323" />
    <synapse sourceNeuronName = "5" targetNeuronName = "24" weight = "4.171672094464236" />
    <synapse sourceNeuronName = "5" targetNeuronName = "25" weight = "11.537053094150183" />
    <synapse sourceNeuronName = "5" targetNeuronName = "26" weight = "10.152716235925293" />
    <synapse sourceNeuronName = "5" targetNeuronName = "27" weight = "14.529167908699392" />
    <synapse sourceNeuronName = "5" targetNeuronName = "28" weight = "17.633228416693445" />
    <synapse sourceNeuronName = "5" targetNeuronName = "29" weight = "5.66094641311043" />
    <synapse sourceNeuronName = "5" targetNeuronName = "30" weight = "25.80222326845616" />
    <synapse sourceNeuronName = "5" targetNeuronName = "31" weight = "-0.8212497240664343" />
    <synapse sourceNeuronName = "5" targetNeuronName = "32" weight = "20.582975775962723" />
    <synapse sourceNeuronName = "5" targetNeuronName = "33" weight = "1.243027997808006" />
    <synapse sourceNeuronName = "5" targetNeuronName = "34" weight = "17.07091869424129" />
    <synapse sourceNeuronName = "5" targetNeuronName = "35" weight = "15.48076500278172" />
    <synapse sourceNeuronName = "5" targetNeuronName = "36" weight = "11.708845961780328" />
    <synapse sourceNeuronName = "5" targetNeuronName = "37" weight = "26.951161908809283" />
    <synapse sourceNeuronName = "6" targetNeuronName = "10" weight = "14.864230841353573" />
    <synapse sourceNeuronName = "6" targetNeuronName = "11" weight = "18.759807384626658" />
    <synapse sourceNeuronName = "6" targetNeuronName = "12" weight = "16.669406383881466" />
    <synapse sourceNeuronName = "6" targetNeuronName = "13" weight = "26.15540121909203" />
    <synapse sourceNeuronName = "6" targetNeuronName = "14" weight = "16.287061075553" />
    <synapse sourceNeuronName = "6" targetNeuronName = "15" weight = "15.763896069255047" />
    <synapse sourceNeuronName = "6" targetNeuronName = "16" weight = "0.6930791369698066" />
    <synapse sourceNeuronName = "6" targetNeuronName = "17" weight = "8.041867664773141" />
    <synapse sourceNeuronName = "6" targetNeuronName = "18" weight = "3.5999010434008056" />
    <synapse sourceNeuronName = "6" targetNeuronName = "19" weight = "7.1713678420634235" />
    <synapse sourceNeuronName = "6" targetNeuronName = "20" weight = "3.334758814424047" />
    <synapse sourceNeuronName = "6" targetNeuronName = "21" weight = "12.904826630171288" />
    <synapse sourceNeuronName = "6" targetNeuronName = "22" weight = "26.340582329932783" />
    <synapse sourceNeuronName = "6" targetNeuronName = "23" weight = "14.021565321795954" />
    <synapse sourceNeuronName = "6" targetNeuronName = "24" weight = "7.353910019123177" />
    <synapse sourceNeuronName = "6" targetNeuronName = "25" weight = "7.909112894376246" />
    <synapse sourceNeuronName = "6" targetNeuronName = "26" weight = "14.584580437206343" />
    <synapse sourceNeuronName = "6" targetNeuronName = "27" weight = "7.352476043229579" />
    <synapse sourceNeuronName = "6" targetNeuronName = "28" weight = "17.860428016781988" />
    <synapse sourceNeuronName = "6" targetNeuronName = "29" weight = "25.119238342074215" />
    <synapse sourceNeuronName = "6" targetNeuronName = "30" weight = "21.25580176692924" />
    <synapse sourceNeuronName = "6" targetNeuronName = "31" weight = "12.551288284207684" />
    <synapse sourceNeuronName = "6" targetNeuronName = "32" weight = "21.24316251700859" />
    <synapse sourceNeuronName = "6" targetNeuronName = "33" weight = "6.821575447581624" />
    <synapse sourceNeuronName = "6" targetNeuronName = "34" weight = "7.133137871558947" />
    <synapse sourceNeuronName = "6" targetNeuronName = "35" weight = "22.292059230008952" />
    <synapse sourceNeuronName = "6" targetNeuronName = "36" weight = "10.708852621700938" />
    <synapse sourceNeuronName = "6" targetNeuronName = "37" weight = "18.856699683207765" />
    <synapse sourceNeuronName = "7" targetNeuronName = "10" weight = "17.564981735315992" />
    <synapse sourceNeuronName = "7" targetNeuronName = "11" weight = "23.84035615251201" />
    <synapse sourceNeuronName = "7" targetNeuronName = "12" weight = "-0.41331439220168686" />
    <synapse sourceNeuronName = "7" targetNeuronName = "13" weight = "7.905614128648242" />
    <synapse sourceNeuronName = "7" targetNeuronName = "14" weight = "22.102161589702206" />
    <synapse sourceNeuronName = "7" targetNeuronName = "15" weight = "24.95805921931489" />
    <synapse sourceNeuronName = "7" targetNeuronName = "16" weight = "24.708303250584784" />
    <synapse sourceNeuronName = "7" targetNeuronName = "17" weight = "13.432649830923442" />
    <synapse sourceNeuronName = "7" targetNeuronName = "18" weight = "13.703525822828627" />
    <synapse sourceNeuronName = "7" targetNeuronName = "19" weight = "20.598368914937446" />
    <synapse sourceNeuronName = "7" targetNeuronName = "20" weight = "15.362057734574929" />
    <synapse sourceNeuronName = "7" targetNeuronName = "21" weight = "20.37380795556539" />
    <synapse sourceNeuronName = "7" targetNeuronName = "22" weight = "18.7696248705852" />
    <synapse sourceNeuronName = "7" targetNeuronName = "23" weight = "17.293981666792703" />
    <synapse sourceNeuronName = "7" targetNeuronName = "24" weight = "10.709418889415232" />
    <synapse sourceNeuronName = "7" targetNeuronName = "25" weight = "-0.5727356188368993" />
    <synapse sourceNeuronName = "7" targetNeuronName = "26" weight = "10.333643651126145" />
    <synapse sourceNeuronName = "7" targetNeuronName = "27" weight = "0.09204277712216546" />
    <synapse sourceNeuronName = "7" targetNeuronName = "28" weight = "6.488805165723129" />
    <synapse sourceNeuronName = "7" targetNeuronName = "29" weight = "7.379674501182951" />
    <synapse sourceNeuronName = "7" targetNeuronName = "30" weight = "21.75258139792117" />
    <synapse sourceNeuronName = "7" targetNeuronName = "31" weight = "13.499025341013066" />
    <synapse sourceNeuronName = "7" targetNeuronName = "32" weight = "16.536186617779958" />
    <synapse sourceNeuronName = "7" targetNeuronName = "33" weight = "14.99636116096207" />
    <synapse sourceNeuronName = "7" targetNeuronName = "34" weight = "25.353048063181884" />
    <synapse sourceNeuronName = "7" targetNeuronName = "35" weight = "20.3763165133715" />
    <synapse sourceNeuronName = "7" targetNeuronName = "36" weight = "16.76281792138697" />
    <synapse sourceNeuronName = "7" targetNeuronName = "37" weight = "0.5013486430493583" />
    <synapse sourceNeuronName = "8" targetNeuronName = "10" weight = "18.619417955046647" />
    <synapse sourceNeuronName = "8" targetNeuronName = "11" weight = "5.46030426557321" />
    <synapse sourceNeuronName = "8" targetNeuronName = "12" weight = "17.438581759198065" />
    <synapse sourceNeuronName = "8" targetNeuronName = "13" weight = "1.0137436256665122" />
    <synapse sourceNeuronName = "8" targetNeuronName = "14" weight = "6.329109994076888" />
    <synapse sourceNeuronName = "8" targetNeuronName = "15" weight = "20.948680318611583" />
    <synapse sourceNeuronName = "8" targetNeuronName = "16" weight = "7.738515581020335" />
    <synapse sourceNeuronName = "8" targetNeuronName = "17" weight = "17.844652435290563" />
    <synapse sourceNeuronName = "8" targetNeuronName = "18" weight = "24.586695815295798" />
    <synapse sourceNeuronName = "8" targetNeuronName = "19" weight = "25.042023390116494" />
    <synapse sourceNeuronName = "8" targetNeuronName = "20" weight = "11.82138898485815" />
    <synapse sourceNeuronName = "8" targetNeuronName = "21" weight = "8.473995264069018" />
    <synapse sourceNeuronName = "8" targetNeuronName = "22" weight = "9.030927738446358" />
    <synapse sourceNeuronName = "8" targetNeuronName = "23" weight = "1.4706590551481162" />
    <synapse sourceNeuronName = "8" targetNeuronName = "24" weight = "18.51742888599827" />
    <synapse sourceNeuronName = "8" targetNeuronName = "25" weight = "5.747106827278634" />
    <synapse sourceNeuronName = "8" targetNeuronName = "26" weight = "17.582356548903075" />
    <synapse sourceNeuronName = "8" targetNeuronName = "27" weight = "14.331551167537649" />
    <synapse sourceNeuronName = "8" targetNeuronName = "28" weight = "25.767499435785403" />
    <synapse sourceNeuronName = "8" targetNeuronName = "29" weight = "20.258757253634425" />
    <synapse sourceNeuronName = "8" targetNeuronName = "30" weight = "0.8571079025126704" />
    <synapse sourceNeuronName = "8" targetNeuronName = "31" weight = "6.560616740707665" />
    <synapse sourceNeuronName = "8" targetNeuronName = "32" weight = "16.27125706506897" />
    <synapse sourceNeuronName = "8" targetNeuronName = "33" weight = "1.2112415019445062" />
    <synapse sourceNeuronName = "8" targetNeuronName = "34" weight = "2.1055403418334935" />
    <synapse sourceNeuronName = "8" targetNeuronName = "35" weight = "25.20041888476935" />
    <synapse sourceNeuronName = "8" targetNeuronName = "36" weight = "3.682785503546282" />
    <synapse sourceNeuronName = "8" targetNeuronName = "37" weight = "21.063797355401473" />
    <synapse sourceNeuronName = "9" targetNeuronName = "10" weight = "11.878826004170321" />
    <synapse sourceNeuronName = "9" targetNeuronName = "11" weight = "23.408876175690907" />
    <synapse sourceNeuronName = "9" targetNeuronName = "12" weight = "15.6921118039911" />
    <synapse sourceNeuronName = "9" targetNeuronName = "13" weight = "2.716896426721639" />
    <synapse sourceNeuronName = "9" targetNeuronName = "14" weight = "23.454690856041324" />
    <synapse sourceNeuronName = "9" targetNeuronName = "15" weight = "8.006250041449057" />
    <synapse sourceNeuronName = "9" targetNeuronName = "16" weight = "12.726738428856478" />
    <synapse sourceNeuronName = "9" targetNeuronName = "17" weight = "14.985298900648331" />
    <synapse sourceNeuronName = "9" targetNeuronName = "18" weight = "16.95242344326897" />
    <synapse sourceNeuronName = "9" targetNeuronName = "19" weight = "21.567949054599747" />
    <synapse sourceNeuronName = "9" targetNeuronName = "20" weight = "0.0009342080684011655" />
    <synapse sourceNeuronName = "9" targetNeuronName = "21" weight = "14.691100968179754" />
    <synapse sourceNeuronName = "9" targetNeuronName = "22" weight = "8.917897130910871" />
    <synapse sourceNeuronName = "9" targetNeuronName = "23" weight = "26.99864707645153" />
    <synapse sourceNeuronName = "9" targetNeuronName = "24" weight = "1.7657712637526264" />
    <synapse sourceNeuronName = "9" targetNeuronName = "25" weight = "0.9331943829059393" />
    <synapse sourceNeuronName = "9" targetNeuronName = "26" weight = "19.866972778485472" />
    <synapse sourceNeuronName = "9" targetNeuronName = "27" weight = "13.088562279546222" />
    <synapse sourceNeuronName = "9" targetNeuronName = "28" weight = "17.94817898799228" />
    <synapse sourceNeuronName = "9" targetNeuronName = "29" weight = "4.09981539233808" />
    <synapse sourceNeuronName = "9" targetNeuronName = "30" weight = "19.14415372396398" />
    <synapse sourceNeuronName = "9" targetNeuronName = "31" weight = "18.387138091054478" />
    <synapse sourceNeuronName = "9" targetNeuronName = "32" weight = "18.320818553783422" />
    <synapse sourceNeuronName = "9" targetNeuronName = "33" weight = "19.044426605309663" />
    <synapse sourceNeuronName = "9" targetNeuronName = "34" weight = "7.331969968779909" />
    <synapse sourceNeuronName = "9" targetNeuronName = "35" weight = "11.655614283794128" />
    <synapse sourceNeuronName = "9" targetNeuronName = "36" weight = "22.66991167796187" />
    <synapse sourceNeuronName = "9" targetNeuronName = "37" weight = "17.903550328179158" />
</neuralNetwork>