<neuralNetwork>
    <neuron name = "0" type = "sensor" linkName = "Torso" />
    <neuron name = "1" type = "sensor" linkName = "Leg2" />
    <neuron name = "2" type = "sensor" linkName = "Leg3" />
    <neuron name = "3" type = "sensor" linkName = "Leg4" />
    <neuron name = "4" type = "sensor" linkName = "Leg7" />
    <neuron name = "5" type = "sensor" linkName = "Leg8" />
    <neuron name = "6" type = "sensor" linkName = "Leg9" />
    <neuron name = "7" type = "sensor" linkName = "Leg11" />
    <neuron name = "8" type = "sensor" linkName = "Leg13" />
    <neuron name = "9" type = "sensor" linkName = "Leg17" />
    <neuron name = "10" type = "sensor" linkName = "Leg18" />
    <neuron name = "11" type = "sensor" linkName = "Leg19" />
    <neuron name = "12" type = "sensor" linkName = "Leg22" />
    <neuron name = "13" type = "sensor" linkName = "Leg25" />
    <neuron name = "14" type = "motor"  jointName = "Torso_Leg1" />
    <neuron name = "15" type = "motor"  jointName = "Leg1_Leg2" />
    <neuron name = "16" type = "motor"  jointName = "Leg1_Leg3" />
    <neuron name = "17" type = "motor"  jointName = "Leg3_Leg4" />
    <neuron name = "18" type = "motor"  jointName = "Leg4_Leg5" />
    <neuron name = "19" type = "motor"  jointName = "Leg5_Leg6" />
    <neuron name = "20" type = "motor"  jointName = "Leg3_Leg7" />
    <neuron name = "21" type = "motor"  jointName = "Leg4_Leg8" />
    <neuron name = "22" type = "motor"  jointName = "Leg7_Leg9" />
    <neuron name = "23" type = "motor"  jointName = "Leg7_Leg10" />
    <neuron name = "24" type = "motor"  jointName = "Leg2_Leg11" />
    <neuron name = "25" type = "motor"  jointName = "Leg6_Leg12" />
    <neuron name = "26" type = "motor"  jointName = "Leg8_Leg13" />
    <neuron name = "27" type = "motor"  jointName = "Leg8_Leg14" />
    <neuron name = "28" type = "motor"  jointName = "Leg9_Leg15" />
    <neuron name = "29" type = "motor"  jointName = "Leg13_Leg16" />
    <neuron name = "30" type = "motor"  jointName = "Leg8_Leg17" />
    <neuron name = "31" type = "motor"  jointName = "Leg1_Leg18" />
    <neuron name = "32" type = "motor"  jointName = "Leg17_Leg19" />
    <neuron name = "33" type = "motor"  jointName = "Leg14_Leg20" />
    <neuron name = "34" type = "motor"  jointName = "Torso_Leg21" />
    <neuron name = "35" type = "motor"  jointName = "Leg16_Leg22" />
    <neuron name = "36" type = "motor"  jointName = "Leg12_Leg23" />
    <neuron name = "37" type = "motor"  jointName = "Leg21_Leg24" />
    <neuron name = "38" type = "motor"  jointName = "Leg12_Leg25" />
    <synapse sourceNeuronName = "0" targetNeuronName = "14" weight = "23.293262725836048" />
    <synapse sourceNeuronName = "0" targetNeuronName = "15" weight = "23.203052678224555" />
    <synapse sourceNeuronName = "0" targetNeuronName = "16" weight = "20.68184736292549" />
    <synapse sourceNeuronName = "0" targetNeuronName = "17" weight = "16.82037017209069" />
    <synapse sourceNeuronName = "0" targetNeuronName = "18" weight = "3.7645437069137904" />
    <synapse sourceNeuronName = "0" targetNeuronName = "19" weight = "21.386187282988953" />
    <synapse sourceNeuronName = "0" targetNeuronName = "20" weight = "2.3971937817662057" />
    <synapse sourceNeuronName = "0" targetNeuronName = "21" weight = "18.895003475467018" />
    <synapse sourceNeuronName = "0" targetNeuronName = "22" weight = "2.5491212024085312" />
    <synapse sourceNeuronName = "0" targetNeuronName = "23" weight = "22.313162411593613" />
    <synapse sourceNeuronName = "0" targetNeuronName = "24" weight = "2.467218570025285" />
    <synapse sourceNeuronName = "0" targetNeuronName = "25" weight = "20.742483450625183" />
    <synapse sourceNeuronName = "0" targetNeuronName = "26" weight = "9.788800738603586" />
    <synapse sourceNeuronName = "0" targetNeuronName = "27" weight = "8.34629901043158" />
    <synapse sourceNeuronName = "0" targetNeuronName = "28" weight = "19.84163265131141" />
    <synapse sourceNeuronName = "0" targetNeuronName = "29" weight = "9.655526709234595" />
    <synapse sourceNeuronName = "0" targetNeuronName = "30" weight = "19.441682579133772" />
    <synapse sourceNeuronName = "0" targetNeuronName = "31" weight = "15.450540392803184" />
    <synapse sourceNeuronName = "0" targetNeuronName = "32" weight = "21.289134839325037" />
    <synapse sourceNeuronName = "0" targetNeuronName = "33" weight = "10.050453404420715" />
    <synapse sourceNeuronName = "0" targetNeuronName = "34" weight = "7.741799867834901" />
    <synapse sourceNeuronName = "0" targetNeuronName = "35" weight = "20.78919336548236" />
    <synapse sourceNeuronName = "0" targetNeuronName = "36" weight = "23.38310251740042" />
    <synapse sourceNeuronName = "0" targetNeuronName = "37" weight = "15.363031309961482" />
    <synapse sourceNeuronName = "0" targetNeuronName = "38" weight = "19.21676145748568" />
    <synapse sourceNeuronName = "1" targetNeuronName = "14" weight = "17.498770593700684" />
    <synapse sourceNeuronName = "1" targetNeuronName = "15" weight = "16.940408115019242" />
    <synapse sourceNeuronName = "1" targetNeuronName = "16" weight = "7.120967061421533" />
    <synapse sourceNeuronName = "1" targetNeuronName = "17" weight = "17.828360141714498" />
    <synapse sourceNeuronName = "1" targetNeuronName = "18" weight = "11.639512962300339" />
    <synapse sourceNeuronName = "1" targetNeuronName = "19" weight = "16.46998184663435" />
    <synapse sourceNeuronName = "1" targetNeuronName = "20" weight = "18.705965341168447" />
    <synapse sourceNeuronName = "1" targetNeuronName = "21" weight = "5.7692176476330825" />
    <synapse sourceNeuronName = "1" targetNeuronName = "22" weight = "18.40327775331703" />
    <synapse sourceNeuronName = "1" targetNeuronName = "23" weight = "23.27355299961331" />
    <synapse sourceNeuronName = "1" targetNeuronName = "24" weight = "-0.4671244443803171" />
    <synapse sourceNeuronName = "1" targetNeuronName = "25" weight = "11.834651518082882" />
    <synapse sourceNeuronName = "1" targetNeuronName = "26" weight = "12.60579708916218" />
    <synapse sourceNeuronName = "1" targetNeuronName = "27" weight = "0.18101741936333093" />
    <synapse sourceNeuronName = "1" targetNeuronName = "28" weight = "20.399282030799625" />
    <synapse sourceNeuronName = "1" targetNeuronName = "29" weight = "15.126717664561856" />
    <synapse sourceNeuronName = "1" targetNeuronName = "30" weight = "1.3364467012989194" />
    <synapse sourceNeuronName = "1" targetNeuronName = "31" weight = "4.128133329390094" />
    <synapse sourceNeuronName = "1" targetNeuronName = "32" weight = "4.696969001258467" />
    <synapse sourceNeuronName = "1" targetNeuronName = "33" weight = "18.45329259401034" />
    <synapse sourceNeuronName = "1" targetNeuronName = "34" weight = "6.8866969784144985" />
    <synapse sourceNeuronName = "1" targetNeuronName = "35" weight = "2.8526866403043454" />
    <synapse sourceNeuronName = "1" targetNeuronName = "36" weight = "4.409557918589014" />
    <synapse sourceNeuronName = "1" targetNeuronName = "37" weight = "2.7804745143446588" />
    <synapse sourceNeuronName = "1" targetNeuronName = "38" weight = "9.416307302523373" />
    <synapse sourceNeuronName = "2" targetNeuronName = "14" weight = "21.642818629982212" />
    <synapse sourceNeuronName = "2" targetNeuronName = "15" weight = "8.421306808235805" />
    <synapse sourceNeuronName = "2" targetNeuronName = "16" weight = "7.400150765704382" />
    <synapse sourceNeuronName = "2" targetNeuronName = "17" weight = "19.645430386669428" />
    <synapse sourceNeuronName = "2" targetNeuronName = "18" weight = "6.556545059712741" />
    <synapse sourceNeuronName = "2" targetNeuronName = "19" weight = "1.460910274676051" />
    <synapse sourceNeuronName = "2" targetNeuronName = "20" weight = "14.207724950667254" />
    <synapse sourceNeuronName = "2" targetNeuronName = "21" weight = "10.9170312238116" />
    <synapse sourceNeuronName = "2" targetNeuronName = "22" weight = "8.236680660132498" />
    <synapse sourceNeuronName = "2" targetNeuronName = "23" weight = "-0.0641467453615393" />
    <synapse sourceNeuronName = "2" targetNeuronName = "24" weight = "4.00925110362509" />
    <synapse sourceNeuronName = "2" targetNeuronName = "25" weight = "19.6594891191208" />
    <synapse sourceNeuronName = "2" targetNeuronName = "26" weight = "3.865929080462866" />
    <synapse sourceNeuronName = "2" targetNeuronName = "27" weight = "12.316720230732734" />
    <synapse sourceNeuronName = "2" targetNeuronName = "28" weight = "11.343452265723917" />
    <synapse sourceNeuronName = "2" targetNeuronName = "29" weight = "13.846571359679132" />
    <synapse sourceNeuronName = "2" targetNeuronName = "30" weight = "-0.0278204857440586" />
    <synapse sourceNeuronName = "2" targetNeuronName = "31" weight = "6.82097369232706" />
    <synapse sourceNeuronName = "2" targetNeuronName = "32" weight = "20.475060986093272" />
    <synapse sourceNeuronName = "2" targetNeuronName = "33" weight = "13.789016519946454" />
    <synapse sourceNeuronName = "2" targetNeuronName = "34" weight = "18.345174358267233" />
    <synapse sourceNeuronName = "2" targetNeuronName = "35" weight = "9.93453046754888" />
    <synapse sourceNeuronName = "2" targetNeuronName = "36" weight = "13.284531031666988" />
    <synapse sourceNeuronName = "2" targetNeuronName = "37" weight = "15.94297576207844" />
    <synapse sourceNeuronName = "2" targetNeuronName = "38" weight = "3.3330889417744096" />
    <synapse sourceNeuronName = "3" targetNeuronName = "14" weight = "19.554937594886816" />
    <synapse sourceNeuronName = "3" targetNeuronName = "15" weight = "5.614092976758676" />
    <synapse sourceNeuronName = "3" targetNeuronName = "16" weight = "12.541857236957311" />
    <synapse sourceNeuronName = "3" targetNeuronName = "17" weight = "16.51017883820741" />
    <synapse sourceNeuronName = "3" targetNeuronName = "18" weight = "18.638959695543786" />
    <synapse sourceNeuronName = "3" targetNeuronName = "19" weight = "4.012427450670437" />
    <synapse sourceNeuronName = "3" targetNeuronName = "20" weight = "22.657967737482046" />
    <synapse sourceNeuronName = "3" targetNeuronName = "21" weight = "15.410567894993893" />
    <synapse sourceNeuronName = "3" targetNeuronName = "22" weight = "0.7664177128378507" />
    <synapse sourceNeuronName = "3" targetNeuronName = "23" weight = "23.796736224788898" />
    <synapse sourceNeuronName = "3" targetNeuronName = "24" weight = "7.182443452170855" />
    <synapse sourceNeuronName = "3" targetNeuronName = "25" weight = "13.598905305945495" />
    <synapse sourceNeuronName = "3" targetNeuronName = "26" weight = "19.970753029383907" />
    <synapse sourceNeuronName = "3" targetNeuronName = "27" weight = "9.211075414524457" />
    <synapse sourceNeuronName = "3" targetNeuronName = "28" weight = "4.679339320234986" />
    <synapse sourceNeuronName = "3" targetNeuronName = "29" weight = "21.722565515216004" />
    <synapse sourceNeuronName = "3" targetNeuronName = "30" weight = "17.81852920613644" />
    <synapse sourceNeuronName = "3" targetNeuronName = "31" weight = "23.002475913399554" />
    <synapse sourceNeuronName = "3" targetNeuronName = "32" weight = "3.518884147097263" />
    <synapse sourceNeuronName = "3" targetNeuronName = "33" weight = "15.411273152223725" />
    <synapse sourceNeuronName = "3" targetNeuronName = "34" weight = "12.453918384087185" />
    <synapse sourceNeuronName = "3" targetNeuronName = "35" weight = "12.231154117174187" />
    <synapse sourceNeuronName = "3" targetNeuronName = "36" weight = "14.500880574832657" />
    <synapse sourceNeuronName = "3" targetNeuronName = "37" weight = "22.0550843192018" />
    <synapse sourceNeuronName = "3" targetNeuronName = "38" weight = "22.519765962952196" />
    <synapse sourceNeuronName = "4" targetNeuronName = "14" weight = "0.6640510773262034" />
    <synapse sourceNeuronName = "4" targetNeuronName = "15" weight = "0.12847205291113628" />
    <synapse sourceNeuronName = "4" targetNeuronName = "16" weight = "16.361781126217178" />
    <synapse sourceNeuronName = "4" targetNeuronName = "17" weight = "9.609540836735617" />
    <synapse sourceNeuronName = "4" targetNeuronName = "18" weight = "7.323417385090668" />
    <synapse sourceNeuronName = "4" targetNeuronName = "19" weight = "13.755111367472958" />
    <synapse sourceNeuronName = "4" targetNeuronName = "20" weight = "3.081153527440229" />
    <synapse sourceNeuronName = "4" targetNeuronName = "21" weight = "7.922069952801035" />
    <synapse sourceNeuronName = "4" targetNeuronName = "22" weight = "20.734900177342126" />
    <synapse sourceNeuronName = "4" targetNeuronName = "23" weight = "4.792658299632672" />
    <synapse sourceNeuronName = "4" targetNeuronName = "24" weight = "23.946524257443702" />
    <synapse sourceNeuronName = "4" targetNeuronName = "25" weight = "14.073842830937098" />
    <synapse sourceNeuronName = "4" targetNeuronName = "26" weight = "23.76565612741098" />
    <synapse sourceNeuronName = "4" targetNeuronName = "27" weight = "6.8540112028447515" />
    <synapse sourceNeuronName = "4" targetNeuronName = "28" weight = "22.73897249742804" />
    <synapse sourceNeuronName = "4" targetNeuronName = "29" weight = "20.304806356129518" />
    <synapse sourceNeuronName = "4" targetNeuronName = "30" weight = "14.927432082060506" />
    <synapse sourceNeuronName = "4" targetNeuronName = "31" weight = "17.364150995207293" />
    <synapse sourceNeuronName = "4" targetNeuronName = "32" weight = "23.836386465972453" />
    <synapse sourceNeuronName = "4" targetNeuronName = "33" weight = "7.170784383281049" />
    <synapse sourceNeuronName = "4" targetNeuronName = "34" weight = "11.13247672961028" />
    <synapse sourceNeuronName = "4" targetNeuronName = "35" weight = "0.15538445788166122" />
    <synapse sourceNeuronName = "4" targetNeuronName = "36" weight = "22.09638809064179" />
    <synapse sourceNeuronName = "4" targetNeuronName = "37" weight = "0.49135075756692537" />
    <synapse sourceNeuronName = "4" targetNeuronName = "38" weight = "18.475137432860368" />
    <synapse sourceNeuronName = "5" targetNeuronName = "14" weight = "6.754172888071109" />
    <synapse sourceNeuronName = "5" targetNeuronName = "15" weight = "13.393500948037916" />
    <synapse sourceNeuronName = "5" targetNeuronName = "16" weight = "21.04983543168853" />
    <synapse sourceNeuronName = "5" targetNeuronName = "17" weight = "9.666236904464146" />
    <synapse sourceNeuronName = "5" targetNeuronName = "18" weight = "16.76287744656924" />
    <synapse sourceNeuronName = "5" targetNeuronName = "19" weight = "14.535467264220276" />
    <synapse sourceNeuronName = "5" targetNeuronName = "20" weight = "8.08532700647092" />
    <synapse sourceNeuronName = "5" targetNeuronName = "21" weight = "10.720234922759968" />
    <synapse sourceNeuronName = "5" targetNeuronName = "22" weight = "17.475881214588757" />
    <synapse sourceNeuronName = "5" targetNeuronName = "23" weight = "2.151147371907484" />
    <synapse sourceNeuronName = "5" targetNeuronName = "24" weight = "11.982836336918787" />
    <synapse sourceNeuronName = "5" targetNeuronName = "25" weight = "22.551419220801172" />
    <synapse sourceNeuronName = "5" targetNeuronName = "26" weight = "14.537514496013479" />
    <synapse sourceNeuronName = "5" targetNeuronName = "27" weight = "6.644683393687321" />
    <synapse sourceNeuronName = "5" targetNeuronName = "28" weight = "-0.5004946077835795" />
    <synapse sourceNeuronName = "5" targetNeuronName = "29" weight = "6.806087855732666" />
    <synapse sourceNeuronName = "5" targetNeuronName = "30" weight = "19.507019733288452" />
    <synapse sourceNeuronName = "5" targetNeuronName = "31" weight = "21.645723104514143" />
    <synapse sourceNeuronName = "5" targetNeuronName = "32" weight = "18.96575695040666" />
    <synapse sourceNeuronName = "5" targetNeuronName = "33" weight = "3.7943202826289246" />
    <synapse sourceNeuronName = "5" targetNeuronName = "34" weight = "1.69091718981897" />
    <synapse sourceNeuronName = "5" targetNeuronName = "35" weight = "14.300144538540412" />
    <synapse sourceNeuronName = "5" targetNeuronName = "36" weight = "8.015170055308106" />
    <synapse sourceNeuronName = "5" targetNeuronName = "37" weight = "15.405852104248755" />
    <synapse sourceNeuronName = "5" targetNeuronName = "38" weight = "3.6856499971932974" />
    <synapse sourceNeuronName = "6" targetNeuronName = "14" weight = "19.867698241227693" />
    <synapse sourceNeuronName = "6" targetNeuronName = "15" weight = "6.986793599200662" />
    <synapse sourceNeuronName = "6" targetNeuronName = "16" weight = "0.598815598398859" />
    <synapse sourceNeuronName = "6" targetNeuronName = "17" weight = "20.06920810680368" />
    <synapse sourceNeuronName = "6" targetNeuronName = "18" weight = "1.823031814220081" />
    <synapse sourceNeuronName = "6" targetNeuronName = "19" weight = "17.581916762264658" />
    <synapse sourceNeuronName = "6" targetNeuronName = "20" weight = "4.278517083832185" />
    <synapse sourceNeuronName = "6" targetNeuronName = "21" weight = "20.629769831082793" />
    <synapse sourceNeuronName = "6" targetNeuronName = "22" weight = "19.42678711064317" />
    <synapse sourceNeuronName = "6" targetNeuronName = "23" weight = "0.4531602390799008" />
    <synapse sourceNeuronName = "6" targetNeuronName = "24" weight = "5.2869736448508355" />
    <synapse sourceNeuronName = "6" targetNeuronName = "25" weight = "10.76826118016595" />
    <synapse sourceNeuronName = "6" targetNeuronName = "26" weight = "7.151481271460851" />
    <synapse sourceNeuronName = "6" targetNeuronName = "27" weight = "9.85661755470691" />
    <synapse sourceNeuronName = "6" targetNeuronName = "28" weight = "18.328130871774636" />
    <synapse sourceNeuronName = "6" targetNeuronName = "29" weight = "5.984958041005881" />
    <synapse sourceNeuronName = "6" targetNeuronName = "30" weight = "19.175784723720554" />
    <synapse sourceNeuronName = "6" targetNeuronName = "31" weight = "19.815322414966072" />
    <synapse sourceNeuronName = "6" targetNeuronName = "32" weight = "7.441490708110381" />
    <synapse sourceNeuronName = "6" targetNeuronName = "33" weight = "5.240385780190993" />
    <synapse sourceNeuronName = "6" targetNeuronName = "34" weight = "19.98775033684924" />
    <synapse sourceNeuronName = "6" targetNeuronName = "35" weight = "16.819873601107233" />
    <synapse sourceNeuronName = "6" targetNeuronName = "36" weight = "16.71202594906636" />
    <synapse sourceNeuronName = "6" targetNeuronName = "37" weight = "16.595998994690675" />
    <synapse sourceNeuronName = "6" targetNeuronName = "38" weight = "4.871381756724434" />
    <synapse sourceNeuronName = "7" targetNeuronName = "14" weight = "2.308382824287043" />
    <synapse sourceNeuronName = "7" targetNeuronName = "15" weight = "5.416922148296203" />
    <synapse sourceNeuronName = "7" targetNeuronName = "16" weight = "19.51814520212823" />
    <synapse sourceNeuronName = "7" targetNeuronName = "17" weight = "18.204881991163596" />
    <synapse sourceNeuronName = "7" targetNeuronName = "18" weight = "23.763364937908786" />
    <synapse sourceNeuronName = "7" targetNeuronName = "19" weight = "-0.964925942093652" />
    <synapse sourceNeuronName = "7" targetNeuronName = "20" weight = "15.639603697277874" />
    <synapse sourceNeuronName = "7" targetNeuronName = "21" weight = "1.5567108145658963" />
    <synapse sourceNeuronName = "7" targetNeuronName = "22" weight = "2.2907395933895023" />
    <synapse sourceNeuronName = "7" targetNeuronName = "23" weight = "19.9060244397704" />
    <synapse sourceNeuronName = "7" targetNeuronName = "24" weight = "6.875879877305053" />
    <synapse sourceNeuronName = "7" targetNeuronName = "25" weight = "14.892335588132037" />
    <synapse sourceNeuronName = "7" targetNeuronName = "26" weight = "0.3342795483700125" />
    <synapse sourceNeuronName = "7" targetNeuronName = "27" weight = "19.129339964494665" />
    <synapse sourceNeuronName = "7" targetNeuronName = "28" weight = "6.47073883531251" />
    <synapse sourceNeuronName = "7" targetNeuronName = "29" weight = "18.448410107744884" />
    <synapse sourceNeuronName = "7" targetNeuronName = "30" weight = "4.383703486917763" />
    <synapse sourceNeuronName = "7" targetNeuronName = "31" weight = "20.32157486959576" />
    <synapse sourceNeuronName = "7" targetNeuronName = "32" weight = "23.093607079105183" />
    <synapse sourceNeuronName = "7" targetNeuronName = "33" weight = "18.797301629086327" />
    <synapse sourceNeuronName = "7" targetNeuronName = "34" weight = "-0.9844082817351681" />
    <synapse sourceNeuronName = "7" targetNeuronName = "35" weight = "22.801484959648523" />
    <synapse sourceNeuronName = "7" targetNeuronName = "36" weight = "19.155193471115464" />
    <synapse sourceNeuronName = "7" targetNeuronName = "37" weight = "22.59240190937673" />
    <synapse sourceNeuronName = "7" targetNeuronName = "38" weight = "4.602370033549353" />
    <synapse sourceNeuronName = "8" targetNeuronName = "14" weight = "14.277931698676376" />
    <synapse sourceNeuronName = "8" targetNeuronName = "15" weight = "14.034354481766316" />
    <synapse sourceNeuronName = "8" targetNeuronName = "16" weight = "12.299267412030739" />
    <synapse sourceNeuronName = "8" targetNeuronName = "17" weight = "21.306237578378873" />
    <synapse sourceNeuronName = "8" targetNeuronName = "18" weight = "7.0225132404833985" />
    <synapse sourceNeuronName = "8" targetNeuronName = "19" weight = "19.184382659691284" />
    <synapse sourceNeuronName = "8" targetNeuronName = "20" weight = "6.6902102730708854" />
    <synapse sourceNeuronName = "8" targetNeuronName = "21" weight = "13.526540285061811" />
    <synapse sourceNeuronName = "8" targetNeuronName = "22" weight = "13.090689471255068" />
    <synapse sourceNeuronName = "8" targetNeuronName = "23" weight = "0.4191122133633771" />
    <synapse sourceNeuronName = "8" targetNeuronName = "24" weight = "2.490392994363667" />
    <synapse sourceNeuronName = "8" targetNeuronName = "25" weight = "7.288741587070309" />
    <synapse sourceNeuronName = "8" targetNeuronName = "26" weight = "23.782781521125685" />
    <synapse sourceNeuronName = "8" targetNeuronName = "27" weight = "19.70269084312441" />
    <synapse sourceNeuronName = "8" targetNeuronName = "28" weight = "13.753827853318171" />
    <synapse sourceNeuronName = "8" targetNeuronName = "29" weight = "0.9738666600426003" />
    <synapse sourceNeuronName = "8" targetNeuronName = "30" weight = "5.248813885446861" />
    <synapse sourceNeuronName = "8" targetNeuronName = "31" weight = "22.190831941444618" />
    <synapse sourceNeuronName = "8" targetNeuronName = "32" weight = "22.216667244943014" />
    <synapse sourceNeuronName = "8" targetNeuronName = "33" weight = "18.685733679961515" />
    <synapse sourceNeuronName = "8" targetNeuronName = "34" weight = "16.36719806077098" />
    <synapse sourceNeuronName = "8" targetNeuronName = "35" weight = "13.074392915973947" />
    <synapse sourceNeuronName = "8" targetNeuronName = "36" weight = "13.951755535170703" />
    <synapse sourceNeuronName = "8" targetNeuronName = "37" weight = "23.494706496064364" />
    <synapse sourceNeuronName = "8" targetNeuronName = "38" weight = "6.7717132997422365" />
    <synapse sourceNeuronName = "9" targetNeuronName = "14" weight = "14.570106803244437" />
    <synapse sourceNeuronName = "9" targetNeuronName = "15" weight = "0.3458224089128361" />
    <synapse sourceNeuronName = "9" targetNeuronName = "16" weight = "7.027306776322304" />
    <synapse sourceNeuronName = "9" targetNeuronName = "17" weight = "10.616602699514269" />
    <synapse sourceNeuronName = "9" targetNeuronName = "18" weight = "4.959841042136427" />
    <synapse sourceNeuronName = "9" targetNeuronName = "19" weight = "0.22608339330086125" />
    <synapse sourceNeuronName = "9" targetNeuronName = "20" weight = "4.639931404365053" />
    <synapse sourceNeuronName = "9" targetNeuronName = "21" weight = "13.012600537682788" />
    <synapse sourceNeuronName = "9" targetNeuronName = "22" weight = "5.867949189580242" />
    <synapse sourceNeuronName = "9" targetNeuronName = "23" weight = "20.645362064683255" />
    <synapse sourceNeuronName = "9" targetNeuronName = "24" weight = "21.13080688086911" />
    <synapse sourceNeuronName = "9" targetNeuronName = "25" weight = "-0.38581389086269813" />
    <synapse sourceNeuronName = "9" targetNeuronName = "26" weight = "14.618414953768378" />
    <synapse sourceNeuronName = "9" targetNeuronName = "27" weight = "4.627569925561662" />
    <synapse sourceNeuronName = "9" targetNeuronName = "28" weight = "21.75735821481193" />
    <synapse sourceNeuronName = "9" targetNeuronName = "29" weight = "15.812420542224562" />
    <synapse sourceNeuronName = "9" targetNeuronName = "30" weight = "13.586543556305747" />
    <synapse sourceNeuronName = "9" targetNeuronName = "31" weight = "22.96630510439882" />
    <synapse sourceNeuronName = "9" targetNeuronName = "32" weight = "6.357868810678242" />
    <synapse sourceNeuronName = "9" targetNeuronName = "33" weight = "12.21901003041358" />
    <synapse sourceNeuronName = "9" targetNeuronName = "34" weight = "9.698883640813067" />
    <synapse sourceNeuronName = "9" targetNeuronName = "35" weight = "18.989417099735505" />
    <synapse sourceNeuronName = "9" targetNeuronName = "36" weight = "4.809479671168094" />
    <synapse sourceNeuronName = "9" targetNeuronName = "37" weight = "4.5413163209733804" />
    <synapse sourceNeuronName = "9" targetNeuronName = "38" weight = "17.46610114243223" />
    <synapse sourceNeuronName = "10" targetNeuronName = "14" weight = "15.103452705889225" />
    <synapse sourceNeuronName = "10" targetNeuronName = "15" weight = "16.548148357741034" />
    <synapse sourceNeuronName = "10" targetNeuronName = "16" weight = "20.55215079444621" />
    <synapse sourceNeuronName = "10" targetNeuronName = "17" weight = "16.25554281372069" />
    <synapse sourceNeuronName = "10" targetNeuronName = "18" weight = "13.61163877229676" />
    <synapse sourceNeuronName = "10" targetNeuronName = "19" weight = "9.554525797902139" />
    <synapse sourceNeuronName = "10" targetNeuronName = "20" weight = "17.16274912511268" />
    <synapse sourceNeuronName = "10" targetNeuronName = "21" weight = "10.915206634132971" />
    <synapse sourceNeuronName = "10" targetNeuronName = "22" weight = "23.152771868784022" />
    <synapse sourceNeuronName = "10" targetNeuronName = "23" weight = "18.50848153450249" />
    <synapse sourceNeuronName = "10" targetNeuronName = "24" weight = "21.68225410819887" />
    <synapse sourceNeuronName = "10" targetNeuronName = "25" weight = "22.009672424957923" />
    <synapse sourceNeuronName = "10" targetNeuronName = "26" weight = "2.6564200462973373" />
    <synapse sourceNeuronName = "10" targetNeuronName = "27" weight = "0.16261896590210423" />
    <synapse sourceNeuronName = "10" targetNeuronName = "28" weight = "16.085887736237414" />
    <synapse sourceNeuronName = "10" targetNeuronName = "29" weight = "17.6363383418336" />
    <synapse sourceNeuronName = "10" targetNeuronName = "30" weight = "18.37709527697794" />
    <synapse sourceNeuronName = "10" targetNeuronName = "31" weight = "15.70787915240194" />
    <synapse sourceNeuronName = "10" targetNeuronName = "32" weight = "1.127029122269708" />
    <synapse sourceNeuronName = "10" targetNeuronName = "33" weight = "8.416970474237385" />
    <synapse sourceNeuronName = "10" targetNeuronName = "34" weight = "13.591696526593365" />
    <synapse sourceNeuronName = "10" targetNeuronName = "35" weight = "2.713896682339182" />
    <synapse sourceNeuronName = "10" targetNeuronName = "36" weight = "17.486089744684634" />
    <synapse sourceNeuronName = "10" targetNeuronName = "37" weight = "1.8938199007442238" />
    <synapse sourceNeuronName = "10" targetNeuronName = "38" weight = "21.580824333743312" />
    <synapse sourceNeuronName = "11" targetNeuronName = "14" weight = "-0.627101513670821" />
    <synapse sourceNeuronName = "11" targetNeuronName = "15" weight = "0.6709268805107231" />
    <synapse sourceNeuronName = "11" targetNeuronName = "16" weight = "1.000476162259396" />
    <synapse sourceNeuronName = "11" targetNeuronName = "17" weight = "10.756080280922623" />
    <synapse sourceNeuronName = "11" targetNeuronName = "18" weight = "21.80221264168811" />
    <synapse sourceNeuronName = "11" targetNeuronName = "19" weight = "15.625184814430813" />
    <synapse sourceNeuronName = "11" targetNeuronName = "20" weight = "23.804496118957214" />
    <synapse sourceNeuronName = "11" targetNeuronName = "21" weight = "6.792848005469691" />
    <synapse sourceNeuronName = "11" targetNeuronName = "22" weight = "20.07356883887143" />
    <synapse sourceNeuronName = "11" targetNeuronName = "23" weight = "4.126071423661446" />
    <synapse sourceNeuronName = "11" targetNeuronName = "24" weight = "19.94707868984536" />
    <synapse sourceNeuronName = "11" targetNeuronName = "25" weight = "18.171586746548915" />
    <synapse sourceNeuronName = "11" targetNeuronName = "26" weight = "10.255684450866493" />
    <synapse sourceNeuronName = "11" targetNeuronName = "27" weight = "15.237513915226074" />
    <synapse sourceNeuronName = "11" targetNeuronName = "28" weight = "5.643152869877572" />
    <synapse sourceNeuronName = "11" targetNeuronName = "29" weight = "5.833003114507702" />
    <synapse sourceNeuronName = "11" targetNeuronName = "30" weight = "12.900445753203797" />
    <synapse sourceNeuronName = "11" targetNeuronName = "31" weight = "8.21970162268218" />
    <synapse sourceNeuronName = "11" targetNeuronName = "32" weight = "2.135245746038515" />
    <synapse sourceNeuronName = "11" targetNeuronName = "33" weight = "3.576964833822422" />
    <synapse sourceNeuronName = "11" targetNeuronName = "34" weight = "12.484205843995442" />
    <synapse sourceNeuronName = "11" targetNeuronName = "35" weight = "11.490795095756404" />
    <synapse sourceNeuronName = "11" targetNeuronName = "36" weight = "5.841276122158749" />
    <synapse sourceNeuronName = "11" targetNeuronName = "37" weight = "15.815679047440074" />
    <synapse sourceNeuronName = "11" targetNeuronName = "38" weight = "8.938246972395401" />
    <synapse sourceNeuronName = "12" targetNeuronName = "14" weight = "3.977395701723789" />
    <synapse sourceNeuronName = "12" targetNeuronName = "15" weight = "23.972245220699545" />
    <synapse sourceNeuronName = "12" targetNeuronName = "16" weight = "8.265421541149774" />
    <synapse sourceNeuronName = "12" targetNeuronName = "17" weight = "-0.2452655718538551" />
    <synapse sourceNeuronName = "12" targetNeuronName = "18" weight = "23.122421155872257" />
    <synapse sourceNeuronName = "12" targetNeuronName = "19" weight = "6.9328245079944795" />
    <synapse sourceNeuronName = "12" targetNeuronName = "20" weight = "9.67079577564775" />
    <synapse sourceNeuronName = "12" targetNeuronName = "21" weight = "10.820878818689124" />
    <synapse sourceNeuronName = "12" targetNeuronName = "22" weight = "5.814221656878941" />
    <synapse sourceNeuronName = "12" targetNeuronName = "23" weight = "3.7522104774311185" />
    <synapse sourceNeuronName = "12" targetNeuronName = "24" weight = "3.967133901985033" />
    <synapse sourceNeuronName = "12" targetNeuronName = "25" weight = "16.020149774911992" />
    <synapse sourceNeuronName = "12" targetNeuronName = "26" weight = "1.4189095928584092" />
    <synapse sourceNeuronName = "12" targetNeuronName = "27" weight = "21.596227624038377" />
    <synapse sourceNeuronName = "12" targetNeuronName = "28" weight = "15.465153715781717" />
    <synapse sourceNeuronName = "12" targetNeuronName = "29" weight = "-0.27817131723292166" />
    <synapse sourceNeuronName = "12" targetNeuronName = "30" weight = "6.3127585376815185" />
    <synapse sourceNeuronName = "12" targetNeuronName = "31" weight = "2.313957485165381" />
    <synapse sourceNeuronName = "12" targetNeuronName = "32" weight = "17.433693022655433" />
    <synapse sourceNeuronName = "12" targetNeuronName = "33" weight = "23.048674087026274" />
    <synapse sourceNeuronName = "12" targetNeuronName = "34" weight = "14.530288931188863" />
    <synapse sourceNeuronName = "12" targetNeuronName = "35" weight = "1.5304524248249525" />
    <synapse sourceNeuronName = "12" targetNeuronName = "36" weight = "18.051890414398994" />
    <synapse sourceNeuronName = "12" targetNeuronName = "37" weight = "17.798038821672048" />
    <synapse sourceNeuronName = "12" targetNeuronName = "38" weight = "5.749410220931273" />
    <synapse sourceNeuronName = "13" targetNeuronName = "14" weight = "15.739377005803874" />
    <synapse sourceNeuronName = "13" targetNeuronName = "15" weight = "12.078861775980656" />
    <synapse sourceNeuronName = "13" targetNeuronName = "16" weight = "9.891531690807712" />
    <synapse sourceNeuronName = "13" targetNeuronName = "17" weight = "0.40035501459481737" />
    <synapse sourceNeuronName = "13" targetNeuronName = "18" weight = "6.700416827435763" />
    <synapse sourceNeuronName = "13" targetNeuronName = "19" weight = "12.066185392210853" />
    <synapse sourceNeuronName = "13" targetNeuronName = "20" weight = "21.086676929962387" />
    <synapse sourceNeuronName = "13" targetNeuronName = "21" weight = "0.2603234350330894" />
    <synapse sourceNeuronName = "13" targetNeuronName = "22" weight = "-0.7579703082784264" />
    <synapse sourceNeuronName = "13" targetNeuronName = "23" weight = "13.807538137031415" />
    <synapse sourceNeuronName = "13" targetNeuronName = "24" weight = "19.951064132432386" />
    <synapse sourceNeuronName = "13" targetNeuronName = "25" weight = "18.446506572101544" />
    <synapse sourceNeuronName = "13" targetNeuronName = "26" weight = "16.63416909167478" />
    <synapse sourceNeuronName = "13" targetNeuronName = "27" weight = "12.551233468400367" />
    <synapse sourceNeuronName = "13" targetNeuronName = "28" weight = "10.570341978303281" />
    <synapse sourceNeuronName = "13" targetNeuronName = "29" weight = "3.5201527833442414" />
    <synapse sourceNeuronName = "13" targetNeuronName = "30" weight = "15.451615592476625" />
    <synapse sourceNeuronName = "13" targetNeuronName = "31" weight = "10.542057361648888" />
    <synapse sourceNeuronName = "13" targetNeuronName = "32" weight = "22.440430349855045" />
    <synapse sourceNeuronName = "13" targetNeuronName = "33" weight = "8.067070102228284" />
    <synapse sourceNeuronName = "13" targetNeuronName = "34" weight = "17.385242300233802" />
    <synapse sourceNeuronName = "13" targetNeuronName = "35" weight = "15.384764909455548" />
    <synapse sourceNeuronName = "13" targetNeuronName = "36" weight = "12.096857039171717" />
    <synapse sourceNeuronName = "13" targetNeuronName = "37" weight = "3.9818510303331784" />
    <synapse sourceNeuronName = "13" targetNeuronName = "38" weight = "1.4251388694753766" />
</neuralNetwork>